[[4.491779350010907, 2.952307200872962, 3.831824641683383, 4.353519035413867, 4.794848104517076, 3.9255841905216187, 4.760618656665496, 4.754984680491958, 4.435215882610364], [0, 0, 0, 0, 0, 0, 0, 0, 0], [-5.214871159282732, 1.4998109859534978, 1.1928252492105695, -0.610779073429071, 3.5650901534582653, 1.4521262272214908, 1.7738615664214277, 0.5754514895711339, 0.4144372850804994], [0, 0, 0, 0, 0, 0, 0, 0, 0], [0, 0, 0, 0, 0, 0, 0, 0, 0], [7.953032804429014, 8.675833600164651, 6.949095488645424, 19.797022329772446, 15.396082770516792, 3.5158703753568723, 11.94757050733938, 3.556730398869025, 10.244501070402503], [2.277764429513417, -6.894977922835471, 2.2782132281331426, 0.6847784393666227, 2.879246929069395, -1.0548256264850002, -1.7037184338406193, 2.2907826521511323, -1.069661179356431], [-6.137381329004951, -6.616838483789191, 0.7107628694607394, 2.7186864522535394, 3.4564145292580832, 2.552893953809266, 2.930740566363749, -0.6881242030482118, 2.947909134709336], [0, 0, 0, 0, 0, 0, 0, 0, 0], [0, 0, 0, 0, 0, 0, 0, 0, 0], [0, 0, 0, 0, 0, 0, 0, 0, 0], [11.468318318279575, 0.5418379011198693, 3.0213705064660115, 10.22396146134495, 8.530505912755197, 5.660129488353053, 13.54031599329589, 4.80831799974853, 18.014242053804587], [0, 0, 0, 0, 0, 0, 0, 0, 0], [0, 0, 0, 0, 0, 0, 0, 0, 0], [0, 0, 0, 0, 0, 0, 0, 0, 0], [0.010748124183947771, -7.147651337989451, -7.431267735042912, 1.9920609751027882, 3.3305962918704966, 1.7841937195092625, 1.8997360633809035, 2.1906828242366587, 3.214773440032335], [0, 0, 0, 0, 0, 0, 0, 0, 0], [-60.324777177735264, -1859.3644449950466, -345.7199798015447, -1255.4074691440933, 3.7842772496008092, 7.804273388566334, -17.97596609382248, 5.837308327456029, 3.383558651963511], [1.4132805061306897, 1.410541395285387, -7.1187610354523185, -0.9953378823882879, 3.871157282914087, 0.6334657857524165, 0.17994755233888582, 1.3954766087298935, 0.5557773161773644], [5.922085565400055, -0.9087681300635715, 7.6325950906498425, 5.962869592890994, 3.243299669296126, 10.67744953772879, 10.131111728545484, 8.157483285831248, 14.149796178162132], [0, 0, 0, 0, 0, 0, 0, 0, 0], [3.486294558346373, 8.04411374487009, 12.090348080745226, 5.076897892487969, 13.826581021215084, 9.270995287407391, 3.9539053306300698, 5.685633478776245, 20.120302150488794], [0, 0, 0, 0, 0, 0, 0, 0, 0], [-1280.0, -671.3384221926234, -657.5842665943768, -578.5634061847328, 3.241561090925658, -135.64589194528602, 0, 0, -1232.2062405053894], [0, 0, 0, 0, 0, 0, 0, 0, 0], [-391.64799054768366, -269.9931298789915, -1282.039215931404, 8.046653638992495, 5.653042458723741, 4.486227313939935, 6.0058636608012295, 4.130857782577792, -316.116677736445], [0, 0, 0, 0, 0, 0, 0, 0, 0], [0, 0, 0, 0, 0, 0, 0, 0, 0], [0, 0, 0, 0, 0, 0, 0, 0, 0], [-2.4144048819239075, 10.334185641325874, 14.162913755726816, 1.655414398210885, 10.212500762069434, 3.373014914918496, 5.72356046931087, 3.7657801959768253, 3.6308303962751536], [0, 0, 0, 0, 0, 0, 0, 0, 0], [0, 0, 0, 0, 0, 0, 0, 0, 0], [0, 0, 0, 0, 0, 0, 0, 0, 0], [9.390446948569725, 1.7400514527819224, 0.01933946705949996, -0.509165228308917, 8.63632250714751, 3.295630691062849, 5.542121895655608, -7.265327192110378, 4.385018658444304], [0, 0, 0, 0, 0, 0, 0, 0, 0], [-751.2844261475716, -75.10491912570183, -4.740010857512224, -220.36403060269427, -7.417534300209887, -3.10118079215559, -132.49359653735638, -20.36153012759888, -2.6081440332099812], [0, 0, 0, 0, 0, 0, 0, 0, 0], [0, 0, 0, 0, 0, 0, 0, 0, 0], [0, 0, 0, 0, 0, 0, 0, 0, 0], [0, 0, 0, 0, 0, 0, 0, 0, 0], [0, 0, 0, 0, 0, 0, 0, 0, 0], [0, 0, 0, 0, 0, 0, 0, 0, 0], [0, 0, 0, 0, 0, 0, 0, 0, 0], [0, 0, 0, 0, 0, 0, 0, 0, 0], [-760.1693888977137, -401.6066941213046, -75.37143467501653, -44.62638472321454, 21.55359161363354, 12.207672750352883, 12.679791051955545, -110.70723398041125, -196.54610856093572], [11.534498017829241, -6.128189945669534, 7.456304995157486, 7.710255771813912, 8.44931361057058, 6.666242089167307, 11.761621623751235, 8.49771422277977, 11.557673686791002], [0, 0, 0, 0, 0, 0, 0, 0, 0], [-8.53605427604927, -2.0981520067270436, -9.779805828943767, -15.459921374291984, -2.289437007764255, -16.983093567371345, -1.4941618699012653, -2.249824912322956, -2.421661777175288], [0, 0, 0, 0, 0, 0, 0, 0, 0], [0, 0, 0, 0, 0, 0, 0, 0, 0], [-10.618975402397266, 6.280271758407798, -130.23496401254755, -2.813587379721321, 10.283399782347088, 5.645053631801756, -106.73986149241362, 8.899872533332264, 11.316112016775847], [14.229196837095815, 0, 0, 0, 0, 0, 0, 0, 0], [-2286.8752467639715, -1797.9260654108025, -1870.592054352268, -3598.2032760203174, -219.20283152678917, -231.98872502893693, -286.1454339390809, -685.8441800813744, -1.965247444824859], [0, 0, 0, 0, 0, 0, 0, 0, 0], [2.295322943443344, 0.5429702023691491, 2.8335483599292557, -1.4442281713278153, 2.4102429059232566, 3.695737554044859, 2.2783817315932824, 0.805023569430785, -0.1785523822936971], [-7.268355770892319, 2.9012436910879176, 3.985820677935024, -4.450040629444786, 3.998271731654142, -0.5505529044182884, -0.006911835374966424, 1.173271481998545, 3.193324162703245], [0, 0, 0, 0, 0, 0, 0, 0, 0], [18.080503848925407, -3.6875335161924756, 8.236024013076161, -5.599184179640937, 8.575262832111889, 10.198428496507374, -14.111724227749848, 8.625900647307024, 4.547898300272096], [0, 0, 0, 0, 0, 0, 0, 0, 0], [-59.50405825605063, -36.821356884084636, -14.491895029813794, -451.81833558908113, -50.88307247659542, 0.9310391536696372, -11.802268691447956, -29.77499875037714, -15.321108136983824], [0, 0, 0, 0, 0, 0, 0, 0, 0], [-8.673322726274677, -7.392703411623116, 1.2392239000512602, -7.964219452321602, 3.4156530130550835, 1.680254028123249, -1.0515615379885233, 1.6980480635321011, -3.479605020129571], [0, 0, 0, 0, 0, 0, 0, 0, 0], [20.469174127799093, 13.567045330965293, 15.946171439818663, 14.274971598046376, 16.676733713771124, 8.46548637382014, 5.21986612524033, 4.8891377675288705, 4.3682724167751825], [0, 0, 0, 0, 0, 0, 0, 0, 0], [-0.2822517172132861, 2.3611272771756804, -1.0995751822195472, -2.7356389161472174, 1.7284696066932093, -4.289006725072024, 1.6619397524816764, -0.7541664664039299, 1.8962356042875461], [0, 0, 0, 0, 0, 0, 0, 0, 0], [0, 0, 0, 0, 0, 0, 0, 0, 0], [-620.4893005065641, -27.425590506209733, -153.04352127976784, -2629.2538229594675, 19.50128855312438, 17.879805014218995, 19.1864486905047, 17.43978261649512, 0], [-28.826986330156476, -519.8607704979763, -626.039251659692, -589.8754287384853, 4.719155569530308, -30.291660022935133, -256.3659032616432, 3.423604226636188, 11.547734415138777], [-3229.417223893057, -1494.032747369355, -1479.5457758106, -1512.9102841268598, 6.3444135182862755, 2.9532014097054073, 27.552454854520438, -185.45683995666323, 4.859325795263632], [0, 0, 0, 0, 0, 0, 0, 0, 0], [0, 0, 0, 0, 0, 0, 0, 0, 0], [-7.409000626008231, -7.479479626667207, -7.78897341690395, -7.830216549028021, 2.563225264725231, 1.4761228290941923, -5.778182296391405, -8.345646232652513, -6.678258982279148], [0, 0, 0, 0, 0, 0, 0, 0, 0], [-1043.9336532948528, -1280.0, -1280.0, -1280.0, 3.6683182603942925, -3.1792312654156674, -344.4723499497313, 0, -12.746677245681473], [-3254.4660735046527, -789.1781769881713, -1516.7309811349799, -1817.570700779476, 22.98910818292121, 20.91484249997039, -687.2344656562245, 15.774409155914904, 21.781579973463746], [0, 0, 0, 0, 0, 0, 0, 0, 0], [0, 0, 0, 0, 0, 0, 0, 0, 0], [0, 0, 0, 0, 0, 0, 0, 0, 0], [0, 0, 0, 0, 0, 0, 0, 0, 0], [0, 0, 0, 0, 0, 0, 0, 0, 0], [0, 0, 0, 0, 0, 0, 0, 0, 0], [-1.1234410551403822, 2.8676890319126707, 3.0030634664224998, 2.673153018511375, -0.02175609479769447, 2.877059929354501, 6.799892704884369, 2.984921009379624, 2.9638126267605847], [0, 0, 0, 0, 0, 0, 0, 0, 0], [0, 0, 0, 0, 0, 0, 0, 0, 0], [0, 0, 0, 0, 0, 0, 0, 0, 0], [3.1808084864813333, -5.423973088013546, 3.103895958506901, 2.898802976689916, -1.9118720362429575, 2.9179639485930595, 2.8072824922439557, 0.7008079826477751, 3.0341587062169326], [0, 0, 0, 0, 0, 0, 0, 0, 0], [-8.269352362265018, -7.64181881774349, 2.347431311809615, -0.738125257624999, -4.714705647211125, -2.7332858757849308, -4.6541028860435185, -3.543011101552022, -2.9093238912718573], [0, 0, 0, 0, 0, 0, 0, 0, 0], [0, 0, 0, 0, 0, 0, 0, 0, 0], [0, 0, 0, 0, 0, 0, 0, 0, 0], [0, 0, 0, 0, 0, 0, 0, 0, 0], [0, 0, 0, 0, 0, 0, 0, 0, 0], [0, 0, 0, 0, 0, 0, 0, 0, 0], [0, 0, 0, 0, 0, 0, 0, 0, 0], [0, 0, 0, 0, 0, 0, 0, 0, 0], [-7.314347171312985, -7.241664943047855, -6.0902712947765885, 1.1725941333514767, -7.2283033858916985, -2.717242960415097, 3.180497816083063, -3.931524838295351, -2.4909198595433586], [2.9298730706499176, 3.0043610960374814, -6.032179519428803, 2.917286073493483, -6.4902498482145825, 2.9386122736237503, 2.809724082238568, 2.9680225848372412, 5.837552414182161], [0, 0, 0, 0, 0, 0, 0, 0, 0], [-6.034879131134988, 2.4277337310899396, -6.500456580849251, -2.137242682138867, -6.454404497771135, -1.257441524046268, -1.9207924764694082, -3.466446517448265, -2.298638462195366], [0, 0, 0, 0, 0, 0, 0, 0, 0], [0, 0, 0, 0, 0, 0, 0, 0, 0], [-7.411945094418991, -4.112262972725507, -6.388078349787618, 1.0439812149773235, -5.278757002748767, -1.517109675596715, -1.1567258435119019, 3.3097658078152854, 0.4307517806914605], [2.924036111238534, -7.990675524715101, -6.8705111269822545, -3.231061425271963, -6.359302949303984, -2.145850545764879, -0.8950472803119036, -2.5808052785839397, -2.499593985853241], [-2.842420648849615, -4.702643372715274, -5.086819071101235, 0.7314537671527002, -5.679981363639801, 2.2530646693802354, -1.5442807491594934, -1.692739288995126, 3.2484986887493923], [0, 0, 0, 0, 0, 0, 0, 0, 0], [0, 0, 0, 0, 0, 0, 0, 0, 0], [0, 0, 0, 0, 0, 0, 0, 0, 0], [0, 0, 0, 0, 0, 0, 0, 0, 0], [0, 0, 0, 0, 0, 0, 0, 0, 0], [0, 0, 0, 0, 0, 0, 0, 0, 0], [0, 0, 0, 0, 0, 0, 0, 0, 0], [0, 0, 0, 0, 0, 0, 0, 0, 0], [0, 0, 0, 0, 0, 0, 0, 0, 0], [-1893.4636612620038, -350.69751108193, 16.52182597118387, -1522.0361984903593, -221.00502225872907, 5.071922520185263, -48.51962677952687, -207.1048250743562, -79.98405937552917], [0, 0, 0, 0, 0, 0, 0, 0, 0], [0, 0, 0, 0, 0, 0, 0, 0, 0], [0, 0, 0, 0, 0, 0, 0, 0, 0], [0, 0, 0, 0, 0, 0, 0, 0, 0], [0, 0, 0, 0, 0, 0, 0, 0, 0], [0, 0, 0, 0, 0, 0, 0, 0, 0], [0, 0, 0, 0, 0, 0, 0, 0, 0], [0, 0, 0, 0, 0, 0, 0, 0, 0], [0, 0, 0, 0, 0, 0, 0, 0, 0], [0, 0, 0, 0, 0, 0, 0, 0, 0], [0, 0, 0, 0, 0, 0, 0, 0, 0], [-431.2199792824927, 10.031467361244665, -25.955908356872524, -508.6089833987385, -1637.0103192523318, 6.6874561992083486, -687.8669984902285, 2.290733252781332, -30.522813400327106], [0, 0, 0, 0, 0, 0, 0, 0, 0], [0, 0, 0, 0, 0, 0, 0, 0, 0], [0, 0, 0, 0, 0, 0, 0, 0, 0], [7.011875720938913, -1053.2095520448422, -1656.5192428635044, -795.6312029965185, -774.9128514322737, 7.4020586555207215, -211.59534954903464, -341.6614048741447, -1002.4781143389183], [0, 0, 0, 0, 0, 0, 0, 0, 0], [0, 0, 0, 0, 0, 0, 0, 0, 0], [2.91925243992102, 2.9458187043159842, 2.886448839358886, -3.785573770050904, -3.617297071850275, 2.382690340039519, 2.725601793941893, 5.923460711542331, 2.921008120789136], [0, 0, 0, 0, 0, 0, 0, 0, 0], [-6.327473771969448, -3.567815099233627, -3.0516489519643937, -7.119490810961874, -6.173087532672275, -1.0770917952748649, 3.897823624972581, -3.5267126157513573, -0.10800317974966178], [0, 0, 0, 0, 0, 0, 0, 0, 0], [0, 0, 0, 0, 0, 0, 0, 0, 0], [-57.18544649873649, -767.5698551058358, -38.58317163129525, -526.8111224488259, -92.40419903633237, -85.76439180506387, 9.149020720494459, 5.012781120405178, -570.9679700909112], [3.284639709076043, -6.909776969463503, 1.8423806183310494, -6.451773395246739, -9.47667611767239, -5.012426733000199, 1.8229806158823614, -3.6585099584814262, -4.556327978718334], [-6.386711420212247, -9.416683075983542, -4.763170872738176, -9.4600664800301, -8.6665255027379, -2.047105692829859, -10.94936871010223, -2.0934828448110583, 3.2020394510817534], [0, 0, 0, 0, 0, 0, 0, 0, 0], [0, 0, 0, 0, 0, 0, 0, 0, 0], [0, 0, 0, 0, 0, 0, 0, 0, 0], [-1285.130663857656, -184.79842528607406, -3152.5131289450364, -501.7500751146727, -1097.0844117924821, -206.39302223296707, 19.871543362107285, 17.850120939932808, -115.15251973476465], [0, 0, 0, 0, 0, 0, 0, 0, 0], [0, 0, 0, 0, 0, 0, 0, 0, 0], [0, 0, 0, 0, 0, 0, 0, 0, 0], [-9.407755748643835, -21.993167641669796, -19.616361989740405, -25.647786642024947, -8.990371600525425, -9.525531309057245, 6.161243673341094, -15.25044291445025, -8.415908778160539], [0, 0, 0, 0, 0, 0, 0, 0, 0], [-531.0218672806287, -533.0474273887977, -941.4740099380955, -661.8221061604984, -655.4140980051866, -2313.785897298004, 11.967491200359149, -1095.2309185486383, -39.49789090218687], [2.917447475041687, 3.0504659161772216, -5.713146345070459, -3.450372549315841, -6.472005008434175, -0.7257918017163307, 2.760277678756661, 2.6174597465797467, 1.0527291859859038], [-8.43972951014053, -2.763459185595869, 1.0043853596484866, -8.767098200322694, -6.148992787941015, -3.5399690479588175, -0.048974659696961756, 2.694018385831015, 3.74368672700876], [0, 0, 0, 0, 0, 0, 0, 0, 0], [-5.819528945432486, -7.247655659593937, -7.61120336398787, -7.508554370934441, -7.0614755888514535, 0.7380459728032465, -0.8196111071633754, 2.9295694700277393, -1.5813829281489489], [0, 0, 0, 0, 0, 0, 0, 0, 0], [-955.6454213417697, -788.6103680533985, -1435.1740779346983, -1046.2882332096997, -1437.111935442729, -1110.4860935719537, 4.075418752097363, 9.363252712555513, -191.82237206045716], [0, 0, 0, 0, 0, 0, 0, 0, 0], [-416.3055720451718, -1255.0078806405154, -264.92807322966695, -286.1147537366326, -247.82176211418303, 5.3352736684363835, 4.241783755395106, 5.417759446998895, 8.014466467808692], [0, 0, 0, 0, 0, 0, 0, 0, 0], [3.027434990223219, 1.2385546502097307, 3.284966586953077, 0.4444083313871503, -2.2030396217346695, 1.7829058485440847, 3.1062302309250485, 3.130387017027244, 2.650399724767742], [-4.770319389521845, 8.803799739321665, 2.888274720937528, 3.0640629965760775, -3.1055485685537816, 2.8803827974972505, 2.924495135283678, 2.969338952791942, 3.0432037506404264], [0, 0, 0, 0, 0, 0, 0, 0, 0], [12.155349594140555, 6.148915481249835, 12.564610796919556, 10.54176641212236, 8.606653676006118, 10.652080520710994, 10.907979277882006, 3.498611010493067, 15.611364608111199], [0, 0, 0, 0, 0, 0, 0, 0, 0], [-15.595591247996602, -291.58537315136493, -27.79968997190647, -2.4146001038052103, -37.975667585330356, -1.5037528736835268, -4.101388308709317, -11.09774720673909, 5.989762405136446], [0, 0, 0, 0, 0, 0, 0, 0, 0], [-17.51920406537169, -9.882441872841348, -3.2803713996454253, -2.1958929921800716, -8.316300242593504, 1.377157461067623, -2.3217654381865245, 5.574151120032454, -2.1696307777514523], [0, 0, 0, 0, 0, 0, 0, 0, 0], [4.531724685792621, 3.3350717919897273, 0.08284304961405375, 4.611938620534322, -3.2437533382032884, 2.982808528763589, 2.9681979765796447, 2.526891304699199, 4.605030745792156], [0, 0, 0, 0, 0, 0, 0, 0, 0], [-18.100627225460745, -2.751050498755747, -5.028937472489685, -5.233476031048817, -7.781845431094378, -1.0967885940905644, -4.076586869029438, 1.2339099672519223, 3.0867841788557078], [0, 0, 0, 0, 0, 0, 0, 0, 0], [0, 0, 0, 0, 0, 0, 0, 0, 0], [-910.6332139257481, -453.1232621038701, -121.92316471436175, 18.279779770187773, -269.6113253360247, 17.097652835148896, 16.786361825655717, 11.346611579886515, 15.944904254949126], [-3.2838510179319753, -7.466654045331085, -8.063848826022449, -6.219410225494189, -5.975817078894505, -3.4228300143558767, -2.3287387163441275, 2.3839497798233924, -3.458951244190411], [-619.3741176026646, -208.12498494191777, -1026.634700837016, 7.13464969114846, -1982.0522698247596, 7.030315636135783, 5.496134247362405, 6.858957415935602, 6.125115213300865], [0, 0, 0, 0, 0, 0, 0, 0, 0], [0, 0, 0, 0, 0, 0, 0, 0, 0], [-8.803372746548789, -1.3473785706604375, -9.771077065018964, -2.6782383372397134, -11.58078640199148, 1.0605636708306903, 2.2321090600152997, -4.120154969367086, -2.4292727465028046], [0, 0, 0, 0, 0, 0, 0, 0, 0], [-9.470431170906028, -12.325093898466095, -64.20609879002974, -36.66309781721602, -72.5571660899021, -6.3514174734755215, 1.242487766175513, -39.46940320755282, -6.711534902618229], [-1473.4571375460082, -733.7759875319648, -1526.2119496776754, 16.53917395455845, -296.838320802747, 22.65077093831978, 17.991202806775142, 14.835798183293832, 17.00920169230585], [0, 0, 0, 0, 0, 0, 0, 0, 0], [0, 0, 0, 0, 0, 0, 0, 0, 0], [0, 0, 0, 0, 0, 0, 0, 0, 0], [0, 0, 0, 0, 0, 0, 0, 0, 0], [17.43706707769774, 9.721088057149997, 8.85268141731234, 7.04216660223914, 7.051905589580982, 3.8954025916434327, 9.124957986424004, 10.247998451281413, 11.2541704803064], [0, 0, 0, 0, 0, 0, 0, 0, 0], [-25.217812727804954, -8.18680875051947, -15.622644089376491, -32.1171483594457, -37.69219782639762, -8.01776678710549, -8.516759988025845, 4.431259572179002, -2.6631863308187897], [0, 0, 0, 0, 0, 0, 0, 0, 0], [0, 0, 0, 0, 0, 0, 0, 0, 0], [2.455124015470209, 4.060305325861964, 15.365576941707399, -2.3299376696989658, 8.778288003499377, 6.591493852943257, 15.101044658918804, 5.081460199179498, 12.695105197411486], [-18.599206290585276, -143.4586197944638, -4.184011976552579, -22.57065138738363, -9.810315520844451, -31.146623648095044, -9.730046214646197, -0.20416679018278894, -4.9676409001702115], [-2890.0669286514217, -1103.4242345898217, -2787.0241150885877, -6.876788094359345, -136.48855370646248, -367.6960895273873, 9.384013969434342, 7.204062087135986, -957.1874173152326], [0, 0, 0, 0, 0, 0, 0, 0, 0], [0, 0, 0, 0, 0, 0, 0, 0, 0], [0, 0, 0, 0, 0, 0, 0, 0, 0], [-3273.949050917768, 16.807746959614335, -1134.7781008247246, -1164.8067972715803, -230.22569574467255, 21.09400207545103, 17.334621901848973, 17.01274410870274, 22.523741021912855], [0, 0, 0, 0, 0, 0, 0, 0, 0], [0, 0, 0, 0, 0, 0, 0, 0, 0], [0, 0, 0, 0, 0, 0, 0, 0, 0], [41.41463378569506, -1604.1661545029342, -1693.3014056778807, -769.1618997728209, -1640.4979743787367, 11.043705541270942, 10.556615730395682, 11.380224539302777, 11.908671974907028], [0, 0, 0, 0, 0, 0, 0, 0, 0], [-586.902578141875, -412.9018579787978, -169.49720356237665, -566.0248035038439, -2095.331476894283, -743.603947205176, -3.6093901761084717, -15.7294720225342, -754.809415461211], [-5.894811275390935, -282.7183735800077, -951.4316122811302, -682.3666785416392, -173.87939489528105, -985.7704726916827, 18.695582054679196, -139.79539118776114, -81.49866642395882], [-1697.4525471908073, -453.8128118640725, -1398.1039075820174, -786.2298580555431, -2938.1562169336958, -3107.834551714632, 25.938438355874116, -2721.010194100245, -26.04070724143819], [0, 0, 0, 0, 0, 0, 0, 0, 0], [40.43837555043433, -580.3165808577248, 30.882840772922222, -2101.0165926226373, -1343.7248297065175, 60.30000851817718, 58.00734102758086, 65.15967309005879, 60.76714279408799], [0, 0, 0, 0, 0, 0, 0, 0, 0], [-123.87205294282155, -72.07468588991006, -788.6769171922922, -15.723657965786945, -193.68183554392243, -6.995331326471079, -18.69770503317665, -3.292466703596238, 14.597910240144298], [0, 0, 0, 0, 0, 0, 0, 0, 0], [-2560.0, -2560.0, -2560.0, -2560.0, -2560.0, -2310.866406797175, 40.8107079925496, 0, -2356.8063085221474], [0, 0, 0, 0, 0, 0, 0, 0, 0], [0, 0, 0, 0, 0, 0, 0, 0, 0], [-7.5207998839992065, -1.4539882457269337, -4.716394199225283, -9.49243360068399, -13.053938482145607, 2.4400525090287024, -3.105726182631257, 0.8186101355801674, -2.073142065799754], [0, 0, 0, 0, 0, 0, 0, 0, 0], [-8.751789234560059, -50.04097613809563, -22.44348841393414, -144.56896250809973, -350.37171735002653, -0.637544215143235, -423.5592522130002, -387.17408960121503, -108.43293634258956], [-1082.9625063722397, -2239.5918267792285, 9.722490986757334, -1606.7134283403445, -1643.267477270169, 7.91531158885358, -38.4471533092916, -92.47614247581632, -186.9082422771678], [0, 0, 0, 0, 0, 0, 0, 0, 0], [0, 0, 0, 0, 0, 0, 0, 0, 0], [0, 0, 0, 0, 0, 0, 0, 0, 0], [0, 0, 0, 0, 0, 0, 0, 0, 0], [2.798161311873395, -3.8485822643411614, -16.66128397288304, -9.76526259971778, -16.664759663662437, 4.209833467887773, -7.715801849874314, 0.7128651059237098, -8.452470486016608], [-794.9775559242142, 6.5237569947417136, -384.00796887082004, -307.1421343590981, -851.6411263911534, 19.33272190808934, -894.3200328251829, -135.24996763092076, -34.283302994919666], [0, 0, 0, 0, 0, 0, 0, 0, 0], [14.465741723987824, -2364.435617837755, -1394.087063153071, -2689.0005082664857, -2420.041503800727, 13.614295949777805, -2240.3494385264326, -219.30489963002796, -2122.518045351467], [0, 0, 0, 0, 0, 0, 0, 0, 0], [-632.0468415374534, -2000.4292269226069, -394.3437087441008, -2496.0, -2165.956639012942, 5.450266398232732, -904.1219362718571, -9.194949698517, -633.5761040807769], [0, 0, 0, 0, 0, 0, 0, 0, 0], [-1607.8272895372543, -2618.067268720989, -610.6991070024613, -218.72583193691582, -590.2024541133405, -3157.137613251919, -936.8459048067498, -49.078075493232106, 1.0123790156002093], [0, 0, 0, 0, 0, 0, 0, 0, 0], [0, 0, 0, 0, 0, 0, 0, 0, 0], [0, 0, 0, 0, 0, 0, 0, 0, 0], [0, 0, 0, 0, 0, 0, 0, 0, 0], [0, 0, 0, 0, 0, 0, 0, 0, 0], [-1339.814417137442, -2560.0, -3323.156479965086, -1186.7828721001354, -961.2141604949122, -693.5845682655254, 9.348616623474378, -382.70505971323723, -785.0860977755164], [0, 0, 0, 0, 0, 0, 0, 0, 0], [0, 0, 0, 0, 0, 0, 0, 0, 0], [0, 0, 0, 0, 0, 0, 0, 0, 0], [0, 0, 0, 0, 0, 0, 0, 0, 0], [0, 0, 0, 0, 0, 0, 0, 0, 0], [0, 0, 0, 0, 0, 0, 0, 0, 0], [4.938848897575605, -1.383092929824997, 18.61446238968478, 3.276303158288698, 9.362687486461834, 4.509027040824251, 9.674886351600332, 4.125407213385609, 5.910112868259853], [0, 0, 0, 0, 0, 0, 0, 0, 0], [0, 0, 0, 0, 0, 0, 0, 0, 0], [0, 0, 0, 0, 0, 0, 0, 0, 0], [-1.6962339168252072, -4.64346815076266, 13.571499468048678, 6.522481607810351, 9.681968665245027, 6.887883299100604, 4.808605250165625, 4.724025741569058, 2.8798674086310463], [0, 0, 0, 0, 0, 0, 0, 0, 0], [-2560.0, -1276.3815571967552, 7.457119829295441, -1004.5894750370379, 0, 4.92632215927291, 0, -3.916168237879805, 0], [0, 0, 0, 0, 0, 0, 0, 0, 0], [0, 0, 0, 0, 0, 0, 0, 0, 0], [0, 0, 0, 0, 0, 0, 0, 0, 0], [0, 0, 0, 0, 0, 0, 0, 0, 0], [0, 0, 0, 0, 0, 0, 0, 0, 0], [0, 0, 0, 0, 0, 0, 0, 0, 0], [0, 0, 0, 0, 0, 0, 0, 0, 0], [0, 0, 0, 0, 0, 0, 0, 0, 0], [-631.3420367692843, -7070.134132824076, -3073.8201812055127, -721.9936346716099, -821.3783061375857, -2205.8134827300214, -286.8105829191921, -415.9776935145152, 0.12010313208100266], [14.358170136419666, 14.630025224078587, 6.78212130027781, 3.8645440541939977, 14.005311242602565, 12.04146947723483, 3.296263100481226, 13.002338679381866, 15.140513091152384], [0, 0, 0, 0, 0, 0, 0, 0, 0], [-23.381172237874914, -0.3157827331143442, -117.17875624269483, -26.361380648402733, -2.16329186408219, -156.37860388326854, -1.8704452462540595, -18.94180060740501, -4.1309908852764385], [0, 0, 0, 0, 0, 0, 0, 0, 0], [0, 0, 0, 0, 0, 0, 0, 0, 0], [1.9704570184265635, -209.97162017690405, 3.551857704311722, 5.823145648788168, 29.837465864683644, -3.7899606430529396, 12.190381441177816, 8.90591378221828, -14.795811961536575], [-24.4511672474325, -7.340181043722535, -17.861085774575102, -1.7226173253534354, -2.0959813911921037, -3.331226109737106, -1.8421244260371465, -21.389183748922953, 1.3760218708937817], [-3695.175658874594, -3729.737258670769, -4622.8238873880855, 15.908464741021852, 23.13041803953891, -2443.9372500718105, 0.0, -1303.6937610689376, -2284.9066510879816], [0, 0, 0, 0, 0, 0, 0, 0, 0], [0, 0, 0, 0, 0, 0, 0, 0, 0], [0, 0, 0, 0, 0, 0, 0, 0, 0], [0, 0, 0, 0, 0, 0, 0, 0, 0], [0, 0, 0, 0, 0, 0, 0, 0, 0], [0, 0, 0, 0, 0, 0, 0, 0, 0], [0, 0, 0, 0, 0, 0, 0, 0, 0], [0, 0, 0, 0, 0, 0, 0, 0, 0], [0, 0, 0, 0, 0, 0, 0, 0, 0], [-1919.9525235141664, -2519.3265743926986, 9.815697962195694, 0, 0, -1151.0804646677077, 0, 0, -1693.9624008696935], [0, 0, 0, 0, 0, 0, 0, 0, 0], [0, 0, 0, 0, 0, 0, 0, 0, 0], [0, 0, 0, 0, 0, 0, 0, 0, 0], [0, 0, 0, 0, 0, 0, 0, 0, 0], [0, 0, 0, 0, 0, 0, 0, 0, 0], [0, 0, 0, 0, 0, 0, 0, 0, 0], [0, 0, 0, 0, 0, 0, 0, 0, 0], [0, 0, 0, 0, 0, 0, 0, 0, 0], [0, 0, 0, 0, 0, 0, 0, 0, 0], [0, 0, 0, 0, 0, 0, 0, 0, 0], [0, 0, 0, 0, 0, 0, 0, 0, 0], [-2453.2577377501834, 77.71424669599449, -1235.9615944835161, -1236.6167442366398, 60.68860443198061, -485.05380407071743, 0, -2109.5451122847207, -2034.3269942690754], [0, 0, 0, 0, 0, 0, 0, 0, 0], [0, 0, 0, 0, 0, 0, 0, 0, 0], [0, 0, 0, 0, 0, 0, 0, 0, 0], [12.099008818971718, 10.020791176930082, 9.815217103477096, 12.352459924021764, 14.131276408213047, 0, 9.010699740555598, 5.791262589165822, -1.5623826523191733], [0, 0, 0, 0, 0, 0, 0, 0, 0], [0, 0, 0, 0, 0, 0, 0, 0, 0], [4.1956227410547005, 2.2507124059219796, 4.207683378261135, -3.2163573368903746, 4.487021979754015, -5.2898951296823125, 3.0646590269068765, 4.2573621155271635, 4.328314035512084], [0, 0, 0, 0, 0, 0, 0, 0, 0], [-8.143844031594384, -4.23288207257619, -6.539443623127863, -6.730400217819742, -2.0567810619912272, -7.5873110103122325, 3.824685960113465, -3.267917073517702, -2.5192040617368763], [0, 0, 0, 0, 0, 0, 0, 0, 0], [0, 0, 0, 0, 0, 0, 0, 0, 0], [-7.701528707170574, -105.10606239963897, 5.486515190682178, -23.9569529492641, 18.228630020557702, -146.05633822421728, 8.773160910575333, 4.34619033268, 8.025670203094446], [1.689495234242022, -13.136982955500963, -3.385763641221697, -17.72445360366933, -5.823650066562768, -15.774763717219468, 1.713027581412958, -4.826498792195124, -1.6519466129566593], [-6.978733395383951, -4.149165715134267, 2.1928743297630757, -4.240676607371661, 2.2555460695101335, -15.678711330895636, -5.015830664632798, 2.0742456083538454, 2.255756757145679], [0, 0, 0, 0, 0, 0, 0, 0, 0], [0, 0, 0, 0, 0, 0, 0, 0, 0], [0, 0, 0, 0, 0, 0, 0, 0, 0], [-712.3347543990994, -1272.2651873876566, -1359.4370401987949, -1393.7760582570495, -3.824049762604009, -1591.3894942485986, 12.72229883921548, -200.17730249114692, 18.587856472435334], [0, 0, 0, 0, 0, 0, 0, 0, 0], [0, 0, 0, 0, 0, 0, 0, 0, 0], [0, 0, 0, 0, 0, 0, 0, 0, 0], [-2493.7010104111514, -1555.462571054108, -3513.2698004362956, -2560.0, -502.5600329935794, -1956.9209641751177, -2819.415277241524, -867.1867393394145, 11.457394154391633], [0, 0, 0, 0, 0, 0, 0, 0, 0], [-40.0, -40.0, -40.0, -40.0, -29.948984927986334, -10.0, 6.462773216914781, 0, 0], [3.277834646689053, -1.4728013377644515, -8.883484160000176, -11.879416440878492, -3.959593721653508, -7.8658812790199555, 3.3826412219251174, -3.6191399372389563, -6.6194223818148155], [-17.155530154375946, 2.0894460172123974, -17.07910866114954, -7.857046703057561, 1.980912260069306, -15.04916026850833, 2.0759431158669828, 2.0677731459852224, 27.10150058724632], [0, 0, 0, 0, 0, 0, 0, 0, 0], [19.025652866196804, -3562.733927789477, -1130.1173572299174, -3523.554036409324, 21.05463947026917, -4132.4308440079985, 18.831713526612155, 23.522842910719106, 27.260890396485536], [0, 0, 0, 0, 0, 0, 0, 0, 0], [-2560.0, -1298.1376759613618, -1337.915842426804, -2560.0, -2056.5802720781735, -2560.0, 6.6346413795816215, 0, 0], [0, 0, 0, 0, 0, 0, 0, 0, 0], [-18.062058457826083, -8.077008567259572, -11.466827190674596, -12.232133212581418, 1.6276689165196763, -23.990939859233166, 1.6247495872200797, 1.9762149602627668, -9.570979821178405], [0, 0, 0, 0, 0, 0, 0, 0, 0], [0, 0, 0, 0, 0, 0, 0, 0, 0], [0, 0, 0, 0, 0, 0, 0, 0, 0], [0, 0, 0, 0, 0, 0, 0, 0, 0], [0, 0, 0, 0, 0, 0, 0, 0, 0], [0, 0, 0, 0, 0, 0, 0, 0, 0], [0, 0, 0, 0, 0, 0, 0, 0, 0], [0, 0, 0, 0, 0, 0, 0, 0, 0], [0, 0, 0, 0, 0, 0, 0, 0, 0], [-321.513949389331, -1540.2764680369248, 7.523100403751372, 6.343661634372312, -3235.192968742685, -599.4938881519987, -174.96124495091098, -1405.5675431839736, -317.1715039900546], [0, 0, 0, 0, 0, 0, 0, 0, 0], [0, 0, 0, 0, 0, 0, 0, 0, 0], [0, 0, 0, 0, 0, 0, 0, 0, 0], [0, 0, 0, 0, 0, 0, 0, 0, 0], [0, 0, 0, 0, 0, 0, 0, 0, 0], [0, 0, 0, 0, 0, 0, 0, 0, 0], [0, 0, 0, 0, 0, 0, 0, 0, 0], [0, 0, 0, 0, 0, 0, 0, 0, 0], [0, 0, 0, 0, 0, 0, 0, 0, 0], [0, 0, 0, 0, 0, 0, 0, 0, 0], [0, 0, 0, 0, 0, 0, 0, 0, 0], [-599.5651335814763, 7.034934567413535, -3206.2325155975386, 10.38931435407782, -126.61804039897424, -466.1846675003166, 1.0814202036605645, -2171.981605086504, -189.87834621323384], [0, 0, 0, 0, 0, 0, 0, 0, 0], [0, 0, 0, 0, 0, 0, 0, 0, 0], [0, 0, 0, 0, 0, 0, 0, 0, 0], [11.213514226739644, -847.2583490557907, -219.1496303938973, 4.644503602267399, -860.5954684704111, -147.89100777049293, -1245.4230706448986, -19.31893005307284, -1212.5318714405394], [0, 0, 0, 0, 0, 0, 0, 0, 0], [0, 0, 0, 0, 0, 0, 0, 0, 0], [0, 0, 0, 0, 0, 0, 0, 0, 0], [0, 0, 0, 0, 0, 0, 0, 0, 0], [0, 0, 0, 0, 0, 0, 0, 0, 0], [0, 0, 0, 0, 0, 0, 0, 0, 0], [0, 0, 0, 0, 0, 0, 0, 0, 0], [0, 0, 0, 0, 0, 0, 0, 0, 0], [0, 0, 0, 0, 0, 0, 0, 0, 0], [0, 0, 0, 0, 0, 0, 0, 0, 0], [0, 0, 0, 0, 0, 0, 0, 0, 0], [0, 0, 0, 0, 0, 0, 0, 0, 0], [0, 0, 0, 0, 0, 0, 0, 0, 0], [0, 0, 0, 0, 0, 0, 0, 0, 0], [0, 0, 0, 0, 0, 0, 0, 0, 0], [0, 0, 0, 0, 0, 0, 0, 0, 0], [0, 0, 0, 0, 0, 0, 0, 0, 0], [0, 0, 0, 0, 0, 0, 0, 0, 0], [0, 0, 0, 0, 0, 0, 0, 0, 0], [0, 0, 0, 0, 0, 0, 0, 0, 0], [0, 0, 0, 0, 0, 0, 0, 0, 0], [0, 0, 0, 0, 0, 0, 0, 0, 0], [0, 0, 0, 0, 0, 0, 0, 0, 0], [0, 0, 0, 0, 0, 0, 0, 0, 0], [0, 0, 0, 0, 0, 0, 0, 0, 0], [0, 0, 0, 0, 0, 0, 0, 0, 0], [0, 0, 0, 0, 0, 0, 0, 0, 0], [0, 0, 0, 0, 0, 0, 0, 0, 0], [0, 0, 0, 0, 0, 0, 0, 0, 0], [0, 0, 0, 0, 0, 0, 0, 0, 0], [0, 0, 0, 0, 0, 0, 0, 0, 0], [-3134.889550742757, 7.893389219093183, 9.855548970826082, -826.1758206694044, -949.077753467217, -802.1118976448562, 8.310901498747032, 9.3037908118405, 6.829149867252179], [0, 0, 0, 0, 0, 0, 0, 0, 0], [0, 0, 0, 0, 0, 0, 0, 0, 0], [0, 0, 0, 0, 0, 0, 0, 0, 0], [6.813847441154492, -3205.567673187498, 9.298499728827641, -3257.8484393935805, -1651.6189208539902, -1486.0583923135423, 7.397963260988484, -436.18077492376017, 9.58637811512778], [0, 0, 0, 0, 0, 0, 0, 0, 0], [-1059.221787466386, -3583.2723692591353, 2.076390361713154, -869.8685882232362, -2891.885986550142, -1307.806661969676, -110.9406862312012, -288.29421376417577, -148.56427340596633], [0, 0, 0, 0, 0, 0, 0, 0, 0], [0, 0, 0, 0, 0, 0, 0, 0, 0], [0, 0, 0, 0, 0, 0, 0, 0, 0], [0, 0, 0, 0, 0, 0, 0, 0, 0], [0, 0, 0, 0, 0, 0, 0, 0, 0], [0, 0, 0, 0, 0, 0, 0, 0, 0], [0, 0, 0, 0, 0, 0, 0, 0, 0], [0, 0, 0, 0, 0, 0, 0, 0, 0], [-1629.207733446989, -1482.8520558548298, -1140.5246372195304, -529.484462637906, -2224.3293312340666, -792.2419558540818, 13.937722308421382, -47.59663790157039, -113.33397586433435], [7.612431810107549, 5.026298559387921, -1009.872970929806, -856.5744840075549, -535.667659377285, -3374.1804282064977, 4.565601839128918, 6.922597423697176, 6.265208075783409], [0, 0, 0, 0, 0, 0, 0, 0, 0], [-1503.94574922402, -153.79647928121264, -211.97962836606814, -310.54097089322346, -1358.8596766261617, -347.5247947037085, -126.18489932516849, 5.244722894936111, -48.72694328426294], [0, 0, 0, 0, 0, 0, 0, 0, 0], [0, 0, 0, 0, 0, 0, 0, 0, 0], [-3206.5156858770524, -3103.3699158559225, -3002.3363272596116, -3107.3474462352206, -2913.2691298698874, -2698.3630112015717, 116.42289230517842, 277.9522386267188, -3097.1950367952036], [2.4706513098520455, 0, 0, -64.52734873357466, 0, 0, 0, 0, 0], [-96.71876122253255, -47.65569010392258, -344.56663488227787, -17.988878784095853, -62.9843702515316, -54.24870638185739, -22.80178710374819, -27.732057127508792, 2.6223228776099985], [0, 0, 0, 0, 0, 0, 0, 0, 0], [21.932004113435035, 21.003417940586864, 18.595429424615364, 19.70618744987283, 18.735604557457357, 16.335557481403896, 20.545113913542377, 21.94170044338017, 21.408515741800095], [0, 0, 0, 0, 0, 0, 0, 0, 0], [-171.2481183346736, -259.25129082830915, 3.877605274581404, -126.54746186263603, -917.4748170503073, -441.4766473720286, -115.04588592387057, -192.68224416425375, -631.5218862248703], [0, 0, 0, 0, 0, 0, 0, 0, 0], [0, 0, 0, 0, 0, 0, 0, 0, 0], [-445.3622663401866, -818.9700833267834, 16.372821156371664, 15.464103071430838, -497.8991404856801, -1287.8770829709454, 13.743688694544481, 14.560509250436013, 14.118067700460022], [-0.15916012399347323, -19.526081792570672, -5.229244323387211, -10.018912337397383, -17.386242301195516, -13.184574535075061, -1.2174490134358975, 7.6409704467948245, -10.666919825197933], [-133.1877575218537, -1144.5478094831954, 21.540389621494185, 8.119682648786979, -3180.238278967163, -838.7579170726593, 10.414901315123977, 16.139842015373635, 6.943423724349158], [0, 0, 0, 0, 0, 0, 0, 0, 0], [0, 0, 0, 0, 0, 0, 0, 0, 0], [0, 0, 0, 0, 0, 0, 0, 0, 0], [-336.30136601776275, -4.166410019510362, 10.191156935871357, -5.761220828534803, -24.915194619746025, -59.54469264955592, 8.68470201502641, -7.616507103525198, 12.316201071521139], [0, 0, 0, 0, 0, 0, 0, 0, 0], [0, 0, 0, 0, 0, 0, 0, 0, 0], [0, 0, 0, 0, 0, 0, 0, 0, 0], [0.16166501845060854, -900.4959788729813, -359.6119436075838, -458.27565713919984, -217.4341091659261, -116.96467165246648, -113.18050732050952, 6.8546104118659175, 18.78463771693012], [0, 0, 0, 0, 0, 0, 0, 0, 0], [-640.0, -640.0, -640.0, -556.2908601038448, -320.0, -320.0, -255.42477306677137, -253.88334054651318, 6.164899229359465], [3.4246288237461595, 1.0732848194122138, -4.190794185063618, 3.1252928752602633, 2.7155263658537456, -0.1927380302378019, 8.910568851587808, 3.053213748439963, 3.257187870224117], [-2945.680341084526, 21.30485875713164, -60.96455780848401, 9.635370363343926, -69.18429795683106, -191.35254087796824, 23.336744578410187, 17.204055388567756, 22.380370021009142], [0, 0, 0, 0, 0, 0, 0, 0, 0], [26.699901629057372, -1644.113180015162, -585.0181999669629, 15.897813448128904, -2629.3872767896287, -2630.1983031501404, 18.18934153437378, 25.975714825294297, 23.483545770255645], [0, 0, 0, 0, 0, 0, 0, 0, 0], [-304.84653203052693, -648.4088525893242, -37.03368358796188, -19.016828607315965, -477.44011850854804, -106.45159825616804, -1.0741297173767193, 0.3900358757419037, -2.8600841698196584], [0, 0, 0, 0, 0, 0, 0, 0, 0], [-1304.724086630177, -358.08616532491567, -1878.6832799178212, 0.48185682229427806, -3475.133566667407, -2482.9456238172356, 2.2969092201250474, -985.9083295234955, -3179.3730036460233], [0, 0, 0, 0, 0, 0, 0, 0, 0], [0, 0, 0, 0, 0, 0, 0, 0, 0], [0, 0, 0, 0, 0, 0, 0, 0, 0], [-2707.3115238385562, 22.155379278891207, 21.49737778604711, 18.055014070868538, -479.14036350162894, -740.193088225804, 22.268060289976958, 20.131844874231604, 17.958672900285407], [0, 0, 0, 0, 0, 0, 0, 0, 0], [0, 0, 0, 0, 0, 0, 0, 0, 0], [0, 0, 0, 0, 0, 0, 0, 0, 0], [108.97860653220198, -2527.7656561434433, 133.8110536300293, -497.20896696500597, -990.4304442905143, -1025.8156005079618, 103.61312505563369, 102.5093214045296, 97.85224395227328], [0, 0, 0, 0, 0, 0, 0, 0, 0], [-1920.0, -2496.0, -1365.6418202057494, -2496.0, -2496.0, -2496.0, -357.061404527674, -1369.1905469443834, -7.922665432339498], [0, 0, 0, 0, 0, 0, 0, 0, 0], [0, 0, 0, 0, 0, 0, 0, 0, 0], [0, 0, 0, 0, 0, 0, 0, 0, 0], [0, 0, 0, 0, 0, 0, 0, 0, 0], [0, 0, 0, 0, 0, 0, 0, 0, 0], [0, 0, 0, 0, 0, 0, 0, 0, 0], [0, 0, 0, 0, 0, 0, 0, 0, 0], [0, 0, 0, 0, 0, 0, 0, 0, 0], [-2386.7796431295774, -2576.2637480637504, -2523.849352299775, -2580.4765655254996, -2538.8180615063657, -2450.307360185551, -2311.812373654839, 828.6453554177789, 434.23171826585786], [26.53940443255431, 27.82797265430481, 16.634428042227707, -2785.2162613830587, -1126.9824964740228, -2628.784207280763, 23.737701259077056, 27.16164834213519, 20.404281479915092], [0, 0, 0, 0, 0, 0, 0, 0, 0], [-1257.664538067305, -2714.8695721237837, -2501.6778497991945, -3840.0, -2561.735151851843, -4992.0, -670.3970279928997, -171.8860160115985, 2.9457225666449975], [0, 0, 0, 0, 0, 0, 0, 0, 0], [0, 0, 0, 0, 0, 0, 0, 0, 0], [-2451.4710704197923, -2487.470655193935, -2502.29466007044, -2270.558711128885, -2569.906289004264, -2518.983468657426, 56.504928230966314, 85.19027707261571, 72.07206226416915], [-554.8645733366776, -455.5074837661655, -640.0, -640.0, -640.0, -640.0, 5.480552571527536, -638.6985687803231, -596.6560071509736], [-252.04790977375782, 23.10576126939197, -299.99302267062467, 11.38237404014004, 0, -1219.5763026930686, 17.273936073400595, 10.48711169888498, -143.10516596959712], [0, 0, 0, 0, 0, 0, 0, 0, 0], [1.8577485589446334, -6.451909965339213, 1.8090601725900237, -37.28873765973188, -16.69707151020973, -19.199477325456595, 2.5844949816929668, -0.05791169093158732, 3.596011359282234], [-9.659158908551376, 2.0587318006515725, 3.2589905268951127, -8.42101533055538, -6.375020820412948, -6.370934851256292, -0.11325915226490157, 3.058894548563188, 3.14101666143755], [0, 0, 0, 0, 0, 0, 0, 0, 0], [9.033948801747403, -56.7437144081684, 7.738454388367612, -67.2719504616583, -19.341635416845914, -24.17872708508493, 8.95089315242243, 5.057419462395263, 8.055852409210987], [0, 0, 0, 0, 0, 0, 0, 0, 0], [-989.5116214973591, -1389.6385112539056, -1.8309193406974398, -121.16784695405389, -874.7182757798561, -1195.7298144662739, -9.888430412013625, -3.2292347723406634, 3.758635155855644], [0, 0, 0, 0, 0, 0, 0, 0, 0], [-12.745050339078077, -13.878244839136663, -9.015989222778797, -20.42107588243799, -13.051220465345216, -20.0196542119182, -4.795913467765093, 2.6010677120827146, -6.4855764961819], [0, 0, 0, 0, 0, 0, 0, 0, 0], [-3.3770380849176784, 0.1309604717853572, -10.594793621397274, -17.46346230233973, -12.918879815155005, -8.481516407736864, -8.984049936952875, -9.027724406871538, 4.4026040326071], [0, 0, 0, 0, 0, 0, 0, 0, 0], [-90.15880635317114, -12.838527789059382, 0, 0, -34.733481420619796, -202.21045390351844, 0, 0, 6.660068197234002], [0, 0, 0, 0, 0, 0, 0, 0, 0], [0, 0, 0, 0, 0, 0, 0, 0, 0], [-356.62605896989055, -496.4111201252274, -1399.9807494010222, -187.65453440562607, -701.9587612461668, -309.0146823517204, 14.270872976627647, -347.41443081948717, 12.743342748956639], [-2331.216876532776, -2560.0, 0, 0, 0, -1174.1153081483344, 0, 5.892520470134102, 6.7924562153612875], [-3411.6910987958795, -1463.2282875869014, -2377.6245671650404, -3044.4773923441144, -2420.1782837118753, -3111.5951907708277, -1389.2523229763146, 10.870955350302781, 8.67521623734114], [0, 0, 0, 0, 0, 0, 0, 0, 0], [0, 0, 0, 0, 0, 0, 0, 0, 0], [-17.031821486742302, 0.38925347128940446, -18.568257948144755, -7.703806786919059, -7.987839497860895, -9.889195151515546, 2.515194672324678, -6.726236081002696, -7.733808223928421], [0, 0, 0, 0, 0, 0, 0, 0, 0], [-2056.451316350085, -2560.0, -1295.114683130251, -2560.0, -2560.0, -2560.0, 13.751743775202574, 0, 0], [-1824.1406237772353, -1581.6188122443514, -2259.733922026221, -1661.3340572358784, -1595.9713519768543, -1281.45994686696, 7.4212624018976046, 6.751669451589441, 5.621847016751218], [0, 0, 0, 0, 0, 0, 0, 0, 0], [0, 0, 0, 0, 0, 0, 0, 0, 0], [0, 0, 0, 0, 0, 0, 0, 0, 0], [0, 0, 0, 0, 0, 0, 0, 0, 0], [0.21506944556609942, -1.3598045558470924, 2.30792055130556, 2.9198841784074396, 2.2799357066619574, -7.305541663675747, 1.2900920185133213, 1.7160777639904579, 2.2368137808619855], [7.135214493610807, -4.130375897937082, 11.615579623682708, 8.397127917627579, 6.882701386963505, 7.180833884279151, 9.585917845472292, 3.274615081962316, 6.217670225168671], [0, 0, 0, 0, 0, 0, 0, 0, 0], [7.121053521070754, 0.5389343932643396, 8.239042146155178, -11.376172668643125, 7.487563714833877, -13.620215396808975, 6.642913402540896, 4.324157513083691, -5.036373097047037], [0, 0, 0, 0, 0, 0, 0, 0, 0], [-2560.0, -1563.8137167570558, -633.9595815302027, -1258.0897305017477, 5.819399298143239, -3.1574761331738554, -28.79388107116192, 0, 0.7677076004056373], [0, 0, 0, 0, 0, 0, 0, 0, 0], [-469.0288952629663, -689.664421485199, -67.23405344830769, -292.9740614149225, 4.082412221717329, -951.8307064506942, 9.267215752209108, 4.264415559488548, -18.78748018165401], [0, 0, 0, 0, 0, 0, 0, 0, 0], [3.673906740200165, 1.9978385626856916, -6.697132949101377, 1.673958843532706, 2.935579633898958, -4.712522360017602, 2.9939918993621077, -0.4454697732365499, 1.687057488371794], [0, 0, 0, 0, 0, 0, 0, 0, 0], [-7.972031101820752, -6.355390380523746, -7.686629909109378, 2.478354011109734, 2.4549344247204425, -6.503724149464594, -3.6390749960162823, 1.7271840402083587, 2.1557236423470663], [0, 0, 0, 0, 0, 0, 0, 0, 0], [0, 0, 0, 0, 0, 0, 0, 0, 0], [-2887.6442981098817, -867.4752576283051, -2793.539053434809, 13.535346643670369, 11.288411494358133, -373.54649410439555, 11.586863106995121, 11.46140067533929, -1371.258103133476], [-1.7493367283543164, -8.48122436467952, -6.935510946002491, 1.7896065831218109, 2.035748300836164, -8.08628445720374, -3.961191630227228, 1.8153381476492938, 0.5198133565758258], [-3116.3359687943316, -2560.0, -1289.7457288748158, -1101.8690764193216, 11.847738735932772, 0, 0, -12.202303870235088, 6.274541508532149], [0, 0, 0, 0, 0, 0, 0, 0, 0], [0, 0, 0, 0, 0, 0, 0, 0, 0], [-29.669009534583573, -0.6433766768963436, -10.691682955724891, 0.3961630399712772, -5.639034262061352, -11.079186559719458, -2.4039921292885778, -3.128836306181542, -2.7623898982683466], [0, 0, 0, 0, 0, 0, 0, 0, 0], [-36.68792808459362, -14.174427151713417, -75.45941314793393, -10.415477510467213, -11.996351711985247, -29.670987382976385, -3.3023855734008043, -5.216533893204955, -2.1060872935785824], [-1259.9838991989022, -2560.0, -1424.2426026563937, 15.067340370654165, 14.277636484758009, -991.2101352043835, 14.72697311406149, 15.204313568962675, 13.467959390475311], [0, 0, 0, 0, 0, 0, 0, 0, 0], [0, 0, 0, 0, 0, 0, 0, 0, 0], [0, 0, 0, 0, 0, 0, 0, 0, 0], [0, 0, 0, 0, 0, 0, 0, 0, 0], [2.6033831452236926, 2.455282019228198, 3.1260607984732856, -3.8742415628295968, 3.0680859578857214, -5.028706376079835, 3.2152461053083385, 3.3674424300184427, 3.3721957031977654], [0, 0, 0, 0, 0, 0, 0, 0, 0], [-8.862942075272006, -3.0001882713683523, 1.7094466034144111, -12.753989349962902, 1.5621020549974851, -9.400870501420126, -4.248479291114553, -1.5616406602020338, 3.0173888602357244], [0, 0, 0, 0, 0, 0, 0, 0, 0], [0, 0, 0, 0, 0, 0, 0, 0, 0], [-2180.5378254446327, -1575.3031483385462, 8.737615442279482, -250.65634854122231, 11.74825007562618, -1281.3339444797102, 12.960795617796549, 14.087799311903668, 14.010110471910007], [-7.567877327495367, -17.71945569782696, 2.7979434819314406, -22.04470791529401, -2.4907967821412673, -13.4570283607651, -9.011713834219005, -7.272306231903784, 1.7827255114448604], [-3062.198140719191, -1341.8728011538176, -2446.857023608166, -3667.1151689789513, -2405.3386139960535, -3068.9577038018588, 13.600300455602284, -1288.7731615113337, 14.291851948412276], [0, 0, 0, 0, 0, 0, 0, 0, 0], [0, 0, 0, 0, 0, 0, 0, 0, 0], [0, 0, 0, 0, 0, 0, 0, 0, 0], [-7.048408431327909, 3.3376008199368634, -7.194797656641055, -10.794768685252336, 3.357382541498827, -6.964133429911367, 2.2268315078017635, 4.383245390777791, 2.1660931127248833], [0, 0, 0, 0, 0, 0, 0, 0, 0], [0, 0, 0, 0, 0, 0, 0, 0, 0], [0, 0, 0, 0, 0, 0, 0, 0, 0], [3.6043402808900074, -18.272807683277684, -8.667312954350145, -8.853651794714006, 2.1127275011489104, -6.838414472818781, 2.2964588392592913, 2.1698439738123376, 1.1629268073944827], [0, 0, 0, 0, 0, 0, 0, 0, 0], [-44.50931889842532, -9.533058333648384, -8.971372898239117, -16.52807559600413, 3.213880370157473, -15.764131236283038, -3.583517273327856, 2.720483975567639, 1.757389257228731], [-2.8863981540042136, -0.5650655980760138, -17.25720694661264, -9.182935378995833, -2.3733802453513224, -6.55324812244253, -5.4197805995364545, -0.4354105979672336, 3.263482943939892], [-32.14130234681389, -5.024018306608673, -36.15236838466009, -7.905995864361633, 3.3863240587606365, -4.5513046123553575, 11.465172725914565, -569.4804529997703, 8.238495623259205], [0, 0, 0, 0, 0, 0, 0, 0, 0], [16.72562817966064, -1494.4646193811618, -957.2877244428449, -1946.1251704606552, 20.886478116120045, -1289.9845519234473, 20.18382715254196, 0, 21.82448083184639], [0, 0, 0, 0, 0, 0, 0, 0, 0], [-2560.0, -3840.0, -1310.5057474958724, -2560.0, -2056.8023371371137, -1293.4163817485198, -2194.5556204846857, -1152.0, 3.186110461371232], [0, 0, 0, 0, 0, 0, 0, 0, 0], [-2560.0, -2560.0, -2560.0, -2560.0, -2093.4566876131717, -2560.0, 12.216796804504515, 0, 0], [0, 0, 0, 0, 0, 0, 0, 0, 0], [0, 0, 0, 0, 0, 0, 0, 0, 0], [-25.57537150265207, -77.19320179303043, -12.66258659387911, -1216.4003805688014, 8.683044996435783, -108.43782988309374, -182.96027026577158, -171.59197554601258, -16.124376093003242], [0, 0, 0, 0, 0, 0, 0, 0, 0], [-550.5974755794185, 0, 0, 5.387700023709766, 8.657288597347758, 0, 0, 0, -0.727827056487318], [-2560.0, -1845.3659369321228, 62.568833527677654, -2284.738725539102, 0, 0, 0, 0, -2233.8632273159355], [0, 0, 0, 0, 0, 0, 0, 0, 0], [0, 0, 0, 0, 0, 0, 0, 0, 0], [0, 0, 0, 0, 0, 0, 0, 0, 0], [0, 0, 0, 0, 0, 0, 0, 0, 0], [-197.28881984516548, -175.71499081469136, -97.75165646455284, -550.9104892846693, 13.093505068472847, -97.00878125507286, -2.704628042814104, -81.91004309795186, -25.819398536575086], [-2560.0, -1140.5062354671568, -3840.0, -2560.0, 11.775487589154023, 0, 0, 0, -2348.2860435421144], [0, 0, 0, 0, 0, 0, 0, 0, 0], [228.9589016871362, 0, 0, 0, 0, 0, 0, 0, 0], [0, 0, 0, 0, 0, 0, 0, 0, 0], [-2956.4527965705875, -4564.456074208781, -2525.303951382603, -4992.0, 0.2624116132151626, -2560.354462859816, -3083.21403490412, -214.45720888776057, -3060.8561041733087], [0, 0, 0, 0, 0, 0, 0, 0, 0], [-640.0, -640.0, -640.0, -640.0, 89.44312402545883, -960.0, 0, -525.2334557784246, 0], [0, 0, 0, 0, 0, 0, 0, 0, 0], [0, 0, 0, 0, 0, 0, 0, 0, 0], [0, 0, 0, 0, 0, 0, 0, 0, 0], [0, 0, 0, 0, 0, 0, 0, 0, 0], [0, 0, 0, 0, 0, 0, 0, 0, 0], [-1273.2384404451286, -2560.0, -2560.0, -1285.6736563853456, 1.4604387852639538, -2560.0, -1404.3229049434133, -10.278869925613224, -166.38885297539198], [0, 0, 0, 0, 0, 0, 0, 0, 0], [0, 0, 0, 0, 0, 0, 0, 0, 0], [0, 0, 0, 0, 0, 0, 0, 0, 0], [0, 0, 0, 0, 0, 0, 0, 0, 0], [3.1126316293513696, 2.951701680327342, 2.831605925649673, 2.559544364593749, -2.0243138460919097, -6.113908206531701, 3.0618861774926818, 3.066223673575487, 2.832736850201354], [0, 0, 0, 0, 0, 0, 0, 0, 0], [-9.804346259946167, 2.4674403246122543, 4.149035403388831, -0.5131267451335983, -6.508197498695355, -6.973621666402311, -2.423722262206367, 2.470683961503157, 2.6451148737229953], [0, 0, 0, 0, 0, 0, 0, 0, 0], [0, 0, 0, 0, 0, 0, 0, 0, 0], [-4.452813439465852, -8.722935472068006, -0.49585907299610277, -4.279536876528649, -8.085880239387746, -5.821440046865343, -3.160559522351148, 5.189802790495248, -3.393013210913261], [3.1530731104419365, -7.810993508355116, 1.7028506029091597, -3.623189724676849, -7.640767380362556, -7.967648479739837, -1.9025803545376285, 0.40288226726352605, 1.6587539219527339], [-42.55624044024427, -93.20020809639334, -56.19184939995387, -4.513275258257616, -30.433818798197567, -13.035428381142061, -3.3755357565868973, -16.478240303170374, 3.1710849652825357], [0, 0, 0, 0, 0, 0, 0, 0, 0], [0, 0, 0, 0, 0, 0, 0, 0, 0], [0, 0, 0, 0, 0, 0, 0, 0, 0], [-19.396075623607253, -3.576107831797247, -12.089693303111643, -12.086089630460481, -15.905359669130348, -5.644937083516172, 4.404106507436489, -2.863633654228882, -2.625897945371089], [0, 0, 0, 0, 0, 0, 0, 0, 0], [0, 0, 0, 0, 0, 0, 0, 0, 0], [0, 0, 0, 0, 0, 0, 0, 0, 0], [-3.607685301305552, -6.859506220974445, -7.274622267509456, -3.316217944308243, -6.815807000574512, -7.730130622979546, 1.7368204921750696, -5.071858910277072, -3.300597115960314], [0, 0, 0, 0, 0, 0, 0, 0, 0], [-327.43101502270946, -1856.7338379469677, -192.1929267031299, 4.423553684712461, -183.84260412296192, -817.8039223241175, 6.44485824957956, 4.75482682941973, 5.039878714922192], [-3.7478196679108855, -2.795055903350013, -5.7410138661940024, 0.6205595725772561, -1.9775010914250286, -3.816457767865313, -0.6200884289521496, -3.954544424098658, 2.239339324829551], [-558.1975003879345, -764.0972980856023, -338.7732744832072, -13.702020464796634, -416.6950207708414, -591.4795894308478, 1.4524078424854352, -74.37662007686099, 7.37619883159757], [0, 0, 0, 0, 0, 0, 0, 0, 0], [-19.91160498418913, -1216.1528585596918, -449.8930190725714, -42.881869726222895, -736.1392441615811, -929.4753480472388, -786.4098754726047, 6.19907017454475, 8.559768661294749], [0, 0, 0, 0, 0, 0, 0, 0, 0], [-471.1590913660897, -337.0283426794084, -849.6726275295521, -45.93164466595454, -140.9301410117382, -386.2138133107592, -36.86294402547702, 6.98543025754167, 4.6187814501937305], [0, 0, 0, 0, 0, 0, 0, 0, 0], [-1704.0863822484316, -832.4898070862866, -504.87256727539966, -38.42009591566777, -2560.0, -848.4591330275357, -88.09279138338849, -136.34332395251917, 8.426801647472903], [0, 0, 0, 0, 0, 0, 0, 0, 0], [0, 0, 0, 0, 0, 0, 0, 0, 0], [0, 0, 0, 0, 0, 0, 0, 0, 0], [-3404.3398159932167, 5.9032430252851364, 7.3114683480553015, -1714.2658218937318, -3179.0313517182785, -1683.4413556191237, 4.130221826201919, 4.927617986067385, 6.113582356384806], [0, 0, 0, 0, 0, 0, 0, 0, 0], [0, 0, 0, 0, 0, 0, 0, 0, 0], [0, 0, 0, 0, 0, 0, 0, 0, 0], [7.368572818452778, -835.58245169206, 8.291303529628657, -3354.6698802440806, -1542.3622292718671, -2385.9063622301765, 8.4437592499125, -1008.4148024000821, 6.533140083310968], [0, 0, 0, 0, 0, 0, 0, 0, 0], [-2560.0, -2560.0, 2.7179174546572042, 0, -214.0375207283552, 0, 0, -71.179100363571, 0], [0, 0, 0, 0, 0, 0, 0, 0, 0], [0, 0, 0, 0, 0, 0, 0, 0, 0], [0, 0, 0, 0, 0, 0, 0, 0, 0], [0, 0, 0, 0, 0, 0, 0, 0, 0], [0, 0, 0, 0, 0, 0, 0, 0, 0], [0, 0, 0, 0, 0, 0, 0, 0, 0], [0, 0, 0, 0, 0, 0, 0, 0, 0], [0, 0, 0, 0, 0, 0, 0, 0, 0], [-16.695134521479478, -96.65994934990059, -172.2025753459156, -21.6365981428721, -76.69782236814193, -14.78995079825623, 3.5176851053082254, -8.696204834224757, -3.940363159860184], [13.424516788545677, 8.088358320155319, -1194.9106207482903, -808.5585100318447, -826.7171981685225, -569.0645545592217, 8.11467855761084, 6.324274866610167, 8.169582284140885], [0, 0, 0, 0, 0, 0, 0, 0, 0], [-229.97434120169768, -245.43198507143515, -133.0688212055146, -123.70819619465904, -497.48968387139575, -4992.0, -551.7260310537476, -42.42909565099623, -1.729512424201785], [0, 0, 0, 0, 0, 0, 0, 0, 0], [0, 0, 0, 0, 0, 0, 0, 0, 0], [-3266.195562017868, -3317.2391611210505, -2924.860000577927, -3264.7409535359775, -3511.5176915229445, -1697.7861967716065, -922.196726985533, 96.14091867845003, 39.94151291406993], [0.2548614943651992, -922.3778115631025, -712.09022323283, -1544.3760860932687, -730.215693801153, -2515.552653706437, -491.44586363228586, -953.1051012314742, -60.34706200295111], [-2560.0, -646.5145810996215, -380.41582358976274, -473.74626603405005, -2560.0, -2560.0, -2446.9344920405115, -811.4008164161597, 13.338262182748549], [0, 0, 0, 0, 0, 0, 0, 0, 0], [7.108343211892903, 6.567977422992611, 7.129396771738479, -26.63379931937652, -23.09069940754922, -207.86443707107645, 7.303725171525948, 6.0091338414165865, 6.535827799632617], [-312.55454537720624, -135.37533055272021, -2.7459887199394704, -128.06304932871777, -71.49943937432795, -901.5464784509244, -744.1770735445971, -295.86656401159786, -80.90543148325929], [0, 0, 0, 0, 0, 0, 0, 0, 0], [-935.085544603016, -241.92811764192606, -392.50329841539303, -491.67819937619146, -1160.3862995741263, -1605.932699468446, -405.6261642262032, -779.9675903869318, 7.708294084620541], [0, 0, 0, 0, 0, 0, 0, 0, 0], [-2121.2891918486193, -2560.0, -1002.8085510498688, -1694.912190448225, -1760.8836447555543, -841.2891918486196, 7.369454409845687, 0, -2277.971644993017], [0, 0, 0, 0, 0, 0, 0, 0, 0], [-1504.3432355819216, -617.0997282766253, 7.683799442599799, -401.4732310247614, -1738.6532098243983, -470.0861073624683, 9.192197121486132, 9.445862208799179, 7.464694290568293], [0, 0, 0, 0, 0, 0, 0, 0, 0], [-10.564620466045373, -117.2030708701588, -309.0102469875051, -92.78063131526193, -546.1826946949465, -1129.2301888666293, -19.289884826194182, -93.80066524093422, -0.3460737265866287], [0, 0, 0, 0, 0, 0, 0, 0, 0], [-1197.343011899071, -2327.806105297192, -342.31189117776245, -1629.8296620114413, -2560.0, -2078.947234892257, 20.47612291018067, -230.63362384037532, -1133.0008464115833], [0, 0, 0, 0, 0, 0, 0, 0, 0], [0, 0, 0, 0, 0, 0, 0, 0, 0], [-2560.0, -1888.8995217817264, -2560.0, -2835.505259820694, -2560.0, -658.0740872158402, 15.875403758976404, 0, -136.00272729735278], [6.443290203582663, -105.27906975204463, 0, -83.58388547327549, -396.36654807426794, -1826.3119956344476, 7.029937514541838, 0, 0], [-4095.710658368264, -7554.326436661505, -3711.004069672145, -4823.981130095188, -2855.096364825433, -7857.189255502239, -203.18591229660058, -3166.1489776727285, -4.215381795932121], [0, 0, 0, 0, 0, 0, 0, 0, 0], [0, 0, 0, 0, 0, 0, 0, 0, 0], [-212.44909466602635, 1.7661078723713897, -53.303030157235106, -72.84736603354457, -2900.0464189873437, -32.62752379391825, -38.2818196348672, -185.97043291797132, 8.266115139376133], [0, 0, 0, 0, 0, 0, 0, 0, 0], [-576.0862664914258, -2560.0, -2560.0, -2560.0, -485.18706305993646, -2560.0, -2383.176704476991, 9.708540599493624, 0], [-2433.0684280480004, -1257.7672183793181, -1275.252969171657, -593.0598764341103, -2583.4414564375647, -77.62821998039955, -68.31553849907121, -2528.3202001010795, 15.30965081167436], [0, 0, 0, 0, 0, 0, 0, 0, 0], [0, 0, 0, 0, 0, 0, 0, 0, 0], [0, 0, 0, 0, 0, 0, 0, 0, 0], [0, 0, 0, 0, 0, 0, 0, 0, 0], [0, 0, 0, 0, 0, 0, 0, 0, 0], [-11.591711550278326, -2.531136504821517, -3.3966166753609057, 2.2751721847575563, -8.64573709373544, -15.492065832977485, -1.3456677489541438, 2.0901611116791594, -5.077274612781469], [0, 0, 0, 0, 0, 0, 0, 0, 0], [-5.969276127160508, -203.07369625051837, -13.254329352240477, 12.640722295366295, -13.84653473445027, -416.84825954674795, -49.03001279412926, -34.184957330384464, -6.8992059201406795], [-663.3289533244825, -2560.0, 12.576105324479919, 10.58644942193265, -822.5333599751463, -1154.092937172789, -8.433983688815093, 0, -2302.2211904321252], [0, 0, 0, 0, 0, 0, 0, 0, 0], [0, 0, 0, 0, 0, 0, 0, 0, 0], [0, 0, 0, 0, 0, 0, 0, 0, 0], [0, 0, 0, 0, 0, 0, 0, 0, 0], [-2.632583980537974, -3.525032893845829, -9.343928167054369, 2.7309283851456705, -10.06173955186421, -12.90374140993496, -4.1413025782335025, -3.3540923376715193, -2.4053889426251778], [-584.8394403192484, 6.549898033992758, -1996.279347279338, 6.360385856216378, -1251.4461982734142, -1722.9844460156025, -27.661275424730537, -1264.5666510715225, -2652.149675369191], [0, 0, 0, 0, 0, 0, 0, 0, 0], [11.644730612599187, -1040.7454616817115, -831.7165665388601, 8.506109030228442, -925.2234270695586, -2817.7901169156935, -401.95728483479667, -103.22382600255305, -720.203522249526], [0, 0, 0, 0, 0, 0, 0, 0, 0], [-829.2403088422305, -485.4001992175226, -685.4579495373353, -304.5441903104688, -2560.0, -1275.4207105275564, -519.8439328015003, -1537.2536313340877, -3.0097691864868548], [0, 0, 0, 0, 0, 0, 0, 0, 0], [-1837.1073873830592, -4466.086812270602, -589.2441924249874, -3.239938479409383, -774.0330548231741, -1803.5782689232492, -906.6809002718661, -136.04365354903348, -394.5955736874002], [0, 0, 0, 0, 0, 0, 0, 0, 0], [0, 0, 0, 0, 0, 0, 0, 0, 0], [0, 0, 0, 0, 0, 0, 0, 0, 0], [0, 0, 0, 0, 0, 0, 0, 0, 0], [0, 0, 0, 0, 0, 0, 0, 0, 0], [-2496.0, -1260.8945083953083, -2496.0, -1560.194384668031, -2496.0, -1252.322025284037, -3.8273317553838453, -1517.6668237648832, -1529.8953923088295], [0, 0, 0, 0, 0, 0, 0, 0, 0], [0, 0, 0, 0, 0, 0, 0, 0, 0], [0, 0, 0, 0, 0, 0, 0, 0, 0], [0, 0, 0, 0, 0, 0, 0, 0, 0], [1.9250087653191275, -2.5296938320172346, 2.6326845771760343, -48.028192778139356, -25.4830499587384, -60.1749294842353, 1.9507008403702817, -78.3172650377289, 1.8662855858425105], [-8.075663935786414, -1.6105685969053978, -2.703285192784816, -6.261498480161346, -3.3994075706325053, -7.157922592543459, 2.8354495805409012, -4.7675344713221115, -2.004860407395542], [0, 0, 0, 0, 0, 0, 0, 0, 0], [5.248692204161046, -17.719772349267217, 7.598855810999408, -42.199408149957065, 0.8225548062899231, -4.660234817235393, 6.662743397156446, -184.5573987974456, 29.892369718482428], [0, 0, 0, 0, 0, 0, 0, 0, 0], [-640.0, -640.0, -527.0429934578855, -640.0, -235.63457539510068, -640.0, -142.816759843076, -330.9707275847336, 2.765437914960546], [0, 0, 0, 0, 0, 0, 0, 0, 0], [-1683.224743298282, -2087.078758710691, -2382.603684437601, -1475.1211651928163, -1379.4935630831058, 0, 7.529293621205433, 6.19464122548078, -730.8450162950691], [0, 0, 0, 0, 0, 0, 0, 0, 0], [2.108051637723006, 3.073177563449404, -9.440021067505825, -15.7703697085145, -8.896336359969114, -11.910595565135246, 2.1151875775264313, 3.278028169712088, -0.4248260013091183], [0, 0, 0, 0, 0, 0, 0, 0, 0], [-6.498634441279192, -3.3453814480110147, -3.8138669814480943, -6.876572672012566, -12.565962061075965, -6.791106458203973, -4.1681969033724435, -3.7741929837226222, 2.6799541549689723], [0, 0, 0, 0, 0, 0, 0, 0, 0], [0, 0, 0, 0, 0, 0, 0, 0, 0], [-3107.9613821850135, -3255.862101617752, -1250.628496182712, -2932.9166066811013, -8.07903235207581, -2098.862528674006, 10.993840438628851, 8.552648486905237, 9.405972983994992], [-9.530879894988896, -19.35807179004376, -26.77495215657722, -17.31775386028258, -18.35498662185949, -16.53134271254173, -16.735355656856598, 3.256649385799613, -11.77540145768009], [-252.1317544942763, -414.22975823779126, -273.14093801722885, -1542.7976751808126, -1433.9249739071126, -581.2441179414488, 4.805913438002647, 7.088973116059418, -110.28442627782427], [0, 0, 0, 0, 0, 0, 0, 0, 0], [0, 0, 0, 0, 0, 0, 0, 0, 0], [-992.7813637756531, -857.3870526317822, -1296.9065164678416, -2847.9838461542395, -2560.0, -2067.017402382855, 7.435759829521016, -6.862797509879375, -712.4977249137205], [0, 0, 0, 0, 0, 0, 0, 0, 0], [-482.50776746212097, 0, -2.3145407957192723, -16.697967766122108, 0, 0, 6.972776204788609, -26.349929050012747, 0], [-2560.0, -2560.0, -3840.0, -2560.0, -1201.2893605507234, -2560.0, 444.09839016334155, 0, 861.7632256033481], [0, 0, 0, 0, 0, 0, 0, 0, 0], [0, 0, 0, 0, 0, 0, 0, 0, 0], [0, 0, 0, 0, 0, 0, 0, 0, 0], [0, 0, 0, 0, 0, 0, 0, 0, 0], [0, 0, 0, 0, 0, 0, 0, 0, 0], [0, 0, 0, 0, 0, 0, 0, 0, 0], [0, 0, 0, 0, 0, 0, 0, 0, 0], [0, 0, 0, 0, 0, 0, 0, 0, 0], [0, 0, 0, 0, 0, 0, 0, 0, 0], [0, 0, 0, 0, 0, 0, 0, 0, 0], [0, 0, 0, 0, 0, 0, 0, 0, 0], [0, 0, 0, 0, 0, 0, 0, 0, 0], [0, 0, 0, 0, 0, 0, 0, 0, 0], [0, 0, 0, 0, 0, 0, 0, 0, 0], [0, 0, 0, 0, 0, 0, 0, 0, 0], [0, 0, 0, 0, 0, 0, 0, 0, 0], [0, 0, 0, 0, 0, 0, 0, 0, 0], [0, 0, 0, 0, 0, 0, 0, 0, 0], [0, 0, 0, 0, 0, 0, 0, 0, 0], [0, 0, 0, 0, 0, 0, 0, 0, 0], [0, 0, 0, 0, 0, 0, 0, 0, 0], [0, 0, 0, 0, 0, 0, 0, 0, 0], [0, 0, 0, 0, 0, 0, 0, 0, 0], [0, 0, 0, 0, 0, 0, 0, 0, 0], [0, 0, 0, 0, 0, 0, 0, 0, 0], [0, 0, 0, 0, 0, 0, 0, 0, 0], [0, 0, 0, 0, 0, 0, 0, 0, 0], [0, 0, 0, 0, 0, 0, 0, 0, 0], [0, 0, 0, 0, 0, 0, 0, 0, 0], [0, 0, 0, 0, 0, 0, 0, 0, 0], [0, 0, 0, 0, 0, 0, 0, 0, 0], [0, 0, 0, 0, 0, 0, 0, 0, 0], [0, 0, 0, 0, 0, 0, 0, 0, 0], [10.522371162137045, 10.437430971247888, 14.778013262479224, 1.426385152273419, 2.3842118163060246, 2.9973166349448728, 14.053117066087848, 7.122060940775822, 14.623554266181532], [0, 0, 0, 0, 0, 0, 0, 0, 0], [0, 0, 0, 0, 0, 0, 0, 0, 0], [0, 0, 0, 0, 0, 0, 0, 0, 0], [8.135381756546863, -0.04403703991921759, 3.699622782620547, -4.792951449681222, 3.768363466679066, -0.3863470139660059, -7.0043247042380745, -2.5838497373321663, 4.6737325790024045], [0, 0, 0, 0, 0, 0, 0, 0, 0], [-10.55059319075553, -28.39214545319353, -2.008348117639539, -9.784261251668589, -2.9337475488018305, -8.656257083757229, -34.47619737901728, -8.90686907627584, -7.229681580187976], [0, 0, 0, 0, 0, 0, 0, 0, 0], [0, 0, 0, 0, 0, 0, 0, 0, 0], [0, 0, 0, 0, 0, 0, 0, 0, 0], [0, 0, 0, 0, 0, 0, 0, 0, 0], [0, 0, 0, 0, 0, 0, 0, 0, 0], [0, 0, 0, 0, 0, 0, 0, 0, 0], [0, 0, 0, 0, 0, 0, 0, 0, 0], [0, 0, 0, 0, 0, 0, 0, 0, 0], [-178.91653845898568, -374.71937745309265, -135.31577950808926, -4.383467492485263, 8.327410726590202, -3.79084062518701, -69.64995366069168, -397.85945617171046, -10.619936958051422], [12.875706925187231, 6.718196425262408, 6.1430305444710385, 2.8635993751166184, 8.386255073019028, -6.569021587814375, 7.602658305578204, 4.114343795064021, 11.678670251220073], [0, 0, 0, 0, 0, 0, 0, 0, 0], [-20.741571401674314, -0.4923089763928421, -0.07189455715890425, -36.626900615094804, 0.24577104407002826, 0.40204179259471773, -22.54561250702997, -10.314749418164883, -3.1412842899945304], [0, 0, 0, 0, 0, 0, 0, 0, 0], [0, 0, 0, 0, 0, 0, 0, 0, 0], [1.2345882944623172, -300.12151786805543, -68.26565057747214, -280.73011518463323, 10.88481528170756, 6.843722011392418, -4.008418330918888, 6.699485028588641, 12.881965252233066], [3.4286946016160287, 0, -48.757319804142654, -1961.3644785193758, -692.4074437793788, 0, 0, 0, 0], [-1525.4870405839497, -3716.876040955113, -2802.7540908774095, 2.5257934872031367, -2871.315155498524, -3104.101303079302, -2451.643351997113, -2984.78349819752, -1005.584243154585], [0, 0, 0, 0, 0, 0, 0, 0, 0], [0, 0, 0, 0, 0, 0, 0, 0, 0], [0, 0, 0, 0, 0, 0, 0, 0, 0], [0, 0, 0, 0, 0, 0, 0, 0, 0], [0, 0, 0, 0, 0, 0, 0, 0, 0], [0, 0, 0, 0, 0, 0, 0, 0, 0], [0, 0, 0, 0, 0, 0, 0, 0, 0], [0, 0, 0, 0, 0, 0, 0, 0, 0], [0, 0, 0, 0, 0, 0, 0, 0, 0], [-2560.0, -2528.81543875077, 52.00298652051733, -511.3256484777138, 133.40129507677833, 154.1133521298886, 0, 0, 154.72509955943912], [0, 0, 0, 0, 0, 0, 0, 0, 0], [0, 0, 0, 0, 0, 0, 0, 0, 0], [0, 0, 0, 0, 0, 0, 0, 0, 0], [0, 0, 0, 0, 0, 0, 0, 0, 0], [0, 0, 0, 0, 0, 0, 0, 0, 0], [0, 0, 0, 0, 0, 0, 0, 0, 0], [0, 0, 0, 0, 0, 0, 0, 0, 0], [0, 0, 0, 0, 0, 0, 0, 0, 0], [0, 0, 0, 0, 0, 0, 0, 0, 0], [0, 0, 0, 0, 0, 0, 0, 0, 0], [0, 0, 0, 0, 0, 0, 0, 0, 0], [-1258.8184700722295, 13.061558049073248, -593.3520252796309, 11.81823276991155, 12.391499952768857, 14.092123799931699, -33.62205135917446, 13.514044217651621, 13.834356764102926], [0, 0, 0, 0, 0, 0, 0, 0, 0], [0, 0, 0, 0, 0, 0, 0, 0, 0], [0, 0, 0, 0, 0, 0, 0, 0, 0], [3111.0204892648935, 0, 0, 0, 0, 0, 0, 0, 0], [0, 0, 0, 0, 0, 0, 0, 0, 0], [0, 0, 0, 0, 0, 0, 0, 0, 0], [-0.08448101011627257, 0.890982996211888, 3.0223947805170033, -5.078865486719508, 3.0792324441794987, 2.247395188847161, -4.428940787499818, 3.172281661979235, 3.2639450487544357], [0, 0, 0, 0, 0, 0, 0, 0, 0], [-644.5794503249897, -54.56138402892305, -351.49892563821334, -717.9591748623026, 5.562800583036042, 6.017972711302649, -448.7409130172024, 7.214995533167247, 4.953196070050533], [0, 0, 0, 0, 0, 0, 0, 0, 0], [0, 0, 0, 0, 0, 0, 0, 0, 0], [-2870.9943901683578, -1596.0007170322451, -2221.3391907538953, -2837.9681014050007, 13.113259164434467, -2443.2058241583463, -1343.1740189671068, 12.842717625274613, 12.857973162430756], [-0.4208882609584794, -15.921676134534604, -209.82893939768206, -737.3366547186902, 3.750578671498049, 4.532068070094843, -172.38101238691334, -108.56750602588228, 6.8456112620482505], [-1797.3034305055178, -560.7230434691039, 6.846552624464595, -371.8247884590542, 6.517474821871109, 7.623244013958413, -2885.7921342613217, -59.193820489090626, 5.30935372785505], [0, 0, 0, 0, 0, 0, 0, 0, 0], [0, 0, 0, 0, 0, 0, 0, 0, 0], [0, 0, 0, 0, 0, 0, 0, 0, 0], [12.158356268955934, 18.608121378477612, -11.613233915313614, 1.0662086950270702, 19.225898498107448, 13.663551000306338, -108.74181523655957, -13.049989391606049, 8.253866211511633], [0, 0, 0, 0, 0, 0, 0, 0, 0], [0, 0, 0, 0, 0, 0, 0, 0, 0], [0, 0, 0, 0, 0, 0, 0, 0, 0], [-2315.914406843965, -2560.0, -1211.1013141950186, -2560.0, 93.27908097575862, -2133.270367372546, 0, 0, 0], [0, 0, 0, 0, 0, 0, 0, 0, 0], [-2560.0, -2560.0, -2560.0, -2560.0, 17.562196682302087, 0.0, 15.517384427846386, 0, 0], [2.318053657573157, 0.05446157950478869, -5.520843808355442, -4.016083662502908, 2.5960431179328554, 2.6101360856941884, -4.279542794625722, 0.32204231797065286, 2.5626834743070552], [-1717.2203858731261, -404.56033564139364, -703.9843771916635, -834.186512996835, 10.229236234921661, 16.69665083451598, -852.1963769270939, 8.607480541276393, 0], [0, 0, 0, 0, 0, 0, 0, 0, 0], [-2054.859673681398, -1160.0442314523575, -3487.536218124631, -1793.3089305647597, 8.391220309650317, 13.508068485922132, -3266.117425472252, 10.215165374405236, 7.216511434305211], [0, 0, 0, 0, 0, 0, 0, 0, 0], [-20.0, -20.0, -20.0, -20.0, 3.0621093336363145, 0, 0, 0, 0], [0, 0, 0, 0, 0, 0, 0, 0, 0], [-3840.0, -2560.0, -2560.0, -2560.0, 3.090651961989541, 2.3127498013405847, 0, 0, 0], [0, 0, 0, 0, 0, 0, 0, 0, 0], [0, 0, 0, 0, 0, 0, 0, 0, 0], [0, 0, 0, 0, 0, 0, 0, 0, 0], [0, 0, 0, 0, 0, 0, 0, 0, 0], [0, 0, 0, 0, 0, 0, 0, 0, 0], [0, 0, 0, 0, 0, 0, 0, 0, 0], [0, 0, 0, 0, 0, 0, 0, 0, 0], [0, 0, 0, 0, 0, 0, 0, 0, 0], [0, 0, 0, 0, 0, 0, 0, 0, 0], [-52.71764369511832, -14.303898815492204, 9.04825354476877, 0.13202085998697122, -23.37859032216598, -66.10943334530384, -18.673344231489768, -19.869430991926766, -2.8372503903350967], [0, 0, 0, 0, 0, 0, 0, 0, 0], [0, 0, 0, 0, 0, 0, 0, 0, 0], [0, 0, 0, 0, 0, 0, 0, 0, 0], [0, 0, 0, 0, 0, 0, 0, 0, 0], [0, 0, 0, 0, 0, 0, 0, 0, 0], [0, 0, 0, 0, 0, 0, 0, 0, 0], [0, 0, 0, 0, 0, 0, 0, 0, 0], [0, 0, 0, 0, 0, 0, 0, 0, 0], [0, 0, 0, 0, 0, 0, 0, 0, 0], [0, 0, 0, 0, 0, 0, 0, 0, 0], [0, 0, 0, 0, 0, 0, 0, 0, 0], [-1536.348258130541, 9.450989576808977, -809.5065170835696, 10.159388097058494, -779.4492792906611, 8.7453879116527, -2056.042769868108, 8.342035105373135, 10.760153183914504], [0, 0, 0, 0, 0, 0, 0, 0, 0], [0, 0, 0, 0, 0, 0, 0, 0, 0], [0, 0, 0, 0, 0, 0, 0, 0, 0], [11.865556602813738, -831.3668492792209, -755.6992187474176, 6.238550086720314, -1534.3135860168863, 10.409248054846305, -803.5641761660629, -514.0643783501921, 20.10708923033659], [0, 0, 0, 0, 0, 0, 0, 0, 0], [0, 0, 0, 0, 0, 0, 0, 0, 0], [0, 0, 0, 0, 0, 0, 0, 0, 0], [0, 0, 0, 0, 0, 0, 0, 0, 0], [0, 0, 0, 0, 0, 0, 0, 0, 0], [0, 0, 0, 0, 0, 0, 0, 0, 0], [0, 0, 0, 0, 0, 0, 0, 0, 0], [0, 0, 0, 0, 0, 0, 0, 0, 0], [0, 0, 0, 0, 0, 0, 0, 0, 0], [0, 0, 0, 0, 0, 0, 0, 0, 0], [0, 0, 0, 0, 0, 0, 0, 0, 0], [0, 0, 0, 0, 0, 0, 0, 0, 0], [0, 0, 0, 0, 0, 0, 0, 0, 0], [0, 0, 0, 0, 0, 0, 0, 0, 0], [0, 0, 0, 0, 0, 0, 0, 0, 0], [0, 0, 0, 0, 0, 0, 0, 0, 0], [0, 0, 0, 0, 0, 0, 0, 0, 0], [0, 0, 0, 0, 0, 0, 0, 0, 0], [0, 0, 0, 0, 0, 0, 0, 0, 0], [0, 0, 0, 0, 0, 0, 0, 0, 0], [0, 0, 0, 0, 0, 0, 0, 0, 0], [0, 0, 0, 0, 0, 0, 0, 0, 0], [0, 0, 0, 0, 0, 0, 0, 0, 0], [0, 0, 0, 0, 0, 0, 0, 0, 0], [0, 0, 0, 0, 0, 0, 0, 0, 0], [0, 0, 0, 0, 0, 0, 0, 0, 0], [0, 0, 0, 0, 0, 0, 0, 0, 0], [0, 0, 0, 0, 0, 0, 0, 0, 0], [0, 0, 0, 0, 0, 0, 0, 0, 0], [0, 0, 0, 0, 0, 0, 0, 0, 0], [0, 0, 0, 0, 0, 0, 0, 0, 0], [-6.521324384388878, -3.3209300131613553, 6.157142756268306, -7.164178601629532, -5.625273578981212, -1.4311366894136892, -5.620403217671165, 1.8536784164758622, -1.2961268953503529], [0, 0, 0, 0, 0, 0, 0, 0, 0], [0, 0, 0, 0, 0, 0, 0, 0, 0], [0, 0, 0, 0, 0, 0, 0, 0, 0], [-15.633050103743857, -9.838215514372287, 2.1199650082330823, -31.907584119324607, -32.3385328043334, -19.490201356019316, -29.850015599176285, -28.425258148993294, -3.989787994298747], [0, 0, 0, 0, 0, 0, 0, 0, 0], [-485.53691272752553, -98.16880098422914, 6.28650012402327, -238.05994909696363, -859.891609475183, -280.92211498290715, -163.8735108511117, -24.093505163779202, 0], [0, 0, 0, 0, 0, 0, 0, 0, 0], [0, 0, 0, 0, 0, 0, 0, 0, 0], [0, 0, 0, 0, 0, 0, 0, 0, 0], [0, 0, 0, 0, 0, 0, 0, 0, 0], [0, 0, 0, 0, 0, 0, 0, 0, 0], [0, 0, 0, 0, 0, 0, 0, 0, 0], [0, 0, 0, 0, 0, 0, 0, 0, 0], [0, 0, 0, 0, 0, 0, 0, 0, 0], [0, 0, 0, 0, 0, 0, 0, 0, 0], [3.1313811300338066, 3.2157609507462843, 0.45144252272568597, -1.3672841698218803, 0.10636449870094822, 1.6414614515381487, -1.1761359367380624, 3.332682559942373, 3.2392449207396368], [0, 0, 0, 0, 0, 0, 0, 0, 0], [-5.659493488779523, 6.239632624547444, -6.319756394251158, -5.274311171249562, -7.685053375414112, -3.814782433095859, -5.89180711865921, 1.29006558487395, 0.6129289885799283], [0, 0, 0, 0, 0, 0, 0, 0, 0], [0, 0, 0, 0, 0, 0, 0, 0, 0], [-1.2928738216704092, -1.4291622356090579, -2.8019858285030774, -5.741113466818988, -1.3891084236127642, -2.759331314508792, -0.5806531883319086, 10.34065045377417, -2.900503806122062], [2.9856326563150377, -7.994597762354453, -3.48339504257085, 0.38876467753867416, -13.08755935025703, -1.1727865726414, -13.655372050794417, -6.7578808378258035, 0.39066390147401053], [-0.6288119615932102, -5.320085434361042, -8.128388349023293, -1.4942360021354015, -4.7035892611367665, 0.3109836281427003, -1.9709286687685388, 0.8978653152925289, 3.0046225160428284], [0, 0, 0, 0, 0, 0, 0, 0, 0], [2.0700936457704984, 2.463866070504171, 16.693943087727384, 2.772561415333464, -4.317643719753322, 3.01018293175978, -1.4934402413289045, 3.0922499700081136, 3.237976778455396], [0, 0, 0, 0, 0, 0, 0, 0, 0], [-17.73298614848786, -6.628466263298536, -4.203954899981542, -10.613971339358672, -17.770788067612976, -7.591814967773226, -13.610718015150312, -4.115217210447128, 2.444382062353474], [0, 0, 0, 0, 0, 0, 0, 0, 0], [0, 0, 0, 0, 0, 0, 0, 0, 0], [-2072.7955723771993, -1638.5562037144193, 18.81271633336905, 19.944712519035495, -1705.4352377200562, 18.102485680001852, -562.9250876831643, 15.301815745899326, 15.24454567722608], [-2.1906505287388227, -7.3574509039401, -2.2918204649515683, -0.5671762455883635, -7.811936812217846, 1.1790660582587607, -7.592023751441667, 2.7447656845713224, -4.410115627563293], [-832.4139330999994, -3075.243473093733, -821.1618168400954, 5.57156053220816, -6.431167201715563, -55.71120673318787, -801.5199299064985, 5.568235780894798, -106.00935013895594], [0, 0, 0, 0, 0, 0, 0, 0, 0], [0, 0, 0, 0, 0, 0, 0, 0, 0], [0, 0, 0, 0, 0, 0, 0, 0, 0], [-1346.7180428386575, 11.653455109839685, -2065.363000699687, 13.820565278026214, -1485.6881934208095, 13.059084155794974, -1441.1647327964604, 12.044371183208902, 8.580182142551596], [0, 0, 0, 0, 0, 0, 0, 0, 0], [0, 0, 0, 0, 0, 0, 0, 0, 0], [0, 0, 0, 0, 0, 0, 0, 0, 0], [9.587700190915083, -891.3894104926042, -1524.0454086279112, 10.746611968175163, -377.6923699605134, 9.096322102413009, -1101.674021369345, 9.972382522201642, 11.006384584783753], [0, 0, 0, 0, 0, 0, 0, 0, 0], [-1026.0321362938253, -168.57462231123964, -2332.3482034602325, -4.480591517775004, -384.82907618797316, -26.671909094076756, -298.31421402094446, -3.067768849245209, -53.72264307816336], [2.1593833821112485, 1.845565737053747, -7.712798545709802, -0.25432893762084263, -7.466431751118929, 1.5730343224262753, -7.187529789408113, -0.04326842827993446, 2.485087056627445], [-5.714522661745351, -2.046534412901154, -4.716250048999489, 3.3023846581111744, -6.9557998403618235, 0.47840430790691046, -6.931835106667444, -3.201604213409402, -1.7103778005408574], [0, 0, 0, 0, 0, 0, 0, 0, 0], [7.729388052769957, -115.41189318079219, -1.0469066854065296, 7.929232578188087, -51.765532998029784, 11.515408251114987, -18.686606362247616, 6.7037628040389325, 17.57491253283458], [0, 0, 0, 0, 0, 0, 0, 0, 0], [-640.0, -640.0, -353.89006536441343, -486.0947327724398, -320.0, -115.76489311476033, -320.0, -177.36231296405384, 6.777535206817323], [0, 0, 0, 0, 0, 0, 0, 0, 0], [-1139.249071681446, -1943.2766361297172, -1925.3016334877748, 6.537896962098204, -5.041360061641341, 0, -804.9471676048198, 5.563326754384397, -707.9493859147593], [0, 0, 0, 0, 0, 0, 0, 0, 0], [0, 0, 0, 0, 0, 0, 0, 0, 0], [0, 0, 0, 0, 0, 0, 0, 0, 0], [-714.3513934925777, 17.333591737277604, 19.48775884120716, -1162.5767078412641, -359.011984863782, 22.75278596165181, -90.10267647356105, 7.510799728436303, 17.981009110167435], [0, 0, 0, 0, 0, 0, 0, 0, 0], [0, 0, 0, 0, 0, 0, 0, 0, 0], [0, 0, 0, 0, 0, 0, 0, 0, 0], [14.784132436279037, -1302.9928094763907, -605.0856032459055, -2857.5089061526173, -2408.9263772617996, -3015.920884877441, -154.324565242376, 11.504370947624643, -2855.170011644572], [0, 0, 0, 0, 0, 0, 0, 0, 0], [-1295.2027815050983, -595.19221328768, -2304.9921124677408, -1761.8646812898896, -2560.0, -2694.15333472264, -2560.0, -3.6911817820611135, -2652.0974147311676], [0, 0, 0, 0, 0, 0, 0, 0, 0], [0, 0, 0, 0, 0, 0, 0, 0, 0], [0, 0, 0, 0, 0, 0, 0, 0, 0], [0, 0, 0, 0, 0, 0, 0, 0, 0], [0, 0, 0, 0, 0, 0, 0, 0, 0], [0, 0, 0, 0, 0, 0, 0, 0, 0], [0, 0, 0, 0, 0, 0, 0, 0, 0], [0, 0, 0, 0, 0, 0, 0, 0, 0], [-15.378034118273035, -221.5790868822607, -132.80082829925826, -1333.0052966053545, -198.70567194906732, 10.431812946286993, -80.52628118717955, 9.511051192311713, 9.8505983767507], [15.197414870593244, -2.4905906708492633, -87.46343863891346, -58.51177626099535, -33.53133760717424, -124.52676448818585, -1549.333836325634, -13.980673734336081, 7.718203596571897], [0, 0, 0, 0, 0, 0, 0, 0, 0], [-247.4328590328159, -3.7255508105900264, -685.447781461729, -26.007220054269286, -445.4507300657476, -993.2042192422487, -131.7402358452693, -56.41979520869598, -3.3526940335119857], [0, 0, 0, 0, 0, 0, 0, 0, 0], [0, 0, 0, 0, 0, 0, 0, 0, 0], [-16.333701658967115, -78.03099604409282, -48.97206566036631, -259.96383903618914, -536.876042581977, 9.074334046645474, -198.29682273430083, 9.084216741188415, 7.77926704748832], [9.340991189320551, 14.67632964624596, 0, 0, 0, 0, 0, 9.212478234732842, 0], [0, 0, 0, 0, 0, 0, 0, 0, 0], [0, 0, 0, 0, 0, 0, 0, 0, 0], [0.30911454806576244, -1.3960749307486684, -8.499529587854774, -8.410545262232137, -7.801941962823459, 2.175229207153433, -8.874616127316237, -3.170017108638504, -3.3768569166083795], [-371.10784282576, 7.366254268826957, 5.787257844916045, -934.1905804207947, -1589.20745463066, 7.31514031150924, -1601.273974686636, 7.6264821876222255, 4.882807210084988], [0, 0, 0, 0, 0, 0, 0, 0, 0], [10.519330478038022, -1609.1435403152504, 9.688141325604462, -2926.88785427334, -3106.2059276014434, 9.983515926588257, -2924.3425237917736, 7.011960827160678, 11.048445996284789], [0, 0, 0, 0, 0, 0, 0, 0, 0], [-2509.5563835730236, -2737.8154060316765, -3.204731566151793, -2732.122697002992, -2519.938430947084, -119.28906097884195, -2737.8154060316765, -2832.669884537148, -2913.305387977142], [0, 0, 0, 0, 0, 0, 0, 0, 0], [-1014.1895955122055, -1142.8334155151183, -165.59791664465203, -283.07651407484326, -1523.7570290339509, -2.7229081004359346, -2560.0, -1258.1403093012614, -733.6493733897192], [0, 0, 0, 0, 0, 0, 0, 0, 0], [11.930507040817865, 10.502567608459502, -292.59714410361136, -315.26143747713263, -332.28449674204217, 11.03774457624288, -2849.037836149385, 12.121742252042289, 11.293538723772667], [0, 0, 0, 0, 0, 0, 0, 0, 0], [-192.28979581304378, 0.5915941366025881, -48.667836771362786, -50.054867140201786, -5.550216458649206, -0.13696766130389126, -37.017228415115916, 1.306198859346942, -23.716380159637747], [0, 0, 0, 0, 0, 0, 0, 0, 0], [0, 0, 0, 0, 0, 0, 0, 0, 0], [-353.3738178273893, -56.14893967134914, -26.23733195204099, -663.2160793166405, -263.9326476913034, 18.339763208622365, -661.2121478405487, 7.469049981598583, 19.026880369034075], [-393.66321816049873, -1308.3634149686463, -2560.0, -1786.779385266502, -1335.9130913298802, -4.017619952139901, -1788.3604635166055, -2696.8527128959613, -424.233095015055], [-3130.3307697085365, -3058.372021136351, -3062.0512881595155, -1115.3005207241426, -2560.0, 451.11537019670834, -2835.3400435598583, 165.66682855171305, 234.1305816802484], [0, 0, 0, 0, 0, 0, 0, 0, 0], [0, 0, 0, 0, 0, 0, 0, 0, 0], [-7.863852173016221, -3.3721808474474173, -8.452432186357933, -7.967108309181408, -8.342169688086985, 2.3812508741284564, -7.7702587204371065, -2.452855014023856, -8.437506078669509], [0, 0, 0, 0, 0, 0, 0, 0, 0], [-570.8871373421987, -640.0, -960.0, -640.0, -1280.0, 3.6421412307819088, -137.9037517872572, 0, 0], [-224.98263495446528, -308.7493982016255, -1627.8278473609732, -1985.2639429173369, -176.295285333285, 8.480770968287365, -1225.4222254386907, 5.946950924302859, 6.648368310480802], [0, 0, 0, 0, 0, 0, 0, 0, 0], [0, 0, 0, 0, 0, 0, 0, 0, 0], [0, 0, 0, 0, 0, 0, 0, 0, 0], [0, 0, 0, 0, 0, 0, 0, 0, 0], [0, 0, 0, 0, 0, 0, 0, 0, 0], [0, 0, 0, 0, 0, 0, 0, 0, 0], [0, 0, 0, 0, 0, 0, 0, 0, 0], [0, 0, 0, 0, 0, 0, 0, 0, 0], [0, 0, 0, 0, 0, 0, 0, 0, 0], [0, 0, 0, 0, 0, 0, 0, 0, 0], [0, 0, 0, 0, 0, 0, 0, 0, 0], [0, 0, 0, 0, 0, 0, 0, 0, 0], [-152.24094848571337, -283.14487573968694, 61.90263638969047, 14.633959904468774, 54.73940276369581, -1273.537212812381, -292.657465262998, 38.612387934544586, 58.330997211229146], [0, 0, 0, 0, 0, 0, 0, 0, 0], [0, 0, 0, 0, 0, 0, 0, 0, 0], [0, 0, 0, 0, 0, 0, 0, 0, 0], [0, 0, 0, 0, 0, 0, 0, 0, 0], [0, 0, 0, 0, 0, 0, 0, 0, 0], [0, 0, 0, 0, 0, 0, 0, 0, 0], [0, 0, 0, 0, 0, 0, 0, 0, 0], [0, 0, 0, 0, 0, 0, 0, 0, 0], [0, 0, 0, 0, 0, 0, 0, 0, 0], [0, 0, 0, 0, 0, 0, 0, 0, 0], [0, 0, 0, 0, 0, 0, 0, 0, 0], [-2560.0, 13.804590723325594, 0, 10.637637750984478, 7.094136429582503, 3.7157162917401365, 14.775835111428748, 10.260288868712204, 13.985381719106485], [0, 0, 0, 0, 0, 0, 0, 0, 0], [0, 0, 0, 0, 0, 0, 0, 0, 0], [0, 0, 0, 0, 0, 0, 0, 0, 0], [11.313913991542737, 8.309936179483548, 0, 0, 11.665342659565187, 0, 0, 0, 0], [0, 0, 0, 0, 0, 0, 0, 0, 0], [0, 0, 0, 0, 0, 0, 0, 0, 0], [0, 0, 0, 0, 0, 0, 0, 0, 0], [0, 0, 0, 0, 0, 0, 0, 0, 0], [0, 0, 0, 0, 0, 0, 0, 0, 0], [0, 0, 0, 0, 0, 0, 0, 0, 0], [0, 0, 0, 0, 0, 0, 0, 0, 0], [0, 0, 0, 0, 0, 0, 0, 0, 0], [0, 0, 0, 0, 0, 0, 0, 0, 0], [0, 0, 0, 0, 0, 0, 0, 0, 0], [0, 0, 0, 0, 0, 0, 0, 0, 0], [0, 0, 0, 0, 0, 0, 0, 0, 0], [0, 0, 0, 0, 0, 0, 0, 0, 0], [0, 0, 0, 0, 0, 0, 0, 0, 0], [0, 0, 0, 0, 0, 0, 0, 0, 0], [0, 0, 0, 0, 0, 0, 0, 0, 0], [0, 0, 0, 0, 0, 0, 0, 0, 0], [0, 0, 0, 0, 0, 0, 0, 0, 0], [0, 0, 0, 0, 0, 0, 0, 0, 0], [0, 0, 0, 0, 0, 0, 0, 0, 0], [0, 0, 0, 0, 0, 0, 0, 0, 0], [0, 0, 0, 0, 0, 0, 0, 0, 0], [0, 0, 0, 0, 0, 0, 0, 0, 0], [0, 0, 0, 0, 0, 0, 0, 0, 0], [0, 0, 0, 0, 0, 0, 0, 0, 0], [0, 0, 0, 0, 0, 0, 0, 0, 0], [0, 0, 0, 0, 0, 0, 0, 0, 0], [0, 0, 0, 0, 0, 0, 0, 0, 0], [0, 0, 0, 0, 0, 0, 0, 0, 0], [0, 0, 0, 0, 0, 0, 0, 0, 0], [0, 0, 0, 0, 0, 0, 0, 0, 0], [-7.309754201337272, -1.5469279768713529, 4.2857654384539074, -7.906651545287637, 2.2041849745736215, -19.616252049161467, -6.865708651091357, -18.959691194816514, 2.409961224362413], [0, 0, 0, 0, 0, 0, 0, 0, 0], [0, 0, 0, 0, 0, 0, 0, 0, 0], [0, 0, 0, 0, 0, 0, 0, 0, 0], [-11.126940585985432, -56.98374558525681, 4.100064029732099, -33.356913827899504, 2.612368044052702, -23.000196408319866, -16.707852226823853, 2.712143848221599, 2.5096444137880147], [0, 0, 0, 0, 0, 0, 0, 0, 0], [-3840.0, -2190.355654071584, 6.967188149922559, 0, 0, 0, 0, 0, 0], [0, 0, 0, 0, 0, 0, 0, 0, 0], [0, 0, 0, 0, 0, 0, 0, 0, 0], [0, 0, 0, 0, 0, 0, 0, 0, 0], [0, 0, 0, 0, 0, 0, 0, 0, 0], [0, 0, 0, 0, 0, 0, 0, 0, 0], [0, 0, 0, 0, 0, 0, 0, 0, 0], [0, 0, 0, 0, 0, 0, 0, 0, 0], [0, 0, 0, 0, 0, 0, 0, 0, 0], [-2194.3911397599104, -6995.462725932081, -6421.980219641202, -3214.7970737603914, -586.1510511905138, -6958.325844670591, -7535.592537660589, -1083.9842742989263, -0.5448433784999667], [2.4111198925535993, 3.230246836800138, -5.53053533350803, -4.680471325553048, 2.9196370400272738, -0.5709189568929323, -6.290188556542704, 2.9559043470645525, 4.058850585065091], [0, 0, 0, 0, 0, 0, 0, 0, 0], [-6.722241537449301, 5.872257287383029, -7.758436691597906, -7.428238615483311, -1.2585643353671054, -8.343591361876413, -7.579547138756455, 0.9788705692898403, -2.9122258143796858], [0, 0, 0, 0, 0, 0, 0, 0, 0], [0, 0, 0, 0, 0, 0, 0, 0, 0], [-4.827222314661684, -7.276008178391814, -4.461272601755674, -7.594514337658721, 2.379505188599742, -5.8170164309240615, -5.952908911991387, 2.12823867520755, 7.3017181840434215], [2.667087950882923, -60.50048037111915, -63.995430649110766, -14.295466229521091, 0.33511982256334405, -14.694188915678767, -35.30749052779723, -14.655716748638621, -8.327076646590413], [-16.84925670037926, -17.072329225494713, -10.361030511474965, -17.29631956872705, 2.999005522555079, -9.059632895622519, -11.971735557669493, 3.114976654094372, 3.346930362986119], [0, 0, 0, 0, 0, 0, 0, 0, 0], [0, 0, 0, 0, 0, 0, 0, 0, 0], [0, 0, 0, 0, 0, 0, 0, 0, 0], [0, 0, 0, 0, 0, 0, 0, 0, 0], [0, 0, 0, 0, 0, 0, 0, 0, 0], [0, 0, 0, 0, 0, 0, 0, 0, 0], [0, 0, 0, 0, 0, 0, 0, 0, 0], [0, 0, 0, 0, 0, 0, 0, 0, 0], [0, 0, 0, 0, 0, 0, 0, 0, 0], [0, 0, 0, 0, 0, 0, 0, 0, 0], [0, 0, 0, 0, 0, 0, 0, 0, 0], [0, 0, 0, 0, 0, 0, 0, 0, 0], [0, 0, 0, 0, 0, 0, 0, 0, 0], [0, 0, 0, 0, 0, 0, 0, 0, 0], [0, 0, 0, 0, 0, 0, 0, 0, 0], [0, 0, 0, 0, 0, 0, 0, 0, 0], [0, 0, 0, 0, 0, 0, 0, 0, 0], [0, 0, 0, 0, 0, 0, 0, 0, 0], [0, 0, 0, 0, 0, 0, 0, 0, 0], [0, 0, 0, 0, 0, 0, 0, 0, 0], [0, 0, 0, 0, 0, 0, 0, 0, 0], [0, 0, 0, 0, 0, 0, 0, 0, 0], [0, 0, 0, 0, 0, 0, 0, 0, 0], [0, 0, 0, 0, 0, 0, 0, 0, 0], [0, 0, 0, 0, 0, 0, 0, 0, 0], [0, 0, 0, 0, 0, 0, 0, 0, 0], [0, 0, 0, 0, 0, 0, 0, 0, 0], [0, 0, 0, 0, 0, 0, 0, 0, 0], [0, 0, 0, 0, 0, 0, 0, 0, 0], [0, 0, 0, 0, 0, 0, 0, 0, 0], [0, 0, 0, 0, 0, 0, 0, 0, 0], [0, 0, 0, 0, 0, 0, 0, 0, 0], [0, 0, 0, 0, 0, 0, 0, 0, 0], [0, 0, 0, 0, 0, 0, 0, 0, 0], [0, 0, 0, 0, 0, 0, 0, 0, 0], [0, 0, 0, 0, 0, 0, 0, 0, 0], [0, 0, 0, 0, 0, 0, 0, 0, 0], [0, 0, 0, 0, 0, 0, 0, 0, 0], [0, 0, 0, 0, 0, 0, 0, 0, 0], [0, 0, 0, 0, 0, 0, 0, 0, 0], [0, 0, 0, 0, 0, 0, 0, 0, 0], [0, 0, 0, 0, 0, 0, 0, 0, 0], [0, 0, 0, 0, 0, 0, 0, 0, 0], [0, 0, 0, 0, 0, 0, 0, 0, 0], [0, 0, 0, 0, 0, 0, 0, 0, 0], [0, 0, 0, 0, 0, 0, 0, 0, 0], [0, 0, 0, 0, 0, 0, 0, 0, 0], [0, 0, 0, 0, 0, 0, 0, 0, 0], [0, 0, 0, 0, 0, 0, 0, 0, 0], [0, 0, 0, 0, 0, 0, 0, 0, 0], [0, 0, 0, 0, 0, 0, 0, 0, 0], [0, 0, 0, 0, 0, 0, 0, 0, 0], [0, 0, 0, 0, 0, 0, 0, 0, 0], [0, 0, 0, 0, 0, 0, 0, 0, 0], [0, 0, 0, 0, 0, 0, 0, 0, 0], [0, 0, 0, 0, 0, 0, 0, 0, 0], [0, 0, 0, 0, 0, 0, 0, 0, 0], [0, 0, 0, 0, 0, 0, 0, 0, 0], [0, 0, 0, 0, 0, 0, 0, 0, 0], [0, 0, 0, 0, 0, 0, 0, 0, 0], [0, 0, 0, 0, 0, 0, 0, 0, 0], [0, 0, 0, 0, 0, 0, 0, 0, 0], [0, 0, 0, 0, 0, 0, 0, 0, 0], [-3107.766724119192, -3076.7197650456396, 45.88341694962138, -3098.80698311376, -3222.6168566042816, -3103.4929077899124, -3103.3198257991226, -2512.084257676548, -3021.962156988733], [0, 0, 0, 0, 0, 0, 0, 0, 0], [0, 0, 0, 0, 0, 0, 0, 0, 0], [0, 0, 0, 0, 0, 0, 0, 0, 0], [0, 0, 0, 0, 0, 0, 0, 0, 0], [0, 0, 0, 0, 0, 0, 0, 0, 0], [0, 0, 0, 0, 0, 0, 0, 0, 0], [0, 0, 0, 0, 0, 0, 0, 0, 0], [0, 0, 0, 0, 0, 0, 0, 0, 0], [0, 0, 0, 0, 0, 0, 0, 0, 0], [0, 0, 0, 0, 0, 0, 0, 0, 0], [0, 0, 0, 0, 0, 0, 0, 0, 0], [-573.783669826378, 7.253555516867816, -661.5888182683836, -2381.3284690636865, -842.9703173848833, -165.62401005635706, -847.3035428762234, 5.839775171915771, 6.453307276316461], [0, 0, 0, 0, 0, 0, 0, 0, 0], [0, 0, 0, 0, 0, 0, 0, 0, 0], [0, 0, 0, 0, 0, 0, 0, 0, 0], [6.567394351080911, -2841.835480689675, 0, -1599.5047012277596, 0, -1184.891072642232, -1200.4902574709477, 8.359407626163577, 6.4813351623681505], [0, 0, 0, 0, 0, 0, 0, 0, 0], [0, 0, 0, 0, 0, 0, 0, 0, 0], [0, 0, 0, 0, 0, 0, 0, 0, 0], [0, 0, 0, 0, 0, 0, 0, 0, 0], [-1698.8036514038974, 27.592817032853844, 42.50395495966239, -2684.0592838210696, -2117.6271541759625, -408.0560697466539, -1416.3482812929258, 37.810580856154075, 18.31710326923561], [0, 0, 0, 0, 0, 0, 0, 0, 0], [0, 0, 0, 0, 0, 0, 0, 0, 0], [0, 0, 0, 0, 0, 0, 0, 0, 0], [23.754609087757302, -1339.2508624420573, 20.40837534426487, 13.174191312267673, -3126.873443699176, -3019.6079181554787, -1364.4794661563092, 19.916932833372876, 24.364364187001208], [0, 0, 0, 0, 0, 0, 0, 0, 0], [-2496.0, -3139.6891771932396, -401.967110853648, -1.4912693442948517, -1277.6378474745702, -1407.2556430599955, -1367.9831778031316, -1507.221768061816, -1451.3025467346272], [0, 0, 0, 0, 0, 0, 0, 0, 0], [0, 0, 0, 0, 0, 0, 0, 0, 0], [0, 0, 0, 0, 0, 0, 0, 0, 0], [0, 0, 0, 0, 0, 0, 0, 0, 0], [0, 0, 0, 0, 0, 0, 0, 0, 0], [0, 0, 0, 0, 0, 0, 0, 0, 0], [0, 0, 0, 0, 0, 0, 0, 0, 0], [0, 0, 0, 0, 0, 0, 0, 0, 0], [-2443.748788787736, -2577.007416891167, -2122.926931222856, -2908.1250844918927, -2562.5434052957253, -2648.050034920448, -2602.7066629137066, 44.75286497440964, 76.74528057533576], [13.762170804440423, 11.736661984583534, -8.878019768130573, 11.345912051890314, 4.987777708699568, 12.118764406049507, -4.94671266332468, 11.44506153697531, 23.55221286445115], [0, 0, 0, 0, 0, 0, 0, 0, 0], [-50.94366248246975, 6.13171684122045, -8.971572426669606, -2.595385719892331, -71.39209686191967, -122.09748718878025, -364.8726456261207, -2.817918970865512, -3.0077365294665515], [0, 0, 0, 0, 0, 0, 0, 0, 0], [0, 0, 0, 0, 0, 0, 0, 0, 0], [-631.8898042153255, -1248.8162656637824, -335.91668939975574, 10.324975551608482, -331.22739822280744, -372.62255866663673, -1222.0722742537978, 9.792366585410942, 27.348801443553], [-373.64434644940775, -658.0279951942274, -347.4392599383914, 3.9315161698597167, -1276.395759710736, -2496.0, -425.6934050851977, -1477.8522393789901, -20.986738286648087], [-1612.9524113299162, -1241.303319387538, -734.9898376255775, 11.304184556436395, -1514.9572169674684, -2130.0426151501842, -2436.8713324383943, 21.143543503657867, -2276.5759992852695], [0, 0, 0, 0, 0, 0, 0, 0, 0], [0, 0, 0, 0, 0, 0, 0, 0, 0], [0, 0, 0, 0, 0, 0, 0, 0, 0], [0, 0, 0, 0, 0, 0, 0, 0, 0], [0, 0, 0, 0, 0, 0, 0, 0, 0], [0, 0, 0, 0, 0, 0, 0, 0, 0], [0, 0, 0, 0, 0, 0, 0, 0, 0], [0, 0, 0, 0, 0, 0, 0, 0, 0], [0, 0, 0, 0, 0, 0, 0, 0, 0], [-725.4069559842233, -2555.765192855428, 13.731942510325784, -1427.2328784724425, -1064.6825177605247, -2567.1594558382662, -2311.310257159103, 7.936006516212672, 16.047164062518224], [0, 0, 0, 0, 0, 0, 0, 0, 0], [0, 0, 0, 0, 0, 0, 0, 0, 0], [0, 0, 0, 0, 0, 0, 0, 0, 0], [0, 0, 0, 0, 0, 0, 0, 0, 0], [0, 0, 0, 0, 0, 0, 0, 0, 0], [0, 0, 0, 0, 0, 0, 0, 0, 0], [0, 0, 0, 0, 0, 0, 0, 0, 0], [0, 0, 0, 0, 0, 0, 0, 0, 0], [0, 0, 0, 0, 0, 0, 0, 0, 0], [0, 0, 0, 0, 0, 0, 0, 0, 0], [0, 0, 0, 0, 0, 0, 0, 0, 0], [-2519.6466436761066, 91.49545886782037, -2730.9014978801397, -2501.624547703054, -2478.1131710098375, -2595.7704341588606, -2468.368588888281, 59.93259367905209, 86.9532673199871], [0, 0, 0, 0, 0, 0, 0, 0, 0], [0, 0, 0, 0, 0, 0, 0, 0, 0], [0, 0, 0, 0, 0, 0, 0, 0, 0], [28.709811110393595, -331.98795993063663, -169.13569427910318, -75.3904675721794, 9.698601833796738, -5.689686679217738, -463.9584602436413, 26.779404692284796, 7.887044118183372], [0, 0, 0, 0, 0, 0, 0, 0, 0], [0, 0, 0, 0, 0, 0, 0, 0, 0], [-2.2205463665657534, 2.7441468051678104, 2.7682277907762365, -8.489706424187677, -7.961888130696404, -9.505457694554288, -9.954016751113436, 1.8677160483244997, 2.0307224334274836], [0, 0, 0, 0, 0, 0, 0, 0, 0], [-1055.7849265752443, -337.05945354429986, -68.04312345437462, -430.0177107887542, -472.7683505875573, -129.1582105735086, -258.71932668611015, -19.341425602216972, 7.217628309086249], [0, 0, 0, 0, 0, 0, 0, 0, 0], [0, 0, 0, 0, 0, 0, 0, 0, 0], [-1418.0613676306073, -1421.9312377296328, 10.24616074777805, -214.4537000691832, -625.9139983231329, -329.36130641906317, -216.27708231209348, 8.726294757517291, 13.660881456496131], [-9.697315465570506, -13.458697873787191, -10.154408044936119, -12.615464809016277, -13.990326762791724, -11.190959572757233, -18.62670398598566, 2.197812111522211, -3.9160720618954863], [-1365.0259764990126, -1147.9101628395376, 4.831399344026952, -184.19937370598143, -1593.2338291117562, -627.4447492606207, -997.5474607345024, 9.039758662979267, 4.426117729096312], [0, 0, 0, 0, 0, 0, 0, 0, 0], [0, 0, 0, 0, 0, 0, 0, 0, 0], [0, 0, 0, 0, 0, 0, 0, 0, 0], [-2588.084028022098, -2468.865618193472, -2573.8177733297143, -2571.7440515934386, -2852.598477042073, -2603.926810289586, -2574.0841979899724, -2230.987803508023, 16.52427742947171], [0, 0, 0, 0, 0, 0, 0, 0, 0], [0, 0, 0, 0, 0, 0, 0, 0, 0], [0, 0, 0, 0, 0, 0, 0, 0, 0], [-2989.399092663651, -867.0855533442225, -851.8557434701171, -1450.3488539331277, -3018.1580215284976, -653.8217331842504, -3226.5405477266513, 7.907600946028717, 9.54938676301257], [0, 0, 0, 0, 0, 0, 0, 0, 0], [-10.0, -10.0, -10.0, -10.0, -10.0, -10.0, -10.0, -5.750990673053789, 0], [2.78937554355602, 1.789727394135958, -6.320359692890851, -3.113230403271933, -0.5815215408397307, -1.747977770102266, -6.665244723244731, 3.9692585504742715, 3.169981839077618], [-4.225268405852221, 2.0008460714713254, -5.404115468791212, -6.696551593577997, -1.9278910057053527, -5.932225480731516, -4.763103677240293, 2.8714012443108508, 3.399225421156291], [0, 0, 0, 0, 0, 0, 0, 0, 0], [2.1872975763140428, -17.848454891680397, -235.00027693641584, -50.04474484455344, -68.0707191191339, -24.963462134910912, -379.12089540107706, 30.126680908850528, 2.254921932759362], [0, 0, 0, 0, 0, 0, 0, 0, 0], [-9.962948970360424, -100.76368786817821, -15.953213539232411, -31.341518503529286, -50.345899075180725, -22.770657926380125, -40.064773503665734, -5.43696035665833, 2.0805446977873276], [0, 0, 0, 0, 0, 0, 0, 0, 0], [-12.693737882253775, -9.995533863910733, -17.75060284881723, -3.992711625841885, -16.36040006550678, -9.759970800964195, -8.986674800582032, 3.8956664550463196, -5.027628639250539], [0, 0, 0, 0, 0, 0, 0, 0, 0], [3.5169146246757252, -8.131191474861721, -15.876221063480573, -13.19513497833793, 4.051174910152005, 9.35027438279614, -175.7411217422459, 2.2527807390005226, 16.592438121464763], [0, 0, 0, 0, 0, 0, 0, 0, 0], [-2560.0, -519.211746920852, -667.3182089981799, -411.20342436520036, -689.8323689401848, -1280.0, -1280.0, -405.22108613358773, 2.201024928359465], [0, 0, 0, 0, 0, 0, 0, 0, 0], [0, 0, 0, 0, 0, 0, 0, 0, 0], [-2560.0, -3762.8070801444724, 269.3137091050416, 0, 545.0785216940478, 0, 785.2414877590954, 0, 0.0], [7.891230853178822, 0, 0, 0, -1.8593259103608513, 0, 0, 0, 0], [-621.4646642328279, -1166.0945483836608, -69.19325034586114, 0.4569314810651487, -967.10977817094, -654.0974375887064, -777.6132853819936, -10.545796952347207, -47.42439652447472], [0, 0, 0, 0, 0, 0, 0, 0, 0], [0, 0, 0, 0, 0, 0, 0, 0, 0], [0, 0, 0, 0, 0, 0, 0, 0, 0], [-656.2800544197207, -1072.6993536615685, -982.3570903095273, -2901.440729819036, 9.294187707467128, -3161.2267116039975, -2983.933087411874, -292.5151905821358, -513.2634636527027], [0, 0, 0, 0, 0, 0, 0, 0, 0], [0, 0, 0, 0, 0, 0, 0, 0, 0], [0, 0, 0, 0, 0, 0, 0, 0, 0], [-1468.8748841424388, -3263.5288395289704, -1768.482867487528, -143.9837328386902, 6.073702341568801, 0, -2560.0, -849.2927950112821, -180.4795995536417], [0, 0, 0, 0, 0, 0, 0, 0, 0], [-2560.0, -2560.0, -2560.0, -583.6992534443733, 59.35060802503136, 0, 0, 0, 0], [-1994.6810666614765, -2109.6284904899453, -2560.0, -2160.7792243616086, -2100.7960453295946, -1280.0, -1280.0, -963.5874977927554, 7.775891333839997], [-1415.7203002995445, -2097.960330221521, -2775.2842957926223, 10.070098586349621, 4.484950943438677, -1188.9791599007883, -2130.5670223444527, -2348.6840399495973, 10.320146055070436], [0, 0, 0, 0, 0, 0, 0, 0, 0], [7.6799428883820795, -3429.228470793958, -324.25763931233485, 9.0635394355115, 6.781498403484748, -592.1980843204598, -1989.6239904618137, 6.720622211313079, 8.73031537322057], [0, 0, 0, 0, 0, 0, 0, 0, 0], [-2560.0, -2560.0, -1576.4595766879902, -2129.55750822559, -2069.0884042441958, -2560.0, -2560.0, -2012.7251691778813, 3.3599484636480934], [0, 0, 0, 0, 0, 0, 0, 0, 0], [-640.0, -640.0, -640.0, 60.31459588808111, -437.7605474686902, 0, 76.90708978695622, 0, 0], [0, 0, 0, 0, 0, 0, 0, 0, 0], [0, 0, 0, 0, 0, 0, 0, 0, 0], [0, 0, 0, 0, 0, 0, 0, 0, 0], [-1273.8214189048708, 21.718774385918216, 21.719714831453164, 0, 0, 22.65149384037114, 0, 16.063336346578826, 21.472389295836145], [0, 0, 0, 0, 0, 0, 0, 0, 0], [0, 0, 0, 0, 0, 0, 0, 0, 0], [0, 0, 0, 0, 0, 0, 0, 0, 0], [788.2504037550466, 0, 0, -373.0114630464775, 0, 0, -1.3365692553273973, 0, 0], [0, 0, 0, 0, 0, 0, 0, 0, 0], [-1343.8805409934562, -2560.0, -733.0659034623853, -1280.0, -7.2737640687722624, -1280.0, -1280.0, -306.1486863804653, -435.9504314258638], [0, 0, 0, 0, 0, 0, 0, 0, 0], [0, 0, 0, 0, 0, 0, 0, 0, 0], [0, 0, 0, 0, 0, 0, 0, 0, 0], [0, 0, 0, 0, 0, 0, 0, 0, 0], [0, 0, 0, 0, 0, 0, 0, 0, 0], [0, 0, 0, 0, 0, 0, 0, 0, 0], [0, 0, 0, 0, 0, 0, 0, 0, 0], [0, 0, 0, 0, 0, 0, 0, 0, 0], [-2560.0, -1482.2888884247352, -2906.502848962885, -2957.6253418621045, 8.063189947192155, 0, 0, -641.8740909109814, -2360.7926603603473], [21.36697142388332, -402.4831742557477, -20.095418219726305, -47.27600682460047, -491.3280187501348, 0, 0, 0, 16.604161055306104], [0, 0, 0, 0, 0, 0, 0, 0, 0], [-1280.0, -1155.5484462102243, -165.69513355815877, -640.0, -601.6371632525877, -166.97944116654787, -640.0, -1.4952702312904513, -169.6118746134815], [0, 0, 0, 0, 0, 0, 0, 0, 0], [0, 0, 0, 0, 0, 0, 0, 0, 0], [-2560.0, -2550.734429147088, -2780.7321641999633, -2560.0, 113.10293718521629, 0, 0, 122.40618541410876, 1507.3372595630544], [467.0676233953464, 0, 0, 0, 0, 0, 0, 0, 0], [0, 0, 0, 0, 0, 0, 0, 0, 0], [0, 0, 0, 0, 0, 0, 0, 0, 0], [-15.963248681383158, -5.616603375870227, 7.1776118138397775, -20.604296356234226, 10.142358665533553, -17.107716363447686, -15.121298643767869, 5.426651056002109, 9.365124723138129], [-2560.0, -1014.5106066764687, 101.8787994157492, 0, 148.9974930954446, -1631.80202405589, 0, 0, 0.0], [0, 0, 0, 0, 0, 0, 0, 0, 0], [-1352.3008315463721, -1378.416827907134, 83.6490820730413, 0, 95.04397689143485, -1480.697938422046, -1566.4368817909653, 2.8669361128875477, 54.094625987230046], [0, 0, 0, 0, 0, 0, 0, 0, 0], [0, 0, 0, 0, 0, 0, 0, 0, 0], [0, 0, 0, 0, 0, 0, 0, 0, 0], [-101.93759479945679, -219.2806956336304, -3.870259019224095, -418.9094174420623, 9.133511723120272, -152.8645227993047, -15.888763937102809, -14.648239024639452, -63.646008486469775], [0, 0, 0, 0, 0, 0, 0, 0, 0], [-585.9938127657226, -2233.132150737429, -2560.0, -2560.0, 12.52226286381074, 0, 2.539689700218346, -156.10655097991634, 0], [0, 0, 0, 0, 0, 0, 0, 0, 0], [-2560.0, -804.147530042985, -640.0, -640.0, 10.398069447780589, 0, 0, 6.391688387045493, 0], [0, 0, 0, 0, 0, 0, 0, 0, 0], [0, 0, 0, 0, 0, 0, 0, 0, 0], [-3840.0, -2560.0, -2560.0, -2884.8634805005177, 845.6586369908794, 0, -1629.316506222771, 0, 0], [-139.6545420527501, -160.0, -160.0, -160.0, 75.40307138158165, 0, 0, 0, 0], [-2560.0, -2560.0, -3840.0, -2719.555369814904, 30.48153639514815, 0, 0, 0, 0], [0, 0, 0, 0, 0, 0, 0, 0, 0], [0, 0, 0, 0, 0, 0, 0, 0, 0], [-4992.0, -758.6207124605054, -2739.8992444593227, -1367.448614891624, -0.9719979915768244, -6208.0, -1375.888130017617, -790.2031548545959, -766.5537872414087], [0, 0, 0, 0, 0, 0, 0, 0, 0], [-1.3886444759211614, -197.18884431744033, -2560.0, -2560.0, -2724.8479596749507, -1340.9569197860694, -555.910125617044, -2226.8914682958825, -734.4503861016966], [-1276.7093391520166, -721.2479950403323, -2569.818240424896, -640.4139567410232, 8.040430801001936, -1026.6587161302325, -312.26821107505043, 11.539757389232584, 8.410844189331026], [0, 0, 0, 0, 0, 0, 0, 0, 0], [0, 0, 0, 0, 0, 0, 0, 0, 0], [0, 0, 0, 0, 0, 0, 0, 0, 0], [0, 0, 0, 0, 0, 0, 0, 0, 0], [0, 0, 0, 0, 0, 0, 0, 0, 0], [0, 0, 0, 0, 0, 0, 0, 0, 0], [-498.2036608591589, -114.93773392239031, 8.462454241281378, -1008.1335412355825, -433.1655161720444, -862.4744444541013, -881.1352202760345, -535.4856027794926, -2939.0087176978873], [0, 0, 0, 0, 0, 0, 0, 0, 0], [0, 0, 0, 0, 0, 0, 0, 0, 0], [0, 0, 0, 0, 0, 0, 0, 0, 0], [-479.6924015162358, -1620.2903298475564, 212.2004688900237, -1556.8025551865433, -1850.3041427726043, -3363.990818356934, -3172.9880951772416, -2954.3194927047502, -3011.495131669668], [0, 0, 0, 0, 0, 0, 0, 0, 0], [-2560.0, -2560.0, 35.68045585729916, 0, 0, -409.7221563501763, 0, -252.87669715172171, 0], [0, 0, 0, 0, 0, 0, 0, 0, 0], [0, 0, 0, 0, 0, 0, 0, 0, 0], [0, 0, 0, 0, 0, 0, 0, 0, 0], [0, 0, 0, 0, 0, 0, 0, 0, 0], [0, 0, 0, 0, 0, 0, 0, 0, 0], [0, 0, 0, 0, 0, 0, 0, 0, 0], [0, 0, 0, 0, 0, 0, 0, 0, 0], [0, 0, 0, 0, 0, 0, 0, 0, 0], [0, 0, 0, 0, 0, 0, 0, 0, 0], [8.371915533449334, 13.089291012353733, -281.456865830699, -87.3924158200191, -1153.8754738215878, -91.799493888677, -436.66364541767956, 8.90727907057656, 10.859835449299132], [0, 0, 0, 0, 0, 0, 0, 0, 0], [-804.757004407635, -110.9543414029089, -333.7236854831583, -234.3914110907233, -285.2499743888657, -336.4648974091451, -1449.4063741206849, -63.721048596333446, -0.6269194177551625], [0, 0, 0, 0, 0, 0, 0, 0, 0], [0, 0, 0, 0, 0, 0, 0, 0, 0], [-2869.3403690734376, -3593.8167312256314, -3337.5322699994185, -3061.445245615817, -2560.0, -3426.079831906496, -2822.8099464500638, 56.73379239790579, 42.741650621185286], [-76.59664298683867, -2510.7063519931726, -2594.0620040233266, -100.23712690939462, -1150.0241906667484, -714.1504487144216, -2510.6101058882928, -1.1931437683793602, -253.1836236777899], [-1352.811556845983, -2904.0115062760106, -2909.3155029156696, -2355.1279499637512, -2560.0, -3087.674952844247, -2860.4338382052165, -2429.8151643622523, 17.4821797493955], [0, 0, 0, 0, 0, 0, 0, 0, 0], [0, 0, 0, 0, 0, 0, 0, 0, 0], [0, 0, 0, 0, 0, 0, 0, 0, 0], [0, 0, 0, 0, 0, 0, 0, 0, 0], [0, 0, 0, 0, 0, 0, 0, 0, 0], [0, 0, 0, 0, 0, 0, 0, 0, 0], [0, 0, 0, 0, 0, 0, 0, 0, 0], [0, 0, 0, 0, 0, 0, 0, 0, 0], [0, 0, 0, 0, 0, 0, 0, 0, 0], [-2560.0, 0, 18.24845448464183, 0, 0, -9.45546676932547, -70.23339571615199, 0, -2337.5210806082546], [0, 0, 0, 0, 0, 0, 0, 0, 0], [0, 0, 0, 0, 0, 0, 0, 0, 0], [0, 0, 0, 0, 0, 0, 0, 0, 0], [0, 0, 0, 0, 0, 0, 0, 0, 0], [0, 0, 0, 0, 0, 0, 0, 0, 0], [0, 0, 0, 0, 0, 0, 0, 0, 0], [0, 0, 0, 0, 0, 0, 0, 0, 0], [0, 0, 0, 0, 0, 0, 0, 0, 0], [0, 0, 0, 0, 0, 0, 0, 0, 0], [0, 0, 0, 0, 0, 0, 0, 0, 0], [0, 0, 0, 0, 0, 0, 0, 0, 0], [-3195.2387464668714, 441.3054856583375, -2445.219258902657, -3029.5991996940043, -3093.9545975440224, -1578.0705175331086, -3222.6411388030083, 247.01833778607835, 303.58021658565656], [0, 0, 0, 0, 0, 0, 0, 0, 0], [0, 0, 0, 0, 0, 0, 0, 0, 0], [0, 0, 0, 0, 0, 0, 0, 0, 0], [122.08725707763637, -269.003590756058, -3102.1942770695487, -3151.716465379193, -2388.5347257304265, -2388.647892490308, -1580.8203491631261, -2969.4622758599685, 210.7665809176699], [0, 0, 0, 0, 0, 0, 0, 0, 0], [0, 0, 0, 0, 0, 0, 0, 0, 0], [-9.694278010822392, -4.659554790145446, -0.16819138324485772, -394.1869364061262, -29.662102512959066, -4.074348149214515, -248.40341932562418, -55.68158946299823, -53.90913381417553], [0, 0, 0, 0, 0, 0, 0, 0, 0], [-2560.0, 8.898331325581525, 8.795262120386912, -1198.7500966953837, -49.77142588597435, -132.44439025114093, -134.31987331566654, 8.158624031174826, 8.268400943916664], [0, 0, 0, 0, 0, 0, 0, 0, 0], [0, 0, 0, 0, 0, 0, 0, 0, 0], [-1932.1402137687176, -3783.642691288732, -793.8917516315701, -2145.7428672818533, -3821.836513038081, -1379.8974339414988, -2972.8239052674103, -3174.1321747499155, -3.6944467392145954], [10.72634470062402, 0, 0, -1901.2298138823476, 0, 0, 5.351159429803415, 0, 0], [-752.8840532770569, -1953.2557812101477, -57.45646090134518, -483.0844364906924, -902.8351971492734, -658.0788901874025, -1485.5609403324058, 11.322159501366157, -153.05778613488067], [0, 0, 0, 0, 0, 0, 0, 0, 0], [0, 0, 0, 0, 0, 0, 0, 0, 0], [0, 0, 0, 0, 0, 0, 0, 0, 0], [0, 0, 0, 0, 0, 0, 0, 0, 0], [0, 0, 0, 0, 0, 0, 0, 0, 0], [0, 0, 0, 0, 0, 0, 0, 0, 0], [0, 0, 0, 0, 0, 0, 0, 0, 0], [0, 0, 0, 0, 0, 0, 0, 0, 0], [0, 0, 0, 0, 0, 0, 0, 0, 0], [0, 0, 0, 0, 0, 0, 0, 0, 0], [0.10558460955010807, -12.827798876515368, -15.178819124004, -120.40796428267512, -30.31979158902932, -44.791287151468836, -13.466947586886286, 0.44880692884809026, 7.899793693025201], [-1632.9201891794944, -113.38083342783382, -837.0074321740442, -1605.1670433769027, -783.3522238923529, -2560.0, -1603.47852364662, -135.62855610163615, 8.23558588224758], [0, 0, 0, 0, 0, 0, 0, 0, 0], [-2949.041534114989, -3604.8988553127942, -3642.1750287801124, -2560.0, -3684.9037898317642, -3688.3525117939125, -2560.0, 102.33199292090302, 68.92279988590178], [0, 0, 0, 0, 0, 0, 0, 0, 0], [-3654.609230048782, -2034.2981813848662, -4516.272381262772, -162.2788409461215, -608.2676617042238, -2406.182080197943, -2165.4120888588745, 6.39014399911625, 5.062576352069793], [0, 0, 0, 0, 0, 0, 0, 0, 0], [-2560.0, -2560.0, -1285.032723648287, -2560.0, -2560.0, -1284.0450728333058, -1274.79493050089, -1737.473004114948, 9.68314152380617], [0, 0, 0, 0, 0, 0, 0, 0, 0], [-4.577701255557767, 0.17625136335553182, -3.9518326497669034, 3.4679598341845344, -18.059710920103555, -7.189244519146164, -4.952791065146723, -3.042526411933985, 0.6423142771530936], [-794.3767032082299, -623.8296214792738, -18.61115458809603, 13.363107512875835, -1414.0895337558775, -1231.0414406168172, -1150.1846640453919, -55.85574346329149, -898.1636061092446], [0, 0, 0, 0, 0, 0, 0, 0, 0], [47.2313421797246, -3038.797735962682, 30.05409924015529, 42.247956755039496, -3049.872392391563, -1161.3683763291237, -2436.3574510448766, 27.36420149737199, 33.86292982962476], [0, 0, 0, 0, 0, 0, 0, 0, 0], [-2560.0, -1334.516276305513, -2311.1671036228445, -2037.6477276162343, -1759.2564388016863, -1759.2564388016863, -1598.5152205724373, -2107.730419900661, -5.1223229900076275], [0, 0, 0, 0, 0, 0, 0, 0, 0], [-1280.0, -1280.0, -1034.4129860406783, 17.934753720028134, 0, 0, 0, 0, 0], [0, 0, 0, 0, 0, 0, 0, 0, 0], [13.151860195671949, 10.116766306473306, -489.84451466082766, 11.46611633840056, -1517.6990032524861, -1051.7640791613862, -1085.3185458498542, 11.363231011722743, 12.199757641139879], [0, 0, 