[[3.012122999207032, 3.40173678449581, 3.370192332552023, 2.7200250916326554, 3.0565696545973333, 3.346156694483585, 3.1637847864385673, 4.108554598156877, 2.9188070237508716], [0, 0, 0, 0, 0, 0, 0, 0, 0], [-5.55806062553507, 1.958066246600033, 0.9996229622989001, 0.5768301309571173, 5.715249488717355, 2.2381566338810597, 1.060383786968599, 1.1114694404096974, 1.2548560060852303], [0, 0, 0, 0, 0, 0, 0, 0, 0], [0, 0, 0, 0, 0, 0, 0, 0, 0], [-4.066425993104978, -4.122363058941717, 5.7717158858542605, 6.6201442765553455, 6.325309787994014, 6.368854747118017, 6.1842236997854805, 5.915344494950765, 4.997231364948936], [3.132152742043589, -6.408817276160631, 3.2081037936842915, -0.39889539643019406, 3.3727465773702683, 1.3812366275241472, 1.527808770680014, 3.368871969979215, 0.6948468553664473], [-6.254477538290606, -5.672705046810133, -2.1260338854217133, 2.7838580014336642, 3.0840353850098188, 2.035158509665547, 2.8506796253140907, 2.053126778451312, 2.7626479668913815], [0, 0, 0, 0, 0, 0, 0, 0, 0], [0, 0, 0, 0, 0, 0, 0, 0, 0], [0, 0, 0, 0, 0, 0, 0, 0, 0], [-3.68194064276169, 2.471793602114607, -3.9264697798454335, 6.59107282284903, 5.882369428173307, 4.886835009074341, 6.104796576550587, 4.258119650121711, 6.551555637358356], [0, 0, 0, 0, 0, 0, 0, 0, 0], [0, 0, 0, 0, 0, 0, 0, 0, 0], [0, 0, 0, 0, 0, 0, 0, 0, 0], [1.9098607417623727, -5.831257353868409, -4.605585299773505, -1.3758085648731948, 3.202991473066307, 3.2348098705062203, 3.0609836974258124, -1.7553369023564604, 3.175819045612198], [0, 0, 0, 0, 0, 0, 0, 0, 0], [-3.494351395686336, -3.1453112694493846, -3.7888086925870867, -0.3928550789328662, 6.2428974416013485, 6.370345687326584, 3.4259657468181675, 4.891380741325636, 6.520248739986968], [1.227942210398917, 1.6086738334178807, -5.988141899934141, 0.47760953581634746, 4.014506715796683, 0.8810157534926457, 1.2654017074683779, -1.4228215672773425, -0.5179089323165824], [-4.053749554021426, 3.736056195187123, -4.250884493883071, 5.924829506552341, 4.191704000188927, 7.151968652776997, 6.605031629566136, 6.170615355541617, 6.651588034851693], [0, 0, 0, 0, 0, 0, 0, 0, 0], [5.834877972233135, -4.154310626703115, -3.837595249575972, 5.281953559042705, 6.2085542012907595, 7.127241129653647, 6.26934462543896, 5.560141797846278, 6.177626295033136], [0, 0, 0, 0, 0, 0, 0, 0, 0], [-1.2231539981338146e+25, -5.76390250063434e+34, -172288914.89590162, 1.330452289276156, 5.83078509050949, 0.19977225241859814, 1.6217601005933986, 2.276196628309752, -3138672483.421826], [0, 0, 0, 0, 0, 0, 0, 0, 0], [-3.115469245820519, -3.441491717725974, -3.5569977854624346, 7.055287271157228, 4.450170560060547, 5.09093269041321, 6.139450087212882, 4.6750830197528215, 6.177226716654636], [0, 0, 0, 0, 0, 0, 0, 0, 0], [0, 0, 0, 0, 0, 0, 0, 0, 0], [0, 0, 0, 0, 0, 0, 0, 0, 0], [-4.0048209249779205, 7.088740209791718, 6.338760034546197, -3.9364810438677695, 6.423575523076257, 3.548821185552054, 6.237303842062248, 5.380107616238359, 4.899499372156058], [0, 0, 0, 0, 0, 0, 0, 0, 0], [0, 0, 0, 0, 0, 0, 0, 0, 0], [0, 0, 0, 0, 0, 0, 0, 0, 0], [7.12252785172879, -3.8610295900266385, 6.234653669666386, -3.7961718705056247, 6.199370865768793, 3.7818640574232543, 5.750308951926282, 5.534175453201801, 5.943101523234526], [0, 0, 0, 0, 0, 0, 0, 0, 0], [-11.638670602755944, -12.572133486759158, -1.9745862623404529, -13.810741917152386, -2.6872470295018354, -2.654569928454844, -2.693722958899823, -2.85163716136759, -4.94449579350197], [0, 0, 0, 0, 0, 0, 0, 0, 0], [0, 0, 0, 0, 0, 0, 0, 0, 0], [0, 0, 0, 0, 0, 0, 0, 0, 0], [0, 0, 0, 0, 0, 0, 0, 0, 0], [0, 0, 0, 0, 0, 0, 0, 0, 0], [0, 0, 0, 0, 0, 0, 0, 0, 0], [0, 0, 0, 0, 0, 0, 0, 0, 0], [0, 0, 0, 0, 0, 0, 0, 0, 0], [-3.8952187602792274, -3.6125750735538515, -1.3344054932197142, -3.5003040523465585, 7.325678938256806, 4.080413014567744, 2.8500594476977623, 0.04233249165167652, 5.333260180983249], [7.182934004644608, 4.97194637187822, -4.000788002722391, -3.7440997685403086, 6.199655518902276, 5.608701214388381, 6.174614186707489, 5.307007204832506, 6.457296608447894], [0, 0, 0, 0, 0, 0, 0, 0, 0], [-12.23993724008932, -0.13454034198049736, -11.361491483315245, -11.957359332912478, -4.00693252485726, -2.7346681440651155, -3.055518097972504, -2.679668181157327, -2.6407821650963497], [0, 0, 0, 0, 0, 0, 0, 0, 0], [0, 0, 0, 0, 0, 0, 0, 0, 0], [-3.7006992125334714, -3.475222929030637, -3.2971979072515656, -2.1156939410592113, 7.2340176869835355, 5.15390623185548, 5.027446222952067, 6.602762746077531, 6.512453740299936], [6.985039850513638, -4.5432987809652605, -4.138792910991517, 2.6315228754724047, 1.1458118050702666, 3.1715028320756105, -2.3417092845910235, -1.7633984281454609, 4.839115985915445], [-1.684912726732264e+129, -2.7315968229487217e+113, -6.3105201135632584e+125, -1.237479099236677e+132, -2.585054572569131, -1.5318191216670104e+60, -1.189702175376052e+130, -1.2049273644965226e+47, -6.45452263659058e+53], [0, 0, 0, 0, 0, 0, 0, 0, 0], [3.083167996531306, 2.464501037475239, -0.20618361867668164, -5.991060962329982, 5.509602798476967, 2.9752308379417896, 2.934309256030378, -0.9858564251524166, -0.12865795723918827], [-6.402121043662108, 2.8083312962926894, 2.785122852430392, -6.33138145594901, 5.611762935780238, -2.082736860517409, 2.5651183537545035, -1.2432766257751644, 2.806381749732109], [0, 0, 0, 0, 0, 0, 0, 0, 0], [7.047592759222726, -3.9924606872653685, 5.001320632376649, -3.878712526035745, 6.17554602219995, 4.48158303112098, 5.7389743181777355, 5.475132248390576, 4.88715172608963], [0, 0, 0, 0, 0, 0, 0, 0, 0], [-12.296342582054141, -13.45813027644887, -3.2657121686382715, -9.766795400848087, -1.2556921376580914, -2.961905078490406, -2.628574032830984, -2.8166707399455415, -3.070862987911619], [0, 0, 0, 0, 0, 0, 0, 0, 0], [-4.529885597880423, -6.38447370451967, 2.6705863072738456, -4.515018651364505, 5.243952028047214, 2.9762302292348677, -2.6733880352351056, 3.0837754381487716, 4.1152436401712045], [0, 0, 0, 0, 0, 0, 0, 0, 0], [6.673853945999376, 4.745137254452137, -4.053864585799905, -3.910343608891532, 6.257443032561279, 0.16761703967501518, 1.1978602856490879, 4.571810220830419, 5.459032743992644], [0, 0, 0, 0, 0, 0, 0, 0, 0], [-12.394130346509783, -3.4382760718343777, -11.769621694098833, -10.749374977317226, -3.1720687641554832, -3.0482044791875964, -1.640370979010059, -3.4353231488310136, -2.7798876281277556], [0, 0, 0, 0, 0, 0, 0, 0, 0], [0, 0, 0, 0, 0, 0, 0, 0, 0], [-3.236447208659354, -2.901505779359479, -4.492591235425177, -3.28838635342748, 6.787373379110467, 6.72816694367328, 7.0422940968444445, 6.618622548015843, 6.730135274091884], [5.232933496334086, -3.982658066008243, -3.434374158519155, -2.7791620981263128, 4.74933975216447, 2.8828493583516623, 1.5646692130227704, 4.12325241564338, 6.976016576520791], [-7.3993360024588e+77, -1.309269514156259e+60, -3.2690967854034445e+74, -3.5571127157736265e+78, 6.757286097076234, 3.7610536932532272, -1818148204752614.8, -6.984699652006811e+61, 4.777571170412932], [0, 0, 0, 0, 0, 0, 0, 0, 0], [0, 0, 0, 0, 0, 0, 0, 0, 0], [-5.407703080167606, 0.32448463485788814, -7.037567181003605, -6.724124637632882, 6.482599678594783, 3.0062958010648746, -2.648371426553277, 1.2696653207584783, -1.0330790912843182], [0, 0, 0, 0, 0, 0, 0, 0, 0], [0.8401166567037176, 0.8421536661307023, -4.769019754233175, -4.659720273662863, 6.851019705402897, 1.1682922578365438, 2.8752153375403613, 2.8259225562346977, 1.0383610793340137], [-2.750234480823337, -2.773176511597416, -0.43697182096641196, -2.5023960412605515, 6.802712644741964, 6.5220315660436095, 3.6622301535035566, 6.078805815085202, 6.314668286173733], [0, 0, 0, 0, 0, 0, 0, 0, 0], [0, 0, 0, 0, 0, 0, 0, 0, 0], [0, 0, 0, 0, 0, 0, 0, 0, 0], [0, 0, 0, 0, 0, 0, 0, 0, 0], [0, 0, 0, 0, 0, 0, 0, 0, 0], [0, 0, 0, 0, 0, 0, 0, 0, 0], [-7.397911007288923, 2.6640469627508283, 2.639991965804212, 2.4821668883141705, -7.315772566421319, 3.095923632151757, 2.585465970683914, 2.75325737777338, 2.57118208598087], [0, 0, 0, 0, 0, 0, 0, 0, 0], [0, 0, 0, 0, 0, 0, 0, 0, 0], [0, 0, 0, 0, 0, 0, 0, 0, 0], [2.6161146595947633, -7.183387756960556, 3.3613833640228385, 2.4793084793519435, -6.639401543713882, 2.593354747211608, 2.656178457675338, -2.043728875584094, 2.6687990204034064], [0, 0, 0, 0, 0, 0, 0, 0, 0], [-6.03299470624486, -4.7171458035229, 5.894408840930158, -2.5244077494239816, -6.087695088595014, -2.5144016156049442, 2.3620142444209167, -2.483859402660465, -1.4943658032537566], [0, 0, 0, 0, 0, 0, 0, 0, 0], [0, 0, 0, 0, 0, 0, 0, 0, 0], [0, 0, 0, 0, 0, 0, 0, 0, 0], [0, 0, 0, 0, 0, 0, 0, 0, 0], [0, 0, 0, 0, 0, 0, 0, 0, 0], [0, 0, 0, 0, 0, 0, 0, 0, 0], [0, 0, 0, 0, 0, 0, 0, 0, 0], [0, 0, 0, 0, 0, 0, 0, 0, 0], [-6.944081302931373, -7.088736968811158, -7.123690083883855, -2.1537715120588095, -7.11752551861072, -3.2151514319166665, 2.873466114600271, -2.895859364897987, -2.8767562505604207], [2.6197082242071685, 2.7616172234162493, -7.079703502095501, 2.772121645563314, -7.1591529080616825, 2.7219221630779113, 2.7196468106371556, 2.700796352251361, 5.036778437100265], [0, 0, 0, 0, 0, 0, 0, 0, 0], [-4.561030470242262, 4.84831608252116, -4.660546629784992, -2.612778712481973, -5.965834864583233, -1.8488846584816598, -2.2062291220689194, 2.930850103367346, 1.4889015256854812], [0, 0, 0, 0, 0, 0, 0, 0, 0], [0, 0, 0, 0, 0, 0, 0, 0, 0], [-7.445595352379994, -7.209676486536431, -7.160210765316758, -3.093977845966315, -7.190418073264668, -1.920499672027955, -2.77833695346959, 2.9332615773857316, -2.890033045252333], [3.2527898972966467, -6.878884643483453, -5.111278074121359, -2.3592977832745907, -6.092383630742317, -3.0811078798929943, 1.4926559114955473, -3.1077560204057915, -1.8245820730013842], [-7.272061828159497, -7.086307818668016, -7.028628281138921, -2.280402655930213, -6.5164172377953, -2.3443063245108484, -2.868151766986701, -2.090488571782687, 3.309700189889718], [0, 0, 0, 0, 0, 0, 0, 0, 0], [0, 0, 0, 0, 0, 0, 0, 0, 0], [0, 0, 0, 0, 0, 0, 0, 0, 0], [0, 0, 0, 0, 0, 0, 0, 0, 0], [0, 0, 0, 0, 0, 0, 0, 0, 0], [0, 0, 0, 0, 0, 0, 0, 0, 0], [0, 0, 0, 0, 0, 0, 0, 0, 0], [0, 0, 0, 0, 0, 0, 0, 0, 0], [0, 0, 0, 0, 0, 0, 0, 0, 0], [-3.3041587981490657, -1.443523784471376, 6.689156896840801, -3.42441555725022, -2.6564855943584504, 4.7177564153170835, 4.774218272721251, 0.5073154648598548, 4.749512974622146], [0, 0, 0, 0, 0, 0, 0, 0, 0], [0, 0, 0, 0, 0, 0, 0, 0, 0], [0, 0, 0, 0, 0, 0, 0, 0, 0], [0, 0, 0, 0, 0, 0, 0, 0, 0], [0, 0, 0, 0, 0, 0, 0, 0, 0], [0, 0, 0, 0, 0, 0, 0, 0, 0], [0, 0, 0, 0, 0, 0, 0, 0, 0], [0, 0, 0, 0, 0, 0, 0, 0, 0], [0, 0, 0, 0, 0, 0, 0, 0, 0], [0, 0, 0, 0, 0, 0, 0, 0, 0], [0, 0, 0, 0, 0, 0, 0, 0, 0], [-2.8388402148715493, 6.900513336588377, -3.154919004782286, -2.848245560031364, -3.297943865759876, 6.351273282949868, 5.5332722783270025, 3.1266662677011814, -1.996242116176088], [0, 0, 0, 0, 0, 0, 0, 0, 0], [0, 0, 0, 0, 0, 0, 0, 0, 0], [0, 0, 0, 0, 0, 0, 0, 0, 0], [7.619985698650443, 5.026960959430391, -3.368636362641208, 6.015444734704505, -0.485860095124079, 6.308337070747013, 4.0964134574454505, 1.6693053227939012, 1.2318906589882617], [0, 0, 0, 0, 0, 0, 0, 0, 0], [0, 0, 0, 0, 0, 0, 0, 0, 0], [2.8170875334492544, 2.8427063153016783, 2.606520620159956, -6.602642525751953, -6.603400650286458, -1.2783579636317715, 2.7433146713608334, 2.7330623896036785, 2.6749182474547153], [0, 0, 0, 0, 0, 0, 0, 0, 0], [-4.986592957154263, -0.8961499763957861, -3.1899320950575136, -4.504937512345038, -4.461112684250762, -0.9355315897970446, 5.158914713931158, 2.805066712051045, -2.7764068360366103], [0, 0, 0, 0, 0, 0, 0, 0, 0], [0, 0, 0, 0, 0, 0, 0, 0, 0], [-3.7270873605459203, -2.95037565823965, -1.7491274634554839, -4.406813405040852, -4.023066966533213, -2.727064155797042, 7.598964390258168, 5.020623499367202, -2.508767811070448], [3.246323919898048, -6.056912562916812, 4.590199825753693, -5.256466803752339, -4.527877772557584, 4.883145374037033, 6.466110364433643, 4.989587364765096, 2.355125863878577], [-7.298726024670888, -7.199520880366009, -2.4178073897551395, -7.110094304501924, -7.121713560731239, -2.1018927829949257, -2.3259790244498406, -3.3155089519495835, 3.1250314290598897], [0, 0, 0, 0, 0, 0, 0, 0, 0], [0, 0, 0, 0, 0, 0, 0, 0, 0], [0, 0, 0, 0, 0, 0, 0, 0, 0], [-3.000907098381512, -1.3221723409936592, -3.2307093019214888, -3.620727314134651, -2.9214127797351597, 2.5827517100892132, 8.297051155089143, 4.921371996617465, -0.8707968173455032], [0, 0, 0, 0, 0, 0, 0, 0, 0], [0, 0, 0, 0, 0, 0, 0, 0, 0], [0, 0, 0, 0, 0, 0, 0, 0, 0], [-2.376128602899818, -6.271798702020812, -6.6781727391138865, -8.065713276867601, -6.886558061238299, -2.26614667100765, 3.5843729881422446, -2.3479657082971777, 1.8173709149261468], [0, 0, 0, 0, 0, 0, 0, 0, 0], [-3.5625932656793937, -3.738798606766051, -2.96657343461026, -3.2322228496515693, -3.4669075232827318, -3.30848064801401, 7.828431157548346, -1.7599690458097763, 2.3753345514451034], [2.971523688629865, 3.6406876658475644, -4.419448944815276, -5.309836158016569, -5.635802508614606, 2.616624864036987, 3.9642584669676415, 3.654741098029448, -0.16817108455358332], [-6.776144095529048, -2.94234468299815, -7.078226167011442, -6.189147986729797, -6.543816594794036, -2.7423154469411903, -2.6512528178213417, -2.3968131589918675, 3.047821457837897], [0, 0, 0, 0, 0, 0, 0, 0, 0], [-3.0454126710209817, -7.257626636675267, -6.946272779806898, -7.170576137123588, -7.166394483396473, -3.470786672955017, -2.8076667367041663, 3.116639500197652, -3.3337265909635874], [0, 0, 0, 0, 0, 0, 0, 0, 0], [-3.4513655294690824, -3.306781043283541, -3.40316600414174, -3.2876317618757342, -3.140684687553026, 4.9252617648244, 6.18628631160354, 8.433233571102685, 4.0808572695593375], [0, 0, 0, 0, 0, 0, 0, 0, 0], [-2.560749917624812, -2.916670327789712, -2.8424339646465597, -2.734990729857647, -3.209374130285491, 6.251280661409838, 5.703753008201096, 3.894396410888411, 7.300859273780409], [0, 0, 0, 0, 0, 0, 0, 0, 0], [2.6505114748876535, -0.34842566203576647, 4.249871052775028, 2.223140154716126, -6.801708129202304, 1.8133898247703728, 2.4839321520170703, 0.05742967900708432, 2.925472688866342], [-6.189073262472041, 5.881227715386851, 3.0176855480378952, 4.133063313655472, -5.422738792104166, 4.625153688143838, 2.9638101615777512, 3.0300111983946145, 2.911726944336005], [0, 0, 0, 0, 0, 0, 0, 0, 0], [6.3178088246919915, -3.965784134336385, 6.085287581524481, 6.450687102333594, -4.068922611507954, 6.161495342127207, 6.222035333475146, 4.848404481201625, 6.3459579921740845], [0, 0, 0, 0, 0, 0, 0, 0, 0], [-10.901160210283749, -12.773189425740608, -1.8207767442819263, -2.773497107816908, -12.207541382658981, -4.920990383992203, -2.5548073220734904, -2.78432114115227, 2.349751584704305], [0, 0, 0, 0, 0, 0, 0, 0, 0], [-6.307794386150537, -6.908467557731713, -2.6602717925795027, -2.0221239924039867, -6.775017837382287, -2.6171257328502735, -2.6859959746929603, 2.84980560266889, -3.3098623329522314], [0, 0, 0, 0, 0, 0, 0, 0, 0], [3.5588438861197234, 3.741166363303055, -5.016869859187653, 3.7350973011482127, -5.37490836160103, 3.7371850169484153, 3.293033891536499, 3.3235050962377164, 3.73418512136346], [0, 0, 0, 0, 0, 0, 0, 0, 0], [-5.9879845203575695, -0.8368927294817567, -6.629954331854329, -1.8464549207067507, -7.065508016365069, -1.806927136193087, -2.5520688748468254, 2.2049660651305043, 5.243608137809634], [0, 0, 0, 0, 0, 0, 0, 0, 0], [0, 0, 0, 0, 0, 0, 0, 0, 0], [0.1509886159504581, -1.9432885709747696, -1.3551982206889923, 6.520714687050589, -2.9026686020682657, 6.5437407965788825, 6.5915477482905445, 6.124786413638417, 7.011594039294449], [1.127687931824985, -6.847295862539158, -6.886603505754301, -3.2629563061491895, -6.606576449190081, -0.8792977400439383, -2.350856832372563, 2.851303062379835, -1.8516609178262957], [-4.102402258081012, -3.173595962430899, -3.727722295604879, 6.325944167644117, -3.2479133653782712, 5.968496241358702, 4.700445371134941, 8.397561380462932, 5.270375312336329], [0, 0, 0, 0, 0, 0, 0, 0, 0], [0, 0, 0, 0, 0, 0, 0, 0, 0], [-6.594254746599961, -0.5937421918051443, -6.7010323329606845, 1.9345442838905076, -6.971579101971194, -2.860292741675746, 3.735640542223008, -3.1558397450000895, -1.9809509673744414], [0, 0, 0, 0, 0, 0, 0, 0, 0], [-2.8430944214041647, -12.465203031954902, -16.616804831073416, -2.8233986969437193, -15.259374306617712, -3.173965556171117, -2.879560826557144, -5.674302696287057, -2.898661243170286], [-2.3941813256804076, -4.262812387428574, -0.9917142733511732, 6.4508863810496635, -2.383946402044219, 6.437882833229057, 7.442548336789416, 6.34871465083737, 6.5190336751870035], [0, 0, 0, 0, 0, 0, 0, 0, 0], [0, 0, 0, 0, 0, 0, 0, 0, 0], [0, 0, 0, 0, 0, 0, 0, 0, 0], [0, 0, 0, 0, 0, 0, 0, 0, 0], [6.384360918017075, 7.014870090157773, 6.226274302269729, -3.8265129154801354, -3.891243961348074, 3.919956095378438, 6.408877633005815, 6.392310503808027, 6.269478316049597], [0, 0, 0, 0, 0, 0, 0, 0, 0], [-13.292802241570296, -4.3615974425948, -3.043088669492449, -12.84368985932667, -8.575418508058291, -2.5669345903459297, -2.707556101952232, -5.377844187115755, -1.7420290005276535], [0, 0, 0, 0, 0, 0, 0, 0, 0], [0, 0, 0, 0, 0, 0, 0, 0, 0], [-2.887798685224838, -2.381050771071803, 6.757905648289424, -2.6343769219546735, -2.9533534528641106, 4.142881897519862, 6.7343481858966, 3.8388224673515268, 8.094440169631799], [-0.12741510509495946, -16.146431404996896, -5.369540687127445, -11.615109638756952, -25.321565768792254, -3.2854912693431775, -3.206465665938601, -0.20989280053977, -3.824126880438851], [-4.046854488105927, -3.12756411964679, 0.19160507025084383, -2.5850691357477382, -3.5439865090957774, -0.8333177896404607, 6.279419708235402, 7.088140333492166, 0.27895877044268014], [0, 0, 0, 0, 0, 0, 0, 0, 0], [0, 0, 0, 0, 0, 0, 0, 0, 0], [0, 0, 0, 0, 0, 0, 0, 0, 0], [-2.6864811551828756, 6.5443483512685034, -2.8982011936445806, -3.705770278615197, -1.6220700928106644, 4.829081425343521, 4.411313949591674, 6.617587597141233, 7.903840585979803], [0, 0, 0, 0, 0, 0, 0, 0, 0], [0, 0, 0, 0, 0, 0, 0, 0, 0], [0, 0, 0, 0, 0, 0, 0, 0, 0], [6.473949898675546, -3.2896471181301123, -3.0738485271020175, -4.606657197021935, -3.5751672432280768, 6.382303235618172, 4.8359280292914635, 7.606149371643837, 6.471028604429614], [0, 0, 0, 0, 0, 0, 0, 0, 0], [-12.311146266513246, -11.799810721130822, -16.29877426918283, -11.470706577142206, -16.422317563400025, -2.3971992015388945, -6.931289119636398, -3.801208526952755, -3.471797850092351], [-2.8294559455964388, -2.9353927566688394, -11.533061889932842, -9.940012292682741, -13.582645949467732, -3.050971650465426, 2.689153895797407, -4.401134180800049, -2.9545611993193726], [-3.584655509629266, -2.270985450366005, -5.887215342986191, 1.6852558806910798, -4.471504533884886, 4.449002671137332, 7.833845731392412, 6.658497426102123, 7.118880656520249], [0, 0, 0, 0, 0, 0, 0, 0, 0], [7.157343092323385, -2.9422241849953537, -2.897520190511294, -4.005572559686225, -3.2759634923683496, 6.6850720535557855, 6.762289143000267, 6.6409803957079845, 6.638798195813319], [0, 0, 0, 0, 0, 0, 0, 0, 0], [-1.6159405819723328e+92, -4.373878631787606e+98, -1.8818298478975982e+83, -4.348886358520491e+106, -4.4343106529840037e+101, -6.665070097098602, -1.721082427233811, -6.49597507173892, -6.131766784910581], [0, 0, 0, 0, 0, 0, 0, 0, 0], [-3.3292272510390017e+36, -4.266667288971772e+38, -1961514156174.1025, -6.969632046169533e+42, -1.041037625229619e+35, -0.42439233188516834, 7.0929839866244055, 2.852843295239838, -2.853106778101547], [0, 0, 0, 0, 0, 0, 0, 0, 0], [0, 0, 0, 0, 0, 0, 0, 0, 0], [-6.64515360840344, -2.1619593579608107, -2.0795807290883292, -6.701996685754267, -6.865599800934136, 2.9676922527171135, -1.7170772707922266, -2.540757688582171, -1.935891034538173], [0, 0, 0, 0, 0, 0, 0, 0, 0], [-2.5647581070834278, -15.375360159869956, -3.349970959168978, -12.21195648248905, -14.06355811948114, -2.007543248327504, -3.494212371242997, -3.934605822062756, -3.3209899932287543], [-3.3695731737218644, -4.124993400045979, 6.556393708968499, -6.046908658651699, -3.1019041041363202, 7.7501736184223144, -1.804280702085764, 2.52531703277299, 3.626579963111042], [0, 0, 0, 0, 0, 0, 0, 0, 0], [0, 0, 0, 0, 0, 0, 0, 0, 0], [0, 0, 0, 0, 0, 0, 0, 0, 0], [0, 0, 0, 0, 0, 0, 0, 0, 0], [-0.9304251676783375, 2.4083047846544985, -5.921425747715487, -5.238335971099882, -4.9675124908909165, 6.026930190133347, -2.620861697943489, -1.3946388386360626, -1.93502580334962], [-0.8035703641295648, 6.4425808528576995, -0.7859164702067825, 1.1010110322323188, -1.6554382400308805, 7.123595613589944, 0.6016756302690276, -0.9412437446662856, 5.105002144170683], [0, 0, 0, 0, 0, 0, 0, 0, 0], [6.670990436182324, -1.8277086358018324, -1.198252481693094, -1.917908091698489, -1.7451566272578467, 8.057368963411852, 3.3904484925396554, 6.19794260089874, 6.279415461187209], [0, 0, 0, 0, 0, 0, 0, 0, 0], [-1.590236582659415e+207, -1.2858170878723015e+210, -2.567392789777971e+209, -2.51284053064882e+208, -1.0480826890123107e+205, 2.7945108107665173, -1.6035051650747845e+141, -8.863087041601503e+126, -3.6981184922748776e+141], [0, 0, 0, 0, 0, 0, 0, 0, 0], [-2.8352108267077228e+162, -1.0119843302668389e+175, -1.1022988440221265e+165, -2.4032549503299952e+160, -1.360938092232393e+167, -4.299643311226385e+101, -4.7290875682976266e+89, -7.427695991240346e+86, -2.3718384905952203], [0, 0, 0, 0, 0, 0, 0, 0, 0], [0, 0, 0, 0, 0, 0, 0, 0, 0], [0, 0, 0, 0, 0, 0, 0, 0, 0], [0, 0, 0, 0, 0, 0, 0, 0, 0], [0, 0, 0, 0, 0, 0, 0, 0, 0], [-4.102256300426162e+203, -2.6935104859523375e+214, -2.1860351223307026e+213, -2.3813780598748583e+208, -1.9775392626015537e+211, -1.0002815473491733e+166, -1.6528246716892356, -2.5410693258174896e+162, -5.019374937232326e+150], [0, 0, 0, 0, 0, 0, 0, 0, 0], [0, 0, 0, 0, 0, 0, 0, 0, 0], [0, 0, 0, 0, 0, 0, 0, 0, 0], [0, 0, 0, 0, 0, 0, 0, 0, 0], [0, 0, 0, 0, 0, 0, 0, 0, 0], [0, 0, 0, 0, 0, 0, 0, 0, 0], [-3.756932642569634, 3.784237268945543, 6.42491277270607, 5.272549175602224, 6.199036019585785, -4.030204912263473, 6.681473047737697, 5.733801384823954, 5.985404564556625], [0, 0, 0, 0, 0, 0, 0, 0, 0], [0, 0, 0, 0, 0, 0, 0, 0, 0], [0, 0, 0, 0, 0, 0, 0, 0, 0], [4.34570680424528, -3.9751237927197236, 6.183006627434509, 4.045076649626651, 6.131369663862032, -4.0374073087281594, 5.148668424753074, 4.5350577685148625, 5.932977514521552], [0, 0, 0, 0, 0, 0, 0, 0, 0], [3.991012246284627, -0.8328492703791519, 7.190962265983621, 3.152112353384041, 0.9222399314600502, -0.24012592212586492, 5.031809834269461, 0.7235694896328693, 5.009578727378491], [0, 0, 0, 0, 0, 0, 0, 0, 0], [0, 0, 0, 0, 0, 0, 0, 0, 0], [0, 0, 0, 0, 0, 0, 0, 0, 0], [0, 0, 0, 0, 0, 0, 0, 0, 0], [0, 0, 0, 0, 0, 0, 0, 0, 0], [0, 0, 0, 0, 0, 0, 0, 0, 0], [0, 0, 0, 0, 0, 0, 0, 0, 0], [0, 0, 0, 0, 0, 0, 0, 0, 0], [-8.684336802374501e+122, -1.0882384239675412e+117, -2.4916649607586016e+110, -3.406299542527971e+63, -3.8073654344483094e+27, -7.631914777380735e+128, -8.976496409218014e+31, -6.602997478085333e+29, 0.2883270291276928], [6.017210736381777, 6.126766627467123, -4.081228188438037, 4.637143590978635, 6.379828457639157, -4.068392249751557, 5.361597517685151, 4.079898408623672, 5.340535320463317], [0, 0, 0, 0, 0, 0, 0, 0, 0], [-14.06430698411409, 5.093388239227174, -13.520213748013127, -2.8117346234118914, -5.991279430182249, -14.00247304323085, -2.718958564709436, -2.1784354753174595, -3.8620026166039647], [0, 0, 0, 0, 0, 0, 0, 0, 0], [0, 0, 0, 0, 0, 0, 0, 0, 0], [-6.577112701273196, -0.38088420955203905, -3.3226255750798837, 5.906912768209048, 6.335818470979438, -4.6441666525738, 6.38731422783536, 4.686334371717783, -3.3616945436150165], [2.2883411954883988, -8.67048903930989, -9.608870941351876, -5.740555132479839, -2.071935814637182, -11.736490983198447, -2.6763821085036335, -2.6759528105807533, -3.0465190821882455], [-3.583182701328112, -2.807466942895121, -3.003707050808444, 4.7189575057161255, 7.011150070361849, -3.6206058585705394, 1.4721279860657572, -0.2515176477049631, 3.034243373643864], [0, 0, 0, 0, 0, 0, 0, 0, 0], [0, 0, 0, 0, 0, 0, 0, 0, 0], [0, 0, 0, 0, 0, 0, 0, 0, 0], [0, 0, 0, 0, 0, 0, 0, 0, 0], [0, 0, 0, 0, 0, 0, 0, 0, 0], [0, 0, 0, 0, 0, 0, 0, 0, 0], [0, 0, 0, 0, 0, 0, 0, 0, 0], [0, 0, 0, 0, 0, 0, 0, 0, 0], [0, 0, 0, 0, 0, 0, 0, 0, 0], [-1.4110952383911615, -2.4950196827046005, 7.667983810445606, -2.1865258179694624, 6.824593919078014, -2.961079095971641, 5.535387686916182, -1.280053390196779, 3.119868181520134], [0, 0, 0, 0, 0, 0, 0, 0, 0], [0, 0, 0, 0, 0, 0, 0, 0, 0], [0, 0, 0, 0, 0, 0, 0, 0, 0], [0, 0, 0, 0, 0, 0, 0, 0, 0], [0, 0, 0, 0, 0, 0, 0, 0, 0], [0, 0, 0, 0, 0, 0, 0, 0, 0], [0, 0, 0, 0, 0, 0, 0, 0, 0], [0, 0, 0, 0, 0, 0, 0, 0, 0], [0, 0, 0, 0, 0, 0, 0, 0, 0], [0, 0, 0, 0, 0, 0, 0, 0, 0], [0, 0, 0, 0, 0, 0, 0, 0, 0], [-3.7457745645895173, 7.098411558076523, -2.943259511065338, -3.949846741121702, 6.668973992290306, -2.7912704070384224, -1.3747778127951409, 6.4693807453529075, 3.3779200529956945], [0, 0, 0, 0, 0, 0, 0, 0, 0], [0, 0, 0, 0, 0, 0, 0, 0, 0], [0, 0, 0, 0, 0, 0, 0, 0, 0], [6.90407537180795, -1.3098794350924703, -1.3740104998790177, 0.4543674157093762, 6.782592240985352, -1.5260026984906059, -0.13487344936976786, -0.9762734979738932, 1.613371716111522], [0, 0, 0, 0, 0, 0, 0, 0, 0], [0, 0, 0, 0, 0, 0, 0, 0, 0], [3.0135677413509363, 2.838343951469076, 2.8819715851963825, -5.860838896774175, 2.821681624989263, -6.022560715848963, 3.3235684947277155, 4.094193616286222, 3.367798647846179], [0, 0, 0, 0, 0, 0, 0, 0, 0], [-6.423562810574817, -0.011606801349508311, -0.37982750196274173, -7.2664287808301715, 2.429563944933695, -4.710613963428346, 5.883653261042738, -2.6925581694907335, -2.065664601069001], [0, 0, 0, 0, 0, 0, 0, 0, 0], [0, 0, 0, 0, 0, 0, 0, 0, 0], [-3.112177395047947, -3.5218187371426417, 6.319832899294885, -1.1347693636169107, 6.38339100543118, -1.8533603945542334, 8.225376264894425, 6.312612358030208, 6.313062553775551], [3.473293067727076, -7.080572382621638, 2.434355242264597, -6.871768509522129, -2.376860525140208, -5.738542065039063, 3.97159470630768, -1.8899614087823895, 0.5917927259586291], [-6.8067382636178335, -7.904814857570787, 3.276991769522863, -5.900596224089011, 6.188496638087907, -8.48145061409555, -1.4726010859669594, 3.2334101672810087, 3.4032219909954864], [0, 0, 0, 0, 0, 0, 0, 0, 0], [0, 0, 0, 0, 0, 0, 0, 0, 0], [0, 0, 0, 0, 0, 0, 0, 0, 0], [-3.7453806658664774, -2.2022331202358068, -2.8866808529889822, -3.275061083743692, 3.2017753132865847, -4.377545477744438, 7.319191297056962, -1.5553425784291364, 6.703887927406145], [0, 0, 0, 0, 0, 0, 0, 0, 0], [0, 0, 0, 0, 0, 0, 0, 0, 0], [0, 0, 0, 0, 0, 0, 0, 0, 0], [-3.3576535915374323e+42, -1.962842760492225e+120, -4.0359291653550144e+108, -3.0064681876953984e+111, -3.744126840210161e+63, -3.5071448111918724e+106, -1.718323627359988e+58, -3.664399966694119e+60, 5.845744967821311], [0, 0, 0, 0, 0, 0, 0, 0, 0], [-1.0127201686686922e+132, -6.654353308306864e+116, -7.839385545711953e+129, -1.138946520021153e+125, -7.20851720459722e+66, -2.369106048725095e+121, 6.652013504289905, -3.6404059169532e+36, 7.739147271649078], [3.2922536217719935, 0.47169996498652295, -8.429421657033554, -7.827654534572725, 1.2722568194747879, -7.521625323428064, 2.9490604759299237, -1.3381961062455954, -1.2294643584569798], [-6.786612659784586, 2.8765041203735815, -6.52545073271872, -6.961347646333396, 5.213474199443838, -6.917048060117077, 2.9665009095235044, 3.0920074667983792, 3.002662029452197], [0, 0, 0, 0, 0, 0, 0, 0, 0], [6.434895147128229, -1.0834073263309634e+86, -1.504538458835866e+67, -1.9220733075837096e+75, 6.546370274484323, -1.4899778544641304e+79, 6.88790550637417, 6.479284181313675, 6.520080027333037], [0, 0, 0, 0, 0, 0, 0, 0, 0], [-6.227350048637935e+204, -2.3630821555972805e+224, -7.037049799589052e+213, -6.759527960001353e+213, -1.0946828143604526e+186, -2.630256631606445e+211, 3.7390947618250996, -1.5542668938582508e+179, -1.0087883635348625e+181], [0, 0, 0, 0, 0, 0, 0, 0, 0], [-8.10116682781853, -7.096739542956305, -4.841915889097297, -7.688522060749961, 4.5905602009435, -6.87387218013066, 2.9071693029295433, 2.861967369112523, -1.3068601071282293], [0, 0, 0, 0, 0, 0, 0, 0, 0], [0, 0, 0, 0, 0, 0, 0, 0, 0], [0, 0, 0, 0, 0, 0, 0, 0, 0], [0, 0, 0, 0, 0, 0, 0, 0, 0], [0, 0, 0, 0, 0, 0, 0, 0, 0], [0, 0, 0, 0, 0, 0, 0, 0, 0], [0, 0, 0, 0, 0, 0, 0, 0, 0], [0, 0, 0, 0, 0, 0, 0, 0, 0], [0, 0, 0, 0, 0, 0, 0, 0, 0], [-2.775138263541628, -1.0875898700069353, 7.521687904148046, 6.391044543609369, -3.2066594796542813, -3.3853628423045032, -2.819850836859387, -2.476454484599681, 2.1800149135118327], [0, 0, 0, 0, 0, 0, 0, 0, 0], [0, 0, 0, 0, 0, 0, 0, 0, 0], [0, 0, 0, 0, 0, 0, 0, 0, 0], [0, 0, 0, 0, 0, 0, 0, 0, 0], [0, 0, 0, 0, 0, 0, 0, 0, 0], [0, 0, 0, 0, 0, 0, 0, 0, 0], [0, 0, 0, 0, 0, 0, 0, 0, 0], [0, 0, 0, 0, 0, 0, 0, 0, 0], [0, 0, 0, 0, 0, 0, 0, 0, 0], [0, 0, 0, 0, 0, 0, 0, 0, 0], [0, 0, 0, 0, 0, 0, 0, 0, 0], [-1.76232714990546, 7.339207476482735, -3.5883217449904525, 6.1990015881151095, -3.6998579740701496, -3.31917298926429, 5.843277992110134, 3.550921617266863, -1.0986019200856698], [0, 0, 0, 0, 0, 0, 0, 0, 0], [0, 0, 0, 0, 0, 0, 0, 0, 0], [0, 0, 0, 0, 0, 0, 0, 0, 0], [7.744854072670817, -4.116570016976486, -4.1354916654775264, 5.666194246290439, -0.7115090151585948, -4.443007088025967, -0.7765170543598616, -1.391981117424271, 4.3228380759487735], [0, 0, 0, 0, 0, 0, 0, 0, 0], [0, 0, 0, 0, 0, 0, 0, 0, 0], [0, 0, 0, 0, 0, 0, 0, 0, 0], [0, 0, 0, 0, 0, 0, 0, 0, 0], [0, 0, 0, 0, 0, 0, 0, 0, 0], [0, 0, 0, 0, 0, 0, 0, 0, 0], [0, 0, 0, 0, 0, 0, 0, 0, 0], [0, 0, 0, 0, 0, 0, 0, 0, 0], [0, 0, 0, 0, 0, 0, 0, 0, 0], [0, 0, 0, 0, 0, 0, 0, 0, 0], [0, 0, 0, 0, 0, 0, 0, 0, 0], [0, 0, 0, 0, 0, 0, 0, 0, 0], [0, 0, 0, 0, 0, 0, 0, 0, 0], [0, 0, 0, 0, 0, 0, 0, 0, 0], [0, 0, 0, 0, 0, 0, 0, 0, 0], [0, 0, 0, 0, 0, 0, 0, 0, 0], [0, 0, 0, 0, 0, 0, 0, 0, 0], [0, 0, 0, 0, 0, 0, 0, 0, 0], [0, 0, 0, 0, 0, 0, 0, 0, 0], [0, 0, 0, 0, 0, 0, 0, 0, 0], [0, 0, 0, 0, 0, 0, 0, 0, 0], [0, 0, 0, 0, 0, 0, 0, 0, 0], [0, 0, 0, 0, 0, 0, 0, 0, 0], [0, 0, 0, 0, 0, 0, 0, 0, 0], [0, 0, 0, 0, 0, 0, 0, 0, 0], [0, 0, 0, 0, 0, 0, 0, 0, 0], [0, 0, 0, 0, 0, 0, 0, 0, 0], [0, 0, 0, 0, 0, 0, 0, 0, 0], [0, 0, 0, 0, 0, 0, 0, 0, 0], [0, 0, 0, 0, 0, 0, 0, 0, 0], [0, 0, 0, 0, 0, 0, 0, 0, 0], [0.6465706471088462, 6.382665708223717, 6.401596966440506, -2.1584126186706474, -5.223082018026903, -4.706781378430691, 7.14697947186471, 4.33914360446371, 6.112344266301005], [0, 0, 0, 0, 0, 0, 0, 0, 0], [0, 0, 0, 0, 0, 0, 0, 0, 0], [0, 0, 0, 0, 0, 0, 0, 0, 0], [7.036401118577906, -0.8935901021311956, 5.437632004133771, -4.3935931455886905, -3.998988949897223, -1.0449957863941668, 5.936515736260004, -1.8687402953875685, 5.343618774040119], [0, 0, 0, 0, 0, 0, 0, 0, 0], [-2.465691641486441e+77, -4.352006261969066e+86, -6.4886765544290945, -6.411176907381432e+84, -2.3967617631703052e+82, -1.0228388889541433e+91, -7.0004780123859165, -3.511439907225491, -2.9727223983648354], [0, 0, 0, 0, 0, 0, 0, 0, 0], [0, 0, 0, 0, 0, 0, 0, 0, 0], [0, 0, 0, 0, 0, 0, 0, 0, 0], [0, 0, 0, 0, 0, 0, 0, 0, 0], [0, 0, 0, 0, 0, 0, 0, 0, 0], [0, 0, 0, 0, 0, 0, 0, 0, 0], [0, 0, 0, 0, 0, 0, 0, 0, 0], [0, 0, 0, 0, 0, 0, 0, 0, 0], [-3.0688517338959645e+125, -1.2293716461422696e+125, -2.4501839202176446e+127, -2.3228986192935293e+120, -2.368473183467467e+127, -1.3166428972009052e+113, 6.74651954756737, -2.3053912165205337, -9.779672478675782e+50], [6.424137965212278, 4.3796946182142165, -3.4872267530785366, -4.734892653095126, 0.22577639341375644, -5.032543633835799, 4.881028869257301, 4.538651263210172, 3.634152388093085], [0, 0, 0, 0, 0, 0, 0, 0, 0], [-7.536260793615755e+35, -6.278477983014364, -8.677393258395023e+49, -5.42103516271405e+38, -8.23186769105784e+23, -2.818813876418487e+42, -2.5392923928448807, -6.2814892056081355, -7.642458766074007], [0, 0, 0, 0, 0, 0, 0, 0, 0], [0, 0, 0, 0, 0, 0, 0, 0, 0], [-2.9465861310907904e+78, -6.784225098491474e+71, -1.6237000897849825e+71, -8.390779374422724e+70, -5.426905340674961e+81, -1.0239164237493018e+85, 7.648832383300874, 5.558443305951853, 5.3617154472756505], [4.7241857135209155, -7.472457548675141e+176, -3.4751570462735754e+177, -2.105099434583483e+180, -9.5226772345791e+178, -4.2548105620555685e+171, -1.8405011304370724e+132, -6.508297535334844e+121, -5.860694114699697e+141], [-1.3101765606407115e+35, -3.2291470261940044e+42, -3.2653921868185175e+38, -6.923887065485912e+37, -6.922711182107234e+42, -8.433119196494842e+23, -3.0966462441269504, -1.2131248940466965, 3.2621246964054214], [0, 0, 0, 0, 0, 0, 0, 0, 0], [6.213823160977229, 6.19637489423664, 6.2053629065023514, 4.689079770057602, -4.095252037169246, -3.736061759730327, 6.305619690930868, 6.215412524346932, 6.110791323731065], [0, 0, 0, 0, 0, 0, 0, 0, 0], [-13.443107823269361, -2.739361350297245, -3.1832609983495637, -2.578139294004704, -14.471041592909831, -11.964008285957126, -4.693665398761905, -3.0574020018857637, -1.764046395431078], [0, 0, 0, 0, 0, 0, 0, 0, 0], [0, 0, 0, 0, 0, 0, 0, 0, 0], [-3.5324964957923473, -3.1307354306707906, 6.759762456141238, 6.6506880217005335, -3.870946059613914, -2.132594260836392, 6.63792268087143, 6.358745151164678, 8.292218254404201], [-1.757208434120777, -15.458403438624742, -2.741528044950778, -2.60965670820359, -9.217504521060228, -13.911187326481205, -2.7838870804494853, -2.4358411748414426, -2.4818178223280976], [-3.7645371690051106, -5.085158602144237, 6.525054941439018, 5.0367470617719885, -3.4353509864107603, -0.7328191068540717, 6.421300230940866, 7.752156553917613, 6.472482556152421], [0, 0, 0, 0, 0, 0, 0, 0, 0], [0, 0, 0, 0, 0, 0, 0, 0, 0], [0, 0, 0, 0, 0, 0, 0, 0, 0], [-2.6553888671954375, -0.4852380707572488, -1.473236704978303, -0.6358971661719743, -3.159973289292495, -3.225751280692056, 5.534761092230842, -2.325352259859779, 6.813711973601562], [0, 0, 0, 0, 0, 0, 0, 0, 0], [0, 0, 0, 0, 0, 0, 0, 0, 0], [0, 0, 0, 0, 0, 0, 0, 0, 0], [4.51605156312969, -3.4605585251436137, -3.9507060273888883, 3.026861003844934, -3.747113997159846, -3.4804407831899358, -2.873224253090152, 7.949365523314562, 6.423012289711471], [0, 0, 0, 0, 0, 0, 0, 0, 0], [-8.51500351179229e+125, -2.6048521271320577e+121, -6.990911985019215e+129, -1054056370658.8005, -3.6215401259105327e+120, -3.4582516828609396e+126, -1095163011796173.9, -9.871894531776935e+82, 7.8105361031804925], [-3.601803856471321, -3.3127620246360583, -12.264340394557, -5.999101781645865, -12.865353001762948, -12.254211618605915, -2.6296419719537223, -5.630731128203237, -5.525746990508196], [-3.106472566523424, 6.678837125553894, -3.1716907869957325, 6.014516020512576, -2.7347979450696744, -3.1144550993746827, 7.619812363442794, 6.650779533976099, 5.500098081050263], [0, 0, 0, 0, 0, 0, 0, 0, 0], [7.104382098716316, -3.597101653835702, -3.123276592391435, 6.312178496462684, -3.5135362435707256, -2.6944223235208367, 6.942115765852291, 5.8794895321089395, 7.3660228193469], [0, 0, 0, 0, 0, 0, 0, 0, 0], [-2.5385748875019547e+97, -2.6799638363313654e+106, -1.5803140022244362e+101, -6.277201283283942, -5.719477351710631e+98, -9.141585186055622e+110, 1.4752537656165572, -6.786208539796846, -5.947671469216828], [0, 0, 0, 0, 0, 0, 0, 0, 0], [-18.45937692240981, -14.456036133936625, -11.724889309113955, -2.5744634403131483, -15.43222248933845, -12.896799453121407, -6.740066961900607, -3.3675588399775473, -3.3856832081670385], [0, 0, 0, 0, 0, 0, 0, 0, 0], [0, 0, 0, 0, 0, 0, 0, 0, 0], [0, 0, 0, 0, 0, 0, 0, 0, 0], [-2.3898219487760004, 6.5825240505665805, 6.8517862947006005, -2.0661202041686018, -2.813800316072175, -2.739027696390019, 7.079907175139102, 6.643828326205449, 7.867724155818173], [0, 0, 0, 0, 0, 0, 0, 0, 0], [0, 0, 0, 0, 0, 0, 0, 0, 0], [0, 0, 0, 0, 0, 0, 0, 0, 0], [6.7095796314304526, -3.0495825374906502, 6.866330164253943, -2.5880929087813103, -2.7449704109232824, -2.692628893681563, 6.80568250620138, 8.144797238239637, 6.876345392262504], [0, 0, 0, 0, 0, 0, 0, 0, 0], [-1.9535278052471627e+239, -3.7848927086607946e+231, -7.788324676910888e+194, -2.3755047408625062e+230, -9.460657537433569e+230, -8.126642590123224e+240, -2.547217358050883e+193, -1.7583321430403455e+210, -2.669421411896738], [0, 0, 0, 0, 0, 0, 0, 0, 0], [0, 0, 0, 0, 0, 0, 0, 0, 0], [0, 0, 0, 0, 0, 0, 0, 0, 0], [0, 0, 0, 0, 0, 0, 0, 0, 0], [0, 0, 0, 0, 0, 0, 0, 0, 0], [0, 0, 0, 0, 0, 0, 0, 0, 0], [0, 0, 0, 0, 0, 0, 0, 0, 0], [0, 0, 0, 0, 0, 0, 0, 0, 0], [-2.1136717727438894, -2.1600115732857437, -0.43560766356565095, -2.4782322514225505, -1.5188324273915494, -3.008535397170691, -0.32864305945689054, 7.360935298607874, 6.783048062100813], [6.4244711418463964, 7.199346499967959, -4.149291877300941, 1.9871294083630242, -2.392994849237243, -3.1440158312091766, 6.879790265892497, 6.617513562529562, 6.785306804274232], [0, 0, 0, 0, 0, 0, 0, 0, 0], [-4.3355251572823804e+218, -2.816348389106166e+183, -8.831138647497944e+221, -6.777815223400243e+221, -1.5194721279560944e+229, -2.8195220617051705e+223, -1.424341693281439e+186, -2.433163093866992e+165, -1.853982725743458], [0, 0, 0, 0, 0, 0, 0, 0, 0], [0, 0, 0, 0, 0, 0, 0, 0, 0], [1.7983568175055624, -0.46112254910143013, -2.396059465444051, -0.07696203180479166, -3.109179629455544, -4.024900206951531, 6.8764007330568475, 6.92081887068791, 6.7169151893997405], [-3.951514133304465e+193, -1.3488456911578842e+228, -3.0324655826794015e+229, -3.8812952307605084e+231, -6.267063437039635e+232, -2.3707316396815227e+227, -2.0282502581616417, -5.008942905707275e+205, -1.4877783759820742e+182], [1.5283360758925078, 5.246443744760395, 0.28929574051899754, -2.5665056722637365, -3.3985862928449015, -3.0279783688620636, 8.265270445337292, 6.578511133469353, -0.7693089565503268], [0, 0, 0, 0, 0, 0, 0, 0, 0], [3.740476768617338, -1.6455189981567198, 5.876438411073208, -5.653004048263677, -5.043289830752815, -5.819406229719272, 3.546539602748722, 1.996548133579469, 3.5860148330608244], [-6.819660866464586, 2.9156589243497315, 2.917070515522108, -6.983958624812198, -6.818153613215399, -7.034477798193294, -2.6708233695848067, 5.05133709050832, 3.0878659248626708], [0, 0, 0, 0, 0, 0, 0, 0, 0], [7.17397627306366, -3.101074471586636, 4.199897621688928, -3.486247524163762, -5.316643404058286, -3.472783652770515, 6.499308032938929, 0.7168119083267631, 3.9912038204892237], [0, 0, 0, 0, 0, 0, 0, 0, 0], [-5.162838851503947e+117, -6.790453123654967e+130, -6.31224303688376, -1.6543125174717168e+113, -1.4584419663209052e+125, -1.3850523445789506e+105, -2.8578755640796674, -6.428574333406439, -6.327080112904999], [0, 0, 0, 0, 0, 0, 0, 0, 0], [-6.733103081528971, -7.188089580194896, -3.122007193368592, -7.135981556747007, -6.70192724890159, -6.8827964370396, -1.8070254321306436, 3.9703465159459506, -3.2642324896766968], [0, 0, 0, 0, 0, 0, 0, 0, 0], [-2.519816704608716, -2.309044337331226, -7.0114674934343215, -7.342004893463637, -9.642730076177457, -6.695049290807809, 2.441841325714367, -2.4375239790157637, 5.097983560449334], [0, 0, 0, 0, 0, 0, 0, 0, 0], [-1.1625853474895422, -1.4226958029754528, -1.0916533536909712, 1.5293497120889592, -4.052574778042759, -2.670837465361876, 2.373648769829906, 0.0056454603270092996, 7.660089678278773], [0, 0, 0, 0, 0, 0, 0, 0, 0], [0, 0, 0, 0, 0, 0, 0, 0, 0], [-2.6932070127946686, -1.6242002770602506, 1.816648281366028, 5.833739567671508, 3.790814700394874, -0.993142914401411, 7.841849539491738, 5.678784528715168, 6.791158449018103], [2.3036333321866453, 0.7553782499960406, 2.2928020717051374, -0.9752317644361828, -2.036725846260872, -3.6585744236882083, 5.846203248055451, 5.075295395128045, 7.5361734229519275], [-1.5143984067196827e+75, -1.659523304878945e+77, -3.6426632846877755e+82, -7.673030859789362e+58, -4.040056571405382e+97, -5.775216672888015e+81, -0.49590906382177646, 7.559617058236703, 5.629841985260045], [0, 0, 0, 0, 0, 0, 0, 0, 0], [0, 0, 0, 0, 0, 0, 0, 0, 0], [-8.805793466450384, -3.385201264300572, -7.0079099613070595, -6.9590232224001305, -7.001418165968311, -10.743390267739507, 3.890628690491706, 1.3670244015250779, -3.0662289623254453], [0, 0, 0, 0, 0, 0, 0, 0, 0], [-2.666674726659636e+182, -6.748467004251655e+213, -4.465327103721974e+218, -8.779431972085831e+218, -9.037759499076847e+221, -1.807369478710586e+222, 3.310020690202724, -1.197535533240063e+188, -4.942656302404618e+180], [-1.2910100140286945e+76, -3.6751240982803004e+77, -2.121495741105655e+81, -5.737479714748013e+72, -5.757705864265487e+75, -1.2463121407780922e+87, 7.497690597312361, 5.1621892693122025, 4.400820866286498], [0, 0, 0, 0, 0, 0, 0, 0, 0], [0, 0, 0, 0, 0, 0, 0, 0, 0], [0, 0, 0, 0, 0, 0, 0, 0, 0], [0, 0, 0, 0, 0, 0, 0, 0, 0], [2.498359639858054, -0.6652762480465885, 2.8834490027689554, 3.9359397125689237, 2.8667585071009904, -5.800172251767915, 1.4661548005830265, 2.6192987656376525, 2.93935351901005], [-3.9568567967785255, 4.244266454191566, 7.1756053008492025, 5.065880718562779, 5.786396249350728, -4.190667568164709, 6.160174558152618, 5.716344870283391, 4.7398249940194415], [0, 0, 0, 0, 0, 0, 0, 0, 0], [5.781924586348097, -3.867187872647598, 6.201014601101614, 4.100609199453982, 6.686558570251156, -4.03930817836679, 5.979057943966402, 4.7771730801558885, 5.276480688759149], [0, 0, 0, 0, 0, 0, 0, 0, 0], [-5.944340125064628, -4.829774712370738, 1.2819460336892083, -0.42984090862876323, 6.391738353937267, 1.8409266078455198, 2.157507733726113, -0.650315471707682, -0.48672537973953167], [0, 0, 0, 0, 0, 0, 0, 0, 0], [-3.9195842289909897, -2.8330464534283464, 2.2681020058057113, 4.538993051449328, 5.657459280214442, -4.171513914741887, 6.500039152142465, 5.992349223536602, 5.20386993425981], [0, 0, 0, 0, 0, 0, 0, 0, 0], [2.7966867476298574, 2.6959449468924523, -6.238391897615246, 2.4056264610285067, 5.156669113551489, -6.509680742014606, 2.7996270685664264, -1.3091541990862694, -0.8759657185628195], [0, 0, 0, 0, 0, 0, 0, 0, 0], [-6.292187989963745, -0.9402049628729252, -6.097800260037529, 4.3219234358686185, 2.9646383254634725, -7.102512843487668, -1.9573309289519338, 2.4401212062094304, 0.9860814860334105], [0, 0, 0, 0, 0, 0, 0, 0, 0], [0, 0, 0, 0, 0, 0, 0, 0, 0], [-1.0236465486359676, -0.9711163431967282, 5.193031419681184, 6.234562873745498, 6.487251468171267, -2.577826456958951, 6.298194173746928, 6.369435249231781, 0.5470976568833759], [0.21169548752497303, -7.035583845127337, -6.046770514722683, 3.7158857756492205, 3.4466742347353616, -5.84526312196822, 1.6985437609192844, 3.2550498558922936, -1.3297251814904472], [-1.7707634409511023e+77, -1.208839869518077e+69, -3.584835978157489e+73, -1.0954872701506874e+90, 6.667681860873353, -6.397267402490672e+73, 5.612904448382037, 5.2701052947440035, 3.1460244435550035], [0, 0, 0, 0, 0, 0, 0, 0, 0], [0, 0, 0, 0, 0, 0, 0, 0, 0], [-10.319875651348557, -2.084373245478582, -13.66323483403054, -2.90086561636007, -5.762761319648021, -12.48101317536408, -2.7186462805032363, -2.9065161849870482, -2.1136189472907443], [0, 0, 0, 0, 0, 0, 0, 0, 0], [-1.942984701339478, -12.338289846674165, -9.485284368820517, -4.809554650751162, -2.698969243243099, -7.22941336235777, -3.647219900655596, -2.879840319087641, 3.249984106403908], [-3.045915573294855, -3.1884264096017185, -3.779137004867694, 6.612839819362199, 6.70427090418223, -2.698625719561922, 6.875295784249477, 6.6363080992725045, 7.806679510599604], [0, 0, 0, 0, 0, 0, 0, 0, 0], [0, 0, 0, 0, 0, 0, 0, 0, 0], [0, 0, 0, 0, 0, 0, 0, 0, 0], [0, 0, 0, 0, 0, 0, 0, 0, 0], [3.468563308369454, 3.343751482707826, 3.1647985328748165, -4.526087280198519, 3.253499141384804, -4.874544526577392, 3.558941680311138, 3.0068572609435167, 3.431322249330966], [0, 0, 0, 0, 0, 0, 0, 0, 0], [-6.928576124057235, -1.3377068400526815, 3.310302531874827, -6.560675906284523, 2.328888410619066, -7.855180361552961, 0.8164149481888914, -1.585857575354195, 2.9798329672482176], [0, 0, 0, 0, 0, 0, 0, 0, 0], [0, 0, 0, 0, 0, 0, 0, 0, 0], [-5.780506447434016e+67, -1.6943880748312998e+71, 4.871933055042903, -4.481298983860912e+68, 4.360001709057113, -2.0987529628267297e+66, 4.966834080868154, 4.117147225453321, 6.727269863458616], [-0.7255815293069556, -5.969191325693245, 4.189100987442767, -6.959685404723994, 1.6984932676939275, -6.718450900155139, 0.35239719270035263, -0.6836738771716047, 2.9954113690363586], [-2.248374884928058e+110, -3.6707948091080867e+101, -7.50446887565653e+57, -4.0155108806215985e+102, -1.300047575548217e+28, -7.47939248965398e+86, 5.838120882699387, -1.2639797277959502e+59, -2.473603685314955e+54], [0, 0, 0, 0, 0, 0, 0, 0, 0], [0, 0, 0, 0, 0, 0, 0, 0, 0], [0, 0, 0, 0, 0, 0, 0, 0, 0], [-6.682028884756374, 2.863267964944524, -7.075956155938405, -6.850851877059716, 3.937735012522038, -6.95135643482651, 2.8389007821383494, 2.959291471312942, 2.9733895019040903], [0, 0, 0, 0, 0, 0, 0, 0, 0], [0, 0, 0, 0, 0, 0, 0, 0, 0], [0, 0, 0, 0, 0, 0, 0, 0, 0], [2.952238163829022, -9.977312637874444, -7.081091201364471, -6.901870399813913, 2.950771767442343, -7.395075919079461, 2.9679801438897253, 3.5720684182971576, 1.9417375460358433], [0, 0, 0, 0, 0, 0, 0, 0, 0], [-5.377385848168585, -4.736777777598785, -5.470779935092998, -5.6868206088325355, 4.60600847139192, -8.496922959853794, 1.985544219169097, 3.255984460358424, 3.159793640208877], [2.4160444762626643, 0.2910277122660565, -6.7048293217081785, -6.530810307974182, -0.09757476736799697, -6.011021259857683, -1.7965374949232913, -0.5040829798095282, 5.186793791471142], [-3.831484351893501, 6.471021545859163, -3.2480435633951, -2.1244196336722876, 0.31991101361240837, -3.2800241346022454, 6.501286394151052, 4.5248815510653895, 8.156746796567464], [0, 0, 0, 0, 0, 0, 0, 0, 0], [4.760466711041551, 1.903135005119525, 3.0354663243028384, -3.0804775041560255, 6.6925267237362265, -3.358759577230088, 6.736907398787729, 5.947184876342296, 8.15088849331779], [0, 0, 0, 0, 0, 0, 0, 0, 0], [-7.060038322085535e+219, -4.136955051408892e+217, -2.82449941731233e+217, -2.1548438145626456e+215, -5.593298322063896e+188, -1.7837948819580747e+219, -1.1116124955459292e+180, -2.8040779294055075e+185, 3.3192041047276954], [0, 0, 0, 0, 0, 0, 0, 0, 0], [-8.305136109181375e+122, -1.6540167927937126e+123, -2.772916671208807e+130, -5.816636944390698e+136, -5.362830961357567e+64, -8.721718514816654e+128, 8.176662771825066, -5.403464895159099e+66, 6.884941627051564], [0, 0, 0, 0, 0, 0, 0, 0, 0], [0, 0, 0, 0, 0, 0, 0, 0, 0], [-3.149189189201808, 1.7689317487983884, 5.762990268674569, -4.296118592246112, 7.242927608518386, -3.992921048985517, 5.0944594974398605, -2.2778746260402274, -1.9671751600492904], [0, 0, 0, 0, 0, 0, 0, 0, 0], [1.9101505551962945, -1077821171689543.2, -1.268027278810088, -1.26032136015257e+20, 6.558015108818353, -6.615588217048462, -0.7604679250688019, 0.5134477744898853, 2.5250181553207303], [-1.4619482669653665e+195, -1.7656703887680325e+202, 6.8235225923535285, -6.830880113576712e+200, 7.674359877948243, -1.6301369926227308e+177, -2.2304085417405568e+167, -2.3987887311784707e+176, -1.447526008674786e+182], [0, 0, 0, 0, 0, 0, 0, 0, 0], [0, 0, 0, 0, 0, 0, 0, 0, 0], [0, 0, 0, 0, 0, 0, 0, 0, 0], [0, 0, 0, 0, 0, 0, 0, 0, 0], [3.5161720226545876, -2.55896413590431, -3.8847510644980803, -4.169234694615476, 6.628594019120191, -4.250637265629617, -1.9980722309621788, 5.005100743755809, 1.4883109125060157], [-2.3360100489748814e+196, -1.9727394718727407e+190, -1.7853314003534975e+199, -7.475362169699655e+197, 7.579028762999539, -6.796680373664634e+193, -3.7387903910837204e+164, -1.5633422982197816e+146, -4.134027832279684e+162], [0, 0, 0, 0, 0, 0, 0, 0, 0], [6.827818197570201, -5.5360292722070036e+187, -2.000248520314959e+189, -2.8412597332180666e+193, 7.643329091056022, -2.1844601207678647e+197, -1.7371307328738443e+155, -7.635506547433305e+132, -2.323887625781233e+173], [0, 0, 0, 0, 0, 0, 0, 0, 0], [-9.159954769388525e+234, -1.6927164246302383e+228, -1.4961291491894937e+229, -2.480066631307075e+236, -2.8240296527214745, -3.900457809390653e+231, -5.503468896207856e+193, -4.291632692842035e+198, -1.5116813463940988e+208], [0, 0, 0, 0, 0, 0, 0, 0, 0], [-1.9867811869115944e+234, -1.2731536800232142e+236, -6.066694003929043e+229, -2.6046931378498445e+239, 7.23788868039342, -5.961819910047705e+234, -1.0377197663125202e+199, -3.53475909821868e+215, -7.821056953014822e+186], [0, 0, 0, 0, 0, 0, 0, 0, 0], [0, 0, 0, 0, 0, 0, 0, 0, 0], [0, 0, 0, 0, 0, 0, 0, 0, 0], [0, 0, 0, 0, 0, 0, 0, 0, 0], [0, 0, 0, 0, 0, 0, 0, 0, 0], [-2.378447196024805e+227, -1.9406720211157105e+231, -1.5530180459183358e+232, -8.047443253046702e+234, 2.517444272378078, -1.9503290151151e+231, -6.73015604723087e+201, -1.1788648493182427e+193, -6.073114082380989e+195], [0, 0, 0, 0, 0, 0, 0, 0, 0], [0, 0, 0, 0, 0, 0, 0, 0, 0], [0, 0, 0, 0, 0, 0, 0, 0, 0], [0, 0, 0, 0, 0, 0, 0, 0, 0], [2.5991902888238183, 2.5180764763364656, 2.6723676859599763, -0.5699360871417505, -7.3186025935132815, -7.242990860631593, 2.7987612924372964, 4.1929864510348445, 2.6282542326714697], [0, 0, 0, 0, 0, 0, 0, 0, 0], [-4.9535308437391095, 6.970174937421389, 2.8189511271613146, -1.8676863113281943, -5.552557936139649, -4.766722134588743, 2.2744507397839824, 2.5924268671902118, 3.1972053145033072], [0, 0, 0, 0, 0, 0, 0, 0, 0], [0, 0, 0, 0, 0, 0, 0, 0, 0], [-7.172507065485586, -7.1789890290496725, -2.9387915813153027, -2.648783751498814, -7.95085104016712, -8.154792382247955, -2.4068022538733524, 3.345236275821403, -2.7661847059847506], [4.0518148548316155, -4.760960385668998, 3.1308590568590606, 0.3179062453416259, -5.830525192746959, -4.634317425125577, 4.549443551309995, 1.2286196176206654, 6.9163695325337855], [-10.356767803016684, -10.72968852353652, -2.0736663205874173, -2.6264944320202632, -7.158222067570389, -10.623469907623717, -2.918788609521405, -6.025495889132775, 2.9327869404154505], [0, 0, 0, 0, 0, 0, 0, 0, 0], [0, 0, 0, 0, 0, 0, 0, 0, 0], [0, 0, 0, 0, 0, 0, 0, 0, 0], [-6.572819203030567, -1.6996705833059838, -7.197671154186786, -2.877051869548114, -7.200532504822011, -7.257028368390696, 5.6910180477120536, -3.000717912819632, -2.993791760329746], [0, 0, 0, 0, 0, 0, 0, 0, 0], [0, 0, 0, 0, 0, 0, 0, 0, 0], [0, 0, 0, 0, 0, 0, 0, 0, 0], [1.2091886787803523, -7.122588595207528, -6.207190070322154, -3.060470420164168, -7.274632983361483, -6.860342595541734, 2.917222002131366, -2.3640562518653585, -0.17838851208950102], [0, 0, 0, 0, 0, 0, 0, 0, 0], [-2.787271035057461, -3.3975691315786447, -2.828353485622907, 5.070972391305664, -3.418864752573892, -2.8962122368614946, 7.238205457331464, 6.195906414773914, 4.534681671563376], [1.6487636448442191, 4.017051590276939, -4.6954337388764245, -1.4661807446298503, -5.001725499137926, -6.120880486932876, 1.5032662071471088, 1.8607860880771265, 4.571720293216545], [-3.3680358369589705, 6.400135202802706, -2.9946165434622554, 4.886050377417652, -3.1991787914881638, -3.5418552829530485, 1.6857919418774, -1.5515492483676434, 7.121842362768794], [0, 0, 0, 0, 0, 0, 0, 0, 0], [-1.8347592522514642, -3.589304700251259, -1.4266660650272533, -2.5093737610911595, -3.7209129854285194, -3.1177960697370293, -2.000093638858319, 5.672665739331174, 7.290504601409631], [0, 0, 0, 0, 0, 0, 0, 0, 0], [-3.0997499271651536, -3.153344252379892, -2.55660042161339, -2.1440135927565445, -2.761752392982168, -2.847615053543642, 3.2876659316250425, 7.981130074676447, 3.6943613524111907], [0, 0, 0, 0, 0, 0, 0, 0, 0], [-3.0770222198960484, -2.9148371399977613, -3.212423799929547, 4.892644920953652, -3.0204713335014968, -3.5080458385950797, 6.417139542840531, 3.4486679120966994, 8.085769057713463], [0, 0, 0, 0, 0, 0, 0, 0, 0], [0, 0, 0, 0, 0, 0, 0, 0, 0], [0, 0, 0, 0, 0, 0, 0, 0, 0], [-3.935306432160569, 5.597461853086022, 6.564057163040662, -0.6713849735439534, -1.4721122462718266, -7.204133405995969, 3.827606036604684, 5.53415850190692, 5.856568381754775], [0, 0, 0, 0, 0, 0, 0, 0, 0], [0, 0, 0, 0, 0, 0, 0, 0, 0], [0, 0, 0, 0, 0, 0, 0, 0, 0], [6.320614358116085, -1.7165564444288712, 6.642600342620275, -2.809127212251838, -2.2817382258617736, -2.1073394280540394, 5.868599181607219, 4.24909001723406, 4.828938373329326], [0, 0, 0, 0, 0, 0, 0, 0, 0], [-8.301634012904602e+181, -4.970617548222091e+174, 5.813088990081599, -4.679575440365187e+177, -2.585867950674593e+172, -6.883712625171371e+167, -1.2468117393428319e+117, -2.454163397034185e+131, -2.6374962890979154e+106], [0, 0, 0, 0, 0, 0, 0, 0, 0], [0, 0, 0, 0, 0, 0, 0, 0, 0], [0, 0, 0, 0, 0, 0, 0, 0, 0], [0, 0, 0, 0, 0, 0, 0, 0, 0], [0, 0, 0, 0, 0, 0, 0, 0, 0], [0, 0, 0, 0, 0, 0, 0, 0, 0], [0, 0, 0, 0, 0, 0, 0, 0, 0], [0, 0, 0, 0, 0, 0, 0, 0, 0], [-5.519323937180892e+35, -2.2556263349145788e+30, -4.2414103997188984e+32, -1.373999806411637e+30, -2.0972084919207875e+33, -4.071426615259167e+35, 3.539196170972402, -0.9868484268637916, -2.741904009397861], [6.255158009914129, 6.370038194269682, 3.2237471607932973, -1.1835654753836202, -2.1977133646624774, -2.9911324466402918, 4.863220462294602, 4.831899468613459, 7.030131192055997], [0, 0, 0, 0, 0, 0, 0, 0, 0], [-1.1606682996185276e+21, -7.171061973497974, -4.643576281737988e+30, -6.925752478754751e+38, -1.4559960843234746e+26, -4.953123408071482e+31, -2.701673570247964, -4.765983811170301, -3.1791352339520498], [0, 0, 0, 0, 0, 0, 0, 0, 0], [0, 0, 0, 0, 0, 0, 0, 0, 0], [-2.0991987298915458e+64, -6.50884654832248e+59, -3.361083927808646e+66, -7.393696451465821e+59, -1.477752142456209e+69, -1.96670084787005e+80, -0.638170267265205, 5.917206226072203, 7.271531012029747], [-8.455645582827493, -1.714372939338093e+81, -2.0842981865087582e+73, -7.626366535628378e+86, -3.3230816114530097e+80, -3.222049951954187e+80, -2.798060906942852, -8.40865388334439, -3.4795410723815605], [-3.680244323309427e+100, -6.476959301840105e+116, -7.247491299415202e+111, -8.015425649753877e+116, -3.100898945543005e+114, -7.003078659789244e+111, -8.321516065962156e+18, 0.7008955718443701, 7.024940933154366], [0, 0, 0, 0, 0, 0, 0, 0, 0], [6.7862025668167405, 6.598892871950348, 6.936203856467335, -3.9593176140089064, -3.7174036946095645, -4.164647315085675, 6.3001613093948965, 6.518633792400742, 6.433725904748048], [-1.2348522448265128e+44, -2.835040907192671, -3.422124034883321, -2.0800139262405298e+67, -2.4863828339408327e+60, -1.7159663059623588e+47, -7.2022890348561095, -2.9468279625478537, -3.470802676619792e+54], [0, 0, 0, 0, 0, 0, 0, 0, 0], [-6212149407131.869, -1.2026972439307708e+118, -3.6414995406226745e+21, -4.844893125030598e+117, -2.0863093445436534e+106, -5.10964861064503e+119, -5.1450659551591543e+26, -1.0343474773619102e+110, -1.990044936334748], [0, 0, 0, 0, 0, 0, 0, 0, 0], [-2.6782531195009955, -3.509241547625747, 2.237114068105811, -2.39558006999898, -2.1218943901767133, -1.7725778252175526, 6.693397300747179, 7.971532606619329, 6.731558097624243], [0, 0, 0, 0, 0, 0, 0, 0, 0], [-3.419532921897219, -3.363241790670306, 6.526788473760539, -2.9028041336490906, -3.337553464481105, -2.995460533634467, 6.688166917698325, 6.58432273034221, 8.101374804596528], [0, 0, 0, 0, 0, 0, 0, 0, 0], [-2.934433898005903, -5.224014176205548, -1.0194239911307992e+42, -8.016981186106347e+46, -3.656519888375697e+31, -1.1471187383760954e+45, -3.353643473138693e+46, -6.420413703783929, -4.336661400127791], [0, 0, 0, 0, 0, 0, 0, 0, 0], [-3.220452559484846, 2.361513701977072, -3.0314942410023793, -3.078120837824704, -2.5662449570627324, -4.555163605752751, 8.153197658615243, -2.280694663486344, -3.1153369215677813], [0, 0, 0, 0, 0, 0, 0, 0, 0], [0, 0, 0, 0, 0, 0, 0, 0, 0], [-7.355872631011678e+166, -5.4501529862200203e+166, -5.630737768699559e+161, -2.0283548849397445e+169, -1.0854671066850384e+159, -6.209755327697561e+170, 7.765758149220421, -8.12383304750789e+112, -6.174735011367656e+47], [6.661758582506237, -3.088154919105076, -3.2592599387329395, -3.430266548121045, -3.602817675135424, -3.1763169417092825, 6.880167194051283, 5.336106291493971, 6.385803176966768], [-3.701240526809005e+224, -2.133553744526724e+223, -1.6378040132565369e+221, -1.2992168488843823e+217, -2.0177535550237878e+222, -5.816673207209211e+228, -6.136618422003399e+181, -1.140510787141636e+166, -2.9348243646292254], [0, 0, 0, 0, 0, 0, 0, 0, 0], [0, 0, 0, 0, 0, 0, 0, 0, 0], [-5.955548633464346, 4.647337115250632, -3.331100305928115, -2.237674240202601, -3.514820778670669, -3.2469400765575793, -2.4109792684816513, 2.0398888368027084, 8.154335090604922], [0, 0, 0, 0, 0, 0, 0, 0, 0], [5.1559129770494545, -2.9947370788502363, -2.589826763561656, -3.1298461747645954, -3.1476879270040325, -2.0093526782440554, 3.6750181148534637, 7.737287169551188, 6.596884538429195], [-4.381224635675865e+165, -2.222484602095715e+162, -1.1231280961618552e+162, -1.7085952318734503e+166, -3.8096258615342895e+169, -1.7055963315773305e+160, -6.240854725287976e+45, -3.2218322391503636e+92, 7.107262147807372], [0, 0, 0, 0, 0, 0, 0, 0, 0], [0, 0, 0, 0, 0, 0, 0, 0, 0], [0, 0, 0, 0, 0, 0, 0, 0, 0], [0, 0, 0, 0, 0, 0, 0, 0, 0], [0, 0, 0, 0, 0, 0, 0, 0, 0], [-5.326313577865077, -1.6760017079886658, -1.3686768489048318, 6.321849936348283, -6.427591895402352, -5.823520742218527, -0.04574707556767921, -2.1021032679175686, -2.7442281932727335], [0, 0, 0, 0, 0, 0, 0, 0, 0], [-6.337420248548598, -13.464765821622725, -6.172014744852138, -2.006476149644513, -13.390174875379632, -21.232235974511497, -5.608453001020072, -2.446315587023409, -3.047470668212316], [-1.3598136538655932, 4.314916598807817, 6.476426910672575, 7.990247019387519, -2.4032310851838914, -2.086957662520679, 5.807554277065188, -1.459495697452909, 2.897859838070003], [0, 0, 0, 0, 0, 0, 0, 0, 0], [0, 0, 0, 0, 0, 0, 0, 0, 0], [0, 0, 0, 0, 0, 0, 0, 0, 0], [0, 0, 0, 0, 0, 0, 0, 0, 0], [0.42761949978333225, -2.065901955485642, -6.595215798443201, 3.1708697428066674, -6.710450146778613, -6.059009669810522, -0.567093073306038, -1.001841865082794, -2.438183326070259], [-4.070589838619528, 6.74609687094684, -3.8107175021197435, 7.76789049657963, -3.3362666283310602, -2.9811471265482696, -1.2985289065109873, -0.6129741502103636, -1.283316719685371], [0, 0, 0, 0, 0, 0, 0, 0, 0], [6.665438316488105, -3.1656870670374606, -4.328173108446881, 8.082902030751816, -3.495311525531075, -2.7354602475951353, -1.1453353267523245, 5.330088396712181, 5.322955283636591], [0, 0, 0, 0, 0, 0, 0, 0, 0], [-2.726198895222389e+212, -3.0542196946044807e+209, -1.154906623273498e+215, -4.597353834877004e+171, -6.581481835367081e+210, -4.882882851554499e+202, -1.0896261453172556e+155, -2.1106819095838816e+160, -2.665700975147061], [0, 0, 0, 0, 0, 0, 0, 0, 0], [-8.483565827199374e+167, -2.001357012322618e+159, -3.4853655809476005e+169, 0.17026181710533606, -3.679779874232489e+170, -6.820804030374217e+171, -2.0332110183494063e+99, -7.374534284812117e+110, -3.443099829338426e+93], [0, 0, 0, 0, 0, 0, 0, 0, 0], [0, 0, 0, 0, 0, 0, 0, 0, 0], [0, 0, 0, 0, 0, 0, 0, 0, 0], [0, 0, 0, 0, 0, 0, 0, 0, 0], [0, 0, 0, 0, 0, 0, 0, 0, 0], [-4.017412990414277e+209, -3.895741953681273e+203, -7.497973617176084e+200, -5.357943994309827e+159, -1.2340943793807294e+205, -1.0541486010529716e+215, -3.048946689063215, -3.256224068843266e+158, -8.215009227603803e+157], [0, 0, 0, 0, 0, 0, 0, 0, 0], [0, 0, 0, 0, 0, 0, 0, 0, 0], [0, 0, 0, 0, 0, 0, 0, 0, 0], [0, 0, 0, 0, 0, 0, 0, 0, 0], [3.4357026121614, 0.4667395474006739, 3.383104527421852, -5.001031995120227, -5.9174959015288815, -6.529434406396074, 6.176658754569995, -1.3923749779006147, 3.31572127111818], [-10.135138684804588, -3.1148119931234666, 2.014978236998789, -6.505859096293831, -5.906232593171552, -7.2101330957827825, 2.928587615256877, -2.2334336657851788, -2.773774451231049], [0, 0, 0, 0, 0, 0, 0, 0, 0], [5.12555747657766, -3.458507019295046, 6.868754700313798, -1.8604451390510304, -3.5499734629177473, -3.5374888731380936, 4.401006989183034, 0.37935985828660046, 6.383333933369854], [0, 0, 0, 0, 0, 0, 0, 0, 0], [-4.209033633286449e+212, -5.515652442090327e+217, -1.957152307361246e+199, -1.4358194346051056e+220, -3.447334604575301e+224, -5.661066189303314e+220, -2.4136911447424175e+186, -7.947815209550335e+200, 3.637484149966978], [0, 0, 0, 0, 0, 0, 0, 0, 0], [-2.982557091256293, 3.9512608588132565, 5.319999378295638, 6.39742713016731, 2.122162719550972, -1.939165964309017, 6.898048441846151, 5.601861161976019, 2.68618279244902], [0, 0, 0, 0, 0, 0, 0, 0, 0], [3.670938888365679, 2.86280765248877, -6.749903309627927, -6.927700844630489, -6.599629563495032, -6.883127486969672, 2.9324001721289203, 2.8019918543126945, -2.0705132488833113], [0, 0, 0, 0, 0, 0, 0, 0, 0], [-6.649625813156513, 0.33861258482357637, -6.953458526417609, -7.137088359874989, -6.833403982305379, -6.905079396877926, -2.3509675215562207, 0.34158751129261655, 3.3054236646150814], [0, 0, 0, 0, 0, 0, 0, 0, 0], [0, 0, 0, 0, 0, 0, 0, 0, 0], [-1.696986577662099e+78, -4.714644940720126e+79, -1.5406598412851512e+80, -1.3891997790962448e+84, -4.459964041868327e+72, -3.601562476846264e+72, 5.911885260736208, 3.9298302515050407, 7.617100277697698], [-3.2511996373631282, -6.857043720273401, -7.288348770379606, -6.89149658399194, -8.676364702160377, -7.155466970658874, -2.798996174279901, 3.48543762944665, -3.4502128069699096], [-1.5641891169698257, -3.8098439388518153, -2.429671402617879, -2.329767661827743, 4.079504981627114, -3.24022203191179, 4.336374485247431, 7.547763262516863, 5.444675346632658], [0, 0, 0, 0, 0, 0, 0, 0, 0], [0, 0, 0, 0, 0, 0, 0, 0, 0], [-2.486049609959208, -2.2509713144055183, -2.5895585437863042, -1.1144656282755772, 0.7880415004442822, -0.7132841977956608, 7.9404820519582975, 3.7182385617915044, -0.8842429730674333], [0, 0, 0, 0, 0, 0, 0, 0, 0], [-3.286535816661906, -1.5897447148655262e+125, -1.1057302023012306e+110, -3.162270975129397e+120, -5.744465835780801e+120, -4.629180696146867e+122, 1.800436672720677, -1.928245103529422e+16, -3.03464599691955], [2.4144598290402386, 6.147306184080818, -3.062742143642871, 1.371321687972101, 5.780861750144424, 3.704317206303693, 6.624288843135766, 0.6612353929395236, 6.990923940640463], [0, 0, 0, 0, 0, 0, 0, 0, 0], [0, 0, 0, 0, 0, 0, 0, 0, 0], [0, 0, 0, 0, 0, 0, 0, 0, 0], [0, 0, 0, 0, 0, 0, 0, 0, 0], [0, 0, 0, 0, 0, 0, 0, 0, 0], [0, 0, 0, 0, 0, 0, 0, 0, 0], [0, 0, 0, 0, 0, 0, 0, 0, 0], [0, 0, 0, 0, 0, 0, 0, 0, 0], [0, 0, 0, 0, 0, 0, 0, 0, 0], [0, 0, 0, 0, 0, 0, 0, 0, 0], [0, 0, 0, 0, 0, 0, 0, 0, 0], [0, 0, 0, 0, 0, 0, 0, 0, 0], [0, 0, 0, 0, 0, 0, 0, 0, 0], [0, 0, 0, 0, 0, 0, 0, 0, 0], [0, 0, 0, 0, 0, 0, 0, 0, 0], [0, 0, 0, 0, 0, 0, 0, 0, 0], [0, 0, 0, 0, 0, 0, 0, 0, 0], [0, 0, 0, 0, 0, 0, 0, 0, 0], [0, 0, 0, 0, 0, 0, 0, 0, 0], [0, 0, 0, 0, 0, 0, 0, 0, 0], [0, 0, 0, 0, 0, 0, 0, 0, 0], [0, 0, 0, 0, 0, 0, 0, 0, 0], [0, 0, 0, 0, 0, 0, 0, 0, 0], [0, 0, 0, 0, 0, 0, 0, 0, 0], [0, 0, 0, 0, 0, 0, 0, 0, 0], [0, 0, 0, 0, 0, 0, 0, 0, 0], [0, 0, 0, 0, 0, 0, 0, 0, 0], [0, 0, 0, 0, 0, 0, 0, 0, 0], [0, 0, 0, 0, 0, 0, 0, 0, 0], [0, 0, 0, 0, 0, 0, 0, 0, 0], [0, 0, 0, 0, 0, 0, 0, 0, 0], [0, 0, 0, 0, 0, 0, 0, 0, 0], [0, 0, 0, 0, 0, 0, 0, 0, 0], [-3.663066016798814, 6.693146631336418, 6.098466136374267, 0.3849848741580747, 5.842619462750644, 5.964062436411361, -3.8322482451147137, 4.884354623932682, 6.164223117027563], [0, 0, 0, 0, 0, 0, 0, 0, 0], [0, 0, 0, 0, 0, 0, 0, 0, 0], [0, 0, 0, 0, 0, 0, 0, 0, 0], [6.6821014719998875, -4.005954731349412, 2.415267790935615, 2.8009947712961467, 4.420361311843085, -0.395423798458448, -4.125711270440856, 4.772090821817749, 5.5528221589815825], [0, 0, 0, 0, 0, 0, 0, 0, 0], [-9.008592376387764, -10.828870862698219, 5.13223294003729, -2.8246508908118204, -2.825596316137875, -3.500793559010199, -9.527168454642599, -4.0188167047344345, -3.0989737647317472], [0, 0, 0, 0, 0, 0, 0, 0, 0], [0, 0, 0, 0, 0, 0, 0, 0, 0], [0, 0, 0, 0, 0, 0, 0, 0, 0], [0, 0, 0, 0, 0, 0, 0, 0, 0], [0, 0, 0, 0, 0, 0, 0, 0, 0], [0, 0, 0, 0, 0, 0, 0, 0, 0], [0, 0, 0, 0, 0, 0, 0, 0, 0], [0, 0, 0, 0, 0, 0, 0, 0, 0], [-3.4727916531733305, -3.6051711971177083, -3.751230221150787, -1.8848189408628082, 7.064191657419842, 1.8740276914214022, -3.981014298514076, -0.24496331141168337, 4.809011551758259], [6.250537680387332, 2.756612514522279, -3.81038672246755, 3.5001129457449593, 4.602491256066652, 6.375814467753178, -3.9926204741691356, 4.178785012304389, 6.4189478898680985], [0, 0, 0, 0, 0, 0, 0, 0, 0], [-12.38492711440998, 1.0811912220868993, -12.796439115015827, -3.399903312703528, -2.824345487610344, -5.998688015700515, -19.26070612194132, -2.799598849186763, 0.3509996274540874], [0, 0, 0, 0, 0, 0, 0, 0, 0], [0, 0, 0, 0, 0, 0, 0, 0, 0], [-3.484164178100451, -5.027086518631295, -3.74225026665556, 0.405528285812107, 5.986797824975909, 4.749995740589767, -4.185145772330866, 3.39478090610598, 6.512385516220316], [6.631466952422697, 3.107246666113014, 2.2589049517643307, -1.6195248718744217, 6.105025002091127, -0.4124400715542419, 1.587698138469996, 3.498410296902033, -0.7003673281038605], [-5.580023237362017e+137, -5.074169820176221e+129, -5.936512818555432e+127, 1.4458973662647956, -8.78996632645437e+57, -4.442002658599519e+71, -1.1534094480775934e+140, -1.7436269645692446e+56, -5.742357987544959e+65], [0, 0, 0, 0, 0, 0, 0, 0, 0], [0, 0, 0, 0, 0, 0, 0, 0, 0], [0, 0, 0, 0, 0, 0, 0, 0, 0], [0, 0, 0, 0, 0, 0, 0, 0, 0], [0, 0, 0, 0, 0, 0, 0, 0, 0], [0, 0, 0, 0, 0, 0, 0, 0, 0], [0, 0, 0, 0, 0, 0, 0, 0, 0], [0, 0, 0, 0, 0, 0, 0, 0, 0], [0, 0, 0, 0, 0, 0, 0, 0, 0], [-3.296366443964833, -2.8440779671153984, 7.455232654944885, -2.561364560859067, 6.681441007714294, 6.3348437385882885, -3.3356837892479345, 6.745921447617754, 6.867102235327114], [0, 0, 0, 0, 0, 0, 0, 0, 0], [0, 0, 0, 0, 0, 0, 0, 0, 0], [0, 0, 0, 0, 0, 0, 0, 0, 0], [0, 0, 0, 0, 0, 0, 0, 0, 0], [0, 0, 0, 0, 0, 0, 0, 0, 0], [0, 0, 0, 0, 0, 0, 0, 0, 0], [0, 0, 0, 0, 0, 0, 0, 0, 0], [0, 0, 0, 0, 0, 0, 0, 0, 0], [0, 0, 0, 0, 0, 0, 0, 0, 0], [0, 0, 0, 0, 0, 0, 0, 0, 0], [0, 0, 0, 0, 0, 0, 0, 0, 0], [-3.4585134323521434, 6.969772049696622, -3.271535672355066, -2.9577307719710424, 6.602706205447071, 6.204403276796915, -3.1267244329862907, 6.405313010612019, 6.2191185773025435], [0, 0, 0, 0, 0, 0, 0, 0, 0], [0, 0, 0, 0, 0, 0, 0, 0, 0], [0, 0, 0, 0, 0, 0, 0, 0, 0], [6.85259202030782, -1.319970367451403e+193, -2.096513428595865e+180, -4.252557745358881e+186, -1.4401513320714844e+162, -4.0568292447404035e+166, -8.5489404693426565e+186, -4.1746556347850893e+130, -4.246631639405061e+152], [0, 0, 0, 0, 0, 0, 0, 0, 0], [0, 0, 0, 0, 0, 0, 0, 0, 0], [2.659153423332717, 0.127465551448042, 2.811926939977841, -6.183546593218314, 6.306044988491228, 3.035860260754772, -5.664980601877427, 2.7803625664442286, 2.8261365109264904], [0, 0, 0, 0, 0, 0, 0, 0, 0], [-3.466611783186038, -0.1694946689253507, 1.0882913557483167, -2.8462366119633264, 5.068488910638987, 4.715436993860291, -4.146376296542105, 7.228021051731504, 6.282054687922477], [0, 0, 0, 0, 0, 0, 0, 0, 0], [0, 0, 0, 0, 0, 0, 0, 0, 0], [-3.7828808576700124, -4.692527933732488, 4.082891423970539, -5.091591135539542, 6.917220353928475, 0.10231176053281388, -3.9033745894561447, 4.44533602111073, 4.101534376960779], [0.3661724818291845, -3.2246531996601924, 3.037136464603964, -3.568219083145032, 5.92815305731223, 4.155035292106726, -6.157904875177401, 3.2297832198040695, 6.500434201662996], [-7.4204066208126915e+65, -8.86163193973541e+84, -2.251356109194038e+29, -3.1810465794701426e+62, 6.843098290699569, -3.3097995513113114e+18, -5.843374418770462e+62, -7.9653452297421e+79, 5.859882372164024], [0, 0, 0, 0, 0, 0, 0, 0, 0], [0, 0, 0, 0, 0, 0, 0, 0, 0], [0, 0, 0, 0, 0, 0, 0, 0, 0], [-3.9265078018850166, -1.85424533058167, -3.526811283793261, -3.6165337164543754, 7.186640642204489, 3.2063823065830297, -3.5559448590032483, -1.659186255590031, -1.5125389413633363], [0, 0, 0, 0, 0, 0, 0, 0, 0], [0, 0, 0, 0, 0, 0, 0, 0, 0], [0, 0, 0, 0, 0, 0, 0, 0, 0], [-5.038895298303592e+189, -4.112302981697669e+209, -6.22579093304368e+210, -3.210402721805136e+207, 7.109320834337799, -2.096709240796999e+177, -2.0424325610889736e+208, -5.549534000605183e+162, -2.925074457336436e+176], [0, 0, 0, 0, 0, 0, 0, 0, 0], [-7.37681393279955e+166, -1.1247470174483371e+162, -3.4256945491196596e+157, -3.0916614894357155e+173, 7.190010738167139, 7.142357822136194, -2.9882320638541005e+162, 7.257875228015882, 7.190638080041258], [2.294908601128021, 1.6480639303617628, -7.0407199850257145, -6.015755209469662, 2.8669454275787407, 2.855209590501742, -7.013844364572713, 0.9493325644922518, 6.034855674120469], [0.5805332210894529, 4.215043733986282, -4.481504094312632, -2.648756574512489, 6.196900090994546, 6.899651240416002, -3.2717663706720774, 5.256200031191607, 5.479715576177679], [0, 0, 0, 0, 0, 0, 0, 0, 0], [-5.403120209290717e+67, -9.974417782499837e+55, -7.858551151433556e+55, -8.75232526280406e+66, 5.8365619633965125, 6.6804685991444455, -4.0096712392555014e+58, 5.617684040764889, 4.341914643510018], [0, 0, 0, 0, 0, 0, 0, 0, 0], [-2.736385461274112e+183, -5.840747367845415e+195, -6.726977070339384e+187, -1.404007967520519e+192, 6.215377079492173, 5.982716028021915, -6.515800606115821e+183, 7.062028257183118, 6.560634260068045], [0, 0, 0, 0, 0, 0, 0, 0, 0], [-6.788546152164279e+47, -2.11680838998769e+63, -4.776891383033073e+56, -5.913745126821594e+52, 6.2974477575392385, 5.306363048160979, -2.487794523398969e+56, 6.44485649257733, 7.116616704103333], [0, 0, 0, 0, 0, 0, 0, 0, 0], [0, 0, 0, 0, 0, 0, 0, 0, 0], [0, 0, 0, 0, 0, 0, 0, 0, 0], [0, 0, 0, 0, 0, 0, 0, 0, 0], [0, 0, 0, 0, 0, 0, 0, 0, 0], [0, 0, 0, 0, 0, 0, 0, 0, 0], [0, 0, 0, 0, 0, 0, 0, 0, 0], [0, 0, 0, 0, 0, 0, 0, 0, 0], [0, 0, 0, 0, 0, 0, 0, 0, 0], [-3.35361279646515, -3.2439286410157537, 7.474580037571056, 6.140818154404917, -3.928267144564293, 6.036554428896313, -3.7073700580458824, 5.318274442889948, 2.792779252324337], [0, 0, 0, 0, 0, 0, 0, 0, 0], [0, 0, 0, 0, 0, 0, 0, 0, 0], [0, 0, 0, 0, 0, 0, 0, 0, 0], [0, 0, 0, 0, 0, 0, 0, 0, 0], [0, 0, 0, 0, 0, 0, 0, 0, 0], [0, 0, 0, 0, 0, 0, 0, 0, 0], [0, 0, 0, 0, 0, 0, 0, 0, 0], [0, 0, 0, 0, 0, 0, 0, 0, 0], [0, 0, 0, 0, 0, 0, 0, 0, 0], [0, 0, 0, 0, 0, 0, 0, 0, 0], [0, 0, 0, 0, 0, 0, 0, 0, 0], [-3.1364211556008845, 7.152682531960407, -2.2175155245730944, 6.127081462358203, -2.968771992820945, 6.190318064367674, -3.5004906700633835, 5.261688628000975, 6.244989038264171], [0, 0, 0, 0, 0, 0, 0, 0, 0], [0, 0, 0, 0, 0, 0, 0, 0, 0], [0, 0, 0, 0, 0, 0, 0, 0, 0], [7.991071577340418, -1.0260906267770968, 0.13537350175225393, 4.7728287979020525, -2.7271518080229904, 6.200819061028286, 0.025665741935808395, 3.6530959236264753, 6.557160182794388], [0, 0, 0, 0, 0, 0, 0, 0, 0], [0, 0, 0, 0, 0, 0, 0, 0, 0], [0, 0, 0, 0, 0, 0, 0, 0, 0], [0, 0, 0, 0, 0, 0, 0, 0, 0], [0, 0, 0, 0, 0, 0, 0, 0, 0], [0, 0, 0, 0, 0, 0, 0, 0, 0], [0, 0, 0, 0, 0, 0, 0, 0, 0], [0, 0, 0, 0, 0, 0, 0, 0, 0], [0, 0, 0, 0, 0, 0, 0, 0, 0], [0, 0, 0, 0, 0, 0, 0, 0, 0], [0, 0, 0, 0, 0, 0, 0, 0, 0], [0, 0, 0, 0, 0, 0, 0, 0, 0], [0, 0, 0, 0, 0, 0, 0, 0, 0], [0, 0, 0, 0, 0, 0, 0, 0, 0], [0, 0, 0, 0, 0, 0, 0, 0, 0], [0, 0, 0, 0, 0, 0, 0, 0, 0], [0, 0, 0, 0, 0, 0, 0, 0, 0], [0, 0, 0, 0, 0, 0, 0, 0, 0], [0, 0, 0, 0, 0, 0, 0, 0, 0], [0, 0, 0, 0, 0, 0, 0, 0, 0], [0, 0, 0, 0, 0, 0, 0, 0, 0], [0, 0, 0, 0, 0, 0, 0, 0, 0], [0, 0, 0, 0, 0, 0, 0, 0, 0], [0, 0, 0, 0, 0, 0, 0, 0, 0], [0, 0, 0, 0, 0, 0, 0, 0, 0], [0, 0, 0, 0, 0, 0, 0, 0, 0], [0, 0, 0, 0, 0, 0, 0, 0, 0], [0, 0, 0, 0, 0, 0, 0, 0, 0], [0, 0, 0, 0, 0, 0, 0, 0, 0], [0, 0, 0, 0, 0, 0, 0, 0, 0], [0, 0, 0, 0, 0, 0, 0, 0, 0], [-6.7875948391935355, -2.469128073386076, 2.9494681495012784, -7.15914034668187, -7.0730265268257515, -2.1626394678517076, -6.906815023816073, -2.9641240001760583, -2.232209103004984], [0, 0, 0, 0, 0, 0, 0, 0, 0], [0, 0, 0, 0, 0, 0, 0, 0, 0], [0, 0, 0, 0, 0, 0, 0, 0, 0], [-2.833210822683705, -7.269511495472379, 5.084361854774549, -7.09750440829489, -6.662772851142524, -2.434222849456632, -7.14053704474628, -3.0896353914423713, -3.1508881396952315], [0, 0, 0, 0, 0, 0, 0, 0, 0], [-3.2633299158147406, -2.7495321822888457, 7.259487359604795, -3.383818042607289, -3.0130684652743103, 2.473917209163293, -3.0011636941639983, -2.1030570745415327, 6.03829212325047], [0, 0, 0, 0, 0, 0, 0, 0, 0], [0, 0, 0, 0, 0, 0, 0, 0, 0], [0, 0, 0, 0, 0, 0, 0, 0, 0], [0, 0, 0, 0, 0, 0, 0, 0, 0], [0, 0, 0, 0, 0, 0, 0, 0, 0], [0, 0, 0, 0, 0, 0, 0, 0, 0], [0, 0, 0, 0, 0, 0, 0, 0, 0], [0, 0, 0, 0, 0, 0, 0, 0, 0], [0, 0, 0, 0, 0, 0, 0, 0, 0], [2.9058781818063757, 2.9149661187583105, -7.347072966788043, -6.563043268365869, -6.478901448680929, 2.1832253365575545, -7.209270103581291, 3.879169321376237, 2.9047107165407775], [0, 0, 0, 0, 0, 0, 0, 0, 0], [-5.8788045106833735, 5.3426923514464955, -5.933478010524656, -6.404626094437659, -6.849380045643968, -2.627571799649977, -5.20874703482022, -3.0434146510485967, -2.7407556777995747], [0, 0, 0, 0, 0, 0, 0, 0, 0], [0, 0, 0, 0, 0, 0, 0, 0, 0], [-6.921041383354402, -6.971236943180186, -6.9944665988657455, -6.8618768012009586, -6.814988363940765, -3.1495810569995015, -6.940349195580618, 3.1258684143019884, -3.069914289647639], [4.968292669596801, -6.095773795844563, -6.703414601169564, -7.0043801493605455, -6.384162267970849, -2.4983001782047793, -6.471829813143856, -2.758717348960082, 2.5003987853963023], [-6.992942678918158, -6.830945950301183, -7.070314358432064, -6.986012234674865, -6.832807717683647, -2.9316330397906536, -7.0340338722389255, -2.926406276834765, 3.030466711573201], [0, 0, 0, 0, 0, 0, 0, 0, 0], [2.87704991587216, 4.89257486544856, 2.8915159154751344, 3.7342855915075965, -4.833946905942102, 2.852139857220851, -5.137907299547965, 5.250553772991106, 3.648456530262958], [0, 0, 0, 0, 0, 0, 0, 0, 0], [-5.618212381945999, -2.5339840538760017, -2.83317045305718, -2.4966329471541773, -6.795025090375771, -1.3720203377225806, -5.775551420833477, -3.2283531485990333, 7.010945507456758], [0, 0, 0, 0, 0, 0, 0, 0, 0], [0, 0, 0, 0, 0, 0, 0, 0, 0], [-4.214087909420979, -2.5184348241983585, 6.4653045909122415, 6.617376059933456, -2.3387850835352118, 6.664787991964486, -2.1015324310970853, 6.610530576787084, 7.726716367955293], [-2.4401916568557813, -6.775516506956213, -2.1204573329757306, -2.471128877166219, -6.788080648495066, 1.5129777362563024, -6.187321242093788, 2.5379785584255705, -2.9013406769689194], [0.8805961613593842, -2.6272073549542423, -4.161932203154841, 6.217348600832329, -2.8809186633807684, 6.086407337717443, -2.6881712928561186, 7.491134618806619, -2.165532554761116], [0, 0, 0, 0, 0, 0, 0, 0, 0], [0, 0, 0, 0, 0, 0, 0, 0, 0], [0, 0, 0, 0, 0, 0, 0, 0, 0], [-2.206402386606398, 6.476938275546241, -3.0534439933145183, 6.702439374185367, -1.648185971606929, 6.621987176318898, 5.215516937528899, 6.5194967407031115, 6.730648197460534], [0, 0, 0, 0, 0, 0, 0, 0, 0], [0, 0, 0, 0, 0, 0, 0, 0, 0], [0, 0, 0, 0, 0, 0, 0, 0, 0], [6.477825515518468, -3.3003867109442053, -1.1641863794762912, 6.46046915547841, -3.396382527388845, 7.2326936253994765, -2.110513966861235, 6.391238517549872, 6.523709858745779], [0, 0, 0, 0, 0, 0, 0, 0, 0], [-18.005239418526777, -17.704995226590036, -15.046912643399033, -3.2360593911448685, -17.824753635026667, -3.372116627718421, -17.969332543636135, -1.5165047219875658, -3.74406077450812], [2.7980544994736487, -2.0126639324103723, -6.891226022248501, -1.8965461556420486, -6.591455725583374, -2.435141534804456, -5.994868549096358, -2.223189663165361, 5.584081497526627], [-6.865939163831871, -2.6932176576896834, -6.226351289677158, 5.243399954693983, -6.859860130104611, -2.572874624274045, -6.589285769589564, -1.3261231910590263, -1.620027552924813], [0, 0, 0, 0, 0, 0, 0, 0, 0], [6.446731877076919, -3.151720900693939, -2.8495046147995424, 4.849661246228141, -3.60295244181006, 6.707067394733468, -3.1655191877521567, 3.18634280770092, 6.589654242884885], [0, 0, 0, 0, 0, 0, 0, 0, 0], [-8.743851181187304e+187, -2.1767553618458926e+187, -8.473744501022943e+169, -1.5929100741377004e+153, -2.606928249685136e+180, -4.512872012870964e+145, -4.0022179838614315e+175, -3.3357943820871625e+139, 4.794463914404254], [0, 0, 0, 0, 0, 0, 0, 0, 0], [-2.901237568119246, -3.5233782351833502, 1.9385375277650034, 7.943466563427288, -3.353419490123941, 3.131815801493565, -2.3008463674470985, 6.384624209235499, -0.4176127594291752], [0, 0, 0, 0, 0, 0, 0, 0, 0], [0, 0, 0, 0, 0, 0, 0, 0, 0], [0, 0, 0, 0, 0, 0, 0, 0, 0], [-2.5109497157311043, 6.691591517701527, 6.7343865634172975, -2.8709067136975963, -1.2846790954489107, 6.7480357053496345, -3.101106949504013, 6.687779421397247, 8.053880139611808], [0, 0, 0, 0, 0, 0, 0, 0, 0], [0, 0, 0, 0, 0, 0, 0, 0, 0], [0, 0, 0, 0, 0, 0, 0, 0, 0], [6.689113110108382, -3.8054495371693586, -5.341303323380746, -2.83714386407401, -2.6514770191581305, 0.9095044168454551, 1.4459028092363555, 7.252796977596228, -2.6890070302829674], [0, 0, 0, 0, 0, 0, 0, 0, 0], [-2.5990128048575978e+208, -3.823054615841178e+209, -2.5340181970496e+161, -1.0291305974650811e+198, -7.664566120616343e+200, -4.896444105956475e+137, -1.9598285075164427e+203, -2.238399285457227, -2.0212920223366778e+144], [0, 0, 0, 0, 0, 0, 0, 0, 0], [0, 0, 0, 0, 0, 0, 0, 0, 0], [0, 0, 0, 0, 0, 0, 0, 0, 0], [0, 0, 0, 0, 0, 0, 0, 0, 0], [0, 0, 0, 0, 0, 0, 0, 0, 0], [0, 0, 0, 0, 0, 0, 0, 0, 0], [0, 0, 0, 0, 0, 0, 0, 0, 0], [0, 0, 0, 0, 0, 0, 0, 0, 0], [2.327860260779822, -0.6184395885235308, -4.340359032740071, -2.3018250420705084, -2.1942463288284606, 6.572377858370681, 0.45412321371017317, 6.6835863681493946, 7.424360723621282], [6.5328096904750925, 4.957466772256142, -3.824341880707842, -1.8577956495580175, -3.180100747896958, 2.5879052354575895, -4.366345570025822, 3.1835547352229767, -1.0659752210050235], [0, 0, 0, 0, 0, 0, 0, 0, 0], [-22.0469974144361, 0.6852835556361425, -16.543589479144345, -12.65687614602773, -25.18172043424422, -3.2186774884887925, -14.33416026062451, -2.8257285363081293, -3.2999097218512814], [0, 0, 0, 0, 0, 0, 0, 0, 0], [0, 0, 0, 0, 0, 0, 0, 0, 0], [-2.591661885774369, -2.81116905474419, 2.5941817177070825, -1.3637769869877598, -4.813055368470568, 4.440181600013521, -0.1509720939346768, 6.410670382734654, 8.062410513759989], [7.311958050812565, -3.610311569969471e+172, -6.326925130621498e+211, -9.697659051747612e+220, -1.6861682096336286e+215, -2.0467635660404989e+164, -8.081961331486382e+208, -2.658770298413623e+205, -6.472611976652536e+160], [0, 0, 0, 0, 0, 0, 0, 0, 0], [0, 0, 0, 0, 0, 0, 0, 0, 0], [-2.554929128244824, -3.036049279760828, -3.230981614634792, -6.119733218251533, -5.801853812912711, 2.9211158941833286, -6.659123438549369, -2.081252203806302, -1.8587725218618445], [-3.9011303997210205, 6.552119749409304, 6.000740466161805, -3.8506663882741297, -2.7380531012935263, 7.611285755342545, -3.81836002081719, 6.224884001839352, 6.0709770274820265], [0, 0, 0, 0, 0, 0, 0, 0, 0], [6.379758531495726, -3.537668557720842, 4.359548531979548, -2.9555941947025843, -3.233745600882647, 7.853936213050591, -4.165275734698347, 6.58900005999997, 6.6588497602683265], [0, 0, 0, 0, 0, 0, 0, 0, 0], [-17.76146478253477, -14.253106094050612, -3.4295278160557072, -15.993154415599998, -19.69430504722395, -3.2062745207769434, -12.268735020186002, -3.30311639580965, -2.9163158643911755], [0, 0, 0, 0, 0, 0, 0, 0, 0], [-7.662498869228656e+172, -5.852356400944444e+179, -6.143239755118777e+88, -2.047480272537583e+168, -8.888374604323874e+166, -1.5898967395107717, -7.371204932656554e+166, -1.7072028972144214e+101, -7.617357218057388e+85], [0, 0, 0, 0, 0, 0, 0, 0, 0], [6.509466002244469, 6.4685241711025565, -0.3975913556590769, -3.378350009261052, -2.5482464604379222, 7.89520172657397, -0.07739389006614616, 6.353584744633983, 6.384165577343777], [0, 0, 0, 0, 0, 0, 0, 0, 0], [-12.972722955987454, -6.555847824987993, -13.667066010592183, -12.486113073457528, -13.023623439178081, -3.0803735084986474, -13.648523945938168, -3.132628827938883, -2.8625588521140632], [0, 0, 0, 0, 0, 0, 0, 0, 0], [0, 0, 0, 0, 0, 0, 0, 0, 0], [-3.5337351480423114, -2.0151202298000834, 2.426414974817106, -0.6236087402710928, -4.044957085930005, 6.802089302407998, -4.09886358177679, 6.858306354729612, 7.051270475773174], [-2.1625270785986667e+160, -1.0260359363189306e+206, -3.249754774280394e+207, -1.0980160284069059e+204, -1.0227190780729918e+203, 1.7154732719756616, -8.555761987911681e+201, -7.951428063751805e+169, -2.4863557509231774e+138], [-1.091061720007764e+20, 5.281821363476976, -0.8701749802722971, -6.727115043062955e+26, -3952232415077729.0, 6.634402731338889, -1.9276138796026797e+17, 7.726274829502421, 6.486717364373165], [0, 0, 0, 0, 0, 0, 0, 0, 0], [0, 0, 0, 0, 0, 0, 0, 0, 0], [-6.971068715646741, 0.2130181330816623, -6.806948222115015, -6.9691947844468825, -7.2155198953409165, 3.4610373180193097, -6.828438156795292, -3.2069049764334605, -2.3754729431880985], [0, 0, 0, 0, 0, 0, 0, 0, 0], [-9.864070543895143e+189, -1.4417285185313983e+217, -1.656110772132688e+218, -5.517303957298224e+217, -1.0549466187241972e+212, 3.4583878551068237, -1.4859053785787622e+216, -5.449656577860697e+175, -2.299458356472067e+169], [-2010408377124668.5, -3.873601228503879e+28, -5.403905379937925e+39, -9.494594594593009e+23, -676778316.8527653, 7.865647430449968, -9.453624374671703e+22, 5.662441766987418, 5.40547783458186], [0, 0, 0, 0, 0, 0, 0, 0, 0], [0, 0, 0, 0, 0, 0, 0, 0, 0], [0, 0, 0, 0, 0, 0, 0, 0, 0], [0, 0, 0, 0, 0, 0, 0, 0, 0], [0, 0, 0, 0, 0, 0, 0, 0, 0], [0, 0, 0, 0, 0, 0, 0, 0, 0], [0, 0, 0, 0, 0, 0, 0, 0, 0], [0, 0, 0, 0, 0, 0, 0, 0, 0], [0, 0, 0, 0, 0, 0, 0, 0, 0], [0, 0, 0, 0, 0, 0, 0, 0, 0], [0, 0, 0, 0, 0, 0, 0, 0, 0], [0, 0, 0, 0, 0, 0, 0, 0, 0], [0.09366347456481638, -2.881224082454628, 7.253154388962313, 2.853095361559926, 6.693304529616746, -3.1733976752943382, -3.0415088344328547, 6.6217270190859665, 6.607494576070916], [0, 0, 0, 0, 0, 0, 0, 0, 0], [0, 0, 0, 0, 0, 0, 0, 0, 0], [0, 0, 0, 0, 0, 0, 0, 0, 0], [0, 0, 0, 0, 0, 0, 0, 0, 0], [0, 0, 0, 0, 0, 0, 0, 0, 0], [0, 0, 0, 0, 0, 0, 0, 0, 0], [0, 0, 0, 0, 0, 0, 0, 0, 0], [0, 0, 0, 0, 0, 0, 0, 0, 0], [0, 0, 0, 0, 0, 0, 0, 0, 0], [0, 0, 0, 0, 0, 0, 0, 0, 0], [0, 0, 0, 0, 0, 0, 0, 0, 0], [-3.1856576825983796, 8.095224360549041, -3.2392636681383165, 6.34483237307067, 6.576464096269633, -3.3882212851182643, -2.67264991629804, 5.612907217548411, 6.666755413105982], [0, 0, 0, 0, 0, 0, 0, 0, 0], [0, 0, 0, 0, 0, 0, 0, 0, 0], [0, 0, 0, 0, 0, 0, 0, 0, 0], [7.669420417191408, 1.5994785670670586, 3.632727265796614, 3.8818598550499575, 6.788974675156997, -2.742082330305976, -2.9821065058910383, 6.6096698224491846, 6.2700784405137275], [0, 0, 0, 0, 0, 0, 0, 0, 0], [0, 0, 0, 0, 0, 0, 0, 0, 0], [0, 0, 0, 0, 0, 0, 0, 0, 0], [0, 0, 0, 0, 0, 0, 0, 0, 0], [0, 0, 0, 0, 0, 0, 0, 0, 0], [0, 0, 0, 0, 0, 0, 0, 0, 0], [0, 0, 0, 0, 0, 0, 0, 0, 0], [0, 0, 0, 0, 0, 0, 0, 0, 0], [0, 0, 0, 0, 0, 0, 0, 0, 0], [0, 0, 0, 0, 0, 0, 0, 0, 0], [0, 0, 0, 0, 0, 0, 0, 0, 0], [0, 0, 0, 0, 0, 0, 0, 0, 0], [0, 0, 0, 0, 0, 0, 0, 0, 0], [0, 0, 0, 0, 0, 0, 0, 0, 0], [0, 0, 0, 0, 0, 0, 0, 0, 0], [0, 0, 0, 0, 0, 0, 0, 0, 0], [0, 0, 0, 0, 0, 0, 0, 0, 0], [0, 0, 0, 0, 0, 0, 0, 0, 0], [0, 0, 0, 0, 0, 0, 0, 0, 0], [0, 0, 0, 0, 0, 0, 0, 0, 0], [0, 0, 0, 0, 0, 0, 0, 0, 0], [0, 0, 0, 0, 0, 0, 0, 0, 0], [0, 0, 0, 0, 0, 0, 0, 0, 0], [0, 0, 0, 0, 0, 0, 0, 0, 0], [0, 0, 0, 0, 0, 0, 0, 0, 0], [0, 0, 0, 0, 0, 0, 0, 0, 0], [0, 0, 0, 0, 0, 0, 0, 0, 0], [0, 0, 0, 0, 0, 0, 0, 0, 0], [0, 0, 0, 0, 0, 0, 0, 0, 0], [0, 0, 0, 0, 0, 0, 0, 0, 0], [0, 0, 0, 0, 0, 0, 0, 0, 0], [-9.209523489292621, -1.6019329688233896, 4.729923823956351, -7.099862628504177, -1.07354597834423, -7.558925759163853, -7.905179319327434, 0.4990559619781153, 3.0329055532693463], [0, 0, 0, 0, 0, 0, 0, 0, 0], [0, 0, 0, 0, 0, 0, 0, 0, 0], [0, 0, 0, 0, 0, 0, 0, 0, 0], [-1.7679021857929664, -6.543457443709347, 4.699857111948621, -6.2091026358757935, 2.9356988998346, -6.262548927777015, -7.125478910414884, 2.9462952863985423, 2.991117112962271], [0, 0, 0, 0, 0, 0, 0, 0, 0], [-3.917070184076889e+93, -6.645883912323257e+85, 6.574671674174077, -7.194367246782104e+97, -3.640581466472279e+23, -1.1285554638145915e+97, -4.75319858885088e+107, -2.7888703026373153e+28, -9.862094246740104e+19], [0, 0, 0, 0, 0, 0, 0, 0, 0], [0, 0, 0, 0, 0, 0, 0, 0, 0], [0, 0, 0, 0, 0, 0, 0, 0, 0], [0, 0, 0, 0, 0, 0, 0, 0, 0], [0, 0, 0, 0, 0, 0, 0, 0, 0], [0, 0, 0, 0, 0, 0, 0, 0, 0], [0, 0, 0, 0, 0, 0, 0, 0, 0], [0, 0, 0, 0, 0, 0, 0, 0, 0], [-6.345727876247184e+225, -1.507208586623967e+218, -3.5464658255216804e+220, -1.1620655742952827e+225, -8.034742320545518e+178, -1.9717150815937174e+223, -1.0657423253968853e+223, -2.497781957651039e+167, -1.9093458472819989], [3.017743942687786, 3.1117590612881756, -8.021194345478257, -6.531800953305887, 3.1195998215000955, -9.112102458690881, -7.115703616019097, 3.506801257103075, 3.1033995630934497], [0, 0, 0, 0, 0, 0, 0, 0, 0], [-7.156019045753551, 4.113635007580868, -9.963222922267693, -5.881369845514948, -3.2571297977828957, -11.659864325387854, -9.81456714591006, -3.0725505923710936, -1.3856185088837947], [0, 0, 0, 0, 0, 0, 0, 0, 0], [0, 0, 0, 0, 0, 0, 0, 0, 0], [-6.404681423949984, -6.675063865909779, -8.686344672450527, -7.765964611151871, 3.062917717213219, -5.258564161693785, -6.909883799594989, 3.659166898915941, 3.1418841990357196], [3.4143401228146883, -7.960641341568218, -10.262068690439014, -5.787014867114095, -2.612021490554481, -7.6702633835270735, -6.41882727126921, 1.4107551245047723, 0.624060434659131], [-6.982544161422014, -6.9034217788092285, -6.14668189998897, -7.39719138410372, 3.0683324846106705, -7.2806391958366845, -6.710342115426965, 3.1091732618377086, 4.02540513703396], [0, 0, 0, 0, 0, 0, 0, 0, 0], [0, 0, 0, 0, 0, 0, 0, 0, 0], [0, 0, 0, 0, 0, 0, 0, 0, 0], [0, 0, 0, 0, 0, 0, 0, 0, 0], [0, 0, 0, 0, 0, 0, 0, 0, 0], [0, 0, 0, 0, 0, 0, 0, 0, 0], [0, 0, 0, 0, 0, 0, 0, 0, 0], [0, 0, 0, 0, 0, 0, 0, 0, 0], [0, 0, 0, 0, 0, 0, 0, 0, 0], [0, 0, 0, 0, 0, 0, 0, 0, 0], [0, 0, 0, 0, 0, 0, 0, 0, 0], [0, 0, 0, 0, 0, 0, 0, 0, 0], [0, 0, 0, 0, 0, 0, 0, 0, 0], [0, 0, 0, 0, 0, 0, 0, 0, 0], [0, 0, 0, 0, 0, 0, 0, 0, 0], [0, 0, 0, 0, 0, 0, 0, 0, 0], [0, 0, 0, 0, 0, 0, 0, 0, 0], [0, 0, 0, 0, 0, 0, 0, 0, 0], [0, 0, 0, 0, 0, 0, 0, 0, 0], [0, 0, 0, 0, 0, 0, 0, 0, 0], [0, 0, 0, 0, 0, 0, 0, 0, 0], [0, 0, 0, 0, 0, 0, 0, 0, 0], [0, 0, 0, 0, 0, 0, 0, 0, 0], [0, 0, 0, 0, 0, 0, 0, 0, 0], [0, 0, 0, 0, 0, 0, 0, 0, 0], [0, 0, 0, 0, 0, 0, 0, 0, 0], [0, 0, 0, 0, 0, 0, 0, 0, 0], [0, 0, 0, 0, 0, 0, 0, 0, 0], [0, 0, 0, 0, 0, 0, 0, 0, 0], [0, 0, 0, 0, 0, 0, 0, 0, 0], [0, 0, 0, 0, 0, 0, 0, 0, 0], [0, 0, 0, 0, 0, 0, 0, 0, 0], [0, 0, 0, 0, 0, 0, 0, 0, 0], [0, 0, 0, 0, 0, 0, 0, 0, 0], [0, 0, 0, 0, 0, 0, 0, 0, 0], [0, 0, 0, 0, 0, 0, 0, 0, 0], [0, 0, 0, 0, 0, 0, 0, 0, 0], [0, 0, 0, 0, 0, 0, 0, 0, 0], [0, 0, 0, 0, 0, 0, 0, 0, 0], [0, 0, 0, 0, 0, 0, 0, 0, 0], [0, 0, 0, 0, 0, 0, 0, 0, 0], [0, 0, 0, 0, 0, 0, 0, 0, 0], [0, 0, 0, 0, 0, 0, 0, 0, 0], [0, 0, 0, 0, 0, 0, 0, 0, 0], [0, 0, 0, 0, 0, 0, 0, 0, 0], [0, 0, 0, 0, 0, 0, 0, 0, 0], [0, 0, 0, 0, 0, 0, 0, 0, 0], [0, 0, 0, 0, 0, 0, 0, 0, 0], [0, 0, 0, 0, 0, 0, 0, 0, 0], [0, 0, 0, 0, 0, 0, 0, 0, 0], [0, 0, 0, 0, 0, 0, 0, 0, 0], [0, 0, 0, 0, 0, 0, 0, 0, 0], [0, 0, 0, 0, 0, 0, 0, 0, 0], [0, 0, 0, 0, 0, 0, 0, 0, 0], [0, 0, 0, 0, 0, 0, 0, 0, 0], [0, 0, 0, 0, 0, 0, 0, 0, 0], [0, 0, 0, 0, 0, 0, 0, 0, 0], [0, 0, 0, 0, 0, 0, 0, 0, 0], [0, 0, 0, 0, 0, 0, 0, 0, 0], [0, 0, 0, 0, 0, 0, 0, 0, 0], [0, 0, 0, 0, 0, 0, 0, 0, 0], [0, 0, 0, 0, 0, 0, 0, 0, 0], [0, 0, 0, 0, 0, 0, 0, 0, 0], [-1.1052667114298147e+135, -7.583191176514436e+117, 7.631582962553076, -1.2840134924148987e+125, -1.4643041852154139e+137, -1.9566527334280404e+120, -7.491110024701555e+114, -4.0284791857353596e+35, -2.1566111334917845e+48], [0, 0, 0, 0, 0, 0, 0, 0, 0], [0, 0, 0, 0, 0, 0, 0, 0, 0], [0, 0, 0, 0, 0, 0, 0, 0, 0], [0, 0, 0, 0, 0, 0, 0, 0, 0], [0, 0, 0, 0, 0, 0, 0, 0, 0], [0, 0, 0, 0, 0, 0, 0, 0, 0], [0, 0, 0, 0, 0, 0, 0, 0, 0], [0, 0, 0, 0, 0, 0, 0, 0, 0], [0, 0, 0, 0, 0, 0, 0, 0, 0], [0, 0, 0, 0, 0, 0, 0, 0, 0], [0, 0, 0, 0, 0, 0, 0, 0, 0], [-1.3450302372596072, 7.528668861715692, -3.9059612480007244, -3.281091847883858, -2.371105017933648, -1.4278391502011205, -2.2171649207016837, 5.236936703054719, 4.966739424781897], [0, 0, 0, 0, 0, 0, 0, 0, 0], [0, 0, 0, 0, 0, 0, 0, 0, 0], [0, 0, 0, 0, 0, 0, 0, 0, 0], [7.8671183391937, -7.675419114295214e+98, -1.3798964939088186e+102, -1.4024610853494249e+103, -3.625266440404559e+103, -5.897542742933055e+89, -3.8471559970148816e+91, 6.547789115682674, 5.2685978584347435], [0, 0, 0, 0, 0, 0, 0, 0, 0], [0, 0, 0, 0, 0, 0, 0, 0, 0], [0, 0, 0, 0, 0, 0, 0, 0, 0], [0, 0, 0, 0, 0, 0, 0, 0, 0], [2.4690797161996656, 6.431352960046612, 6.691752711227228, 2.308646502358083, 1.1214810660802552, -3.1723351564312163, -1.8920660108539442, 7.032103848392392, 6.73544233564634], [0, 0, 0, 0, 0, 0, 0, 0, 0], [0, 0, 0, 0, 0, 0, 0, 0, 0], [0, 0, 0, 0, 0, 0, 0, 0, 0], [6.608635144222015, -3.5338353047429205, 6.48617332573286, 6.145777188677843, -2.4997991960311388, -3.5680012150169804, -3.8257296115032364, 6.597897465677551, 6.412126078222597], [0, 0, 0, 0, 0, 0, 0, 0, 0], [-2.15267489941224e+218, -7.100071188673316e+223, -3.3008072590161555e+177, -2.3987553617298802, -6.881900025683183e+216, -7.431313074236024e+213, -4.060653891039997e+228, -3.7283634763726325e+176, -4.2793480439520316e+169], [0, 0, 0, 0, 0, 0, 0, 0, 0], [0, 0, 0, 0, 0, 0, 0, 0, 0], [0, 0, 0, 0, 0, 0, 0, 0, 0], [0, 0, 0, 0, 0, 0, 0, 0, 0], [0, 0, 0, 0, 0, 0, 0, 0, 0], [0, 0, 0, 0, 0, 0, 0, 0, 0], [0, 0, 0, 0, 0, 0, 0, 0, 0], [0, 0, 0, 0, 0, 0, 0, 0, 0], [-2.211931334893113, -2.056542050432305, -2.6865919636432465, -3.6085221447064804, -2.659730934352246, -2.300038388189561, -0.5246065459498688, 6.754711521504409, 7.341885349681469], [7.099601181994622, 6.588119617209401, -4.1145925873566735, 3.1473093331389426, -3.661340848119486, -3.4958030154045145, -3.6268250453790922, 3.475872015994974, 3.6117931397705014], [0, 0, 0, 0, 0, 0, 0, 0, 0], [-1.3308543764520993e+115, -1.2324003621073466e+17, -4.23926772172319e+122, -2.8616571890816633, -4.990380554007905e+124, -4.54480171908719e+124, -1.3113615911673168e+125, -3.719097511669381e+22, -1.6477420496343346e+23], [0, 0, 0, 0, 0, 0, 0, 0, 0], [0, 0, 0, 0, 0, 0, 0, 0, 0], [3.871759977262582, -0.29313432863048683, 1.1018736379030494, 6.16075055073008, -2.840404001185778, 2.480302348284294, 0.19962243681348646, 5.905284849497798, 7.551521309937903], [-3.520205479557445, -8.661296552951526e+119, -8.835286427584791e+119, -6.425044018761609, -7.755639449976413e+129, -7.591006287280039e+113, -7.215029991582234e+127, -3.2666422071786583, -9900089481102.004], [-2.3075720155398063, 1.280157067840904, -0.6513329941990262, 5.097740466623813, 5.200746573664321, -1.4928845820001804, -1.0137838958417984, 7.287085499712127, 1.1549248629933295], [0, 0, 0, 0, 0, 0, 0, 0, 0], [0, 0, 0, 0, 0, 0, 0, 0, 0], [0, 0, 0, 0, 0, 0, 0, 0, 0], [0, 0, 0, 0, 0, 0, 0, 0, 0], [0, 0, 0, 0, 0, 0, 0, 0, 0], [0, 0, 0, 0, 0, 0, 0, 0, 0], [0, 0, 0, 0, 0, 0, 0, 0, 0], [0, 0, 0, 0, 0, 0, 0, 0, 0], [0, 0, 0, 0, 0, 0, 0, 0, 0], [2.0752587234415096, -1.3695862888381192, 7.507470224209902, -1.746552611810962, 0.679978198269338, 0.8809062650076047, 2.4030820505728148, 7.196213199966406, 6.961167861387585], [0, 0, 0, 0, 0, 0, 0, 0, 0], [0, 0, 0, 0, 0, 0, 0, 0, 0], [0, 0, 0, 0, 0, 0, 0, 0, 0], [0, 0, 0, 0, 0, 0, 0, 0, 0], [0, 0, 0, 0, 0, 0, 0, 0, 0], [0, 0, 0, 0, 0, 0, 0, 0, 0], [0, 0, 0, 0, 0, 0, 0, 0, 0], [0, 0, 0, 0, 0, 0, 0, 0, 0], [0, 0, 0, 0, 0, 0, 0, 0, 0], [0, 0, 0, 0, 0, 0, 0, 0, 0], [0, 0, 0, 0, 0, 0, 0, 0, 0], [-1.8966688446435014, 7.625744623338042, 0.6153894168888931, -2.4866619337798506, -2.92639252960552, -3.1392974671081024, -2.968683419420654, 6.965122004900685, 8.298749099323341], [0, 0, 0, 0, 0, 0, 0, 0, 0], [0, 0, 0, 0, 0, 0, 0, 0, 0], [0, 0, 0, 0, 0, 0, 0, 0, 0], [7.133484185460686, -1.335351842654966e+31, -3.990403951989475e+18, -3.217073327013753e+18, -2.3849934356473819e+24, -300238417921544.6, -2.318406005996495e+18, 7.58126970853811, -1.860490856162015], [0, 0, 0, 0, 0, 0, 0, 0, 0], [0, 0, 0, 0, 0, 0, 0, 0, 0], [-2.169155642432219, 2.9966114558110357, 2.9393122664339995, -5.497686764734498, -5.915403688296056, -6.85109413294612, -6.4059471999734825, 3.572704410461696, 3.148564611919998], [0, 0, 0, 0, 0, 0, 0, 0, 0], [-4.583427864558402, 4.512212221226065, 1.939529687520685, -4.033620313181503, -4.115323976910425, -4.412110569229165, -3.6616855505980435, 6.424988115298769, 6.9283027509581], [0, 0, 0, 0, 0, 0, 0, 0, 0], [0, 0, 0, 0, 0, 0, 0, 0, 0], [2.4278223349255335, 1.3635313338946062, 6.738007865685503, -2.95956238556667, -2.893497360143397, 1.6023963359480637, -3.234598750572652, 5.741827017623181, 8.611941112251523], [-2.99965355537449, -7.270490200904643, -3.6740364031179946, -12.68260043896911, -6.956987814789782, -7.321820739485149, -6.295890965642907, 6.915394705717675, -3.246237897279211], [0.3255749909575365, -1.2563070365177311, 6.255498415733401, 4.594728120379823, -0.7460755145306157, 1.1906808809265472, -0.06588166993793676, 7.224807708992424, 6.3715254665872925], [0, 0, 0, 0, 0, 0, 0, 0, 0], [0, 0, 0, 0, 0, 0, 0, 0, 0], [0, 0, 0, 0, 0, 0, 0, 0, 0], [-3.5798817133217704, -3.3872065894175085, -2.600877176686348, -2.0081099770885467, -2.8859519959867095, -2.2679997785765993, -3.847711388907562, -1.4433902937844816, 7.889478907655997], [0, 0, 0, 0, 0, 0, 0, 0, 0], [0, 0, 0, 0, 0, 0, 0, 0, 0], [0, 0, 0, 0, 0, 0, 0, 0, 0], [-7.208436162293114e+27, -3.147418750784704e+137, -1.724594403564471e+121, -3.001355824413498e+124, -6.846892885117162e+136, -6.776466788241324e+123, -2.604777349627283e+122, 8.06510328407054, 7.013033514280463], [0, 0, 0, 0, 0, 0, 0, 0, 0], [-6.050566611629328e+164, -8.246522004053561e+147, -5.760326321447682e+164, -2.4862004456698307e+149, -1.3829647027282608e+148, -7.627605241238498e+154, -3.493975504304986e+160, -5.102895733177812e+35, 7.074752446800463], [3.0084461060026966, 3.0581009499344844, -9.436374597171245, -7.141245523915183, -6.8411615153023515, -7.035117966959595, -6.489928728893304, 6.498314140084066, 3.047619755750592], [-6.564802022187141, 3.0917025075098437, -7.060291451163977, -6.876649242871652, -5.881793641887178, -6.628819959626754, -6.862916462462186, 3.144675481495516, 3.2647473938700977], [0, 0, 0, 0, 0, 0, 0, 0, 0], [3.4862913495477432, -5.254359161640999, -4.69283770344179, -7.938599348416611, -0.030720496715395562, -2.201470541811684, -5.2748175208085435, 3.372639110422361, 3.724485257755817], [0, 0, 0, 0, 0, 0, 0, 0, 0], [-5.146283900220594, -6.785914056433441, -6.339827832057876, -8.496951363506598, -5.855679259166786, -6.493234813537708, -12.873356948551471, -1.4403779267646724, 4.6347483973609505], [0, 0, 0, 0, 0, 0, 0, 0, 0], [-7.405325585164551, -6.47587618398096, -7.185812153558558, -6.463609941879255, -6.95279407604772, -7.089496096865191, -7.1472040218269655, 3.452496707150507, -3.1854810367469515], [0, 0, 0, 0, 0, 0, 0, 0, 0], [4.360549203365002, 1.6996090508107693, 5.9947891161994225, 4.715557015678852, 5.118885924003562, -3.9900751205427585, -3.8698109394202493, 2.6959757451664674, 6.359186001308434], [0, 0, 0, 0, 0, 0, 0, 0, 0], [-5.400327280693953, 3.0155928865116315, 1.907885794529928, -0.8349048020464753, 2.7069990539150575, -4.0618578669410645, -0.05613935022370198, 0.32509476069555654, 4.90113232510031], [0, 0, 0, 0, 0, 0, 0, 0, 0], [0, 0, 0, 0, 0, 0, 0, 0, 0], [-5.065505538595031e+177, -1.662946700983403e+180, 7.4507899843632615, 5.1258297131306785, 7.319359779030284, -4.671093905156591e+133, -5.1477021858999e+164, 7.530273200037884, 7.666062777889877], [6.406476585036815, -0.9949059668614635, 1.2564892950101396, 5.195282974360026, 2.2544526027278367, -2.776623519752764, 1.1061376652933603, 5.28803196611114, 6.721143228048458], [-6.28013033447035e+108, -3.6429894862197515e+110, -7.39110766889048e+37, -2.7475200327760944e+99, -0.9274547497191312, -4.246753097156206e+119, -2.9143291729113704e+109, -9.571767755020365e+28, -3.006924088414013e+24], [0, 0, 0, 0, 0, 0, 0, 0, 0], [0, 0, 0, 0, 0, 0, 0, 0, 0], [0, 0, 0, 0, 0, 0, 0, 0, 0], [1.9243849654463347, -1.2539921024540348, 3.7562179241674585, 3.752823473340187, 6.659935011339831, 1.4919414901774974, -3.511594116834189, -2.3430979904543072, 0.6221328098655412], [0, 0, 0, 0, 0, 0, 0, 0, 0], [0, 0, 0, 0, 0, 0, 0, 0, 0], [0, 0, 0, 0, 0, 0, 0, 0, 0], [-3.620384235994095e+30, -1.2390897698911885e+85, -6.567788667516034e+81, 2.9632036481176374, 6.685624032760847, -1.033424933521426e+93, -2.4397756232642242e+84, 1.5167464156739192, -7.227248079527851e+30], [0, 0, 0, 0, 0, 0, 0, 0, 0], [-1.5681560337047602e+204, -1.2259543804375382e+202, -4.8988844272876555e+202, -1.169790066505453e+208, 6.855941829808135, -1.4667250994385659e+196, -2.5914084088218837e+169, 7.492688928975642, 7.250494752902249], [-0.2065342165441042, -1.9648481700214449, -2.1302992322656773, 5.06682682269129, -1.9273795149683421, 3.1205091769281275, 2.8408645006257855, -2.083845527040391, 6.327853585725439], [-2.892125420592888, 3.1093998050904696, -4.342720976295743, 6.9893735261016925, 5.130527994107682, -3.421060572118577, -3.019880305715955, -0.08337312914923523, 7.950713813402893], [0, 0, 0, 0, 0, 0, 0, 0, 0], [5.051882953973959, -2.211468051412237, 2.826193468540727, 6.754981465979643, 6.635707489643853, -3.010850364287605, 3.887910834087082, 5.865979963615483, 7.082465372784845], [0, 0, 0, 0, 0, 0, 0, 0, 0], [-5.260137552175207e+211, -8.825043687914116e+218, -6.63454096196325e+214, -2.427786914083652e+195, -1.8437681589282934e+193, -1.34677417136876e+214, -8.0262692246176e+206, -3.4209113809291873e+187, 5.707037797286799], [0, 0, 0, 0, 0, 0, 0, 0, 0], [-1.5359660269398858, 2.6605774459896576, 1.1363683521116736, 6.579443568154872, 6.069860931724912, -1.1137645801069014, -3.414761991861492, 0.5172161481383863, 6.933913119341292], [0, 0, 0, 0, 0, 0, 0, 0, 0], [0, 0, 0, 0, 0, 0, 0, 0, 0], [0, 0, 0, 0, 0, 0, 0, 0, 0], [-9.317428772741611e+78, 6.300462847875435, 6.441314095368664, -7.721430464551649e+72, 5.2701289478843885, -1.1201691878574733e+87, -1.9139858193192695e+73, 6.290875289836249, 6.161284237342722], [0, 0, 0, 0, 0, 0, 0, 0, 0], [0, 0, 0, 0, 0, 0, 0, 0, 0], [0, 0, 0, 0, 0, 0, 0, 0, 0], [6.7537680447227855, -3.7000419635243743e+117, -3.083276042263119e+37, -8.898510753725756e+110, -5.158460692725638e+61, -2.663956394065038e+118, -2.2153323081009907e+116, -1.2104797114644008e+71, -4.322577540652066e+64], [0, 0, 0, 0, 0, 0, 0, 0, 0], [-2.1333122055966506e+209, -5.1499966929819745e+208, -9.135018904016635e+215, -2.8921312353938084e+223, -2.98470179265773, -4.41378022424212e+218, -4.4132334827623136e+218, -7.753824446901176e+178, -2.0371318915913808e+198], [0, 0, 0, 0, 0, 0, 0, 0, 0], [0, 0, 0, 0, 0, 0, 0, 0, 0], [0, 0, 0, 0, 0, 0, 0, 0, 0], [0, 0, 0, 0, 0, 0, 0, 0, 0], [0, 0, 0, 0, 0, 0, 0, 0, 0], [0, 0, 0, 0, 0, 0, 0, 0, 0], [0, 0, 0, 0, 0, 0, 0, 0, 0], [0, 0, 0, 0, 0, 0, 0, 0, 0], [-1.2093794254662107e+171, -5.873083878595548e+177, -2.74336049959424e+171, -5.58759730407677e+171, 6.790042530279791, -2.2111044168157475e+168, -1.9786360724011478e+181, -9.881210891654362e+115, -8.257685099905164e+103], [6.60880585304168, 0.4457636517748931, -5.381604311887246e+53, -1.0103833781708114e+53, -0.19894189039450572, -1.2634750501818376e+69, -4.8688687164944926e+67, 6.725180750406466, 6.9442085056050535], [0, 0, 0, 0, 0, 0, 0, 0, 0], [-6.511732845750291e+238, -1.215668272462938e+214, -2.512155174779219e+230, -4.7393752729165015e+227, -1.2362179853562153e+211, -3.3979817556866796e+238, -6.090141272397962e+229, -1.038571436161908, -6.808234580591727e+207], [0, 0, 0, 0, 0, 0, 0, 0, 0], [0, 0, 0, 0, 0, 0, 0, 0, 0], [-7.654531413062631e+200, -6.46529387233634e+179, -2.424453947099727e+190, -5.569516063959475e+189, 6.396706513199413, -5.699401820612244e+183, -1.6040071571568842e+183, 4.939553122376948, 7.373284057462976], [7.828681708458273, -4.573051017204309e+150, 4.470539824941448, -5.294844061390179e+218, -4.0750409718289636e+188, 0.2903529285146691, -4.722514520060433e+130, -6.608149418361537e+180, -1.6094345358113863e+155], [0, 0, 0, 0, 0, 0, 0, 0, 0], [0, 0, 0, 0, 0, 0, 0, 0, 0], [0.6638183922103835, -0.6562558181086005, 4.789365375039351, -3.1121905648899166, 6.633606680225377, -5.846133548455485, -4.811089700680701, 0.39647218764907866, -0.0852313254005348], [-7.130018931147285e+191, -1.8259118136116091e+199, 7.197790094908964, -1.618656061869788e+197, 7.544278445616026, -1.1300400822541673e+191, -9.805373448715705e+186, -6.854748055363368e+102, 7.503896465960098], [0, 0, 0, 0, 0, 0, 0, 0, 0], [-5.587606819581876e+186, -6.288946300098123e+195, 7.984020314558975, -5.215117370945636e+164, 8.007961653682877, -1.9164858212427013e+182, -3.460424255257174e+192, 7.2346221654565355, 7.67683104003245], [0, 0, 0, 