[[1.9802372808216142, 1.7965303146893081, 1.946667780660439, 1.8697952854752096, 1.9088836118767178, 2.076649065059688, 1.905318215963908, 2.047958720919703, 1.8792816661566007], [0, 0, 0, 0, 0, 0, 0, 0, 0], [-7.730647280348396, 0.8808629434013217, 1.8643351345466828, 1.8084860923723327, 3.014499649353433, 0.9289163817350247, 1.551708872635177, 1.6184211897232765, 1.5800200855743056], [0, 0, 0, 0, 0, 0, 0, 0, 0], [0, 0, 0, 0, 0, 0, 0, 0, 0], [-7.930767164000279, -7.651763414959879, 1.6330122798996178, 1.5827042238672016, 1.5664798439644623, 1.7085155572651836, 1.5942076636288265, 2.734242179439395, 0.5758902804674831], [1.6540834978440548, -8.120065211852122, 3.432227296667781, 1.300668329657859, 1.583731975259343, 1.2430882679347108, 1.526435889456406, 1.6328175323649725, 1.604874847451241], [-7.170216254830484, -7.87687984473558, 1.3564845332385846, 1.517576475483656, 1.3199127354800086, 1.5452545441769288, 1.5288705293726816, 1.5404340797393903, 1.5536807070434806], [0, 0, 0, 0, 0, 0, 0, 0, 0], [0, 0, 0, 0, 0, 0, 0, 0, 0], [0, 0, 0, 0, 0, 0, 0, 0, 0], [-7.298075646633901, 1.1355521155127535, -7.886478248087372, -0.05325756516224778, 3.642958203551137, 1.58508886448339, 1.6284845816726965, 1.7482572248812307, 1.493872206888618], [0, 0, 0, 0, 0, 0, 0, 0, 0], [0, 0, 0, 0, 0, 0, 0, 0, 0], [0, 0, 0, 0, 0, 0, 0, 0, 0], [1.3142668236835084, -7.818421514996354, -7.270649635314825, 1.586723291537728, 1.6115933334429626, 1.4937222692353296, 1.5690802487043647, 1.3452527200406537, 3.087858968550164], [0, 0, 0, 0, 0, 0, 0, 0, 0], [-7.604604577218227, -6.360869765298757, -7.1194303073351595, 3.2160531879109264, 1.5959749722537235, 1.0646041999470364, 0.8918103115205964, 1.6439858883337743, 1.1827774557352535], [2.030386092711158, 1.0197814892962729, -7.486534178471377, 1.6473632684466846, 1.848234139207583, 1.4461948304175345, 0.9273621102499268, 1.6506346528495053, 1.8261949334364012], [-7.351740365615597, 1.1699215132743501, -7.802631978418805, 1.939940683491797, 1.7161381818180006, 1.6363949451452309, 1.8238269820169322, 1.813649242081522, 1.099941231988604], [0, 0, 0, 0, 0, 0, 0, 0, 0], [1.3118805570920182, -7.979510346407012, -6.561089617978363, 1.6434853927727004, 1.4791686102111035, 1.6417099550964998, 1.4813744011708372, 1.6609463714019304, 1.418456477734248], [0, 0, 0, 0, 0, 0, 0, 0, 0], [-7.851369499837785, -7.4608738385058455, -7.229075855435884, 1.7478452898896033, 1.7695706299864784, 1.4029867785536547, 1.3109003094674065, 0.8211118906010081, 1.87263376663697], [0, 0, 0, 0, 0, 0, 0, 0, 0], [-7.128164487854831, -7.626312419138241, -6.786758440554992, 1.5656133331151443, 3.960062706749969, 0.44585239675678306, 1.7164132283324618, 1.7622733721420591, 1.1118818566353528], [0, 0, 0, 0, 0, 0, 0, 0, 0], [0, 0, 0, 0, 0, 0, 0, 0, 0], [0, 0, 0, 0, 0, 0, 0, 0, 0], [-7.873072558234621, 1.5347463999846898, 1.4480550272884436, -7.611947084177093, 1.533455317147406, 2.8594652758935113, 0.9682642957344625, 1.8354049530323344, 1.0466982993911484], [0, 0, 0, 0, 0, 0, 0, 0, 0], [0, 0, 0, 0, 0, 0, 0, 0, 0], [0, 0, 0, 0, 0, 0, 0, 0, 0], [1.7175357815375585, -7.838421427472582, 1.402130171572172, -7.410406802457492, 1.8085854476524936, 1.8258683241500613, 0.5496669532232061, 1.8415042812439157, 0.7253819695126857], [0, 0, 0, 0, 0, 0, 0, 0, 0], [-7.606814292594163, -8.144538969238031, 1.7122440384501694, -8.444574559026178, -3.0484263273502568, -3.5206878185717434, -1.9537285563804656, -3.287640183643899, -3.4885024708386396], [0, 0, 0, 0, 0, 0, 0, 0, 0], [0, 0, 0, 0, 0, 0, 0, 0, 0], [0, 0, 0, 0, 0, 0, 0, 0, 0], [0, 0, 0, 0, 0, 0, 0, 0, 0], [0, 0, 0, 0, 0, 0, 0, 0, 0], [0, 0, 0, 0, 0, 0, 0, 0, 0], [0, 0, 0, 0, 0, 0, 0, 0, 0], [0, 0, 0, 0, 0, 0, 0, 0, 0], [-8.606790746601405, -8.169187952036108, -8.264199322363595, -8.16933118556981, 1.2845112021538359, 1.7523934677625403, -0.793973347334632, 0.5608002993803288, -0.05694932471100933], [1.56674153814386, 1.4391486367417905, -8.065050556223085, -7.62235280278103, -0.08162834339120872, 1.7700259076512528, 1.6777162359973368, 2.956295030291134, 0.4329596610328465], [0, 0, 0, 0, 0, 0, 0, 0, 0], [-8.310843790092173, -0.00587812418872824, -7.703328858500079, -8.219024435618799, 3.1467771266107403, -3.0055350972100623, -0.8412120258877046, 0.3490756274288647, -3.1255494265190675], [0, 0, 0, 0, 0, 0, 0, 0, 0], [0, 0, 0, 0, 0, 0, 0, 0, 0], [-7.877946794372997, -7.932764885354266, -7.831841113943874, -7.098936982047874, 1.3364894586550715, 1.557690311641403, 0.9700093917951466, 1.385073721447323, 0.7843697578764244], [4.816036963337206, -8.293503249316757, -7.155999322569649, -7.371810050242507, 0.8088893337336017, -3.2313993074011518, 0.0741200789505817, -1.484623093537114, 0.6302714768529212], [-8.246909205652312, -8.34969940903562, -8.135361377648035, -7.4792354051923216, -0.3133780354547302, -0.1705316685758853, 1.6151896235414474, -3.260565286698193, 0.6452532748962032], [0, 0, 0, 0, 0, 0, 0, 0, 0], [1.9319876135064682, 1.3729463010116862, 2.9579869009063873, -7.749146482169203, 1.8802073386594906, 1.6813245773392953, 1.6296621707618835, 1.8585075742095056, 0.465291678129495], [-7.929099196603452, 1.5704589068179557, 1.6951542777859117, -7.865490161800575, 1.6548379493617538, 1.7497081559520162, 1.5424491699775913, 1.7000539050808072, 1.6913942761507104], [0, 0, 0, 0, 0, 0, 0, 0, 0], [1.5369820290153209, -7.354863030697341, 1.3716394948839694, -7.80108646550957, 1.6849061358883157, 1.5455663584690944, 1.2357671819072507, 2.080343315348408, 1.525302775964998], [0, 0, 0, 0, 0, 0, 0, 0, 0], [-8.022992614148599, -7.388031552284799, 0.18417294088168604, -7.602308189753156, -2.967909677504247, -2.077523689212001, -0.5854151118462276, -2.7340874114237317, -3.2330979357351963], [0, 0, 0, 0, 0, 0, 0, 0, 0], [-8.23189276314634, -8.368880927300653, -0.5423451605035194, -7.807159360659882, 1.4564866940444452, 1.5407383779998876, 1.0371140092363698, 1.521511574634348, 0.12024642193609891], [0, 0, 0, 0, 0, 0, 0, 0, 0], [0.043033145984232135, 1.3667707640611764, -7.826161582628588, -7.807840125691792, 1.336976101146298, 2.4050582840301082, 1.11041602953657, 1.07154786733208, 1.2659621394499463], [0, 0, 0, 0, 0, 0, 0, 0, 0], [-8.698270476127057, -0.3033398170193997, -8.24602786641018, -6.980046818216575, 0.5644853506840654, -3.1509611807269975, 1.734105995962656, -3.7468867514405684, -2.969882352972965], [0, 0, 0, 0, 0, 0, 0, 0, 0], [0, 0, 0, 0, 0, 0, 0, 0, 0], [-7.396357052990615, -5.3974660518420885, -5.49636667687286, -7.238894147012207, 0.31542564403238155, 0.2772600611395284, -1.3821890602843285, 3.2858054274334934, -0.6117472566931271], [1.5458282785563788, -8.13281662302715, -6.645702154831637, -6.738108599249409, 3.1704750927846863, 1.7059070820865152, 1.4587570650951027, 1.6136125363527425, 1.3920587062687604], [-7.784409522902918, -7.700409702009291, -8.032412126343957, -7.69805442047857, 0.9807004782376332, -0.032291236918930544, -0.3166984151734662, 1.1005669271707101, 2.7539877813862934], [0, 0, 0, 0, 0, 0, 0, 0, 0], [0, 0, 0, 0, 0, 0, 0, 0, 0], [-7.839427348750453, 1.846720952593567, -7.154969021888423, -7.4954140417649935, 3.423246351128862, 1.8997576798976186, 1.8397300993133199, 1.2809681090960585, 1.7495093411046063], [0, 0, 0, 0, 0, 0, 0, 0, 0], [1.737199130896336, -6.585040193956104, -8.15261959356561, -7.235460262323768, 2.948345140771898, 1.8844780675963917, -0.967959878055476, 2.544645627216807, 2.674250052391691], [-7.050640085947299, -7.046869148374153, -7.660183455255665, -7.125946331656736, 1.6887963828428374, 0.021792268162712958, 0.2626815326013906, 1.6211651128680595, 1.4024551306092272], [0, 0, 0, 0, 0, 0, 0, 0, 0], [0, 0, 0, 0, 0, 0, 0, 0, 0], [0, 0, 0, 0, 0, 0, 0, 0, 0], [0, 0, 0, 0, 0, 0, 0, 0, 0], [0, 0, 0, 0, 0, 0, 0, 0, 0], [0, 0, 0, 0, 0, 0, 0, 0, 0], [-8.280885990981979, 1.9072027396217706, 1.5594799214074286, 2.086270897082393, -7.977475121520316, 1.666719384181751, 1.68735820189643, 1.970322596558232, 2.093615992728277], [0, 0, 0, 0, 0, 0, 0, 0, 0], [0, 0, 0, 0, 0, 0, 0, 0, 0], [0, 0, 0, 0, 0, 0, 0, 0, 0], [1.8514562129427015, -6.670669701815969, 1.8829491055778667, 1.6144112742183574, -7.704745071885843, 1.8439307511369063, 1.9440298331505388, 1.9779114917992304, 1.9795506909188458], [0, 0, 0, 0, 0, 0, 0, 0, 0], [-7.6388449289493945, -7.414438869715704, 4.214041470837163, 0.8884541562117154, -7.032210724657483, 0.7148035524208491, -2.7588614071283546, 0.8344872062181267, 1.2812883464460678], [0, 0, 0, 0, 0, 0, 0, 0, 0], [0, 0, 0, 0, 0, 0, 0, 0, 0], [0, 0, 0, 0, 0, 0, 0, 0, 0], [0, 0, 0, 0, 0, 0, 0, 0, 0], [0, 0, 0, 0, 0, 0, 0, 0, 0], [0, 0, 0, 0, 0, 0, 0, 0, 0], [0, 0, 0, 0, 0, 0, 0, 0, 0], [0, 0, 0, 0, 0, 0, 0, 0, 0], [-7.650389591179982, -8.138913295850267, -8.3325089960878, -2.1896342840200997, -7.904512742204644, -2.5791486721915247, 1.521858617985289, -1.3316786027895433, -2.7440871061489847], [1.7940295663219121, 1.7093393489906044, -7.820170134039785, 1.489095561217827, -7.7070308849169, 0.36246980183859145, 1.7334061188274108, 1.8020040647743691, 3.1345907786956264], [0, 0, 0, 0, 0, 0, 0, 0, 0], [-6.647188992460931, 4.951033453607005, -7.4329461523263465, 0.5747819850029753, -7.60777224847283, 0.6738449916428434, 1.6368026664526167, 1.0059454568896828, -3.181481340575183], [0, 0, 0, 0, 0, 0, 0, 0, 0], [0, 0, 0, 0, 0, 0, 0, 0, 0], [-8.086235121473957, -7.487564195377326, -8.333398679615962, 1.0408515183325477, -7.470643131318283, -0.16205501554849877, 1.00198737784548, 1.57567245416204, 1.918274339876605], [3.800099109701425, -6.582387350669008, -6.214635525479707, 0.6539493701182083, -7.565697716477615, -1.1359722905261396, -2.90769437263536, -1.1218370104296211, -2.3592186585206685], [-8.11305015744295, -8.476206405373686, -7.68889351670736, -3.0281987442717693, -7.670695089458397, 0.17924545568003625, -3.2372180631297676, -0.2970790527297149, 1.383382903810944], [0, 0, 0, 0, 0, 0, 0, 0, 0], [0, 0, 0, 0, 0, 0, 0, 0, 0], [0, 0, 0, 0, 0, 0, 0, 0, 0], [0, 0, 0, 0, 0, 0, 0, 0, 0], [0, 0, 0, 0, 0, 0, 0, 0, 0], [0, 0, 0, 0, 0, 0, 0, 0, 0], [0, 0, 0, 0, 0, 0, 0, 0, 0], [0, 0, 0, 0, 0, 0, 0, 0, 0], [0, 0, 0, 0, 0, 0, 0, 0, 0], [-6.61344312885181, -8.026092848373686, -0.9231519162314492, -7.218833234678794, -7.9657126333580575, 2.7092221588322, 0.39398693090572556, -0.3813055206958047, 0.8355390947646401], [0, 0, 0, 0, 0, 0, 0, 0, 0], [0, 0, 0, 0, 0, 0, 0, 0, 0], [0, 0, 0, 0, 0, 0, 0, 0, 0], [0, 0, 0, 0, 0, 0, 0, 0, 0], [0, 0, 0, 0, 0, 0, 0, 0, 0], [0, 0, 0, 0, 0, 0, 0, 0, 0], [0, 0, 0, 0, 0, 0, 0, 0, 0], [0, 0, 0, 0, 0, 0, 0, 0, 0], [0, 0, 0, 0, 0, 0, 0, 0, 0], [0, 0, 0, 0, 0, 0, 0, 0, 0], [0, 0, 0, 0, 0, 0, 0, 0, 0], [-7.5317237396844865, -1.5808167308998742, -7.910067933808668, -7.734651110077738, -6.1542519455444085, 2.414024080145487, -0.5848369796458927, -2.4385662691912557, -3.1924857845337082], [0, 0, 0, 0, 0, 0, 0, 0, 0], [0, 0, 0, 0, 0, 0, 0, 0, 0], [0, 0, 0, 0, 0, 0, 0, 0, 0], [-1.409508815349433, -6.110100911479556, -7.525322623089647, -8.684934254780337, -7.9249185973318195, 4.961126039885686, -2.5008711756199937, 0.824118446383771, -2.245375397826453], [0, 0, 0, 0, 0, 0, 0, 0, 0], [0, 0, 0, 0, 0, 0, 0, 0, 0], [0.7309151964207797, 0.9485656903475159, 1.434223467244235, -7.593651707563236, -8.27430062653173, 0.8341243941888464, 0.1535771513976001, 3.172023293686239, 1.5894027335965948], [0, 0, 0, 0, 0, 0, 0, 0, 0], [-7.750184271299182, -1.2925510291889586, -2.8199808081224793, -6.6444264157983195, -8.136483867449092, 1.1091103011898538, 1.7805880156964415, 0.015412299070299673, -0.29599794733233775], [0, 0, 0, 0, 0, 0, 0, 0, 0], [0, 0, 0, 0, 0, 0, 0, 0, 0], [-7.502109996577163, -6.55304987245577, -0.45553027081606556, -7.977645305874152, -8.060486181763324, 0.2809463684896738, -1.1028104285926725, 1.8528626030043025, 2.7775231852712188], [2.1366321983821095, -7.782910170235756, 1.6099664261973088, -7.836873153323305, -7.329082637631762, 1.5986192126985315, 4.098151459962902, 1.100784048934126, 0.3340194615389509], [-8.243717425139828, -7.75107374730999, 1.1259707807218966, -7.946009450606561, -7.677925798848424, 1.4392033232966814, 1.259712052969685, 1.2686234303007664, 1.4883020778610088], [0, 0, 0, 0, 0, 0, 0, 0, 0], [0, 0, 0, 0, 0, 0, 0, 0, 0], [0, 0, 0, 0, 0, 0, 0, 0, 0], [-6.3171734819840655, -2.531188444826653, -6.482702864148649, -6.25058750024471, -8.261606163327409, -3.2290810599782107, 3.5701135821523575, -2.7281184076198404, -3.1378508405762227], [0, 0, 0, 0, 0, 0, 0, 0, 0], [0, 0, 0, 0, 0, 0, 0, 0, 0], [0, 0, 0, 0, 0, 0, 0, 0, 0], [0.9540274331467593, -6.794117896581286, -7.725198785718646, -7.874265261426858, -7.453278114652766, -0.4736359736192759, 1.5125464505544521, -0.577875536574043, -2.2279214228105597], [0, 0, 0, 0, 0, 0, 0, 0, 0], [-7.2877150642745665, -6.197784126571909, -6.234124767691864, -7.875873003736596, -5.012517803397369, -2.8446891899063527, 5.452738223231793, -2.5610346073261923, 0.9517395512246467], [1.8532981713149121, 4.654658594978063, -7.906339586045551, -6.666962287624975, -6.9651401199209335, 2.280876623987487, 1.5457576367582941, 1.7725359112072554, 5.084266107842271], [-7.8716715576247775, -2.550656305256049, -7.799066158546063, -8.3574003560134, -7.7584052509733255, -2.0615480931870414, 0.7212886958949328, 1.8884149051851045, 0.8951083020648529], [0, 0, 0, 0, 0, 0, 0, 0, 0], [-2.8920199458970433, -6.780541684787936, -8.06923893267852, -8.821684590476156, -8.267354869369264, -0.776610661375297, -2.156873912943179, 2.459910225124404, -0.5132328696063257], [0, 0, 0, 0, 0, 0, 0, 0, 0], [-5.675354060165081, -5.9191941801349985, -6.257197713683498, -7.06983058193568, -5.885008372626925, 0.6143065670914287, 1.771964631253979, 5.404863655193622, 0.9246970732740525], [0, 0, 0, 0, 0, 0, 0, 0, 0], [-5.385968401303721, -5.436690695028981, -5.840342994632456, -6.994047707426384, -6.397616111011903, 3.2475702540331595, 1.775437064684153, 3.2635170193548966, 5.903441872632908], [0, 0, 0, 0, 0, 0, 0, 0, 0], [1.5829347478736828, 1.2695312034995798, 1.553170588636522, 1.1847560446690615, -7.794629705229773, 1.4128060926050998, 3.4760952839314694, 0.3594147681694698, 1.5017881289340171], [-7.585948876467922, 1.5542797992523663, 1.579278628973401, 1.612980531528841, -7.893489039229162, 1.4660875041532342, 2.213300252303312, 1.450340959853264, 1.5258645549971483], [0, 0, 0, 0, 0, 0, 0, 0, 0], [1.7340817675058795, -6.809871192541148, 1.6354977119483873, 2.2974321433726406, -6.969050482507595, 1.7700465387984137, 1.7516931211234446, 1.6460329220724494, 1.551612229140913], [0, 0, 0, 0, 0, 0, 0, 0, 0], [-8.308383399663189, -8.97249619678698, -3.361757344345582, -2.8196591667021167, -8.272469074658991, -3.2063302144921577, -3.134538462051296, -1.8010478224011264, -1.6873944304377078], [0, 0, 0, 0, 0, 0, 0, 0, 0], [-8.129590101362023, -8.16200982049192, -0.3952091213931579, 1.520593185892919, -7.8453198595745235, 1.2330215486375535, -1.8293353354150255, 1.7237776219020018, -0.177645285174395], [0, 0, 0, 0, 0, 0, 0, 0, 0], [0.08020042859463072, 1.099218825979277, -8.293474090814858, 0.7742011399235676, -7.948798339112541, 2.832863946459737, 0.969405544357798, 0.9982572248844751, 1.0866442360640791], [0, 0, 0, 0, 0, 0, 0, 0, 0], [-8.161613962146783, -2.914027425427779, -7.2843893641155075, 0.32164547615480843, -7.238325533973079, 1.8379834583178476, 1.273417866596664, -2.8237336312833445, 1.706793663405715], [0, 0, 0, 0, 0, 0, 0, 0, 0], [0, 0, 0, 0, 0, 0, 0, 0, 0], [-6.963794868388643, -7.740417688797006, -7.173519900089964, 0.839560444470082, -7.708508712781253, 4.554131105531715, 0.511921406719289, -0.058159372397113995, -1.1851752916324656], [0.5406757203375145, -8.250078238196085, -7.958187617323795, 0.021471839821848304, -7.437925095053583, 1.3609059636019292, -0.8115632771267218, 1.7124377497180006, 0.10286022377990839], [-7.126812013552717, -7.8126597036919225, -7.748762125973182, 2.9304421633753472, -7.273167823972993, 1.6918933485169203, 1.7274694628355545, -1.34471245876538, 1.5083865407562298], [0, 0, 0, 0, 0, 0, 0, 0, 0], [0, 0, 0, 0, 0, 0, 0, 0, 0], [-7.717505052728599, -0.5210000578355776, -6.670202493038814, 1.313877122621421, -7.458763361371663, -2.5582346428286753, 1.4046060868420862, 1.0712333248161618, 0.8940852072328941], [0, 0, 0, 0, 0, 0, 0, 0, 0], [-2.9695789201336478, -8.48638786563399, -8.463654012779266, -4.199006146133053, -7.896731402015364, -3.122242673578554, 1.33360496355683, -3.740153516584664, -2.475235424236273], [-5.2623784725059135, -6.135300542048783, -6.162777660662401, 2.43667230952974, -6.028898077001498, -1.7595040353639775, -1.1662384501284202, 1.6890046006363493, -0.18556539008769202], [0, 0, 0, 0, 0, 0, 0, 0, 0], [0, 0, 0, 0, 0, 0, 0, 0, 0], [0, 0, 0, 0, 0, 0, 0, 0, 0], [0, 0, 0, 0, 0, 0, 0, 0, 0], [2.485253116148944, 1.3591373331258252, 1.9649054782012585, -7.118366804267139, -7.907014069833486, 1.6819298640898284, 1.39222339758156, 1.9368724530040509, 0.7175683462565103], [0, 0, 0, 0, 0, 0, 0, 0, 0], [-10.052277894043193, -2.9430429125259723, -2.9248718182483655, -8.294479155863257, -8.46555934942313, -1.723490691060976, -2.396873100669863, -2.8936340248110484, 0.33981721267933374], [0, 0, 0, 0, 0, 0, 0, 0, 0], [0, 0, 0, 0, 0, 0, 0, 0, 0], [-7.1812329658344956, -7.8849326264068065, 0.7401397603174287, -7.23803725001444, -6.695635055271632, 4.85856182972894, 0.6667396561658051, 1.6220979486400662, -1.2206843104673004], [-2.371056806877998, -8.190385521953006, -0.7358049558796004, -8.018287160063824, -8.255009405979438, -0.33812735359387536, -3.1947304396999865, 1.4670455150677015, -4.160116142787295], [-8.542462313401394, -7.046796311626985, -2.5760096493303655, -6.819006729552244, -7.442973625527694, -2.1990859980364674, 3.4947512237539016, -1.9826329364495958, -1.8271795054348217], [0, 0, 0, 0, 0, 0, 0, 0, 0], [0, 0, 0, 0, 0, 0, 0, 0, 0], [0, 0, 0, 0, 0, 0, 0, 0, 0], [-7.821001376123318, 1.2395978380347674, -7.202595124070209, -7.262546220852101, -6.0131546904642725, 2.040059834180723, -0.7229070854766733, 1.2898824789939447, -0.9564292755053716], [0, 0, 0, 0, 0, 0, 0, 0, 0], [0, 0, 0, 0, 0, 0, 0, 0, 0], [0, 0, 0, 0, 0, 0, 0, 0, 0], [-0.7466999921774462, -7.249809783223222, -6.797756211834255, -5.558252344429839, -8.190657935836299, 1.1983813497214624, 1.7851486732005066, -0.5918176942623352, 0.27257340757505677], [0, 0, 0, 0, 0, 0, 0, 0, 0], [-10.195380962604268, -10.351835206283983, -10.704466675492714, -9.037978328849434, -12.665865880367495, -4.484839264867187, -4.480346004694875, -4.700353142256885, 0.8629789891944368], [-0.05661915827660491, -4.171667777425812, -8.414649607265446, -6.590253897222226, -8.108649942701852, -2.3434500310192066, 1.4962066753807184, 1.6071168300647107, 0.35104256874438555], [-7.45933204454162, -2.559754386861109, -6.321915137918561, -6.429928059250058, -6.405693741701333, -2.8610332311176117, 5.178966439858863, -2.640705359252461, -3.0148830646787785], [0, 0, 0, 0, 0, 0, 0, 0, 0], [2.949986514551588, -6.766403507681358, -7.584738495896362, -6.327747245234903, -8.089970423478796, 0.8773461987029569, -1.6576863590533142, 0.15573449971743955, -1.4357968926166436], [0, 0, 0, 0, 0, 0, 0, 0, 0], [-12.085642233472829, -10.140818355346045, -12.269469803096927, -9.670361914962319, -10.198058214002558, -3.8384071130950916, -4.6598154250728685, -4.636084593784682, -2.6085302788327525], [0, 0, 0, 0, 0, 0, 0, 0, 0], [-5.343203800923018, -5.0565890587490525, -5.035762278657618, -6.692169017467519, -6.5365170103505195, -3.2711791325874886, 5.273678594134222, -3.9980683667707577, -4.608678958466573], [0, 0, 0, 0, 0, 0, 0, 0, 0], [0, 0, 0, 0, 0, 0, 0, 0, 0], [-8.267183684743832, 0.8889913775032698, -2.691339373790931, -8.454483967061769, -8.509172308751335, 2.8676852469834873, -3.2836161157535275, -3.3795506388259984, 1.0076066910371575], [0, 0, 0, 0, 0, 0, 0, 0, 0], [-2.309888670145388, -7.392658927001109, -2.6376044661926104, -8.450787052715677, -8.468500750712403, -0.2995504286758206, -2.891149429926849, -0.6746512604448923, -3.2111156501758376], [-6.449020779694228, -5.939207739503381, 2.6016958823610827, -7.951253468114913, -7.079445700169311, -1.2088938972849952, -2.135330306045671, 0.8047950511470556, -3.835415719696477], [0, 0, 0, 0, 0, 0, 0, 0, 0], [0, 0, 0, 0, 0, 0, 0, 0, 0], [0, 0, 0, 0, 0, 0, 0, 0, 0], [0, 0, 0, 0, 0, 0, 0, 0, 0], [-0.8529795739093577, -2.4349022962574827, -7.5140461430369045, -6.374248742941958, -7.115913804614166, 4.391924061147914, -0.9088999557825264, 0.6438390837932952, -3.1980518279375807], [-7.888344647276282, 4.2030528910393725, -6.893271968103594, -6.592758072648988, -6.900192301333496, -1.288125852755189, -0.23556974209205372, -2.0829507339212068, -4.037650192452577], [0, 0, 0, 0, 0, 0, 0, 0, 0], [0.22566323514477238, -7.972435260184401, -6.143956553864695, -7.130247088203348, -8.056836100123505, -1.3144105570612425, 4.197241155051982, -3.443876028810813, -2.997065607982432], [0, 0, 0, 0, 0, 0, 0, 0, 0], [-11.056480134697974, -11.185927404061722, -9.429062938649377, -9.53880840686453, -11.069709051894337, -4.295114209881509, -4.435663662316473, -1.5501364706701357, -3.9051120694375108], [0, 0, 0, 0, 0, 0, 0, 0, 0], [-9.280504057776952, -8.532355421649719, -7.579203077611202, -8.667071828933663, -10.339431595304799, -3.5505505384330123, -3.9070544372768037, 1.6650082684924858, -3.4265440321875813], [0, 0, 0, 0, 0, 0, 0, 0, 0], [0, 0, 0, 0, 0, 0, 0, 0, 0], [0, 0, 0, 0, 0, 0, 0, 0, 0], [0, 0, 0, 0, 0, 0, 0, 0, 0], [0, 0, 0, 0, 0, 0, 0, 0, 0], [-8.481118006660587, -8.333189796380159, -8.460036606704342, -8.037440886448564, -7.625830155417244, -2.7214802276231573, 1.5656979117578171, 0.32479135636254375, -2.602346516101977], [0, 0, 0, 0, 0, 0, 0, 0, 0], [0, 0, 0, 0, 0, 0, 0, 0, 0], [0, 0, 0, 0, 0, 0, 0, 0, 0], [0, 0, 0, 0, 0, 0, 0, 0, 0], [0, 0, 0, 0, 0, 0, 0, 0, 0], [0, 0, 0, 0, 0, 0, 0, 0, 0], [-7.613950527651062, 1.655439234021737, 1.547215178710935, 1.752920879045695, 1.770689712554626, -7.12259530304691, 0.7544251578692284, 1.8778447301966956, 4.931408198530338], [0, 0, 0, 0, 0, 0, 0, 0, 0], [0, 0, 0, 0, 0, 0, 0, 0, 0], [0, 0, 0, 0, 0, 0, 0, 0, 0], [1.4449231909157128, -7.302404909516357, 1.7281608438352474, 1.4867499624755218, 1.5664093656244453, -7.185568103702595, 1.533735857916549, 1.159299622357084, 2.1892759751192115], [0, 0, 0, 0, 0, 0, 0, 0, 0], [-7.779848274974386, -8.146006338377013, 1.1869841567312864, 0.9919792873155052, -3.5134653742350945, -7.186220882439766, 2.2080693846505213, 0.9557354096716455, -3.0890175712031667], [0, 0, 0, 0, 0, 0, 0, 0, 0], [0, 0, 0, 0, 0, 0, 0, 0, 0], [0, 0, 0, 0, 0, 0, 0, 0, 0], [0, 0, 0, 0, 0, 0, 0, 0, 0], [0, 0, 0, 0, 0, 0, 0, 0, 0], [0, 0, 0, 0, 0, 0, 0, 0, 0], [0, 0, 0, 0, 0, 0, 0, 0, 0], [0, 0, 0, 0, 0, 0, 0, 0, 0], [-7.093785606614258, -7.795539724355706, -8.088089450739758, -3.0885119932980407, -3.089138384459554, -8.137182319308696, -2.3178532576715125, -3.282425999058084, 1.026122207566082], [1.3478690410103509, 1.9227073150764937, -7.730818075707573, 1.904355589326669, 1.7777305922428748, -7.6611509999927065, 3.280222005364097, 0.4141395980050038, 1.7820222266272565], [0, 0, 0, 0, 0, 0, 0, 0, 0], [-9.449860153418136, 0.7410683602585953, -8.350871842919624, -3.038583309015233, -2.7849959650743044, -8.251009105455923, -2.94710456542453, -2.436858132945162, -4.461545615339442], [0, 0, 0, 0, 0, 0, 0, 0, 0], [0, 0, 0, 0, 0, 0, 0, 0, 0], [-6.840336236014879, -7.72878292365578, -8.347381544235837, 1.8812003515231759, -0.13883745092244426, -7.995553174887923, -0.1363160767281455, 1.0224665130163277, 2.554160908483751], [2.337020118316395, -8.335820252160518, -8.157584506103953, -2.5889745242511975, -2.7297513106958387, -8.273318015674276, -2.3927990539967317, -2.920957291556121, -2.676179589389988], [-8.486932223614662, -7.850562833511159, -8.501957583361257, 0.30978046000539544, 1.9136579489655472, -7.981019639089152, -0.13765073261685856, -0.31206149338959077, -0.6961690020973399], [0, 0, 0, 0, 0, 0, 0, 0, 0], [0, 0, 0, 0, 0, 0, 0, 0, 0], [0, 0, 0, 0, 0, 0, 0, 0, 0], [0, 0, 0, 0, 0, 0, 0, 0, 0], [0, 0, 0, 0, 0, 0, 0, 0, 0], [0, 0, 0, 0, 0, 0, 0, 0, 0], [0, 0, 0, 0, 0, 0, 0, 0, 0], [0, 0, 0, 0, 0, 0, 0, 0, 0], [0, 0, 0, 0, 0, 0, 0, 0, 0], [-5.3416901828442, -6.479760659504308, -2.178341248342271, -5.865268857797667, 4.448920976098838, -5.9360227297151775, -1.1235763394230698, -3.957908932313143, -3.7246441962421732], [0, 0, 0, 0, 0, 0, 0, 0, 0], [0, 0, 0, 0, 0, 0, 0, 0, 0], [0, 0, 0, 0, 0, 0, 0, 0, 0], [0, 0, 0, 0, 0, 0, 0, 0, 0], [0, 0, 0, 0, 0, 0, 0, 0, 0], [0, 0, 0, 0, 0, 0, 0, 0, 0], [0, 0, 0, 0, 0, 0, 0, 0, 0], [0, 0, 0, 0, 0, 0, 0, 0, 0], [0, 0, 0, 0, 0, 0, 0, 0, 0], [0, 0, 0, 0, 0, 0, 0, 0, 0], [0, 0, 0, 0, 0, 0, 0, 0, 0], [-6.429191181158183, -1.2457661548008598, -5.634641689922676, -6.556182743102152, 2.0214587091641363, -5.898173569693779, -3.815587279501143, -2.767909502760844, -3.331258326858957], [0, 0, 0, 0, 0, 0, 0, 0, 0], [0, 0, 0, 0, 0, 0, 0, 0, 0], [0, 0, 0, 0, 0, 0, 0, 0, 0], [-1.1762894910926882, -6.731536001803887, -7.508923436530167, -7.273981431917392, 5.157961615337005, -6.100932018188107, -2.3557573810586714, -2.204253215860451, -4.250403578712232], [0, 0, 0, 0, 0, 0, 0, 0, 0], [0, 0, 0, 0, 0, 0, 0, 0, 0], [1.5005595648747303, 1.4708973230260471, 1.8002219623891755, -7.987960969780202, 1.0013571836772865, -7.576456080787482, 2.8903678479107953, 2.039975676067664, 1.6334320986407302], [0, 0, 0, 0, 0, 0, 0, 0, 0], [-7.552101759666313, -2.1458892432123893, -3.537264428180083, -7.866991114403375, -0.529138858495785, -7.937490236280572, 1.6657857312534543, 1.254139905272833, -2.40704576549189], [0, 0, 0, 0, 0, 0, 0, 0, 0], [0, 0, 0, 0, 0, 0, 0, 0, 0], [-7.554411108237924, -6.967837377725667, 1.8469344736025672, -7.0273475982882, 2.137344477007327, -6.305456631302089, 5.976695286312752, 3.555229916535417, -0.22523924151211588], [1.6655261969419888, -8.268277557631198, 1.5062796789901076, -8.207387803209542, 1.8521918534077892, -7.854490728198558, 1.7808520227728026, 0.9214319963282982, 1.5257961667061508], [-7.846484941877209, -8.368223604296357, 1.563592240603941, -7.837502056773615, 1.5677278926824603, -8.093322864432649, -0.26867417314088937, 0.04338153192745464, 1.7110513099675186], [0, 0, 0, 0, 0, 0, 0, 0, 0], [0, 0, 0, 0, 0, 0, 0, 0, 0], [0, 0, 0, 0, 0, 0, 0, 0, 0], [-6.403264436009566, -0.41915181963043646, -8.326343001141348, -8.573190770306223, 1.612485317382456, -7.594979491256134, -1.0783311679512224, -4.115644907301533, 4.444627060464193], [0, 0, 0, 0, 0, 0, 0, 0, 0], [0, 0, 0, 0, 0, 0, 0, 0, 0], [0, 0, 0, 0, 0, 0, 0, 0, 0], [-0.654461437403999, -7.833756700582358, -7.299393231442986, -8.003955001059449, -2.373702311004382, -8.191120609222045, -2.2650334197235127, -2.098858342615203, 3.2756245907334764], [0, 0, 0, 0, 0, 0, 0, 0, 0], [-6.889705752501312, -5.588752399264487, -5.79541452716327, -6.284530074191494, 0.492985969850662, -7.231215446864653, 3.082524808320067, 1.0091708763762042, 5.480304640205591], [1.556147426309963, 1.0644836450663244, -8.279464212165447, -8.426792978280128, 1.3243887010910866, -8.31170180077148, 1.4534270151281488, 0.9069833294154621, 0.8685778755523358], [-8.143409751780439, 1.438100501784549, -8.24870568712215, -8.26976417033966, 1.4668435820548584, -8.468326832130302, 0.8986394872599818, 0.8472608393969534, 1.8457957270240324], [0, 0, 0, 0, 0, 0, 0, 0, 0], [1.6871882692031517, -7.224046124376196, -7.9514147174707075, -7.590692173146834, 1.764503638016754, -7.7584974917649, 1.1658081760958225, 1.7409595770600426, 3.3923726640365013], [0, 0, 0, 0, 0, 0, 0, 0, 0], [-7.9670239089329895, -8.194879279180455, -8.288343028296136, -8.436277309878513, -0.8945698112810601, -8.191997258344603, 1.906167948889422, 0.6523826274835278, -0.27268901208915564], [0, 0, 0, 0, 0, 0, 0, 0, 0], [-8.39758677345198, -8.231785451276266, -8.392296786049492, -8.385876120981672, 4.025621656941227, -8.302328017576023, 1.6473955098707105, 1.9303504737755404, -0.1907255641785024], [0, 0, 0, 0, 0, 0, 0, 0, 0], [0, 0, 0, 0, 0, 0, 0, 0, 0], [0, 0, 0, 0, 0, 0, 0, 0, 0], [0, 0, 0, 0, 0, 0, 0, 0, 0], [0, 0, 0, 0, 0, 0, 0, 0, 0], [0, 0, 0, 0, 0, 0, 0, 0, 0], [0, 0, 0, 0, 0, 0, 0, 0, 0], [0, 0, 0, 0, 0, 0, 0, 0, 0], [0, 0, 0, 0, 0, 0, 0, 0, 0], [-10.13274294392793, -7.644518590665564, -2.4266623494009933, 4.055114157238355, -7.18793540109401, -6.392809027731719, -1.9262997923385805, -1.8917995741955846, -2.478804068559561], [0, 0, 0, 0, 0, 0, 0, 0, 0], [0, 0, 0, 0, 0, 0, 0, 0, 0], [0, 0, 0, 0, 0, 0, 0, 0, 0], [0, 0, 0, 0, 0, 0, 0, 0, 0], [0, 0, 0, 0, 0, 0, 0, 0, 0], [0, 0, 0, 0, 0, 0, 0, 0, 0], [0, 0, 0, 0, 0, 0, 0, 0, 0], [0, 0, 0, 0, 0, 0, 0, 0, 0], [0, 0, 0, 0, 0, 0, 0, 0, 0], [0, 0, 0, 0, 0, 0, 0, 0, 0], [0, 0, 0, 0, 0, 0, 0, 0, 0], [-7.802739999830729, -1.2392765772940337, -7.763792046213711, 2.8409790862191713, -8.08690350760503, -7.405672735103546, -0.7250777017228147, 1.3953856903038782, -0.4867252684726131], [0, 0, 0, 0, 0, 0, 0, 0, 0], [0, 0, 0, 0, 0, 0, 0, 0, 0], [0, 0, 0, 0, 0, 0, 0, 0, 0], [-0.9494683148471361, -7.766364538068173, -6.520158688383463, 3.084673093105, -6.680857107106265, -7.807720398277024, 1.7985187555576767, -0.656033715929727, -0.1205971494374507], [0, 0, 0, 0, 0, 0, 0, 0, 0], [0, 0, 0, 0, 0, 0, 0, 0, 0], [0, 0, 0, 0, 0, 0, 0, 0, 0], [0, 0, 0, 0, 0, 0, 0, 0, 0], [0, 0, 0, 0, 0, 0, 0, 0, 0], [0, 0, 0, 0, 0, 0, 0, 0, 0], [0, 0, 0, 0, 0, 0, 0, 0, 0], [0, 0, 0, 0, 0, 0, 0, 0, 0], [0, 0, 0, 0, 0, 0, 0, 0, 0], [0, 0, 0, 0, 0, 0, 0, 0, 0], [0, 0, 0, 0, 0, 0, 0, 0, 0], [0, 0, 0, 0, 0, 0, 0, 0, 0], [0, 0, 0, 0, 0, 0, 0, 0, 0], [0, 0, 0, 0, 0, 0, 0, 0, 0], [0, 0, 0, 0, 0, 0, 0, 0, 0], [0, 0, 0, 0, 0, 0, 0, 0, 0], [0, 0, 0, 0, 0, 0, 0, 0, 0], [0, 0, 0, 0, 0, 0, 0, 0, 0], [0, 0, 0, 0, 0, 0, 0, 0, 0], [0, 0, 0, 0, 0, 0, 0, 0, 0], [0, 0, 0, 0, 0, 0, 0, 0, 0], [0, 0, 0, 0, 0, 0, 0, 0, 0], [0, 0, 0, 0, 0, 0, 0, 0, 0], [0, 0, 0, 0, 0, 0, 0, 0, 0], [0, 0, 0, 0, 0, 0, 0, 0, 0], [0, 0, 0, 0, 0, 0, 0, 0, 0], [0, 0, 0, 0, 0, 0, 0, 0, 0], [0, 0, 0, 0, 0, 0, 0, 0, 0], [0, 0, 0, 0, 0, 0, 0, 0, 0], [0, 0, 0, 0, 0, 0, 0, 0, 0], [0, 0, 0, 0, 0, 0, 0, 0, 0], [-7.290929404008989, 0.7327092039265447, 3.8791963685645374, -7.208718580790444, -6.541020371354671, -7.0288512365506906, -2.004064010233149, 0.8439444669234983, 1.1675137961017126], [0, 0, 0, 0, 0, 0, 0, 0, 0], [0, 0, 0, 0, 0, 0, 0, 0, 0], [0, 0, 0, 0, 0, 0, 0, 0, 0], [0.5443924453778662, -7.381335072502652, 1.617733271625557, -6.801746033354595, -7.639441190590064, -7.079634058052136, 0.49924243911786037, 0.3167255326646894, 1.6525436048088769], [0, 0, 0, 0, 0, 0, 0, 0, 0], [-9.620024079425509, -10.9637459657725, -2.2895201928100537, -9.125173299440586, -10.5026922497312, -9.303952296388978, 3.7356254055351688, -4.229696917763447, -3.577148570470846], [0, 0, 0, 0, 0, 0, 0, 0, 0], [0, 0, 0, 0, 0, 0, 0, 0, 0], [0, 0, 0, 0, 0, 0, 0, 0, 0], [0, 0, 0, 0, 0, 0, 0, 0, 0], [0, 0, 0, 0, 0, 0, 0, 0, 0], [0, 0, 0, 0, 0, 0, 0, 0, 0], [0, 0, 0, 0, 0, 0, 0, 0, 0], [0, 0, 0, 0, 0, 0, 0, 0, 0], [-8.141418280606896, -8.88399612855015, -7.672696504005817, -6.157016670327575, -8.858391128533588, -7.333978155187836, 5.115497419752426, -2.6890895156804104, -3.1070587790519943], [1.4840648412331785, 4.062168481094028, -7.999527038481897, -7.438507840423329, -7.8077186837489, -7.6991041049598286, 1.2657051877633612, 1.5984455307040468, 1.8051739725877818], [0, 0, 0, 0, 0, 0, 0, 0, 0], [-9.883142024114875, 2.5263475955920685, -8.63344494681773, -9.413323705528816, -8.47366856457629, -8.789100994970038, -4.136899990357313, -3.2225562335988434, -4.237992110997989], [0, 0, 0, 0, 0, 0, 0, 0, 0], [0, 0, 0, 0, 0, 0, 0, 0, 0], [-7.97539653297565, -8.027050668371118, -8.22143276140453, -7.023173795814802, -7.562715131129033, -8.303659737205182, -1.5342041077184434, 1.9411271027662833, -0.4256038481771969], [2.542845834502864, -8.457916870896268, -7.971625990488663, -7.471231037537431, -8.244074185457146, -8.481343863104657, -2.853954289598513, 0.803805747068209, 1.5635233861328706], [-8.280785290586016, -8.378741679812997, -8.283277386977339, -8.267345769364923, -8.212131975183798, -8.326455960516473, 0.8217087254349756, 1.1162147906438262, 1.7858464506262288], [0, 0, 0, 0, 0, 0, 0, 0, 0], [1.073378270928037, 1.4580975053340708, 0.7383911255365834, 1.3912301046236326, -6.398979770118069, -7.685317925850008, 1.343362229549217, 0.6093557515582657, 0.8305041130936057], [0, 0, 0, 0, 0, 0, 0, 0, 0], [-7.243724204524657, -3.0420479444725324, -2.543244020603623, -2.830463039431402, -7.656722610895791, -6.727017818105609, -2.9417272792112037, -4.033709936546362, 1.087938997541133], [0, 0, 0, 0, 0, 0, 0, 0, 0], [0, 0, 0, 0, 0, 0, 0, 0, 0], [-5.734321646394857, -6.667246653637527, -0.6675919882685042, 3.388631034707771, -6.382094964933831, -6.5908025296783705, -0.5257441160103531, 2.5757996978689888, 5.85450284525189], [-2.093448728211592, -8.267433123696543, -4.077486000186791, -1.4777782115991758, -8.962774365814735, -8.240747268123721, -0.8702725804189254, 0.6732663514897044, -2.2498703780029907], [-6.647475344368662, -7.002287710651788, 0.38521364600099445, 1.5754927106536178, -7.955227251080466, -6.0770357235584385, 5.039116972527179, 3.6525624601272066, 2.8260658498443467], [0, 0, 0, 0, 0, 0, 0, 0, 0], [0, 0, 0, 0, 0, 0, 0, 0, 0], [0, 0, 0, 0, 0, 0, 0, 0, 0], [-4.7005645863807635, 0.8327932898816495, -10.189632432966754, -2.8031237067947745, -7.0419423641104775, -5.266317647341001, -3.1423199782415345, 3.363169257449665, -0.9625842074875275], [0, 0, 0, 0, 0, 0, 0, 0, 0], [0, 0, 0, 0, 0, 0, 0, 0, 0], [0, 0, 0, 0, 0, 0, 0, 0, 0], [-2.8684613179007097, -6.538607678320269, -6.674993098257428, -4.234671646038308, -7.879320949670102, -6.903154157613667, 0.34622192669223795, -1.3082950922710828, 3.2670944462768903], [0, 0, 0, 0, 0, 0, 0, 0, 0], [-5.54785458840047, -5.64545207009162, -7.405431302225839, -4.668177892245232, -6.2130859446093405, -5.463467315978695, 1.2807760079017165, 0.5643988621825017, 2.4866603034891064], [-3.08957233873563, -3.4062530746477826, -9.345007001361504, -1.1049299845082088, -9.473162160861339, -9.516392431040275, -0.564732052767962, -3.0219415190544288, -3.006880558561972], [-6.339815087811321, 1.8022995658360208, -7.444161816743924, 2.0887036410157127, -5.944858674135251, -6.516616060099771, -1.1507256719097538, 3.030487994632169, 1.7517882951921682], [0, 0, 0, 0, 0, 0, 0, 0, 0], [1.6688877840341951, -7.3081059353274105, -6.672853503582871, 3.2357315295076363, -7.225769645855572, -7.123565787217727, 4.994426784745285, 2.2349768065867255, -0.11724993843213927], [0, 0, 0, 0, 0, 0, 0, 0, 0], [-10.575793750634567, -10.66379732467779, -11.280299327531877, -4.681835917857656, -12.402005053361831, -12.229658981747265, 1.0882831672907798, -4.502667978984414, -4.32122448937861], [0, 0, 0, 0, 0, 0, 0, 0, 0], [-9.430069008940485, -9.698944671231828, -11.802256201946378, -4.503524813197904, -10.53374216852422, -12.023610702761145, -4.57702341655954, 2.1570175887135417, -4.638018479374506], [0, 0, 0, 0, 0, 0, 0, 0, 0], [0, 0, 0, 0, 0, 0, 0, 0, 0], [0, 0, 0, 0, 0, 0, 0, 0, 0], [-5.897123862928978, 0.20395932677502246, 2.610352938054697, -6.000538475395147, -6.902313616502104, -7.0413320717508014, 0.3094639893008417, 0.9302651479230413, 5.525457878625002], [0, 0, 0, 0, 0, 0, 0, 0, 0], [0, 0, 0, 0, 0, 0, 0, 0, 0], [0, 0, 0, 0, 0, 0, 0, 0, 0], [1.2192344028071513, -6.444524748479904, 0.176078475850036, -7.1182766612748365, -5.097613051164414, -5.780770482817997, -0.07449804071376778, -1.0838099755273447, 2.8862947556251366], [0, 0, 0, 0, 0, 0, 0, 0, 0], [-10.0801087162234, -9.309655225806544, -4.566333292008848, -10.616802101436095, -9.870585116257763, -10.346665596973654, -4.717337348551686, 2.051021740935857, -3.721434271039306], [0, 0, 0, 0, 0, 0, 0, 0, 0], [0, 0, 0, 0, 0, 0, 0, 0, 0], [0, 0, 0, 0, 0, 0, 0, 0, 0], [0, 0, 0, 0, 0, 0, 0, 0, 0], [0, 0, 0, 0, 0, 0, 0, 0, 0], [0, 0, 0, 0, 0, 0, 0, 0, 0], [0, 0, 0, 0, 0, 0, 0, 0, 0], [0, 0, 0, 0, 0, 0, 0, 0, 0], [-4.793921115361331, -5.961340983668601, -6.789282477985413, -5.537641590511887, -5.2039023794486265, -6.71766813633751, 0.367686907437041, 5.180424213305283, 5.897418269601853], [2.318389814722415, 0.7692020237847983, -6.508462708498048, -6.493572495159918, -6.308236350101602, -7.533762649932706, -2.0391975963593736, 1.6510601466923458, 1.3779533061399245], [0, 0, 0, 0, 0, 0, 0, 0, 0], [-11.100782975961167, 3.228235986429141, -9.04838777521308, -9.568478201661316, -9.282175805249004, -9.100042728007104, -4.769674120531327, -4.694220379871227, -4.556529096109341], [0, 0, 0, 0, 0, 0, 0, 0, 0], [0, 0, 0, 0, 0, 0, 0, 0, 0], [-6.22305730717984, -5.616476046916082, -6.411887750949315, -5.175138197063784, -5.97692410539902, -5.587594924961832, -1.0345729862557453, 2.85855695972178, -2.4089871242499923], [-4.275176544760266, -8.634471390224366, -10.189849386161047, -9.233104437593907, -8.291964995824637, -8.969853569377545, -4.5644924300348695, -4.200655074776673, -4.4569308778649575], [-8.055453540428504, -4.833626813635342, -8.170747434436851, -7.071567873945979, -4.878744000257007, -4.744805713463412, 3.6021861102436397, 6.667383906077147, -1.8868838900310991], [0, 0, 0, 0, 0, 0, 0, 0, 0], [1.5617645010561483, 1.4816728062047744, 1.5579123897007936, -7.909004747805163, -8.00262355570026, -7.796555353058856, 1.5587083433366797, 1.0293947687400673, 4.727021362128692], [-7.7926492247822905, 1.4926384515671889, 1.789800197652022, -8.26135460389555, -7.708598155645167, -7.40313061598356, 0.2274699534392437, -0.4504642672072365, 1.5420022268048785], [0, 0, 0, 0, 0, 0, 0, 0, 0], [0.38318583591446, -7.166719873636627, 1.7038125267746946, -7.727905866359882, -7.823946646996038, -7.761566555216284, 1.6182636885877995, -0.7378889272840264, 2.4246319049340315], [0, 0, 0, 0, 0, 0, 0, 0, 0], [-10.18555238633394, -10.192689069092607, -4.732148355121609, -9.589174934210046, -10.410060121257164, -10.106168074334715, -3.5153453666195857, -4.616925542867769, -1.1718938678312367], [0, 0, 0, 0, 0, 0, 0, 0, 0], [-8.258347267574353, -8.294131159517747, 0.5362756939853, -8.426216125975891, -8.30456250998937, -8.257843112319105, 1.2951377495416698, 1.7620001469243394, -4.221096227809797], [0, 0, 0, 0, 0, 0, 0, 0, 0], [-2.5923065665631357, -2.3681112160253512, -8.166470098069542, -8.201663338457584, -8.45904019152271, -8.104742853318887, -2.8383025941340785, -1.319619681819176, -0.02028674108753925], [0, 0, 0, 0, 0, 0, 0, 0, 0], [-6.32201008403298, 1.2141384681112002, -5.791966032077397, -6.43964253391636, -5.49276189632136, -5.453861084805076, 1.5860542351295872, -3.3630946535372193, 5.284034378066997], [0, 0, 0, 0, 0, 0, 0, 0, 0], [0, 0, 0, 0, 0, 0, 0, 0, 0], [-7.12568004954927, -4.756302649826125, -5.01636139075725, -5.761783520565899, -8.248595461284971, -8.002379919369048, -2.269632549615419, -2.726432656017197, 5.5329189624144535], [-0.6190741033771735, -6.039658931500469, -7.538021739974093, -5.631433876039195, -6.750712853405825, -5.823081984616733, -3.079416579917761, 1.6016216206522462, 5.25721652442736], [-7.619651399905018, -7.651661057641516, -7.1678955459670615, -7.090708972092688, -7.534508306194703, -8.28577770190509, -2.596294258600011, -0.8764467750569636, 2.4335470748036787], [0, 0, 0, 0, 0, 0, 0, 0, 0], [0, 0, 0, 0, 0, 0, 0, 0, 0], [-8.482073218480123, -3.2527553443056707, -8.190011122094734, -8.400001810006195, -8.355655070853851, -8.262679993196304, 1.90254445717254, 1.3436303983547684, -3.2715147880707476], [0, 0, 0, 0, 0, 0, 0, 0, 0], [1.5753232193644213, -8.26424042618591, -8.43906942728779, -8.425277834350133, -8.179558440276455, -8.25924722568125, 1.7006918143029008, 1.3965846415119103, 0.04901871450227102], [-7.571364354726933, -6.4896099672454, -7.484958045067805, -7.8349313545263986, -7.5146391195177085, -7.002605460864751, -2.212279670068858, 2.8150066672772445, 0.8878349116255557], [0, 0, 0, 0, 0, 0, 0, 0, 0], [0, 0, 0, 0, 0, 0, 0, 0, 0], [0, 0, 0, 0, 0, 0, 0, 0, 0], [0, 0, 0, 0, 0, 0, 0, 0, 0], [1.837697828822858, 0.8079722803777927, 1.836614626036815, 1.7366189064083133, 2.0346669028129365, -7.723342745589244, 1.8076727997940294, 1.819914118659137, 1.8067509308678265], [-7.754357132942991, 1.8320354649253408, 1.6394817885840158, 1.640901187088241, 0.8486721481711175, -7.53087755069852, 1.9684212873290796, 1.9217614846331594, 1.5640387862251517], [0, 0, 0, 0, 0, 0, 0, 0, 0], [0.938866321479988, -7.583142507245012, 1.3729578564304419, 1.9683252630609207, 1.8551572504679912, -7.472819999629142, 1.2625339096779324, 1.5848858070363443, 1.2781887175747748], [0, 0, 0, 0, 0, 0, 0, 0, 0], [-7.2595789451348125, -7.64920575216823, 1.6068916825115775, 1.5629025385718962, 1.800864857816348, -7.8903140710226145, 1.298786472303412, 1.2258530372967709, 1.088609174657154], [0, 0, 0, 0, 0, 0, 0, 0, 0], [-6.498794159099024, -6.976691117786398, 0.6172642650726664, 1.619019308694263, 1.608957336272447, -7.0891943365275605, 3.2492860517567097, 1.5681045503815056, 0.7381536885923456], [0, 0, 0, 0, 0, 0, 0, 0, 0], [1.8172689618742242, 2.2529938425157443, -7.846691098790537, 1.680785146983507, 2.1351021824878385, -7.596162887688683, 1.4208040940245865, 1.951507219352598, 1.8053959790137517], [0, 0, 0, 0, 0, 0, 0, 0, 0], [-8.17308308114893, 1.1531941464614142, -7.0481205604245085, 1.5753866883200325, 1.615882138462697, -7.391939230642341, 1.550363875441836, 0.2094832341098818, 1.5889876901992044], [0, 0, 0, 0, 0, 0, 0, 0, 0], [0, 0, 0, 0, 0, 0, 0, 0, 0], [-7.021507170099092, -6.813680857596298, -7.044409981409361, 0.8285985339133217, 1.5913165117600356, -6.799944924050969, 0.6970948224994902, 3.7196788247093555, 0.5483861144534755], [-0.647620970754507, -8.175722616847771, -7.6979996577035905, 1.5054420211678858, 2.2357340541482733, -7.071573657323592, 0.9001225651194169, 1.52923432848412, 1.4125013081235216], [-7.561991913861287, -7.456923456862734, -8.017071361069227, -0.03223350625534538, -0.2468462957275146, -8.07397664602952, 2.7364206909273365, 4.136667953413952, 1.1791698526837215], [0, 0, 0, 0, 0, 0, 0, 0, 0], [0, 0, 0, 0, 0, 0, 0, 0, 0], [-7.466326170016922, 0.17780717491331832, -7.087467319738892, 2.1200779494318045, -0.10999616522120459, -7.731004177332368, -2.840437243342215, -0.04110516015493659, 3.565991496486223], [0, 0, 0, 0, 0, 0, 0, 0, 0], [-3.876096960967427, -8.783127118105607, -8.460499444757545, -0.27630587326158146, -4.162091452857649, -9.61036767249761, -2.398241558391805, -3.449711135035257, -0.8095675691510025], [-6.567650519646373, -6.154336066091746, -6.262156563298667, 4.866938917623017, 0.8239763155488187, -5.859841925071211, -0.5505286399698296, 0.11249357298862056, -1.0390072802538466], [0, 0, 0, 0, 0, 0, 0, 0, 0], [0, 0, 0, 0, 0, 0, 0, 0, 0], [0, 0, 0, 0, 0, 0, 0, 0, 0], [0, 0, 0, 0, 0, 0, 0, 0, 0], [1.6511056979999696, 1.5954206905316717, 1.7023445502294527, -7.096134206559844, 1.5713073210805126, -7.56313162800134, 1.6117506388050113, 1.4385033712620152, 1.576743451508737], [0, 0, 0, 0, 0, 0, 0, 0, 0], [-8.15661155768434, 1.3790296112242377, 1.6934469565089434, -8.510419605828563, 1.3971879173730026, -8.490349382862295, 0.14266919290970792, 0.2572364062295356, 1.488208084100473], [0, 0, 0, 0, 0, 0, 0, 0, 0], [0, 0, 0, 0, 0, 0, 0, 0, 0], [-7.576809072825132, -7.386219123069209, 1.530669659683337, -7.5885589063216585, 1.5757936845635179, -6.501826662502491, 1.8042006390108738, 3.8111106012484153, 1.3881963318612807], [1.498696084515092, -7.611621056602008, 1.5438438663687881, -8.22055079371192, 1.244315247310563, -8.18139453297179, 1.4648640517793095, 1.7022451790268862, 3.4206219204430193], [-7.393906450404372, -7.811262019942489, -0.15022483356617977, -7.632058541060885, 0.38220245259410035, -7.447651838764339, 0.7988197222129292, -2.645953482536481, -2.8042382829140236], [0, 0, 0, 0, 0, 0, 0, 0, 0], [0, 0, 0, 0, 0, 0, 0, 0, 0], [0, 0, 0, 0, 0, 0, 0, 0, 0], [-8.254132786878223, 1.6403856481844112, -8.282654318215226, -7.882750440706816, 1.5390840263390093, -8.318885435008255, 1.8192987225850643, 1.3613287402418264, 1.5386482815459868], [0, 0, 0, 0, 0, 0, 0, 0, 0], [0, 0, 0, 0, 0, 0, 0, 0, 0], [0, 0, 0, 0, 0, 0, 0, 0, 0], [1.2378336672508539, -8.50806668598608, -8.101825179311, -8.005744987736012, 1.7635333535748257, -8.176065494888382, 1.7309153508431172, 3.262510966148299, 1.0829961205747818], [0, 0, 0, 0, 0, 0, 0, 0, 0], [-8.158169549135547, -8.347463213091892, -7.632359163672481, -8.277074514715762, 1.6130229269045673, -8.319257728020908, 1.0841299005560585, 2.022731845880482, 1.6097136209173484], [0.017431945923105374, 0.5774521762971019, -8.013837942544425, -8.096339500626204, -0.8961893612173641, -7.7522124938244295, -3.41370832416148, 1.2515183832551238, 1.5709702576855014], [-6.422916601121106, -1.3542804945089668, -6.5534551238269145, -7.142989609587166, -4.171354454531438, -6.077991947200541, 1.1060570193838255, -3.812507280270049, -1.3213376784370159], [0, 0, 0, 0, 0, 0, 0, 0, 0], [3.1466543068233452, -6.908702749459243, -7.533014748993279, -7.09567325349806, 1.6342608701261474, -5.891713841325254, 1.6402714495847102, 1.478176046763693, 5.557475235799901], [0, 0, 0, 0, 0, 0, 0, 0, 0], [-8.192708529945893, -8.384962465325906, -8.274595030656945, -8.297906525322606, -4.64830243234632, -8.172838251946196, -2.7927944944715986, -0.26463493717813336, 1.8917457427360471], [0, 0, 0, 0, 0, 0, 0, 0, 0], [-7.950877349185062, -6.445852023867456, -6.4698038736470185, -6.103726343111803, -0.1298427213463449, -5.266488609116293, 5.784250360277648, 0.9912970562318228, -0.4343636974839937], [0, 0, 0, 0, 0, 0, 0, 0, 0], [0, 0, 0, 0, 0, 0, 0, 0, 0], [-7.359325357286367, -2.5844413439730785, 1.9343644601019858, -6.945697317465873, 2.94662272306806, -7.453773822453627, -2.707290265915728, -3.3212782371859864, 1.7482553411276955], [0, 0, 0, 0, 0, 0, 0, 0, 0], [-2.428216682570602, -7.097194635772746, 1.2436646820864232, -7.272476297054782, 4.849175766254943, -7.738738434666102, 1.349148470992469, 0.721928442831997, 0.718915863392009], [-6.803436459982883, -6.481830252571281, 0.40057935996160227, -6.364049351434218, -1.4631504902617078, -6.936767918061644, -2.03259870049051, -2.2204251117416183, -1.9980261490091142], [0, 0, 0, 0, 0, 0, 0, 0, 0], [0, 0, 0, 0, 0, 0, 0, 0, 0], [0, 0, 0, 0, 0, 0, 0, 0, 0], [0, 0, 0, 0, 0, 0, 0, 0, 0], [1.0126924107598416, 1.0890873715734586, -6.241669130929522, -7.239025017887356, 2.825983522451261, -7.472045375005593, 0.8384689330265612, 0.46923827864456036, 1.3920833647322184], [-7.514757392657325, -0.8269814342397235, -7.407922098504154, -7.395622726822275, -1.1878881603711824, -7.193939805150773, -3.535142518130418, -4.4008479072919755, -4.2630570178832645], [0, 0, 0, 0, 0, 0, 0, 0, 0], [4.455743385832339, -6.796562223693191, -6.88319330802023, -5.71655979564267, -0.912109141982709, -8.641315244467368, -4.067603255780188, 0.07285092275903693, -1.1602128205297946], [0, 0, 0, 0, 0, 0, 0, 0, 0], [-9.185830559618132, -10.222008916977682, -9.705032918818791, -7.600096290330155, -1.7713935291783058, -8.693966032594734, -0.976531424622925, -4.569225922292916, -2.434536419567657], [0, 0, 0, 0, 0, 0, 0, 0, 0], [-7.15395573866248, -8.430777886006467, -8.512117666137861, -8.68613947695056, -0.9249540611891729, -7.545590092727238, 3.1326345865976437, 1.9140705177063067, -4.296909840006204], [0, 0, 0, 0, 0, 0, 0, 0, 0], [0, 0, 0, 0, 0, 0, 0, 0, 0], [0, 0, 0, 0, 0, 0, 0, 0, 0], [0, 0, 0, 0, 0, 0, 0, 0, 0], [0, 0, 0, 0, 0, 0, 0, 0, 0], [-9.914232376952963, -10.086773233598457, -9.346159258308695, -9.100431860631991, -3.870482605664985, -8.233793386660375, 0.14959206980004763, -3.760404361640683, -3.8578913583486774], [0, 0, 0, 0, 0, 0, 0, 0, 0], [0, 0, 0, 0, 0, 0, 0, 0, 0], [0, 0, 0, 0, 0, 0, 0, 0, 0], [0, 0, 0, 0, 0, 0, 0, 0, 0], [2.1333051829171974, 1.5474358193699453, 1.5649494901314651, 1.5497499557000582, -7.723877016517713, -7.831342186233106, 1.438034999612138, 2.949842841122382, 1.9396768008814813], [0, 0, 0, 0, 0, 0, 0, 0, 0], [-7.629955202672928, 1.4826535881492076, 1.7987490381967408, 1.3466075408025702, -7.9088094722015825, -6.8643700805393895, 1.4940145920542296, 1.6068534422051868, 1.6275745511763984], [0, 0, 0, 0, 0, 0, 0, 0, 0], [0, 0, 0, 0, 0, 0, 0, 0, 0], [-8.23159391605134, -8.011335719464974, -2.7111274887318073, 2.3583349624730285, -8.188342103829097, -8.023574464407822, -2.9585684310258977, 3.3250638398209036, -2.4850751600548753], [1.6405722689656284, -7.7473862504881925, 1.5380029976793332, 2.505677744981382, -7.800355965007174, -7.714382994888409, 1.4913903819899632, 1.3837034918794044, 1.6537396734558931], [-8.0256061814273, -6.952060118574677, -3.52964296640883, -1.2544277183520118, -7.530180385634899, -7.109072645484401, -0.06711302917776307, -3.1671954174088217, 3.9744339090276393], [0, 0, 0, 0, 0, 0, 0, 0, 0], [0, 0, 0, 0, 0, 0, 0, 0, 0], [0, 0, 0, 0, 0, 0, 0, 0, 0], [-8.19437278362802, -3.0874056976354227, -7.992872599745171, -1.9723277148193157, -7.821580473347635, -8.304273558123224, 1.5323648352326196, -2.586511937966746, -2.6980000521065306], [0, 0, 0, 0, 0, 0, 0, 0, 0], [0, 0, 0, 0, 0, 0, 0, 0, 0], [0, 0, 0, 0, 0, 0, 0, 0, 0], [-3.9818557296487134, -7.808157204611234, -7.800516162747437, 1.2735875169467203, -8.054348917977677, -8.162650369007068, 1.5247307921360713, -2.7553049630614916, -2.930536937321365], [0, 0, 0, 0, 0, 0, 0, 0, 0], [-7.525214216794488, -5.586307846964205, -5.403610934258083, 1.815571747701732, -6.058914749369784, -5.3737512516797015, 5.220795154589539, 1.8451859105679427, 1.2138335593063472], [0.982566653889103, 0.9388514761038482, -8.03400677365552, 1.5217813065481454, -7.587018299649065, -7.795918393156226, 0.6818824522888568, 1.2386314331956925, 4.306422835090418], [-5.02937329290927, -4.717149909996442, -8.525912014363094, -4.207026523319856, -7.424306833651986, -6.138584705803382, -4.1557711921385225, -3.976482045905209, 3.8509363178253015], [0, 0, 0, 0, 0, 0, 0, 0, 0], [-2.3453586299489984, -8.41054049707773, -7.842691724376787, 1.2566075345511332, -7.733719338191987, -6.774770810925851, -3.336371725842907, 3.1966266309720304, -2.0482476499658286], [0, 0, 0, 0, 0, 0, 0, 0, 0], [-7.728573581925852, -6.5369347570320055, -5.207409237282329, 0.045725151073519044, -6.559971173343288, -6.416562320869568, -2.3455647344497814, 5.427186706443389, 1.664895680137135], [0, 0, 0, 0, 0, 0, 0, 0, 0], [-6.308652131619615, -5.454723084231762, -7.468074202188644, -2.731770800566598, -6.259150351916698, -6.455128781095514, -2.9470593590848755, -2.448784852891129, 5.58421477119362], [0, 0, 0, 0, 0, 0, 0, 0, 0], [0, 0, 0, 0, 0, 0, 0, 0, 0], [0, 0, 0, 0, 0, 0, 0, 0, 0], [-6.906470731526447, 1.8207156923033971, 1.319253759505086, -7.571545678001595, -7.9366007847248365, -7.45978002325468, 1.5003013707201056, 3.415251614536583, 1.4388767096410162], [0, 0, 0, 0, 0, 0, 0, 0, 0], [0, 0, 0, 0, 0, 0, 0, 0, 0], [0, 0, 0, 0, 0, 0, 0, 0, 0], [1.6856370217797978, -6.827601824670545, 1.2667003029400743, -7.238178263373724, -7.937893270120403, -6.757885447679481, 1.3331450615857623, 1.253246979587992, 1.0605793115322708], [0, 0, 0, 0, 0, 0, 0, 0, 0], [-8.134962594823548, -7.802138731156047, 1.6806480725674957, -7.584929368116429, -7.941640142687316, -8.106249874446057, -0.15535405722134543, -3.1528929607095013, -2.6578905166093634], [0, 0, 0, 0, 0, 0, 0, 0, 0], [0, 0, 0, 0, 0, 0, 0, 0, 0], [0, 0, 0, 0, 0, 0, 0, 0, 0], [0, 0, 0, 0, 0, 0, 0, 0, 0], [0, 0, 0, 0, 0, 0, 0, 0, 0], [0, 0, 0, 0, 0, 0, 0, 0, 0], [0, 0, 0, 0, 0, 0, 0, 0, 0], [0, 0, 0, 0, 0, 0, 0, 0, 0], [-8.284049066917031, -8.339318125631102, -8.463527449246293, -8.388619341632678, -8.291715832100689, -8.338230793751222, 1.8869150709721807, -4.221400237949245, 1.021516970208959], [-0.4086687110858167, 0.3826007825430378, -6.63033340956547, -7.023944692147115, -7.5113142396299235, -6.164259755625836, 0.8071539414185429, 3.314861734723859, -1.533619451739823], [0, 0, 0, 0, 0, 0, 0, 0, 0], [-8.575179558080684, -3.915891045564355, -8.563295269017662, -8.084631155659686, -9.775711823656156, -8.875719415311124, -4.377663979026581, -4.280466781118118, 1.1362299342546038], [0, 0, 0, 0, 0, 0, 0, 0, 0], [0, 0, 0, 0, 0, 0, 0, 0, 0], [-6.897253547644337, -6.703542247130381, -7.457994678271289, -6.880456228692895, -7.848119902578776, -8.02279099858071, -3.199999126603188, 4.160304579931278, -1.0584992737302255], [4.535491677458946, -8.969116753248127, -10.45911791480176, -9.389829069854379, -9.061440770030057, -10.104947469644, -4.1475130528927915, 0.795331349545807, -1.157934502046502], [-8.506765439928142, -4.734130329618292, -5.719766634272492, -5.630598797137491, -5.925022979188749, -6.77740041785072, -4.222022220211195, -2.5789326420239584, 3.8945202145382813], [0, 0, 0, 0, 0, 0, 0, 0, 0], [1.5252541293367545, 1.5619621783912427, 1.884163560927865, -6.755294610725773, -7.068237328382536, -7.0876210435419456, 1.9324949201892498, 1.9240230834116883, 0.8428240198988319], [-8.020845707046362, -3.1076282635344503, 2.022580287283068, -6.91453968696832, -7.946384811437834, -8.201327929099268, -0.8841682408968166, -0.6791473400983998, -0.3433962540968106], [0, 0, 0, 0, 0, 0, 0, 0, 0], [-2.2730556930275982, -7.9345890421769445, -2.6770035548026936, -7.3030582652073655, -9.370273905198278, -8.713058955130908, -2.8643765037323328, 1.2407346117497768, -2.9424386783079424], [0, 0, 0, 0, 0, 0, 0, 0, 0], [-6.297319069839066, -7.284050001612776, -2.94815648272671, -6.963775572133971, -7.524529210372768, -5.057476753813287, 1.2672421714912483, 5.534565485190135, -2.934984689997494], [0, 0, 0, 0, 0, 0, 0, 0, 0], [-6.0340765499990585, -6.075372657704248, 1.9232422400985976, -5.036571133767788, -6.841862192087387, -5.902418902533107, 5.045869102015697, 2.689058710923104, 2.52015778229638], [0, 0, 0, 0, 0, 0, 0, 0, 0], [1.9438977962131179, 2.9765730208626278, -8.10090742281023, -8.205179209740052, -8.034224222858228, -7.6724550917200585, 0.875453255173868, 0.9425953500228955, -2.1751258835410163], [0, 0, 0, 0, 0, 0, 0, 0, 0], [-7.553117095175277, -2.608952988714262, -5.114961964815917, -5.243278422941474, -5.275269110856654, -6.993133483134385, 2.0706779807926043, 0.9010457860103019, -2.4037211623198003], [0, 0, 0, 0, 0, 0, 0, 0, 0], [0, 0, 0, 0, 0, 0, 0, 0, 0], [-8.771494639941622, -8.802347653367107, -5.741338846112629, -9.013621441859165, -6.433370839155542, -8.774569564824926, 5.457721851078175, -2.7816910754054307, -3.104877157285036], [2.2960790305140693, -7.451759682182047, -5.391828891302094, -6.459434487927167, -5.507076665722629, -5.966333442661409, 2.7655184672513986, 1.691605152967183, 2.714170375279708], [-9.661132324909211, -10.813395542279705, -11.530362738511226, -10.047835005303524, -11.03786987270551, -11.525711918633515, -4.57009062272634, -4.60059219406612, -4.197828463082318], [0, 0, 0, 0, 0, 0, 0, 0, 0], [0, 0, 0, 0, 0, 0, 0, 0, 0], [-6.0492489414118005, -3.022470812332803, -5.144380203305172, -6.28016555711978, -7.484582464085564, -7.448014460473314, 0.8015334338948393, -3.28312139896447, 4.666820973198719], [0, 0, 0, 0, 0, 0, 0, 0, 0], [0.6324983276052187, -5.574402601537415, -5.583818646287199, -5.694551243671448, -6.657632774440057, -7.503564752470565, 1.7212725099452424, 5.244249149920703, 1.4355313166013368], [-5.9103460075725565, -5.533765832999414, -9.111433307341983, -5.282118824444501, -6.632896309125112, -8.52079576591116, -4.399714237564225, 1.033538609486658, 5.8722348979273775], [0, 0, 0, 0, 0, 0, 0, 0, 0], [0, 0, 0, 0, 0, 0, 0, 0, 0], [0, 0, 0, 0, 0, 0, 0, 0, 0], [0, 0, 0, 0, 0, 0, 0, 0, 0], [0, 0, 0, 0, 0, 0, 0, 0, 0], [-6.506294854603702, -2.0192560994543975, 1.0838222441287497, 5.091219803294271, -6.635157473605327, -6.039413503277972, 0.17959548101260436, -3.8146883898178943, 0.5383211760562381], [0, 0, 0, 0, 0, 0, 0, 0, 0], [-2.082595341326215, -8.786477584947429, -0.18675889406091706, 1.7004995533003004, -7.959455383251052, -8.550682284633199, -3.0298576216764097, -2.975135847641834, -3.9603731771277086], [-7.900650906872315, -8.548420292243556, 0.3030164792167096, -2.382085378482208, -7.919881665954646, -7.415983241876019, -2.191174087506992, -2.302449242710866, -3.0651679119041155], [0, 0, 0, 0, 0, 0, 0, 0, 0], [0, 0, 0, 0, 0, 0, 0, 0, 0], [0, 0, 0, 0, 0, 0, 0, 0, 0], [0, 0, 0, 0, 0, 0, 0, 0, 0], [1.1376992487564657, -3.024717726112823, -8.304565882510893, 2.0861072579929125, -7.806141044766726, -8.03753451050154, -0.16720816729775884, 1.1855558798594261, 1.3617074079656337], [-5.5931782384179645, 3.386556895625334, -7.8692629621863235, -1.4211445475682747, -6.914897153903829, -7.93177127241415, -4.472174764691314, -1.9617075162816182, -3.1606085065099254], [0, 0, 0, 0, 0, 0, 0, 0, 0], [3.7658768137467367, -7.528179184956512, -6.61623178791183, -0.9749087720301965, -7.517943915261467, -7.659822143514887, 0.0807646263292976, -3.133506572506916, -2.3932148176129013], [0, 0, 0, 0, 0, 0, 0, 0, 0], [-11.571105213517054, -8.343086483100883, -8.622109495051495, 2.621878747248279, -7.52454872813051, -8.644082225819016, -4.194852050740306, -3.2352190106994207, -3.1959255976167777], [0, 0, 0, 0, 0, 0, 0, 0, 0], [-8.99604411637706, -8.529208596569337, -8.700245534251515, -3.6469338166961376, -10.01151468730355, -10.05571469078992, -4.131025606917732, -4.121272851560715, -1.9148277635189248], [0, 0, 0, 0, 0, 0, 0, 0, 0], [0, 0, 0, 0, 0, 0, 0, 0, 0], [0, 0, 0, 0, 0, 0, 0, 0, 0], [0, 0, 0, 0, 0, 0, 0, 0, 0], [0, 0, 0, 0, 0, 0, 0, 0, 0], [-10.667515187624232, -9.565852846001428, -9.055586682168867, -4.4840587999140595, -10.184683950125342, -9.298377445017373, 0.5757242337916408, -4.644470099761405, -4.529014077422505], [0, 0, 0, 0, 0, 0, 0, 0, 0], [0, 0, 0, 0, 0, 0, 0, 0, 0], [0, 0, 0, 0, 0, 0, 0, 0, 0], [0, 0, 0, 0, 0, 0, 0, 0, 0], [3.4131064064467127, 2.915244278093858, 1.5974997969569333, -7.653774959019661, -7.979274028624179, -7.296604091791222, 2.138762639870479, 1.7723944474397042, 1.6104760720733275], [-7.960431087377313, 0.7987784440665588, 1.2502827205728992, -8.93397897887676, -7.353665961773357, -7.370120257376873, 1.5067100475381316, 1.1571577305132321, -2.629764647073952], [0, 0, 0, 0, 0, 0, 0, 0, 0], [1.3597396866992923, -8.229277478141608, 1.0356615997743488, -7.115367330125795, -7.528914414059264, -7.919704756245205, 1.8831895967240528, 1.0229445872113248, -0.4493772399804905], [0, 0, 0, 0, 0, 0, 0, 0, 0], [-8.296203895650054, -8.30890457119967, -3.0151060261852636, -8.331824303745563, -8.438782185250911, -8.206169897400795, -0.6074084599390323, -1.1031443611651246, 1.8563903504694412], [0, 0, 0, 0, 0, 0, 0, 0, 0], [-8.060147610534715, -5.17348469777411, 1.663119634832516, -5.664090789374573, -5.208079934401601, -5.398499849163754, 5.880202338983929, 1.899980196396029, 2.202882104734532], [0, 0, 0, 0, 0, 0, 0, 0, 0], [2.3308620284132875, 1.554237439728329, -8.435237279437422, -8.041501230179128, -7.577234055401405, -8.293101392866145, 2.2710690888610503, 1.5685932202489399, 1.529777322836097], [0, 0, 0, 0, 0, 0, 0, 0, 0], [-8.307961873006445, 0.8277306054341298, -8.374006801985265, -8.29988115347061, -8.320331281145886, -8.368952432368234, 0.6944391054881982, -0.4256612403037241, 1.8343757927899595], [0, 0, 0, 0, 0, 0, 0, 0, 0], [0, 0, 0, 0, 0, 0, 0, 0, 0], [-6.762254008102263, -7.137405121084728, -7.9434441028697975, -6.874842579364099, -6.919605430803912, -5.750201488173907, 3.7014882709415047, 0.23594290947545837, -1.0724164284737343], [-2.9659780190913283, -8.310097258778121, -8.392269507330434, -8.230696116103072, -8.372111018113308, -8.37302670316083, 0.3899417706257603, 1.6806297310253577, -2.9807353320197842], [-8.34419235015866, -8.191765252808258, -8.671108363844755, -7.398644843339665, -7.7828939385956035, -8.494501986036674, 4.939173742554549, -1.6281883055854074, -2.8077311806933674], [0, 0, 0, 0, 0, 0, 0, 0, 0], [0, 0, 0, 0, 0, 0, 0, 0, 0], [-5.836296292450953, -4.205079547696399, -7.112281006835495, -6.401699028565451, -5.183960884148918, -7.215738905256197, 5.679542790243836, -4.546243695118537, 2.9357979271706394], [0, 0, 0, 0, 0, 0, 0, 0, 0], [3.114067154377681, -10.647254992633624, -9.88822978162665, -10.88543818422133, -8.551818225802856, -10.710908980110489, -4.486599724604587, -4.53723542946238, -4.045886399416184], [-5.210919783324688, -9.478450239393833, -8.597145371592877, -4.951840630957168, -6.536229099324878, -7.396080005135056, -2.2474572754469757, -2.5634656808728473, -1.7807185953923481], [0, 0, 0, 0, 0, 0, 0, 0, 0], [0, 0, 0, 0, 0, 0, 0, 0, 0], [0, 0, 0, 0, 0, 0, 0, 0, 0], [0, 0, 0, 0, 0, 0, 0, 0, 0], [0, 0, 0, 0, 0, 0, 0, 0, 0], [0, 0, 0, 0, 0, 0, 0, 0, 0], [0, 0, 0, 0, 0, 0, 0, 0, 0], [0, 0, 0, 0, 0, 0, 0, 0, 0], [0, 0, 0, 0, 0, 0, 0, 0, 0], [0, 0, 0, 0, 0, 0, 0, 0, 0], [0, 0, 0, 0, 0, 0, 0, 0, 0], [0, 0, 0, 0, 0, 0, 0, 0, 0], [0, 0, 0, 0, 0, 0, 0, 0, 0], [0, 0, 0, 0, 0, 0, 0, 0, 0], [0, 0, 0, 0, 0, 0, 0, 0, 0], [0, 0, 0, 0, 0, 0, 0, 0, 0], [0, 0, 0, 0, 0, 0, 0, 0, 0], [0, 0, 0, 0, 0, 0, 0, 0, 0], [0, 0, 0, 0, 0, 0, 0, 0, 0], [0, 0, 0, 0, 0, 0, 0, 0, 0], [0, 0, 0, 0, 0, 0, 0, 0, 0], [0, 0, 0, 0, 0, 0, 0, 0, 0], [0, 0, 0, 0, 0, 0, 0, 0, 0], [0, 0, 0, 0, 0, 0, 0, 0, 0], [0, 0, 0, 0, 0, 0, 0, 0, 0], [0, 0, 0, 0, 0, 0, 0, 0, 0], [0, 0, 0, 0, 0, 0, 0, 0, 0], [0, 0, 0, 0, 0, 0, 0, 0, 0], [0, 0, 0, 0, 0, 0, 0, 0, 0], [0, 0, 0, 0, 0, 0, 0, 0, 0], [0, 0, 0, 0, 0, 0, 0, 0, 0], [0, 0, 0, 0, 0, 0, 0, 0, 0], [0, 0, 0, 0, 0, 0, 0, 0, 0], [-7.632217290079964, 0.8137051405907754, -0.18275376687274614, 1.5037505673469567, 0.5441603379036546, 1.5114662148927895, -7.583047603354456, 2.2451997088697837, 0.8387207231753886], [0, 0, 0, 0, 0, 0, 0, 0, 0], [0, 0, 0, 0, 0, 0, 0, 0, 0], [0, 0, 0, 0, 0, 0, 0, 0, 0], [1.4600988382270406, -7.468257072160535, 1.9126275109747488, 1.7619114925184665, 1.3487466287309524, 1.6513122667580435, -7.881266639391862, 1.8771576489748671, 1.7365079529718588], [0, 0, 0, 0, 0, 0, 0, 0, 0], [-7.316633829414076, -7.434840232491222, 1.8004513340703978, -3.2894209130986827, 0.05248041617730992, -2.8799824456631233, -7.874680857449215, 4.310669756522433, -1.0126890780679676], [0, 0, 0, 0, 0, 0, 0, 0, 0], [0, 0, 0, 0, 0, 0, 0, 0, 0], [0, 0, 0, 0, 0, 0, 0, 0, 0], [0, 0, 0, 0, 0, 0, 0, 0, 0], [0, 0, 0, 0, 0, 0, 0, 0, 0], [0, 0, 0, 0, 0, 0, 0, 0, 0], [0, 0, 0, 0, 0, 0, 0, 0, 0], [0, 0, 0, 0, 0, 0, 0, 0, 0], [-10.017465736086484, -8.28132102402924, -7.769367935845921, -2.813782475577262, 0.20912402420494836, -3.035963216956394, -7.527060076637644, -2.7152627532691804, 4.266915338342098], [1.0116633239721677, 2.273245660109617, -7.056943885330124, 1.6837583130937603, 1.5469351415519985, 4.412212456556696, -7.831444291545438, 1.7785188797182594, 2.097176727900387], [0, 0, 0, 0, 0, 0, 0, 0, 0], [-9.762422676496607, -3.2725126968804568, -8.603867831992016, -1.2941660938565893, 1.3081466843464606, -3.183962451045751, -10.53970335847663, -3.3208021776713887, -3.256782330302972], [0, 0, 0, 0, 0, 0, 0, 0, 0], [0, 0, 0, 0, 0, 0, 0, 0, 0], [-8.149946188213846, -8.25068853865205, -7.244929859458528, 1.329258158449657, 0.05072921226351923, 1.7146329507348366, -7.923266016438713, 1.6627503131040244, 1.1164108546687959], [2.0165993662272292, -7.786538943272799, -7.81240744944349, 0.4688484422390615, 0.1527142771463057, -2.9574461661815397, -8.179197943909834, 1.9439154452004126, -0.48282996654681964], [-7.9981631344976725, -7.999653901125972, -8.150035723570134, -2.40073075397122, -2.988233577255743, -2.4316925387264963, -8.111874072092427, -2.4228685207792857, -2.6725612020533465], [0, 0, 0, 0, 0, 0, 0, 0, 0], [0, 0, 0, 0, 0, 0, 0, 0, 0], [0, 0, 0, 0, 0, 0, 0, 0, 0], [0, 0, 0, 0, 0, 0, 0, 0, 0], [0, 0, 0, 0, 0, 0, 0, 0, 0], [0, 0, 0, 0, 0, 0, 0, 0, 0], [0, 0, 0, 0, 0, 0, 0, 0, 0], [0, 0, 0, 0, 0, 0, 0, 0, 0], [0, 0, 0, 0, 0, 0, 0, 0, 0], [-5.734790759454022, -5.898127381872513, -1.9196747548050752, -6.577611694594629, 1.5125714639542684, 2.944370277056024, -5.590126671572674, 4.671575287958631, 1.3115412377594198], [0, 0, 0, 0, 0, 0, 0, 0, 0], [0, 0, 0, 0, 0, 0, 0, 0, 0], [0, 0, 0, 0, 0, 0, 0, 0, 0], [0, 0, 0, 0, 0, 0, 0, 0, 0], [0, 0, 0, 0, 0, 0, 0, 0, 0], [0, 0, 0, 0, 0, 0, 0, 0, 0], [0, 0, 0, 0, 0, 0, 0, 0, 0], [0, 0, 0, 0, 0, 0, 0, 0, 0], [0, 0, 0, 0, 0, 0, 0, 0, 0], [0, 0, 0, 0, 0, 0, 0, 0, 0], [0, 0, 0, 0, 0, 0, 0, 0, 0], [-6.546206820419772, -1.4309244086926327, -6.419365465998531, -6.373729146475475, 0.9177005926638229, 4.625743369229772, -6.415806459032792, 0.3147262515365665, 0.6138410784886539], [0, 0, 0, 0, 0, 0, 0, 0, 0], [0, 0, 0, 0, 0, 0, 0, 0, 0], [0, 0, 0, 0, 0, 0, 0, 0, 0], [-1.0479253360651335, -6.537906985280101, -7.906801754705264, -4.860253983027739, 0.9643257883081368, -3.032461550984702, -8.181604495842802, -2.2764322549482703, -2.779834550969162], [0, 0, 0, 0, 0, 0, 0, 0, 0], [0, 0, 0, 0, 0, 0, 0, 0, 0], [1.6171150618453236, 1.5586505068306016, 1.464638562293766, -7.899874512439722, 2.236772792929264, 1.2789679593968317, -8.044112014589562, 1.6950266126786122, 1.5348783242681165], [0, 0, 0, 0, 0, 0, 0, 0, 0], [-6.381099076759955, 1.5588308105189297, 1.5215760883442737, -7.002232105748241, 2.6858719565791125, 1.6488158905396804, -7.581345457314864, 1.7362010568682924, 1.6561996462351551], [0, 0, 0, 0, 0, 0, 0, 0, 0], [0, 0, 0, 0, 0, 0, 0, 0, 0], [-8.882370493611058, -7.711932920783095, 1.396395835778201, -8.41237674141545, 1.372923260543622, -0.09622965145019535, -7.961820748899587, 1.6883806415581093, -0.6355057373990617], [1.4682806351033493, -7.767558870897898, 1.6469638899032395, -7.878866839896768, 1.610704828035897, 1.6547963504421768, -7.400246675549, 1.471346845996728, 1.5229038293096822], [-7.740024514987211, -7.559500135158253, 3.2188538827947157, -7.74608901876252, 0.7512494603612605, -0.8201809044827549, -8.341968166059928, -0.10232771952204023, 1.089967906128519], [0, 0, 0, 0, 0, 0, 0, 0, 0], [0, 0, 0, 0, 0, 0, 0, 0, 0], [0, 0, 0, 0, 0, 0, 0, 0, 0], [-7.83088953628065, -1.6791417095032424, -8.694953462430002, -8.71707824411654, -1.4959291810675952, -1.808953830448815, -8.528179499481713, 1.786106338659653, -2.7345425596362762], [0, 0, 0, 0, 0, 0, 0, 0, 0], [0, 0, 0, 0, 0, 0, 0, 0, 0], [0, 0, 0, 0, 0, 0, 0, 0, 0], [-1.7226107028163395, -7.155791166318853, -7.907429701267726, -6.309074621125884, 0.05546410575163996, -3.5053436953756956, -6.661719471924708, -2.4266325711268557, -3.501670134988387], [0, 0, 0, 0, 0, 0, 0, 0, 0], [-5.1287376695209534, -6.744723873707875, -5.197281062940478, -5.545271017664857, 5.393869058746121, 4.429761398781464, -5.354861157872266, 1.8228981176087442, 1.4748049973142405], [1.5555310747667255, 1.5985159009343235, -6.821774395133723, -8.294126169632385, 1.7923728145146853, 1.5692928466930915, -7.9499119331449855, 1.5675645494451254, 1.5124746099483435], [-7.392739515705895, 1.8156456470586853, -7.046961306293289, -6.265330592457014, 1.4434722568759337, 0.9381309709835082, -6.591766080683007, 1.1994050272403576, 1.9855974104261493], [0, 0, 0, 0, 0, 0, 0, 0, 0], [0.6220036737578833, -8.261082763787092, -7.97563922685727, -7.867877262705312, 0.5246840658633396, 0.9994619383051573, -7.326541216318665, 1.9410946950719261, 1.0847871235312887], [0, 0, 0, 0, 0, 0, 0, 0, 0], [-7.081454109666648, -7.4536449825637145, -6.852562654624668, -6.53708758407696, 1.608484810073576, 1.9581460982803365, -6.4181580306204955, -1.8695761666501327, 1.6307326792233903], [0, 0, 0, 0, 0, 0, 0, 0, 0], [-6.6263107693457295, -8.16964655844365, -7.1563067350462735, -8.01260431083957, 1.601011372958224, 1.7345716697030333, -7.760690169159806, 1.5454201327855834, -0.23944827523087642], [0, 0, 0, 0, 0, 0, 0, 0, 0], [0, 0, 0, 0, 0, 0, 0, 0, 0], [0, 0, 0, 0, 0, 0, 0, 0, 0], [0, 0, 0, 0, 0, 0, 0, 0, 0], [0, 0, 0, 0, 0, 0, 0, 0, 0], [0, 0, 0, 0, 0, 0, 0, 0, 0], [0, 0, 0, 0, 0, 0, 0, 0, 0], [0, 0, 0, 0, 0, 0, 0, 0, 0], [0, 0, 0, 0, 0, 0, 0, 0, 0], [-5.770242261842259, -8.400594772726539, -0.8121738276679322, 2.8359587968983413, -9.11727676881412, 0.3478944077152706, -9.181006284650802, -3.9773121515559073, -2.175012885478445], [0, 0, 0, 0, 0, 0, 0, 0, 0], [0, 0, 0, 0, 0, 0, 0, 0, 0], [0, 0, 0, 0, 0, 0, 0, 0, 0], [0, 0, 0, 0, 0, 0, 0, 0, 0], [0, 0, 0, 0, 0, 0, 0, 0, 0], [0, 0, 0, 0, 0, 0, 0, 0, 0], [0, 0, 0, 0, 0, 0, 0, 0, 0], [0, 0, 0, 0, 0, 0, 0, 0, 0], [0, 0, 0, 0, 0, 0, 0, 0, 0], [0, 0, 0, 0, 0, 0, 0, 0, 0], [0, 0, 0, 0, 0, 0, 0, 0, 0], [-6.8506581994440126, -2.0328259589892825, -7.394756140505085, -0.08447110455768625, -6.454208948824489, 0.771278020889657, -7.803246841285504, 1.9950140120975994, 0.7990739202857857], [0, 0, 0, 0, 0, 0, 0, 0, 0], [0, 0, 0, 0, 0, 0, 0, 0, 0], [0, 0, 0, 0, 0, 0, 0, 0, 0], [-1.8863424252925045, -7.1979188908997696, -7.080450648881041, 3.2518142408632382, -6.2528874169059225, 0.2658869036091026, -7.100652917540942, 0.05428757991122968, 1.5129510823773553], [0, 0, 0, 0, 0, 0, 0, 0, 0], [0, 0, 0, 0, 0, 0, 0, 0, 0], [0, 0, 0, 0, 0, 0, 0, 0, 0], [0, 0, 0, 0, 0, 0, 0, 0, 0], [0, 0, 0, 0, 0, 0, 0, 0, 0], [0, 0, 0, 0, 0, 0, 0, 0, 0], [0, 0, 0, 0, 0, 0, 0, 0, 0], [0, 0, 0, 0, 0, 0, 0, 0, 0], [0, 0, 0, 0, 0, 0, 0, 0, 0], [0, 0, 0, 0, 0, 0, 0, 0, 0], [0, 0, 0, 0, 0, 0, 0, 0, 0], [0, 0, 0, 0, 0, 0, 0, 0, 0], [0, 0, 0, 0, 0, 0, 0, 0, 0], [0, 0, 0, 0, 0, 0, 0, 0, 0], [0, 0, 0, 0, 0, 0, 0, 0, 0], [0, 0, 0, 0, 0, 0, 0, 0, 0], [0, 0, 0, 0, 0, 0, 0, 0, 0], [0, 0, 0, 0, 0, 0, 0, 0, 0], [0, 0, 0, 0, 0, 0, 0, 0, 0], [0, 0, 0, 0, 0, 0, 0, 0, 0], [0, 0, 0, 0, 0, 0, 0, 0, 0], [0, 0, 0, 0, 0, 0, 0, 0, 0], [0, 0, 0, 0, 0, 0, 0, 0, 0], [0, 0, 0, 0, 0, 0, 0, 0, 0], [0, 0, 0, 0, 0, 0, 0, 0, 0], [0, 0, 0, 0, 0, 0, 0, 0, 0], [0, 0, 0, 0, 0, 0, 0, 0, 0], [0, 0, 0, 0, 0, 0, 0, 0, 0], [0, 0, 0, 0, 0, 0, 0, 0, 0], [0, 0, 0, 0, 0, 0, 0, 0, 0], [0, 0, 0, 0, 0, 0, 0, 0, 0], [-8.112253550230708, -2.876603957098104, 1.5353240050729373, -8.051250557612782, -8.344594744999675, -2.9537643558301014, -7.996467998982126, 1.1785969671354002, -0.3541163917623864], [0, 0, 0, 0, 0, 0, 0, 0, 0], [0, 0, 0, 0, 0, 0, 0, 0, 0], [0, 0, 0, 0, 0, 0, 0, 0, 0], [-3.1004953376079984, -7.813735492893731, 2.64857973194097, -7.602109864486366, -8.006950133444654, -4.125526607122392, -7.4719064121543255, -2.6650253905412926, -2.2978956451652457], [0, 0, 0, 0, 0, 0, 0, 0, 0], [-6.50042883610266, -8.033097970409683, 4.655823082414811, -6.990976919503625, -6.177226513363777, 0.6147075631688096, -6.116559437442328, 2.064453813117383, -3.745554640525935], [0, 0, 0, 0, 0, 0, 0, 0, 0], [0, 0, 0, 0, 0, 0, 0, 0, 0], [0, 0, 0, 0, 0, 0, 0, 0, 0], [0, 0, 0, 0, 0, 0, 0, 0, 0], [0, 0, 0, 0, 0, 0, 0, 0, 0], [0, 0, 0, 0, 0, 0, 0, 0, 0], [0, 0, 0, 0, 0, 0, 0, 0, 0], [0, 0, 0, 0, 0, 0, 0, 0, 0], [0, 0, 0, 0, 0, 0, 0, 0, 0], [0.43052558161361687, 1.4936902766534665, -7.5859014559939055, -7.735179722483573, -8.004720508771012, 0.4921677516684505, -8.106637274545863, 2.2710155803682652, 1.1925488980488308], [0, 0, 0, 0, 0, 0, 0, 0, 0], [-8.018620046481807, 2.4239585840494176, -8.123792124354926, -8.10581915804844, -8.303076621292895, 1.5626027991346638, -8.158374712865065, 0.12815570696803646, -0.199446697257329], [0, 0, 0, 0, 0, 0, 0, 0, 0], [0, 0, 0, 0, 0, 0, 0, 0, 0], [-8.144032203107763, -8.194954991159713, -7.8596455272080155, -7.574293087003882, -8.251002092840537, 3.021894097085563, -8.249832773503789, 1.6784345317239873, 1.7104075106495045], [2.2612605414701026, -8.007537548506885, -8.106335950900466, -7.987830801337119, -8.02236163523241, -2.722442669159955, -7.992853950444289, 0.7801296122416692, -2.6966174328066512], [-8.039823128110989, -7.8450076156499176, -8.01634540193968, -8.196173334655043, -8.316794554749343, -2.418929983022821, -8.473255706670018, -3.271888547328163, -0.04079864810604106], [0, 0, 0, 0, 0, 0, 0, 0, 0], [1.3027797378233812, 1.6431537475524958, 1.3967162044703396, 1.5682107840888306, -7.72117782318753, 1.6154437143083875, -8.023477674809767, 3.923928183741004, 1.105840862371964], [0, 0, 0, 0, 0, 0, 0, 0, 0], [-7.19568026771146, -0.08349233964829261, -0.7578355053109296, 1.1247229203907987, -6.804892808661434, -3.5092851142668247, -7.5850843319038255, 1.3618052099206759, 4.853006848174568], [0, 0, 0, 0, 0, 0, 0, 0, 0], [0, 0, 0, 0, 0, 0, 0, 0, 0], [-7.113988346752528, -7.476497807289993, -0.5865583412876278, -0.5368751050958551, -7.320738318015105, 0.5254866592636807, -7.360377901921652, 3.838057638325325, -1.0575014336596051], [-0.12839251864518975, -7.518536591444189, -0.11182335227686435, -2.107081046843218, -8.596617913754619, 0.11058924289959604, -7.132941492586914, 1.40306542247253, -2.271227800127866], [-7.5015656274730915, -8.197820259797822, -1.8377224243013195, 1.6858522563670095, -6.950771333029216, 0.9771365737491511, -7.186211620226225, -1.446396814291547, -2.983029015980361], [0, 0, 0, 0, 0, 0, 0, 0, 0], [0, 0, 0, 0, 0, 0, 0, 0, 0], [0, 0, 0, 0, 0, 0, 0, 0, 0], [-6.665716660759472, 0.056297002209994784, -7.708483999540391, -0.2257349497586938, -6.528593551466911, 4.497137570902911, -5.668682770537439, -0.14713996578876853, -0.9730609551151566], [0, 0, 0, 0, 0, 0, 0, 0, 0], [0, 0, 0, 0, 0, 0, 0, 0, 0], [0, 0, 0, 0, 0, 0, 0, 0, 0], [-2.1078201789153983, -6.934854621918515, -7.968706174074148, 2.0158453463129318, -7.8929650870589425, -0.5817091545780583, -6.9039396876253365, -1.0054837338232288, 1.2698125198608736], [0, 0, 0, 0, 0, 0, 0, 0, 0], [-11.2510729425242, -9.133931466413706, -10.364809788281617, -4.346498792175734, -8.858439004527767, -4.674108957774908, -8.878339855676323, -4.283577515013314, -4.346261051486373], [1.5259570065009205, 1.5598576369590256, -7.740467286344546, 1.0051312576277707, -7.4664284465988455, 0.4752425862624896, -7.526559861156878, 1.531608572623159, 3.8005380282751506], [-8.087352535761486, 0.5850505609119312, -7.854836022693503, 1.381739717803573, -7.905632371915551, 0.34700710159357206, -7.963777575238328, -2.6787279688971584, 0.28415646956300145], [0, 0, 0, 0, 0, 0, 0, 0, 0], [0.7657599661899765, -8.54278194213489, -8.265495102143202, 0.3588717323500681, -7.458544230426273, 1.0973587820254422, -8.410241919930852, 1.6085261618092703, 0.7519975314520224], [0, 0, 0, 0, 0, 0, 0, 0, 0], [-7.239758217595422, -6.781985948583299, -7.8747404666206995, 0.42877280049662075, -6.240966955113219, -4.40469921115001, -7.161884243906843, 1.4702314102336507, 2.819806370557292], [0, 0, 0, 0, 0, 0, 0, 0, 0], [-7.185550422582814, -6.712777317940731, -5.8239996131738465, 5.343830624921559, -5.71604255453485, 1.308939217244113, -5.772657387624906, 1.6791671303608546, -4.044803946038236], [0, 0, 0, 0, 0, 0, 0, 0, 0], [0, 0, 0, 0, 0, 0, 0, 0, 0], [0, 0, 0, 0, 0, 0, 0, 0, 0], [-4.934783686888828, 0.47997042312352883, 0.9895451125616455, -6.766784646284088, -5.45282144703391, 0.5716084697882563, -7.497048726838415, 4.139899902066529, -1.575568989374172], [0, 0, 0, 0, 0, 0, 0, 0, 0], [0, 0, 0, 0, 0, 0, 0, 0, 0], [0, 0, 0, 0, 0, 0, 0, 0, 0], [3.015213668998481, -8.318394549981864, 1.109405777799919, -7.875077907206578, -6.244050677289222, -2.1647055811779534, -6.612078273768318, -0.8378838435490785, -2.4684918596289345], [0, 0, 0, 0, 0, 0, 0, 0, 0], [-10.637701213896477, -10.243651063261964, -4.417095609390546, -9.809328289246633, -10.12701534679438, -1.3400041415200696, -9.945750122386588, -4.422036065610689, -4.433282653856701], [0, 0, 0, 0, 0, 0, 0, 0, 0], [0, 0, 0, 0, 0, 0, 0, 0, 0], [0, 0, 0, 0, 0, 0, 0, 0, 0], [0, 0, 0, 0, 0, 0, 0, 0, 0], [0, 0, 0, 0, 0, 0, 0, 0, 0], [0, 0, 0, 0, 0, 0, 0, 0, 0], [0, 0, 0, 0, 0, 0, 0, 0, 0], [0, 0, 0, 0, 0, 0, 0, 0, 0], [-7.187602575624904, -7.77354693871205, -5.348186006423211, -6.167164221958858, -5.357226927255454, 2.681169537331192, -6.446253498927707, -0.961924726956426, 6.22797346007757], [1.428880147464728, -4.11812569779875, -8.620471594522037, -7.3695654857135295, -8.290420761168585, 0.9485923207537943, -8.607143263869666, -2.9799466134367507, -2.8464768046085984], [0, 0, 0, 0, 0, 0, 0, 0, 0], [-8.43059198238694, -4.382958983625269, -10.497661961182008, -11.09462552632176, -9.55517919196836, -4.5839267596061735, -8.53109807213227, -4.678122550167774, 2.3481917913529307], [0, 0, 0, 0, 0, 0, 0, 0, 0], [0, 0, 0, 0, 0, 0, 0, 0, 0], [-7.821774668517821, -7.167521963986453, -8.271018850263529, -8.308931277330334, -7.863828683534782, 0.37105205140826847, -8.062981670116812, 4.5048421215676, -2.210497034568272], [2.5050158963246467, -7.0734852098442, -6.186332037782064, -6.5732110374157084, -7.429555664822431, 1.3994503879485927, -6.928231979171379, 0.7405167856630899, -3.1274806150250702], [0, 0, 0, 0, 0, 0, 0, 0, 0], [0, 0, 0, 0, 0, 0, 0, 0, 0], [-0.737422540504683, -3.447318476694477, -0.4706052052689187, -8.227966139959474, -8.192676306538226, 2.0318966833230387, -7.3131040275994526, 0.02098707523417498, -0.3293011776032704], [-7.031194936413058, 0.814893057932065, 1.7286707487556048, -5.797452437052986, -6.3751240505543665, -1.1144880693763881, -7.230546034153742, 0.6193902400497251, 1.5695331245166138], [0, 0, 0, 0, 0, 0, 0, 0, 0], [0.46711256024166536, -6.958611199793895, 0.4063193847582356, -6.164047025479613, -6.430247260805961, -1.1670189156489892, -6.054657319715568, 1.1352182172147145, 3.926671568024764], [0, 0, 0, 0, 0, 0, 0, 0, 0], [-10.093527007234918, -8.650843681160698, -4.415105803699375, -12.84680997993142, -11.234030471411408, 1.8714197487164663, -9.160183265579267, -4.735092787828771, -4.433370555178342], [0, 0, 0, 0, 0, 0, 0, 0, 0], [-10.369320602461997, -8.735708844894216, -3.6512887654784567, -10.519856243103156, -8.30391210138214, -3.0798291545560086, -8.53722011007154, -3.108203056128975, -4.2528855041517035], [0, 0, 0, 0, 0, 0, 0, 0, 0], [1.8233349027431305, 1.7676338814566321, -8.383132523900144, -6.0695328427991075, -5.921960227736774, -2.0019433969942084, -5.80489560403033, 3.6185799598036796, 1.4509689848402008], [0, 0, 0, 0, 0, 0, 0, 0, 0], [-9.769282802654612, -4.508352995784172, -10.256809391269663, -10.150275117078458, -9.945972695296621, -3.6394954801236508, -9.768398866303183, -3.5806032642912324, -2.2104343559580735], [0, 0, 0, 0, 0, 0, 0, 0, 0], [0, 0, 0, 0, 0, 0, 0, 0, 0], [-5.781725314647798, -4.786988486433362, -7.693812466866697, -5.068565263735708, -5.257729788245871, 5.987167785180541, -6.266191452906245, 1.5333052427546456, -2.4167596634890773], [-1.9160719812362281, -8.738432640586783, -8.485317708791307, -9.316884029451366, -9.445011001599948, 1.3205478649138358, -10.393864559731071, -3.5356955136741473, -3.801603117770708], [-5.369773437748899, -5.715846437360954, -5.570184615106645, -6.231717558168474, -5.926209999511551, 3.6161859312901203, -5.5017047941678445, 4.05766460741462, 0.547971839933721], [0, 0, 0, 0, 0, 0, 0, 0, 0], [0, 0, 0, 0, 0, 0, 0, 0, 0], [-8.373007800500226, 0.6643065803300989, -8.49251420888878, -8.319481164832158, -8.450661968872888, 1.7029169122624312, -8.561167068110402, 1.3594962548348253, -3.1536787253101313], [0, 0, 0, 0, 0, 0, 0, 0, 0], [1.3880887346232194, -8.147604682162914, -7.878012065103769, -8.282490173596656, -8.489205315966652, 2.0453463304783996, -8.32869104750215, -3.100586884431133, -2.545799896896768], [-7.739711425753948, -7.789350925904414, -6.775870260120889, -8.258245671811661, -6.87381911053545, -1.4938311839344838, -6.532110532444505, 0.436794675857219, 1.7127082363817336], [0, 0, 0, 0, 0, 0, 0, 0, 0], [0, 0, 0, 0, 0, 0, 0, 0, 0], [0, 0, 0, 0, 0, 0, 0, 0, 0], [0, 0, 0, 0, 0, 0, 0, 0, 0], [0, 0, 0, 0, 0, 0, 0, 0, 0], [0, 0, 0, 0, 0, 0, 0, 0, 0], [0, 0, 0, 0, 0, 0, 0, 0, 0], [0, 0, 0, 0, 0, 0, 0, 0, 0], [0, 0, 0, 0, 0, 0, 0, 0, 0], [0, 0, 0, 0, 0, 0, 0, 0, 0], [0, 0, 0, 0, 0, 0, 0, 0, 0], [0, 0, 0, 0, 0, 0, 0, 0, 0], [-6.32015645106763, -8.181839633540676, -0.5443986968837595, -1.3316435898911805, -1.969922871947426, -6.432186120807964, -7.25452047127924, 1.1715996262693247, -1.061201454201395], [0, 0, 0, 0, 0, 0, 0, 0, 0], [0, 0, 0, 0, 0, 0, 0, 0, 0], [0, 0, 0, 0, 0, 0, 0, 0, 0], [0, 0, 0, 0, 0, 0, 0, 0, 0], [0, 0, 0, 0, 0, 0, 0, 0, 0], [0, 0, 0, 0, 0, 0, 0, 0, 0], [0, 0, 0, 0, 0, 0, 0, 0, 0], [0, 0, 0, 0, 0, 0, 0, 0, 0], [0, 0, 0, 0, 0, 0, 0, 0, 0], [0, 0, 0, 0, 0, 0, 0, 0, 0], [0, 0, 0, 0, 0, 0, 0, 0, 0], [-7.263249111090179, -1.1757775236485641, -6.462908734414361, 1.487589021548763, 1.4337351908733296, -6.208296890795456, -5.432296881499904, 2.3891993074408715, 1.7238243976836933], [0, 0, 0, 0, 0, 0, 0, 0, 0], [0, 0, 0, 0, 0, 0, 0, 0, 0], [0, 0, 0, 0, 0, 0, 0, 0, 0], [-1.059940129663335, -7.543640160558337, -6.6165937101027765, 1.7720341868573999, 0.488778121513755, -6.438577854434204, -6.187765339573815, 1.0250249946517984, 1.6602046737252159], [0, 0, 0, 0, 0, 0, 0, 0, 0], [0, 0, 0, 0, 0, 0, 0, 0, 0], [0, 0, 0, 0, 0, 0, 0, 0, 0], [0, 0, 0, 0, 0, 0, 0, 0, 0], [0, 0, 0, 0, 0, 0, 0, 0, 0], [0, 0, 0, 0, 0, 0, 0, 0, 0], [0, 0, 0, 0, 0, 0, 0, 0, 0], [0, 0, 0, 0, 0, 0, 0, 0, 0], [0, 0, 0, 0, 0, 0, 0, 0, 0], [0, 0, 0, 0, 0, 0, 0, 0, 0], [0, 0, 0, 0, 0, 0, 0, 0, 0], [0, 0, 0, 0, 0, 0, 0, 0, 0], [0, 0, 0, 0, 0, 0, 0, 0, 0], [0, 0, 0, 0, 0, 0, 0, 0, 0], [0, 0, 0, 0, 0, 0, 0, 0, 0], [0, 0, 0, 0, 0, 0, 0, 0, 0], [0, 0, 0, 0, 0, 0, 0, 0, 0], [0, 0, 0, 0, 0, 0, 0, 0, 0], [0, 0, 0, 0, 0, 0, 0, 0, 0], [0, 0, 0, 0, 0, 0, 0, 0, 0], [0, 0, 0, 0, 0, 0, 0, 0, 0], [0, 0, 0, 0, 0, 0, 0, 0, 0], [0, 0, 0, 0, 0, 0, 0, 0, 0], [0, 0, 0, 0, 0, 0, 0, 0, 0], [0, 0, 0, 0, 0, 0, 0, 0, 0], [0, 0, 0, 0, 0, 0, 0, 0, 0], [0, 0, 0, 0, 0, 0, 0, 0, 0], [0, 0, 0, 0, 0, 0, 0, 0, 0], [0, 0, 0, 0, 0, 0, 0, 0, 0], [0, 0, 0, 0, 0, 0, 0, 0, 0], [0, 0, 0, 0, 0, 0, 0, 0, 0], [-7.078057425000397, 0.7782874416019347, 1.5678648109232007, -8.196391336637127, 0.4201047872893366, -7.596877514924564, -8.151794387016311, 1.682427252602872, 1.5590981161198472], [0, 0, 0, 0, 0, 0, 0, 0, 0], [0, 0, 0, 0, 0, 0, 0, 0, 0], [0, 0, 0, 0, 0, 0, 0, 0, 0], [0.6444028918442842, -7.061413617162936, 1.5368520087694155, -7.92941482712034, 1.561812020412121, -7.951412145833027, -7.364330667681452, 1.5309632412556238, 2.8687434205355635], [0, 0, 0, 0, 0, 0, 0, 0, 0], [-7.912875747473356, -5.929606706083432, 4.229678220999616, -7.461135003841499, 1.42579069046531, -8.039230142433734, -7.079520137347212, -2.198841462390778, -4.5854365988633825], [0, 0, 0, 0, 0, 0, 0, 0, 0], [0, 0, 0, 0, 0, 0, 0, 0, 0], [0, 0, 0, 0, 0, 0, 0, 0, 0], [0, 0, 0, 0, 0, 0, 0, 0, 0], [0, 0, 0, 0, 0, 0, 0, 0, 0], [0, 0, 0, 0, 0, 0, 0, 0, 0], [0, 0, 0, 0, 0, 0, 0, 0, 0], [0, 0, 0, 0, 0, 0, 0, 0, 0], [-7.152429695202723, -7.368282137242227, -7.52139735371766, -7.882340836777711, -4.479114904916929, -11.287830250913318, -8.435863986128354, -4.364396455645284, -4.143878613390996], [1.5691779661837182, 1.4344941159062077, -7.990245099487638, -7.615587029488161, 1.5632569385709387, -8.416795968112677, -8.23331324708077, 1.5641695473746418, 2.3845525541570973], [0, 0, 0, 0, 0, 0, 0, 0, 0], [-8.099906050609231, 1.8474944053211932, -7.9245591196062035, -8.082518958891661, -0.5631291218640588, -8.264680317119847, -8.121285041632298, -3.4544072597828617, 1.394174002360772], [0, 0, 0, 0, 0, 0, 0, 0, 0], [0, 0, 0, 0, 0, 0, 0, 0, 0], [-7.233153380871043, -8.139731108321786, -7.278612389466904, -8.183203687879317, 1.892465882616098, -7.6981035428945415, -8.241403149242968, 1.7612629832616375, 1.6984657084658008], [1.636234373175155, -8.22056163190853, -8.146498942151236, -8.294029558291868, -3.058721044432448, -8.322442827888073, -8.461463677818834, -3.893606479695009, -3.4911096422041368], [-8.11251621415745, -8.12809983272831, -7.742003178875169, -7.838766603606427, 1.502956922907321, -8.015234339070066, -8.226695259424996, 1.6562697381314524, 1.6295039708761179], [0, 0, 0, 0, 0, 0, 0, 0, 0], [0, 0, 0, 0, 0, 0, 0, 0, 0], [0, 0, 0, 0, 0, 0, 0, 0, 0], [0, 0, 0, 0, 0, 0, 0, 0, 0], [0, 0, 0, 0, 0, 0, 0, 0, 0], [0, 0, 0, 0, 0, 0, 0, 0, 0], [0, 0, 0, 0, 0, 0, 0, 0, 0], [0, 0, 0, 0, 0, 0, 0, 0, 0], [0, 0, 0, 0, 0, 0, 0, 0, 0], [0, 0, 0, 0, 0, 0, 0, 0, 0], [0, 0, 0, 0, 0, 0, 0, 0, 0], [0, 0, 0, 0, 0, 0, 0, 0, 0], [0, 0, 0, 0, 0, 0, 0, 0, 0], [0, 0, 0, 0, 0, 0, 0, 0, 0], [0, 0, 0, 0, 0, 0, 0, 0, 0], [0, 0, 0, 0, 0, 0, 0, 0, 0], [0, 0, 0, 0, 0, 0, 0, 0, 0], [0, 0, 0, 0, 0, 0, 0, 0, 0], [0, 0, 0, 0, 0, 0, 0, 0, 0], [0, 0, 0, 0, 0, 0, 0, 0, 0], [0, 0, 0, 0, 0, 0, 0, 0, 0], [0, 0, 0, 0, 0, 0, 0, 0, 0], [0, 0, 0, 0, 0, 0, 0, 0, 0], [0, 0, 0, 0, 0, 0, 0, 0, 0], [0, 0, 0, 0, 0, 0, 0, 0, 0], [0, 0, 0, 0, 0, 0, 0, 0, 0], [0, 0, 0, 0, 0, 0, 0, 0, 0], [0, 0, 0, 0, 0, 0, 0, 0, 0], [0, 0, 0, 0, 0, 0, 0, 0, 0], [0, 0, 0, 0, 0, 0, 0, 0, 0], [0, 0, 0, 0, 0, 0, 0, 0, 0], [0, 0, 0, 0, 0, 0, 0, 0, 0], [0, 0, 0, 0, 0, 0, 0, 0, 0], [0, 0, 0, 0, 0, 0, 0, 0, 0], [0, 0, 0, 0, 0, 0, 0, 0, 0], [0, 0, 0, 0, 0, 0, 0, 0, 0], [0, 0, 0, 0, 0, 0, 0, 0, 0], [0, 0, 0, 0, 0, 0, 0, 0, 0], [0, 0, 0, 0, 0, 0, 0, 0, 0], [0, 0, 0, 0, 0, 0, 0, 0, 0], [0, 0, 0, 0, 0, 0, 0, 0, 0], [0, 0, 0, 0, 0, 0, 0, 0, 0], [0, 0, 0, 0, 0, 0, 0, 0, 0], [0, 0, 0, 0, 0, 0, 0, 0, 0], [0, 0, 0, 0, 0, 0, 0, 0, 0], [0, 0, 0, 0, 0, 0, 0, 0, 0], [0, 0, 0, 0, 0, 0, 0, 0, 0], [0, 0, 0, 0, 0, 0, 0, 0, 0], [0, 0, 0, 0, 0, 0, 0, 0, 0], [0, 0, 0, 0, 0, 0, 0, 0, 0], [0, 0, 0, 0, 0, 0, 0, 0, 0], [0, 0, 0, 0, 0, 0, 0, 0, 0], [0, 0, 0, 0, 0, 0, 0, 0, 0], [0, 0, 0, 0, 0, 0, 0, 0, 0], [0, 0, 0, 0, 0, 0, 0, 0, 0], [0, 0, 0, 0, 0, 0, 0, 0, 0], [0, 0, 0, 0, 0, 0, 0, 0, 0], [0, 0, 0, 0, 0, 0, 0, 0, 0], [0, 0, 0, 0, 0, 0, 0, 0, 0], [0, 0, 0, 0, 0, 0, 0, 0, 0], [0, 0, 0, 0, 0, 0, 0, 0, 0], [0, 0, 0, 0, 0, 0, 0, 0, 0], [0, 0, 0, 0, 0, 0, 0, 0, 0], [-5.150301881286293, -10.024208770111452, 4.83305904940714, -9.69097082814211, -7.19440350964325, -7.7806558939019075, -8.042799416159337, -2.9469747163036324, -3.8176554075674245], [0, 0, 0, 0, 0, 0, 0, 0, 0], [0, 0, 0, 0, 0, 0, 0, 0, 0], [0, 0, 0, 0, 0, 0, 0, 0, 0], [0, 0, 0, 0, 0, 0, 0, 0, 0], [0, 0, 0, 0, 0, 0, 0, 0, 0], [0, 0, 0, 0, 0, 0, 0, 0, 0], [0, 0, 0, 0, 0, 0, 0, 0, 0], [0, 0, 0, 0, 0, 0, 0, 0, 0], [0, 0, 0, 0, 0, 0, 0, 0, 0], [0, 0, 0, 0, 0, 0, 0, 0, 0], [0, 0, 0, 0, 0, 0, 0, 0, 0], [-8.07932982491416, -2.295724406402173, -7.672910095943534, -7.916662476690808, -7.517511833348119, -7.4835338518849355, -6.470994016350073, 0.5248722192131682, 1.7081503713673798], [0, 0, 0, 0, 0, 0, 0, 0, 0], [0, 0, 0, 0, 0, 0, 0, 0, 0], [0, 0, 0, 0, 0, 0, 0, 0, 0], [-0.9009726815042116, -7.682990207864734, -7.950893053440568, -7.2488788526951895, -7.208511149443602, -6.883631110291367, -7.402332595861537, 2.3702306261594024, 1.21923151402893], [0, 0, 0, 0, 0, 0, 0, 0, 0], [0, 0, 0, 0, 0, 0, 0, 0, 0], [0, 0, 0, 0, 0, 0, 0, 0, 0], [0, 0, 0, 0, 0, 0, 0, 0, 0], [-7.272014288077806, -0.6392068063620897, -0.4183279711153641, -0.7372156215025709, -6.720093063151854, -7.2981564772178675, -6.280733599058164, 3.2062616256023144, -1.31678094159115], [0, 0, 0, 0, 0, 0, 0, 0, 0], [0, 0, 0, 0, 0, 0, 0, 0, 0], [0, 0, 0, 0, 0, 0, 0, 0, 0], [-2.2744686077172362, -6.390932782768164, 1.2807103979636745, 0.8040832000960974, -8.03503085740724, -6.390835715748175, -8.16599415061413, -0.8443860223139006, 2.39678759118047], [0, 0, 0, 0, 0, 0, 0, 0, 0], [-9.961436145812161, -11.734319267451694, -4.582712730118914, -4.334114502729157, -11.833196218202856, -8.569198562842686, -11.32070107042636, -4.356510413769382, -4.494528348581166], [0, 0, 0, 0, 0, 0, 0, 0, 0], [0, 0, 0, 0, 0, 0, 0, 0, 0], [0, 0, 0, 0, 0, 0, 0, 0, 0], [0, 0, 0, 0, 0, 0, 0, 0, 0], [0, 0, 0, 0, 0, 0, 0, 0, 0], [0, 0, 0, 0, 0, 0, 0, 0, 0], [0, 0, 0, 0, 0, 0, 0, 0, 0], [0, 0, 0, 0, 0, 0, 0, 0, 0], [-6.072776091907882, -5.165120152806704, -8.018006283954128, -2.9892764954977937, -6.055539521469121, -4.886064025614469, -5.281475150243468, -2.5046806181782673, 5.219968245759514], [0.6889846893777638, 0.7490043708471439, -7.958102162447972, 2.314237752992323, -7.874013483385587, -8.283172177392633, -7.212853004940772, 0.2509473263550831, 1.066625250366954], [0, 0, 0, 0, 0, 0, 0, 0, 0], [-8.343273409728727, -0.7860694202198488, -7.798870020857972, -4.493216009481682, -8.371723902468059, -8.78460784230598, -9.48985818995633, -4.630465147409556, -4.456786015266106], [0, 0, 0, 0, 0, 0, 0, 0, 0], [0, 0, 0, 0, 0, 0, 0, 0, 0], [-7.641227038589953, -7.495172386786415, -7.245954321346493, 0.14858588395441097, -6.617260227404124, -7.859612640936319, -7.037255142449421, 1.9928571499721763, -2.1122657521561283], [0.6990169636721228, -9.518835398805594, -10.783432621123904, -4.31664689096038, -10.149728455035604, -11.450385510022617, -9.970715939450976, -4.483833557383569, -4.259309759398658], [-8.610390763532372, -5.64753608884221, -8.090533955211328, 3.6523357496114257, -7.765973709348276, -7.862413975375196, -8.024270872244433, -1.0300952549707985, -3.0200437588677502], [0, 0, 0, 0, 0, 0, 0, 0, 0], [0, 0, 0, 0, 0, 0, 0, 0, 0], [0, 0, 0, 0, 0, 0, 0, 0, 0], [0, 0, 0, 0, 0, 0, 0, 0, 0], [0, 0, 0, 0, 0, 0, 0, 0, 0], [0, 0, 0, 0, 0, 0, 0, 0, 0], [0, 0, 0, 0, 0, 0, 0, 0, 0], [0, 0, 0, 0, 0, 0, 0, 0, 0], [0, 0, 0, 0, 0, 0, 0, 0, 0], [-5.040171875374444, -4.9608669769273295, -2.1613488917198858, -9.126785886612597, -8.071784623586938, -7.739777981108059, -8.435388048529871, -2.4442835096640314, -2.2250343527950873], [0, 0, 0, 0, 0, 0, 0, 0, 0], [0, 0, 0, 0, 0, 0, 0, 0, 0], [0, 0, 0, 0, 0, 0, 0, 0, 0], [0, 0, 0, 0, 0, 0, 0, 0, 0], [0, 0, 0, 0, 0, 0, 0, 0, 0], [0, 0, 0, 0, 0, 0, 0, 0, 0], [0, 0, 0, 0, 0, 0, 0, 0, 0], [0, 0, 0, 0, 0, 0, 0, 0, 0], [0, 0, 0, 0, 0, 0, 0, 0, 0], [0, 0, 0, 0, 0, 0, 0, 0, 0], [0, 0, 0, 0, 0, 0, 0, 0, 0], [-4.969959395524144, 5.133857621725698, -5.702042181601367, -5.105863755342247, -5.059885290628652, -5.343567303555233, -5.455642627834463, 3.0625223494852465, 5.542986625658095], [0, 0, 0, 0, 0, 0, 0, 0, 0], [0, 0, 0, 0, 0, 0, 0, 0, 0], [0, 0, 0, 0, 0, 0, 0, 0, 0], [-1.3193848444309781, -4.432567426708415, -5.883121917890685, -6.462521573377164, -5.940404441936034, -6.48387175773874, -6.284839886146202, 5.750395634612012, -2.3520307963020555], [0, 0, 0, 0, 0, 0, 0, 0, 0], [0, 0, 0, 0, 0, 0, 0, 0, 0], [1.280242110215439, 0.3729598804780301, 1.7099871234575383, -8.02246851389528, -8.145110130421951, -8.282507586064767, -8.335660834313469, 3.7566435556372646, 1.5637246530156743], [0, 0, 0, 0, 0, 0, 0, 0, 0], [-6.348156899670798, -3.675630990965972, 0.14294725659765728, -6.005022688133005, -7.122940286984433, -6.5636841887861195, -6.375024788139413, -2.405151503480136, 4.202729174284437], [0, 0, 0, 0, 0, 0, 0, 0, 0], [0, 0, 0, 0, 0, 0, 0, 0, 0], [-7.032990693905676, -6.6006210764722235, 2.8191301270202835, -7.063724460416299, -7.430939596752516, -7.962855230147404, -6.98143418470223, -0.7872225373367698, -1.3432796836425545], [0.8224002133726191, -6.786051663504796, -0.6532189500322815, -7.653946249867248, -5.750840831535461, -7.4005113943035035, -7.000224405269112, 2.7035875143530483, 0.8651494251453435], [-7.969595276027127, -7.751479479584093, 1.7690637064267791, -6.824312608748149, -6.617075814328932, -6.008608015719897, -7.166944948973386, -0.812761308574439, 2.032769157245573], [0, 0, 0, 0, 0, 0, 0, 0, 0], [0, 0, 0, 0, 0, 0, 0, 0, 0], [0, 0, 0, 0, 0, 0, 0, 0, 0], [-9.844978857071137, -2.9329427892882096, -8.512843683887064, -8.517184952131556, -7.611720069103263, -11.785511669179433, -10.421449708452627, -2.980727089796873, -2.228395293701383], [0, 0, 0, 0, 0, 0, 0, 0, 0], [0, 0, 0, 0, 0, 0, 0, 0, 0], [0, 0, 0, 0, 0, 0, 0, 0, 0], [0.37984196173593077, -6.706052367488956, -6.497072936576442, -6.924201564496247, -7.034246037365971, -8.179832250419418, -7.314609250780004, -2.1058686217272578, 0.05646908349976276], [0, 0, 0, 0, 0, 0, 0, 0, 0], [-5.608173624814294, -7.095259071496635, -7.759994448760754, -7.664913576077602, -5.734128008065689, -6.001596669908031, -7.742882260471292, -4.229650469604648, 5.128711843866407], [1.6248471463713168, 1.7193943442529274, -8.093591195608244, -7.739077551010414, -7.955908265165252, -7.858817314823801, -8.09130981856453, 1.7541256168464163, 1.6423704369699426], [-8.226831605125515, 1.6088708829858462, -7.6195999255948745, -7.954279414022825, -8.324665024992385, -8.338977222424532, -7.020641642615708, 1.3029499732764895, 1.8373029074641494], [0, 0, 0, 0, 0, 0, 0, 0, 0], [1.3891218517726254, -8.28213079631475, -7.299462734185573, -8.268484861464177, -8.040461698673429, -6.573656264832557, -8.315297283336669, 1.8770846637058267, 0.6228555689124347], [0, 0, 0, 0, 0, 0, 0, 0, 0], [-8.018571125004112, -8.145148919088573, -8.204360165771446, -8.074384546988567, -8.027472565494683, -7.953949349333807, -8.201907899428782, 0.34202846878606286, 2.3669588900293865], [0, 0, 0, 0, 0, 0, 0, 0, 0], [-8.20640407789811, -8.225486002659196, -8.315932794326827, -8.09599494401062, -8.198515065916357, -8.096321020452116, -8.129685732349476, 1.9970730513516544, 0.8915619396862016], [0, 0, 0, 0, 0, 0, 0, 0, 0], [0.8935120875199046, 1.4716779127842372, 1.6410224793096178, 1.1530497045797914, 1.420523619862411, -6.49338274060325, -7.764463786385207, 1.538105469895794, 1.5552677133953439], [0, 0, 0, 0, 0, 0, 0, 0, 0], [-7.598093783542497, 1.0350329205149769, 1.0056940021597258, 1.7701713223124758, 1.8247353306349066, -7.309466290067701, -7.286093277133747, 1.9928869412681705, 1.7663509661860983], [0, 0, 0, 0, 0, 0, 0, 0, 0], [0, 0, 0, 0, 0, 0, 0, 0, 0], [-7.81860824838772, -7.44049496662355, 0.2194238232898208, -1.0754801300488743, 0.13200456525054172, -8.090813210623978, -8.348617193934373, 2.169011718245134, -0.3130194078531022], [0.7289307823906879, -7.6181735598262925, 0.39361963592473154, 1.2854757587636414, 1.8762890149449598, -6.363586864087084, -6.75410447024651, 0.662968842203259, 0.798193094103962], [-8.063331716015878, -8.981281704358214, -2.635358410636486, 0.9193548864148604, 1.0920526633351486, -8.15154823890454, -7.140942100770397, 1.0697310037037382, -2.2767856908922153], [0, 0, 0, 0, 0, 0, 0, 0, 0], [0, 0, 0, 0, 0, 0, 0, 0, 0], [0, 0, 0, 0, 0, 0, 0, 0, 0], [-7.241783600742119, 0.4306696097963809, -8.101450153970914, -2.8160944818811062, 0.10831259154043682, -6.603093326587306, -8.074382461608973, -1.3611046488870544, -4.032779417534703], [0, 0, 0, 0, 0, 0, 0, 0, 0], [0, 0, 0, 0, 0, 0, 0, 0, 0], [0, 0, 0, 0, 0, 0, 0, 0, 0], [-4.0495409621000595, -7.430155670657161, -7.804677800637537, -3.0188682213258806, 1.7082936144182619, -8.175395866015398, -9.879663904168693, -1.7695071269360931, -3.6298798251190507], [0, 0, 0, 0, 0, 0, 0, 0, 0], [-6.354014918730588, -5.008618519551318, -5.413561239645448, -0.08498412303614411, 5.406805309009016, -5.344567520577105, -7.089182562363606, 0.08183123836074224, 1.411173662829162], [1.0984269816952377, -3.1202241021383506, -6.500940495598953, -0.3766511551805545, -0.012666763247223267, -6.962118112541301, -7.744912129716987, 2.927407602306535, 3.4478500001205337], [-7.8368099292082665, -1.3481071654504162, -6.661152275128739, 3.8671799960010134, -2.286431799121744, -6.6415379907555545, -8.024092611305354, -2.8713304082712217, -1.497080440592856], [0, 0, 0, 0, 0, 0, 0, 0, 0], [0.43993438992205003, -6.9923006689912315, -7.534602649756483, -0.04020877895323505, 0.8144719077086251, -7.696222295714403, -6.908555118357327, 3.028041062613746, -1.0828044018860874], [0, 0, 0, 0, 0, 0, 0, 0, 0], [-7.668837986211395, -7.319465231428567, -8.250628589051377, 0.5336040850818673, 0.908217053881442, -7.77334788272047, -8.092081975694626, 0.8791781842859775, 3.3100109356789327], [0, 0, 0, 0, 0, 0, 0, 0, 0], [-6.548397875419707, -7.581577490674663, -5.150618686102205, 5.644862009480143, 1.3436151411462136, -5.064243321767438, -5.021209793096957, -3.412795175195984, 0.9329300031038257], [0, 0, 0, 0, 0, 0, 0, 0, 0], [0, 0, 0, 0, 0, 0, 0, 0, 0], [0, 0, 0, 0, 0, 0, 0, 0, 0], [-7.575159877179948, 1.2597153254984008, 3.240125597100209, -7.0227801503827765, 0.9888027647974802, -7.046171169454091, -6.868340981239101, 0.8938527393968478, 0.2511389882725238], [0, 0, 0, 0, 0, 0, 0, 0, 0], [0, 0, 0, 0, 0, 0, 0, 0, 0], [0, 0, 0, 0, 0, 0, 0, 0, 0], [1.978607871634953, -6.448114198022728, -2.4349082036490666, -7.3585485448388335, 0.5559123124956092, -7.542295486611641, -7.655950145223561, -2.771361833325809, -2.2713740699208333], [0, 0, 0, 0, 0, 0, 0, 0, 0], [-8.996430687540842, -9.072305322167242, 2.6113458404045256, -9.923501857476879, 1.3068315114463016, -9.425396867336545, -7.73090907747425, -3.438383193311739, -3.1317760815907487], [0, 0, 0, 0, 0, 0, 0, 0, 0], [0, 0, 0, 0, 0, 0, 0, 0, 0], [0, 0, 0, 0, 0, 0, 0, 0, 0], [0, 0, 0, 0, 0, 0, 0, 0, 0], [0, 0, 0, 0, 0, 0, 0, 0, 0], [0, 0, 0, 0, 0, 0, 0, 0, 0], [0, 0, 0, 0, 0, 0, 0, 0, 0], [0, 0, 0, 0, 0, 0, 0, 0, 0], [-7.385256860669402, -8.789810118704434, -7.75998188033055, -8.754161248756336, 3.455581767645592, -9.280284127269098, -8.35828943984879, -3.75572228021361, -2.325540720713952], [3.5220043741274334, -2.8844236906988057, -7.868336994820717, -8.439129277636741, -4.285955792420002, -7.1581427703522955, -6.919335110101852, -1.1900360020679703, 5.803588224001034], [0, 0, 0, 0, 0, 0, 0, 0, 0], [-8.487184351325741, 1.5543936857140013, -8.115215387671253, -8.2581873261934, -4.188091326921126, -7.993420553430044, -9.876760821265822, -3.80746053869587, -3.209294208257287], [0, 0, 0, 0, 0, 0, 0, 0, 0], [0, 0, 0, 0, 0, 0, 0, 0, 0], [-8.023362807729383, -6.784468296754882, -8.088661163187936, -6.284114137117087, -0.09839236686390962, -7.542533085058992, -6.974049430486033, 1.7380412207152935, -1.283910117285988], [2.403054774170656, -5.411901541318024, -5.754438236648994, -5.519821439090951, 0.9528484030769095, -6.886498425526142, -5.740324580404774, -2.793062813585343, 1.2144040185717504], [0, 0, 0, 0, 0, 0, 0, 0, 0], [0, 0, 0, 0, 0, 0, 0, 0, 0], [-4.049069508335059, -3.062606042608968, -2.8332577085566455, -6.413354032945539, 4.09512687489104, -7.714041863317949, -7.6085028806773884, 1.4297970338927093, -2.5026222813987284], [-5.724959735145655, 4.558033070348591, 0.0782223879038938, -7.968609186620517, -1.3513688537776234, -7.675668650141349, -7.765140206382979, 1.1945862472353665, 0.2660052623571252], [0, 0, 0, 0, 0, 0, 0, 0, 0], [2.615601604054156, -7.56861797228337, -0.13655789051136136, -6.498511204483677, -2.2588558674044794, -5.860119535814556, -7.203153206675197, 0.24471938877248733, 0.5320046506570377], [0, 0, 0, 0, 0, 0, 0, 0, 0], [-7.506900008409772, -8.410327414675765, -2.7172418833912175, -6.663603630853981, 3.3150710012757836, -7.798526500530236, -6.880514221790195, -2.2416613826907392, -2.6318609494185528], [0, 0, 0, 0, 0, 0, 0, 0, 0], [-9.517647722005254, -7.760948739494683, -4.44976987403182, -8.742444298586795, 0.7570468863951083, -7.84771954245307, -8.318395316892119, -3.9066514067859712, 3.172311364174685], [0, 0, 0, 0, 0, 0, 0, 0, 0], [-2.6271374984365847, -4.388777005036921, -6.115295168370693, -6.015965568022116, 5.500237263697068, -6.017277022263074, -6.579778555622553, -2.481357502479131, -3.0439046414108626], [0, 0, 0, 0, 0, 0, 0, 0, 0], [-5.173016854592205, -3.3872022326295217, -6.156306015724652, -6.712344896155724, 5.217113866295611, -5.013837173566608, -6.439510831831162, 0.7593698523925652, -2.946876923182339], [0, 0, 0, 0, 0, 0, 0, 0, 0], [0, 0, 0, 0, 0, 0, 0, 0, 0], [-6.00628146195381, -7.607618412530615, -7.951491146053588, -5.308301994011815, 6.08357956430199, -5.20008304859326, -10.818159398043235, -3.589363545650553, -3.047105104726719], [2.0064439927715867, -5.49481242997449, -5.163773617749893, -6.762271281487985, 5.708891474092706, -6.657210735790426, -6.5777945650724, 1.5131072539289825, 1.3319010510745926], [-5.752834770194632, -9.052608150859607, -5.165590178409396, -5.1275575694677356, -1.1680675220853145, -5.937379862586001, -5.120188987749737, -4.137480650569062, -2.1481639821955856], [0, 0, 0, 0, 0, 0, 0, 0, 0], [0, 0, 0, 0, 0, 0, 0, 0, 0], [-9.975399166841601, -4.221202262620955, -8.423412944565172, -9.203573166471642, -0.4914771128546158, -9.529493088326824, -9.194033854457466, -4.775510934257666, 0.677633155678167], [0, 0, 0, 0, 0, 0, 0, 0, 0], [-3.855920278439008, -10.915140470818033, -10.66373115062629, -7.736407839131172, -3.4444710854424647, -10.705406260173433, -10.109010914905095, -4.749389159510108, 1.3604376289208133], [-8.202866258870698, -6.142730819409537, -7.926705712229879, -8.10125005754593, 5.230605649085351, -5.613267129585246, -7.33649297129506, -1.4210126014455324, -1.4064452927982167], [0, 0, 0, 0, 0, 0, 0, 0, 0], [0, 0, 0, 0, 0, 0, 0, 0, 0], [0, 0, 0, 0, 0, 0, 0, 0, 0], [0, 0, 0, 0, 0, 0, 0, 0, 0], [0, 0, 0, 0, 0, 0, 0, 0, 0], [0, 0, 0, 0, 0, 0, 0, 0, 0], [-7.990690563337551, -0.34431443065097067, 2.7905351385867636, -0.07177860130109492, -7.426984148832751, -7.036255517753687, -8.094116924549024, -4.17985851698371, -3.116131755597234], [0, 0, 0, 0, 0, 0, 0, 0, 0], [0, 0, 0, 0, 0, 0, 0, 0, 0], [0, 0, 0, 0, 0, 0, 0, 0, 0], [-2.832757729960365, -7.237224296698656, 3.805509399183422, -2.5789737554304337, -8.209367236860071, -7.735438604833717, -7.848700943644562, -1.1011960322429954, -3.581537845621603], [0, 0, 0, 0, 0, 0, 0, 0, 0], [-6.824976151987931, -7.661024030187376, 5.232336020432277, 