[[3.186684735987982, 2.9201219201972726, 3.2340633375042582, 3.5783169832652977, 3.167677787681006, 3.1567739293566053, 3.270151963721319, 3.0809069020525826, 3.340528833884211], [0, 0, 0, 0, 0, 0, 0, 0, 0], [-6.841422113802597, 2.9069672416404706, 3.6032086148827904, 2.7549306626625847, 3.0271133738204794, 3.5655969676970103, 2.6511382066154496, 2.831022121746334, 2.856512463288329], [0, 0, 0, 0, 0, 0, 0, 0, 0], [0, 0, 0, 0, 0, 0, 0, 0, 0], [-7.033190817790624, -7.560038771648136, 2.7050312592533126, 3.3873911578919964, 2.2607946373650236, 3.146525211406929, 2.43443084194858, 2.5484454035639397, 3.8411828862585615], [3.1292583429595116, -6.906446553483721, 3.0756741232253897, 3.0277892857518567, 2.939041313099877, 2.7826507259828395, 3.161727919564142, 2.941042295364784, 3.297909140697297], [-7.44770304472499, -7.335171066301481, 2.918568190415167, 2.51375152121639, 2.2568898562858504, 3.126321537623082, 3.1730130372222565, 2.4490590144364734, 2.69367435184623], [0, 0, 0, 0, 0, 0, 0, 0, 0], [0, 0, 0, 0, 0, 0, 0, 0, 0], [0, 0, 0, 0, 0, 0, 0, 0, 0], [-7.2812250398416865, 3.1766114973510136, -6.977571889129077, 2.969363680959833, 3.154513877358017, 3.54702965654838, 2.6498156718290966, 3.216512679751323, 2.4606276826659985], [0, 0, 0, 0, 0, 0, 0, 0, 0], [0, 0, 0, 0, 0, 0, 0, 0, 0], [0, 0, 0, 0, 0, 0, 0, 0, 0], [3.098549350544909, -7.99964206367722, -6.509664949226849, 2.578699177044573, 2.8941418867890585, 3.2804633896527533, 2.6863475867685547, 2.37549954486464, 2.7317362199865336], [0, 0, 0, 0, 0, 0, 0, 0, 0], [-7.77756613210085, -7.777659878270487, -7.7776073646819075, 2.860193967399834, 3.098497032364639, 3.5273386070884416, 3.063359145492435, 3.1262506548595423, 3.3001648185418118], [3.018859938089459, 3.153583399572731, -6.716485110398606, 3.3946162898158265, 3.6587315998495766, 2.571568986370219, 2.828788490066217, 2.914394415953711, 2.8210405396937484], [-7.681410488257972, 3.0757921558326005, -7.713202880618173, 2.6326244969008155, 2.672962047270672, 3.4283466938527196, 3.372195107970822, 3.434907151792535, 3.050916378866874], [0, 0, 0, 0, 0, 0, 0, 0, 0], [2.5304166458130952, -7.230307285787908, -7.28155843333189, 3.086290263781035, 3.309753308173982, 3.10130738403313, 3.4097740335404607, 2.5789785266729846, 3.385932507176178], [0, 0, 0, 0, 0, 0, 0, 0, 0], [-7.713114214361445, -7.5530250665107825, -7.783185659946463, 1.9985345896339797, 2.920352599876309, 2.996905768361567, 2.7572352453281335, 2.409441827069078, 2.311443354625826], [0, 0, 0, 0, 0, 0, 0, 0, 0], [-7.499483583821032, -7.511385549706279, -7.027544887816236, 3.6662860007513594, 2.672033746414783, 2.738811514268433, 2.9835507181204246, 2.9567893859041408, 2.0631906795712465], [0, 0, 0, 0, 0, 0, 0, 0, 0], [0, 0, 0, 0, 0, 0, 0, 0, 0], [0, 0, 0, 0, 0, 0, 0, 0, 0], [-7.472811573628471, 2.631540104463908, 3.2687015886567825, -7.537596901217048, 2.522902324875705, 2.4517479589250093, 2.558535061059401, 3.043894745760986, 4.5513172510698094], [0, 0, 0, 0, 0, 0, 0, 0, 0], [0, 0, 0, 0, 0, 0, 0, 0, 0], [0, 0, 0, 0, 0, 0, 0, 0, 0], [2.9228344868642226, -7.410925678865972, 3.0299724162274586, -7.601694104456633, 2.554855574197717, 3.3561029131066116, 3.0058175630623136, 2.937070411809241, 3.1841821786712923], [0, 0, 0, 0, 0, 0, 0, 0, 0], [-7.499407649312191, -7.96836645751983, 2.7225896278334942, -7.382915287247307, -2.0034371343483093, -0.8433788575071266, -0.5886777716206253, -1.998159697116841, -2.0342971498311737], [0, 0, 0, 0, 0, 0, 0, 0, 0], [0, 0, 0, 0, 0, 0, 0, 0, 0], [0, 0, 0, 0, 0, 0, 0, 0, 0], [0, 0, 0, 0, 0, 0, 0, 0, 0], [0, 0, 0, 0, 0, 0, 0, 0, 0], [0, 0, 0, 0, 0, 0, 0, 0, 0], [0, 0, 0, 0, 0, 0, 0, 0, 0], [0, 0, 0, 0, 0, 0, 0, 0, 0], [-8.35802817543207, -8.082329894766326, -7.110633452380709, -7.953175193305896, 2.4446826169455065, 2.9417042041217796, 3.370356318175999, 1.602758007071715, 2.94916171452108], [1.8339136083454455, 3.9914914314840315, -7.5070284751595455, -6.729425343487538, 3.210572501351945, 3.050281488287159, 3.9705737339971523, 3.074739337168792, 3.7389224934960543], [0, 0, 0, 0, 0, 0, 0, 0, 0], [-7.609953742766413, 2.3391035705102636, -7.419033763536879, -7.633701680041794, -1.892940733187982, 0.739130244850051, 1.205898292432632, -3.2452926020553456, -1.9353967541568773], [0, 0, 0, 0, 0, 0, 0, 0, 0], [0, 0, 0, 0, 0, 0, 0, 0, 0], [-8.233407849469403, -7.2497317828573244, -7.411253230168161, -8.027408443527454, 3.051673023945032, 2.4334665494673713, 1.3305978564559724, 2.2533477815440603, 1.9495572675348616], [3.3269731141817864, -7.334176944219637, -7.777726978144624, -7.3917761243695965, 0.1886107276306146, 2.85854401893063, 0.8031405983328933, 0.43204071157921353, -1.972202006829179], [-7.5241587797458624, -7.630295201825403, -7.548961038132128, -7.526118703146794, 3.716568272915101, 3.7326273798690544, 2.113941407954518, 1.9930339528941956, -2.1642806427604926], [0, 0, 0, 0, 0, 0, 0, 0, 0], [3.1977219507630483, 3.054762498270776, 3.712985714549488, -6.762420338226691, 3.4841830956797457, 3.3526817261130235, 3.3132366938835442, 2.868735155254808, 3.228873632246451], [-7.536306495317329, 2.9179322668622834, 2.536118064871783, -7.6629554320490145, 2.4268068170496453, 2.603441519716881, 3.197202889430319, 2.812125816422304, 2.8806497243596265], [0, 0, 0, 0, 0, 0, 0, 0, 0], [4.210074741560094, -7.2718019320944975, 2.9179462622245165, -7.1080663629627505, 2.6769073627957116, 2.9976671750476656, 3.178583034557411, 3.0386176702484162, 2.8185867141789913], [0, 0, 0, 0, 0, 0, 0, 0, 0], [-7.7773806170957736, -7.522236888894687, 2.5814964609115956, -7.156444799885719, 3.731680234411251, 2.464959211029477, 2.024591391552691, 2.876300114287738, 3.2148845592442306], [0, 0, 0, 0, 0, 0, 0, 0, 0], [-7.522309438722938, -7.254224747151108, 3.0178637373334194, -7.003607350303403, 2.9452569030653857, 1.9682535931652927, 2.671859882783181, 2.547859362002478, 3.3808748467849625], [0, 0, 0, 0, 0, 0, 0, 0, 0], [3.40751660672058, 2.707818189173688, -6.937561589734847, -6.991318246015554, 2.958728785319681, 2.8934115552558928, 2.440991443778453, 3.2602075154953916, 3.4767086570658954], [0, 0, 0, 0, 0, 0, 0, 0, 0], [-6.900524873259096, -2.144116480247447, -6.50296549377224, -7.7778480082243, 3.269066811877372, -2.5985340539841832, 4.337275330702862, 1.7150635140837753, -2.2620477354389426], [0, 0, 0, 0, 0, 0, 0, 0, 0], [0, 0, 0, 0, 0, 0, 0, 0, 0], [-7.4691936191590536, -8.027175734539153, -7.636297861778557, -7.982827355247637, 2.0835195796378283, 1.4388873293033322, 0.19171849984874956, 2.8870306149865286, 1.447932734570562], [2.4808825660999045, -7.170128760050483, -7.33212561075098, -7.41860541190743, 3.250842970458936, 2.7414105750924262, 2.1228089837555157, 2.757947595807161, 3.175195550848144], [-8.115554655139157, -8.100185642790919, -7.994179417475809, -7.862542432014203, 1.197583289459887, 1.5255658772173344, 2.477395493166269, 2.8022928845970885, 2.002305129229412], [0, 0, 0, 0, 0, 0, 0, 0, 0], [0, 0, 0, 0, 0, 0, 0, 0, 0], [-7.505077769573586, 2.753743857328481, -7.808749935575387, -7.3251526356373216, 2.796411034618936, 2.5218220832174394, 2.212496908768718, 3.006654672108346, 1.858125486190147], [0, 0, 0, 0, 0, 0, 0, 0, 0], [2.7835331409703157, -7.444235176564117, -7.7839997510048455, -7.45893753995926, 3.1303103037422213, 2.2591618631662675, 1.939408326140315, 1.3220194870288147, 2.9967761092219902], [-8.039473458392678, -7.995780668495642, -7.906084843943239, -7.9624798507862335, 0.452370330346509, 0.6432766191710197, 2.2226199292354316, 3.009850408766327, 1.507162435937373], [0, 0, 0, 0, 0, 0, 0, 0, 0], [0, 0, 0, 0, 0, 0, 0, 0, 0], [0, 0, 0, 0, 0, 0, 0, 0, 0], [0, 0, 0, 0, 0, 0, 0, 0, 0], [0, 0, 0, 0, 0, 0, 0, 0, 0], [0, 0, 0, 0, 0, 0, 0, 0, 0], [-7.270135640356403, 2.7751750217813935, 3.070855390994368, 3.006728853214362, -7.154301150542988, 2.9048953591363325, 2.9017390109780745, 3.200892675956394, 2.8407462619120745], [0, 0, 0, 0, 0, 0, 0, 0, 0], [0, 0, 0, 0, 0, 0, 0, 0, 0], [0, 0, 0, 0, 0, 0, 0, 0, 0], [2.88198022133541, -7.340483118184164, 3.0428329543957924, 3.12292856646493, -7.999642291858818, 2.7727569915433588, 3.1471086306040665, 3.322751144995202, 2.8791291357251794], [0, 0, 0, 0, 0, 0, 0, 0, 0], [-7.433401753525357, -7.003522370503399, 3.0479239201297945, 0.9966346396193935, -7.777810020359982, 0.4801798120013341, -2.029657538847653, -2.2076434605832054, -2.062435796672193], [0, 0, 0, 0, 0, 0, 0, 0, 0], [0, 0, 0, 0, 0, 0, 0, 0, 0], [0, 0, 0, 0, 0, 0, 0, 0, 0], [0, 0, 0, 0, 0, 0, 0, 0, 0], [0, 0, 0, 0, 0, 0, 0, 0, 0], [0, 0, 0, 0, 0, 0, 0, 0, 0], [0, 0, 0, 0, 0, 0, 0, 0, 0], [0, 0, 0, 0, 0, 0, 0, 0, 0], [-7.3334676116381035, -6.742013047041755, -6.720834829558302, 3.305423997230709, -7.207306681484015, -1.5002541742700295, 2.3427940067715256, -1.7720470276153486, 2.286505014084826], [3.1273323273777898, 2.031721980818831, -6.672857703051222, 2.7824654774581834, -7.092460246730461, 3.0888229231583972, 3.127070979588958, 3.0759528828171905, 3.285365951424186], [0, 0, 0, 0, 0, 0, 0, 0, 0], [-7.342550393079145, 3.1105314384936964, -7.7818628726203745, -2.1961039485361686, -6.969469572048439, 3.552192490325843, -1.95915670298815, 2.8787450392154836, -2.17943785317843], [0, 0, 0, 0, 0, 0, 0, 0, 0], [0, 0, 0, 0, 0, 0, 0, 0, 0], [-7.535685478328563, -7.204366428086665, -7.530903402292722, 2.7364696352277207, -7.50285959106107, 1.347566480646589, 1.572372274754108, 2.472396225156193, 0.45196182402392204], [4.68419866952298, -7.767388783621831, -7.257229495656036, -1.9876775117235428, -7.60122160597256, -2.032263499345827, -2.1688365212101286, 1.7251224167450139, -2.059191920945402], [-6.877913640614141, -7.495834951876056, -7.515765179673849, 3.0207601785857703, -7.370684794349013, -2.121330064242309, 0.768491718500999, -1.859971950829523, 3.220700527152508], [0, 0, 0, 0, 0, 0, 0, 0, 0], [0, 0, 0, 0, 0, 0, 0, 0, 0], [0, 0, 0, 0, 0, 0, 0, 0, 0], [0, 0, 0, 0, 0, 0, 0, 0, 0], [0, 0, 0, 0, 0, 0, 0, 0, 0], [0, 0, 0, 0, 0, 0, 0, 0, 0], [0, 0, 0, 0, 0, 0, 0, 0, 0], [0, 0, 0, 0, 0, 0, 0, 0, 0], [0, 0, 0, 0, 0, 0, 0, 0, 0], [-7.558501311192789, -7.753012139751033, -0.606369627884296, -7.530550162311499, -7.291651810427566, 3.665144213740702, -1.9071452092557544, -1.7745615980597207, -2.7920439651051097], [0, 0, 0, 0, 0, 0, 0, 0, 0], [0, 0, 0, 0, 0, 0, 0, 0, 0], [0, 0, 0, 0, 0, 0, 0, 0, 0], [0, 0, 0, 0, 0, 0, 0, 0, 0], [0, 0, 0, 0, 0, 0, 0, 0, 0], [0, 0, 0, 0, 0, 0, 0, 0, 0], [0, 0, 0, 0, 0, 0, 0, 0, 0], [0, 0, 0, 0, 0, 0, 0, 0, 0], [0, 0, 0, 0, 0, 0, 0, 0, 0], [0, 0, 0, 0, 0, 0, 0, 0, 0], [0, 0, 0, 0, 0, 0, 0, 0, 0], [-7.213038442355378, -1.0391832407327468, -7.551849240267889, -6.891488600831224, -7.073613607299353, 2.5448301440787953, 3.3236266143112534, 2.7341482764466924, 0.8993524954039938], [0, 0, 0, 0, 0, 0, 0, 0, 0], [0, 0, 0, 0, 0, 0, 0, 0, 0], [0, 0, 0, 0, 0, 0, 0, 0, 0], [1.2547559419446475, -7.50826359178681, -7.508360452933859, -7.549454659457367, -6.875393213066551, 2.453563864492135, 2.3819838807884413, 0.7805199204344699, 4.163677556243222], [0, 0, 0, 0, 0, 0, 0, 0, 0], [0, 0, 0, 0, 0, 0, 0, 0, 0], [3.0850765867092993, 2.8077442238538453, 3.0682030646583787, -7.9996420636878565, -6.918710387310413, 3.3640017867368845, 3.4450534334295058, 3.9526663420568986, 2.8779354544416194], [0, 0, 0, 0, 0, 0, 0, 0, 0], [-7.781137071022824, -2.078904845622885, 3.016697589314631, -7.229182265318547, -7.677212381796233, 0.19164016893440228, 3.636828824534583, -2.1506704312047766, 1.0507946850668257], [0, 0, 0, 0, 0, 0, 0, 0, 0], [0, 0, 0, 0, 0, 0, 0, 0, 0], [-7.533247095385457, -7.530235207741606, 3.9920204982363665, -7.531615046000208, -7.521554578351793, 4.20728030179363, 0.19171849983261446, 1.6116088216573954, 3.069433615223173], [3.021351870988549, -7.7774953211165645, 2.924713472856548, -7.777050187031326, -7.7943981303576635, 2.7255088896471102, 3.0124865042908713, 2.9123575781183826, 2.6973868324822905], [-7.498333624991138, -7.4862776978138434, -1.8023120904586858, -7.53830113293993, -6.876090807673117, 2.7049365209936447, 3.214756853115344, 3.068185841266762, 2.8557142447613], [0, 0, 0, 0, 0, 0, 0, 0, 0], [0, 0, 0, 0, 0, 0, 0, 0, 0], [0, 0, 0, 0, 0, 0, 0, 0, 0], [-7.50202947126434, 0.3663088934949872, -7.5833942579063915, -7.444854894760366, -7.4951754149964565, -1.7823103636022335, -1.157777329041995, 1.8916863126245398, 4.037829694757068], [0, 0, 0, 0, 0, 0, 0, 0, 0], [0, 0, 0, 0, 0, 0, 0, 0, 0], [0, 0, 0, 0, 0, 0, 0, 0, 0], [2.873125109130678, -6.762839259584776, -7.238096249171732, -7.369292373818931, -7.511614093133874, 3.1507526315694494, 2.2278072212427755, -0.3291620325531753, -2.096381314835201], [0, 0, 0, 0, 0, 0, 0, 0, 0], [-6.888218772285409, -7.156733250247436, -6.741550060681046, -6.9726100938993305, -7.221128549009759, -0.3742213093582689, 3.0648529360426213, -0.8366840011951764, 2.642872018781145], [2.856270233662938, 3.7611258022352794, -7.579745736094434, -7.40360073908086, -7.78176434543167, 2.409111833214486, 3.048897039859134, 2.3873539000622084, 3.3404711986567186], [-7.522816727536322, 2.6002863433204757, -7.515938181233379, -7.645261981508681, -7.532298608941323, -1.882647562554564, -1.6670323929158595, 2.3964065763553055, 1.7963031901653643], [0, 0, 0, 0, 0, 0, 0, 0, 0], [2.043651928196335, -7.554224404156788, -7.524327584359318, -7.367962378390781, -7.683052079793056, -1.2648502704716482, -1.6066521988760938, 3.042335240375294, 0.694526928656064], [0, 0, 0, 0, 0, 0, 0, 0, 0], [-7.283983633660606, -7.269130012820171, -7.25643261033978, -7.032086913453617, -6.699299883314505, 2.8483994157575507, 2.3067529238685225, 3.1739947693098616, -2.1655337387262144], [0, 0, 0, 0, 0, 0, 0, 0, 0], [-7.185526776649814, -6.525988124312319, -7.282509917881932, -6.974034209275347, -7.286521688755091, 2.3313223211006324, 3.200455479426714, 2.4695776750792344, 2.9478645225108826], [0, 0, 0, 0, 0, 0, 0, 0, 0], [2.7939662890054873, 3.119330590274011, 3.1170592241290644, 3.1392751472450087, -6.950325396186514, 2.8197676732329793, 2.8514972445464712, 3.4761945988485827, 3.0725058529303384], [-7.257500064732362, 2.3442755844967547, 2.374174844993994, 2.3223331172919215, -7.5493253937890294, 3.0940456877887597, 2.831712930532699, 3.645181883512567, 2.6185861362139677], [0, 0, 0, 0, 0, 0, 0, 0, 0], [3.849912252490074, -7.845452851054661, 1.8087351430820386, 4.28863912498628, -6.90794257067248, 2.5299574586206592, 3.139096714825382, 2.771374708746362, 3.8691462685672393], [0, 0, 0, 0, 0, 0, 0, 0, 0], [-8.199738924503253, -7.599542503459702, -2.408786183456229, -2.5205583630460104, -8.201095114517148, -2.038884793101091, 1.9567030215630976, -2.639125347030488, 3.334530383608783], [0, 0, 0, 0, 0, 0, 0, 0, 0], [-7.857509277972612, -7.77777221805268, -3.173402221440846, 0.32689418661331815, -7.777718387732278, -2.1812938000862543, -2.0134269104330835, 2.3645522807709085, 1.8763668620721863], [0, 0, 0, 0, 0, 0, 0, 0, 0], [4.038803071163871, 2.8955723602871033, -7.182359752753676, 3.2210714447324276, -7.312164618314156, 2.717290557102248, 2.441104672409985, 2.9250294184748284, 2.300397653645727], [0, 0, 0, 0, 0, 0, 0, 0, 0], [-7.779630009967676, 1.8657503525180719, -7.233192587213335, -2.0707387589985915, -7.535194462173164, -1.8863308017755829, 1.3344955932375233, -2.2382271882490437, 3.254909340359989], [0, 0, 0, 0, 0, 0, 0, 0, 0], [0, 0, 0, 0, 0, 0, 0, 0, 0], [-8.00139460933952, -8.002516432775131, -8.046386875424313, 4.596115197828046, -8.034119672049293, 1.0596665495214028, 2.2226199292471365, 2.8256061902091627, 0.1917184998433401], [3.1042789862858404, -7.7778046185132945, -7.780488276395206, 0.3322033865123877, -7.396527011451474, 1.820018127687279, 0.8134300869251783, 3.3420680449119557, -0.19270295912537505], [-8.000694491826923, -7.502375348104442, -8.100372995143388, 1.3585105009564031, -8.054741905077778, 1.6818817739645022, 1.7599307736592873, -0.30385893267181374, 2.0238101168466156], [0, 0, 0, 0, 0, 0, 0, 0, 0], [0, 0, 0, 0, 0, 0, 0, 0, 0], [-7.777413091199885, -2.4202829389728784, -7.552750298107121, -2.6084959787712307, -8.00697189437862, -1.9417416201237732, 3.169566403272569, 2.1976044617102977, -2.199825119279608], [0, 0, 0, 0, 0, 0, 0, 0, 0], [-2.12063825562227, -8.20349876788034, -8.200559269474816, 2.5468271718927973, -8.199828039173237, 2.0216546029044618, 2.382269769577178, -2.200137141639077, 2.402891003605866], [-7.995638896706361, -7.311771421633075, -8.094239186318442, 1.0628220838550972, -7.977285070699814, 1.710101609396397, 0.4763059940327634, 3.5309176565835427, 2.222619921826988], [0, 0, 0, 0, 0, 0, 0, 0, 0], [0, 0, 0, 0, 0, 0, 0, 0, 0], [0, 0, 0, 0, 0, 0, 0, 0, 0], [0, 0, 0, 0, 0, 0, 0, 0, 0], [2.580510758704308, 2.509662850925326, 2.9814948574027627, -7.999642066601999, -7.3635649653060975, 3.0624075307888967, 3.1392858197052553, 2.858702519477668, 3.9858801224907228], [0, 0, 0, 0, 0, 0, 0, 0, 0], [-8.131982619327616, 1.3242393430023776, 2.7733583235086083, -7.714008749837, -7.729527496692922, -2.1217521416943987, 1.4835135084109288, -0.13002722727226335, 3.2746646505383126], [0, 0, 0, 0, 0, 0, 0, 0, 0], [0, 0, 0, 0, 0, 0, 0, 0, 0], [-9.059048282284234, -9.153597305887729, 1.0621166095830916, -8.942594095099462, -9.061331073327596, 2.226324049143491, 1.2457806986092168, 3.2369703156816203, 6.487727847474637], [-1.786778734026458, -7.945299606839809, 1.4950247608844813, -7.7163186596542985, -7.542347540372038, 2.795081235575399, 2.470872211325749, 2.7922591966337817, -2.058085615285941], [-7.3702071907120725, -7.564870028417365, 0.550897767113721, -7.492000667479776, -7.533494433788001, 3.0219751489915048, 1.045148343405622, -0.9989449445920975, -1.6123449977542332], [0, 0, 0, 0, 0, 0, 0, 0, 0], [0, 0, 0, 0, 0, 0, 0, 0, 0], [0, 0, 0, 0, 0, 0, 0, 0, 0], [-8.068037571436374, 2.707264303769806, -7.674601633536948, -7.141839886669506, -7.654442081937104, 1.1975994294959307, 2.6323805885487586, 0.7170874502593751, 0.19171620908914244], [0, 0, 0, 0, 0, 0, 0, 0, 0], [0, 0, 0, 0, 0, 0, 0, 0, 0], [0, 0, 0, 0, 0, 0, 0, 0, 0], [1.126783136101968, -8.041605349552091, -8.039728971704081, -7.994820145672138, -8.037029174273819, 2.6257250610616674, 1.3348463587252162, 0.19171849762093052, 0.8188151269874357], [0, 0, 0, 0, 0, 0, 0, 0, 0], [-7.79213421038982, -7.638690036748676, -7.395459931358506, -7.650272210224053, -7.816661624987947, -2.250376709664108, -2.6676824311004226, 2.627447094060175, 1.8775248944913416], [1.5287831982878788, 3.263914666287218, -7.270626068924161, -7.003087038680456, -7.503335391958641, -0.2813912575519468, 3.657941839573983, 2.1741982078233306, 3.5502170382128675], [-7.529151472900177, -1.724185582345723, -7.520753916764722, -7.248819818085326, -7.52548846664422, 2.3998310796791884, 0.19171530675012993, 3.917619717152832, -2.2759260426639987], [0, 0, 0, 0, 0, 0, 0, 0, 0], [1.0630145532772592, -7.997705812690608, -7.942299271011573, -7.512754648018914, -7.535060111275288, 2.378489801620468, 0.19171849985023803, 1.942095767907666, 3.3059194592722774], [0, 0, 0, 0, 0, 0, 0, 0, 0], [-9.41443281471076, -8.959583226897287, -9.311277236391113, -9.040367314885671, -8.618847164976987, 0.17243337075984527, 2.3551734688980535, 0.1724584434648902, -0.23671807632295994], [0, 0, 0, 0, 0, 0, 0, 0, 0], [-7.664505542107547, -7.404700101936344, -7.261771925835948, -7.220449970838111, -7.149009160573038, -1.775137329163168, 3.0015369320971974, -2.11177939148977, -0.45022528705013565], [0, 0, 0, 0, 0, 0, 0, 0, 0], [0, 0, 0, 0, 0, 0, 0, 0, 0], [-7.777709758382122, -2.0638360608594786, -0.9675024564021344, -7.368547527217147, -7.777389169693327, 2.7545466224061355, 0.1287786603366341, -2.210573887142181, 1.632463722336042], [0, 0, 0, 0, 0, 0, 0, 0, 0], [-1.7238193795082173, -7.46574348377541, 0.6930921890534036, -7.378871336847454, -7.796285802550751, 2.5880952901644116, 2.6520146047068565, -2.3226974636674074, 3.2697774232418357], [-7.520540420147135, -7.539217816065621, 1.0616397864571439, -7.384817906453469, -7.528278298522567, 0.19171849981532207, -1.705322393911489, 2.004148471648292, 2.537878662777003], [0, 0, 0, 0, 0, 0, 0, 0, 0], [0, 0, 0, 0, 0, 0, 0, 0, 0], [0, 0, 0, 0, 0, 0, 0, 0, 0], [0, 0, 0, 0, 0, 0, 0, 0, 0], [-1.8298667039386718, 0.030950354893409582, -7.034701684295593, -6.998150394920971, -7.2330581261793725, 3.3928798080116733, 1.1626272902373607, -2.0309945047620643, 1.3425517223119465], [-7.5064899726838235, 3.35136999374801, -7.459051359012146, -7.22253114500535, -6.897816898644692, 0.19171849981715894, 0.10035673137369461, -1.867036116820185, 1.1596524064008407], [0, 0, 0, 0, 0, 0, 0, 0, 0], [2.222619929247425, -7.655740333153124, -7.537180498752951, -7.52038600220624, -7.74218070286587, 6.46659279788657, 1.5228358196097849, 2.7439752212938524, 2.6067764602292307], [0, 0, 0, 0, 0, 0, 0, 0, 0], [-7.681609668112495, -7.658884410015579, -7.801427275462613, -7.736368148443199, -7.413279574381308, -0.35810867517656786, -0.8140931360754768, -2.1830506965314713, -2.476298894430118], [0, 0, 0, 0, 0, 0, 0, 0, 0], [-7.075606634267892, -7.884622808300858, -7.898958367203507, -7.790031825207963, -7.779378587338343, -2.3155584064844152, 0.1666130005220415, -0.3123864156769165, -2.8944502600602697], [0, 0, 0, 0, 0, 0, 0, 0, 0], [0, 0, 0, 0, 0, 0, 0, 0, 0], [0, 0, 0, 0, 0, 0, 0, 0, 0], [0, 0, 0, 0, 0, 0, 0, 0, 0], [0, 0, 0, 0, 0, 0, 0, 0, 0], [-8.858252719241573, -8.9086370057714, -8.950985610931077, -9.26780442155544, -8.927340803977675, -2.2175700890165357, -2.5038602091791597, 0.15228273475567566, 0.17254114685162042], [0, 0, 0, 0, 0, 0, 0, 0, 0], [0, 0, 0, 0, 0, 0, 0, 0, 0], [0, 0, 0, 0, 0, 0, 0, 0, 0], [0, 0, 0, 0, 0, 0, 0, 0, 0], [0, 0, 0, 0, 0, 0, 0, 0, 0], [0, 0, 0, 0, 0, 0, 0, 0, 0], [-7.037117455817988, 3.885919327939696, 2.282254566249491, 4.328402415233488, 2.869384334647518, -7.9996420636865535, 3.2808639837351867, 3.267220375456649, 3.05552501852557], [0, 0, 0, 0, 0, 0, 0, 0, 0], [0, 0, 0, 0, 0, 0, 0, 0, 0], [0, 0, 0, 0, 0, 0, 0, 0, 0], [3.584238821313775, -7.072217582711826, 3.4085544985449, 3.102229282123571, 2.4649822883864734, -7.79649028958568, 2.947758672871684, 3.4623468054063444, 2.3871402428058044], [0, 0, 0, 0, 0, 0, 0, 0, 0], [-7.663423104533371, -7.778064851634477, 2.7881732070372416, 2.745021959998663, -1.8844879052724337, -7.787447779230479, 2.9344307960228444, 2.324713899016201, 3.7312174940946967], [0, 0, 0, 0, 0, 0, 0, 0, 0], [0, 0, 0, 0, 0, 0, 0, 0, 0], [0, 0, 0, 0, 0, 0, 0, 0, 0], [0, 0, 0, 0, 0, 0, 0, 0, 0], [0, 0, 0, 0, 0, 0, 0, 0, 0], [0, 0, 0, 0, 0, 0, 0, 0, 0], [0, 0, 0, 0, 0, 0, 0, 0, 0], [0, 0, 0, 0, 0, 0, 0, 0, 0], [-7.08761510520762, -7.536939534376407, -7.595474495624078, 0.24253281699919782, 1.939484992285561, -7.396101511345566, 3.929981719362655, -1.7052947876950275, 1.1955038949354364], [1.7003768450643566, 2.056420339455609, -7.464015144711927, 2.7064090269341694, 2.750842394743745, -7.99964206420087, 2.5694578152402907, 2.884075431444129, 2.9845783931766157], [0, 0, 0, 0, 0, 0, 0, 0, 0], [-7.628285444744587, 3.239089337801637, -7.681052948899271, 1.1104909739622624, -1.7891780444933567, -7.704318485620357, -2.2550160418878153, -1.907630393739715, -3.3272069577888317], [0, 0, 0, 0, 0, 0, 0, 0, 0], [0, 0, 0, 0, 0, 0, 0, 0, 0], [-7.796463106244735, -8.023031921543918, -7.983039935954093, 2.155701452960848, 1.0630054774575484, -7.518656827630421, -0.1380231034724625, 2.3460988142044803, 3.383767931142212], [2.859118486591009, -7.50903051380167, -7.484123855802286, 0.166429026354723, 4.02792403262199, -7.781204434310302, -1.861392158949048, -1.8395218024427393, -0.24415756040598535], [-7.515169143402555, -8.13706224321334, -8.044761008027455, 2.3070219907617546, 2.2625581450635295, -7.730738566831944, 2.8693205941046442, 2.0089340793170605, 2.8900004852682573], [0, 0, 0, 0, 0, 0, 0, 0, 0], [0, 0, 0, 0, 0, 0, 0, 0, 0], [0, 0, 0, 0, 0, 0, 0, 0, 0], [0, 0, 0, 0, 0, 0, 0, 0, 0], [0, 0, 0, 0, 0, 0, 0, 0, 0], [0, 0, 0, 0, 0, 0, 0, 0, 0], [0, 0, 0, 0, 0, 0, 0, 0, 0], [0, 0, 0, 0, 0, 0, 0, 0, 0], [0, 0, 0, 0, 0, 0, 0, 0, 0], [-7.516978440495341, -7.541140843483415, 6.199919907551401, -8.073687213806688, 1.8053632531766657, -7.625819238094609, -2.732459692308148, -1.8731246408931215, 1.526429973687669], [0, 0, 0, 0, 0, 0, 0, 0, 0], [0, 0, 0, 0, 0, 0, 0, 0, 0], [0, 0, 0, 0, 0, 0, 0, 0, 0], [0, 0, 0, 0, 0, 0, 0, 0, 0], [0, 0, 0, 0, 0, 0, 0, 0, 0], [0, 0, 0, 0, 0, 0, 0, 0, 0], [0, 0, 0, 0, 0, 0, 0, 0, 0], [0, 0, 0, 0, 0, 0, 0, 0, 0], [0, 0, 0, 0, 0, 0, 0, 0, 0], [0, 0, 0, 0, 0, 0, 0, 0, 0], [0, 0, 0, 0, 0, 0, 0, 0, 0], [-8.426372607209863, -0.9331629609218604, -8.592282847612408, -7.558148805008871, 0.15447299349971094, -7.532294496695734, 0.5288220931112253, -1.9214546376950241, 1.0728718954573868], [0, 0, 0, 0, 0, 0, 0, 0, 0], [0, 0, 0, 0, 0, 0, 0, 0, 0], [0, 0, 0, 0, 0, 0, 0, 0, 0], [0.19171849534815466, -7.610978610228784, -7.811897420603536, -7.414777071313562, 1.567131493755719, -7.487371510566975, -1.7150244742617957, -2.015948439545438, 0.13983831528295698], [0, 0, 0, 0, 0, 0, 0, 0, 0], [0, 0, 0, 0, 0, 0, 0, 0, 0], [2.8081161491788516, 2.8267086750789634, 2.438631766869231, -7.22136406629761, 3.705590313573298, -7.338650826010329, 4.229496871340273, 3.3266536263458795, 2.555864534604874], [0, 0, 0, 0, 0, 0, 0, 0, 0], [-7.777474673090387, 1.3425246293820747, -2.050409162141755, -7.782290757447347, -1.7977840122117432, -7.777384463940628, 3.226671094125038, 3.069943588199944, -0.032354066914457524], [0, 0, 0, 0, 0, 0, 0, 0, 0], [0, 0, 0, 0, 0, 0, 0, 0, 0], [-8.146350748731258, -7.937054548916385, 2.1336587445786948, -8.105235680427722, 2.222619929232893, -8.009799368240238, 6.248640589093062, 1.602328027967195, 2.137637473981134], [2.7857206408346538, -7.777383509602004, 3.9781814518303236, -7.693005528362104, 2.558545957105926, -7.452952167244478, 2.8226877033658226, 1.5707158874219114, 3.99242913039782], [-7.985379473486011, -7.81218345744447, 2.408862690320224, -7.743367456944602, 2.5436614620794655, -7.991933442997095, 1.5120189557652548, 3.8310344437929054, 1.0622125772492192], [0, 0, 0, 0, 0, 0, 0, 0, 0], [0, 0, 0, 0, 0, 0, 0, 0, 0], [0, 0, 0, 0, 0, 0, 0, 0, 0], [-7.372975334722629, 3.589198148154865, -7.503958158313465, -7.551782333833563, 4.902016066982629, -7.528756059807254, 0.19171849981106115, -1.436631044270524, 1.1889446713922978], [0, 0, 0, 0, 0, 0, 0, 0, 0], [0, 0, 0, 0, 0, 0, 0, 0, 0], [0, 0, 0, 0, 0, 0, 0, 0, 0], [-1.869377024045902, -7.135730272781858, -7.055430710462829, -7.151379131528433, -1.7689206851250034, -7.295618480245447, -2.2182755491583253, -3.3020965687466353, 3.2420988168405405], [0, 0, 0, 0, 0, 0, 0, 0, 0], [-7.861923609984647, -7.748504071023975, -7.286812241785183, -6.523866528858825, -2.140232908256977, -7.341890165259139, 2.4695776991432505, 2.4695776957090354, 3.3692638330693883], [2.638751610464591, 1.8449263451223952, -8.225032128653687, -8.200493014432885, 2.441762096028036, -8.200361809157116, 2.0844801537676183, 2.722774647214362, 2.1972903364329546], [-8.283770242173855, 2.3466604118894785, -7.952797843357413, -7.93150135089761, 1.1220297177691978, -8.362869651927868, 2.831036781321373, 2.712488223582546, 1.0439054903514808], [0, 0, 0, 0, 0, 0, 0, 0, 0], [2.4814399966630085, -8.147307044452722, -8.021494010163952, -8.002996458196208, 1.0613615253656903, -7.979802398027484, 1.1448889360110286, 2.0537926443411187, 2.446056441135798], [0, 0, 0, 0, 0, 0, 0, 0, 0], [-7.873165652446483, -7.69913828524343, -7.758006235087797, -7.78937143513205, 2.3782891304321656, -7.9905717204135005, 2.4879996024037516, -2.3133254750961028, 1.1811760838164855], [0, 0, 0, 0, 0, 0, 0, 0, 0], [-6.996772313979265, -7.477423825155414, -7.786015521304593, -7.821264767942381, 2.496846909983671, -7.70806323263017, 2.608024455112104, 1.5080628614300693, 0.2020773622172189], [0, 0, 0, 0, 0, 0, 0, 0, 0], [0, 0, 0, 0, 0, 0, 0, 0, 0], [0, 0, 0, 0, 0, 0, 0, 0, 0], [0, 0, 0, 0, 0, 0, 0, 0, 0], [0, 0, 0, 0, 0, 0, 0, 0, 0], [0, 0, 0, 0, 0, 0, 0, 0, 0], [0, 0, 0, 0, 0, 0, 0, 0, 0], [0, 0, 0, 0, 0, 0, 0, 0, 0], [0, 0, 0, 0, 0, 0, 0, 0, 0], [-8.407767656063974, -7.564508819609614, 0.19170573140140523, 1.2733934654651982, -6.680782517079816, -7.528673264746164, -1.1911967125030127, -1.792179136533757, 0.4629343534923438], [0, 0, 0, 0, 0, 0, 0, 0, 0], [0, 0, 0, 0, 0, 0, 0, 0, 0], [0, 0, 0, 0, 0, 0, 0, 0, 0], [0, 0, 0, 0, 0, 0, 0, 0, 0], [0, 0, 0, 0, 0, 0, 0, 0, 0], [0, 0, 0, 0, 0, 0, 0, 0, 0], [0, 0, 0, 0, 0, 0, 0, 0, 0], [0, 0, 0, 0, 0, 0, 0, 0, 0], [0, 0, 0, 0, 0, 0, 0, 0, 0], [0, 0, 0, 0, 0, 0, 0, 0, 0], [0, 0, 0, 0, 0, 0, 0, 0, 0], [-7.5559720065663925, -1.183739121185338, -7.529531430128302, 2.026833432144473, -7.539356731697521, -7.632658151234156, 3.9320589236746804, 3.8383095657763935, 0.6638561762769897], [0, 0, 0, 0, 0, 0, 0, 0, 0], [0, 0, 0, 0, 0, 0, 0, 0, 0], [0, 0, 0, 0, 0, 0, 0, 0, 0], [-0.9455454510442811, -7.244624625404851, -7.560385707205121, 3.075322464981193, -7.261294858528974, -7.379159576267298, 0.7344236667594108, 1.4264052232022597, 5.141879803017334], [0, 0, 0, 0, 0, 0, 0, 0, 0], [0, 0, 0, 0, 0, 0, 0, 0, 0], [0, 0, 0, 0, 0, 0, 0, 0, 0], [0, 0, 0, 0, 0, 0, 0, 0, 0], [0, 0, 0, 0, 0, 0, 0, 0, 0], [0, 0, 0, 0, 0, 0, 0, 0, 0], [0, 0, 0, 0, 0, 0, 0, 0, 0], [0, 0, 0, 0, 0, 0, 0, 0, 0], [0, 0, 0, 0, 0, 0, 0, 0, 0], [0, 0, 0, 0, 0, 0, 0, 0, 0], [0, 0, 0, 0, 0, 0, 0, 0, 0], [0, 0, 0, 0, 0, 0, 0, 0, 0], [0, 0, 0, 0, 0, 0, 0, 0, 0], [0, 0, 0, 0, 0, 0, 0, 0, 0], [0, 0, 0, 0, 0, 0, 0, 0, 0], [0, 0, 0, 0, 0, 0, 0, 0, 0], [0, 0, 0, 0, 0, 0, 0, 0, 0], [0, 0, 0, 0, 0, 0, 0, 0, 0], [0, 0, 0, 0, 0, 0, 0, 0, 0], [0, 0, 0, 0, 0, 0, 0, 0, 0], [0, 0, 0, 0, 0, 0, 0, 0, 0], [0, 0, 0, 0, 0, 0, 0, 0, 0], [0, 0, 0, 0, 0, 0, 0, 0, 0], [0, 0, 0, 0, 0, 0, 0, 0, 0], [0, 0, 0, 0, 0, 0, 0, 0, 0], [0, 0, 0, 0, 0, 0, 0, 0, 0], [0, 0, 0, 0, 0, 0, 0, 0, 0], [0, 0, 0, 0, 0, 0, 0, 0, 0], [0, 0, 0, 0, 0, 0, 0, 0, 0], [0, 0, 0, 0, 0, 0, 0, 0, 0], [0, 0, 0, 0, 0, 0, 0, 0, 0], [-8.411437234402335, 2.553421846989924, 3.033442982894251, -7.972393972801822, -8.01916300090309, -7.915467724399139, 0.19171849961774046, 2.668529035068237, 1.9250278649699242], [0, 0, 0, 0, 0, 0, 0, 0, 0], [0, 0, 0, 0, 0, 0, 0, 0, 0], [0, 0, 0, 0, 0, 0, 0, 0, 0], [1.0952038906624075, -8.009772688472507, 2.116456634693479, -8.283007174809704, -8.04568698764735, -6.7968591754148875, 2.4884370347234768, 2.5944659283781304, 2.3857288098342426], [0, 0, 0, 0, 0, 0, 0, 0, 0], [-8.709525457322206, -7.908282888365912, 4.358682300390301, -7.872038467416706, -7.229030204706476, -7.69016674389843, 1.8869006184393449, -2.4910015455028827, -0.02922614006167268], [0, 0, 0, 0, 0, 0, 0, 0, 0], [0, 0, 0, 0, 0, 0, 0, 0, 0], [0, 0, 0, 0, 0, 0, 0, 0, 0], [0, 0, 0, 0, 0, 0, 0, 0, 0], [0, 0, 0, 0, 0, 0, 0, 0, 0], [0, 0, 0, 0, 0, 0, 0, 0, 0], [0, 0, 0, 0, 0, 0, 0, 0, 0], [0, 0, 0, 0, 0, 0, 0, 0, 0], [-8.588504375860655, -7.212775170323589, -8.579678356778196, -7.5278680548652614, -7.369229229325677, -6.561976886918198, -0.387741636449191, 1.6813031371936478, -1.7914570553245286], [2.661234008960789, 0.903198968209093, -7.799869779091893, -7.30945645570355, -7.938543239816947, -7.731226250729936, 2.4560612750172868, 2.342455440230892, 2.941617547697798], [0, 0, 0, 0, 0, 0, 0, 0, 0], [-7.846594122230633, -1.6739662272658236, -7.712476031439414, -7.624199494637673, -8.291602721546877, -7.076904906721928, 1.1601844486081125, -2.1871609266824388, 1.5639846707671283], [0, 0, 0, 0, 0, 0, 0, 0, 0], [0, 0, 0, 0, 0, 0, 0, 0, 0], [-6.684353352815716, -7.881719077043742, -7.5652934341446265, -7.884691700979458, -7.8049406262766805, -7.53150977968161, -0.4329343361311013, 2.621689977970833, 0.2658241499826437], [2.6796154607688885, -7.817248484992668, -7.8656990518265, -7.8580115093489225, -7.8916554268824015, -7.817726423056465, 2.513175940359476, 3.638138636477323, -1.3819430465479798], [-7.450704342809124, -7.0217543457365785, -7.603005908443678, -4.709083280607459, -7.692420844737564, -7.350062408846245, -1.7157212716639705, 0.5288376379828174, 2.4865659882070363], [0, 0, 0, 0, 0, 0, 0, 0, 0], [2.7659766372480563, 2.8653737799279893, 2.991438084298649, 3.232931679340797, -7.099238724519016, -7.529612134449565, 2.519101379611317, 2.4310045502009405, 3.007745008576712], [0, 0, 0, 0, 0, 0, 0, 0, 0], [-7.583198400911831, -2.223756281317727, 0.9149908258685541, 2.574535762410992, -7.187437838062533, -6.62588729169336, -0.30052642881591085, 1.0998478294027905, 3.080906526981182], [0, 0, 0, 0, 0, 0, 0, 0, 0], [0, 0, 0, 0, 0, 0, 0, 0, 0], [-8.08628936588763, -8.037268221910733, 1.386411741908582, 0.6686589214003945, -8.016460840374203, -8.034623058871544, 3.8938350735467306, 1.9524605165025624, 0.19171849985028677], [-2.063653636486838, -7.500030530267058, -0.13179652538670417, 2.733307044774305, -7.721702585384367, -7.737420372925835, 2.2594941513139366, 2.8410846755549617, -1.6752809001009001], [-7.9573566980899475, -8.006322502746755, 2.3558137765323783, 2.407402727663626, -7.9917883055894725, -7.53001461412839, 2.5681072104238725, 0.19171849968621024, 2.0205965962446037], [0, 0, 0, 0, 0, 0, 0, 0, 0], [0, 0, 0, 0, 0, 0, 0, 0, 0], [0, 0, 0, 0, 0, 0, 0, 0, 0], [-6.713006220726539, -1.845138063753845, -7.61212740634812, 3.296465378175335, -7.543609766666399, -7.7450214632706045, 2.503360290855826, -1.9301812465889605, -0.9663483752490221], [0, 0, 0, 0, 0, 0, 0, 0, 0], [0, 0, 0, 0, 0, 0, 0, 0, 0], [0, 0, 0, 0, 0, 0, 0, 0, 0], [2.0786226958783254, -7.554478573676841, -7.721218224575617, -1.846044501255492, -7.519424913297072, -7.959572402256783, -2.1929175596909003, -0.3449405205561533, 2.1082503224442974], [0, 0, 0, 0, 0, 0, 0, 0, 0], [-7.258152555068447, -7.378012392725015, -7.367854580032434, -1.6697234492936714, -7.256283072657059, -7.80042647990496, 2.3369400153784285, -2.0948969173470977, 3.43742764984952], [2.427728532014924, -1.1411392665945188, -7.821425315908918, 1.3712175068958807, -7.438091338583906, -8.127817932513743, 2.9449289149699522, 2.427017519713221, 1.3874052925934053], [-7.952216431976415, 1.956024081248032, -7.6751631955743, 2.0322673480133124, -8.081997654624226, -8.018004500459746, 0.4763059940305545, 2.793216479869853, 1.8691026452225659], [0, 0, 0, 0, 0, 0, 0, 0, 0], [1.754350268780122, -9.087157524108118, -8.920149160018262, 2.9318330907107613, -8.62029692354989, -7.276801431230911, 0.19171849978623678, 1.3280483497526714, 3.911964876311301], [0, 0, 0, 0, 0, 0, 0, 0, 0], [-8.952940138458667, -8.818413400583637, -8.938609284687637, -2.7414440653030456, -8.932006027092157, -7.96412030503106, -2.1158131634171404, 0.1698506084455249, 2.5401503332020035], [0, 0, 0, 0, 0, 0, 0, 0, 0], [-7.902743802349889, -7.603830921753939, -7.768198616857314, 1.8225273793330299, -7.78366991285824, -7.740673058628473, 3.737472468429554, 1.548996931933404, 0.17242044664197348], [0, 0, 0, 0, 0, 0, 0, 0, 0], [0, 0, 0, 0, 0, 0, 0, 0, 0], [0, 0, 0, 0, 0, 0, 0, 0, 0], [-8.031058926136634, 2.968859096666221, 0.15079896572696116, -7.626368236042129, -8.018028278604675, -7.992499871953788, 2.283373379596782, 1.288441113178627, -0.9951570110699584], [0, 0, 0, 0, 0, 0, 0, 0, 0], [0, 0, 0, 0, 0, 0, 0, 0, 0], [0, 0, 0, 0, 0, 0, 0, 0, 0], [3.3018952681414557, -7.980141014743134, 0.7626862044420522, -7.99581245378397, -7.818671292268986, -7.832645208108344, -0.0979756065643067, -0.24826589038950075, 0.4279577228703772], [0, 0, 0, 0, 0, 0, 0, 0, 0], [-8.776772448823534, -7.880577717674136, 0.7629660404648586, -8.773480100624052, -6.972373275479285, -7.8901408121485215, 1.4554905227122763, 3.975260892637717, 0.055011631111469395], [0, 0, 0, 0, 0, 0, 0, 0, 0], [0, 0, 0, 0, 0, 0, 0, 0, 0], [0, 0, 0, 0, 0, 0, 0, 0, 0], [0, 0, 0, 0, 0, 0, 0, 0, 0], [0, 0, 0, 0, 0, 0, 0, 0, 0], [0, 0, 0, 0, 0, 0, 0, 0, 0], [0, 0, 0, 0, 0, 0, 0, 0, 0], [0, 0, 0, 0, 0, 0, 0, 0, 0], [-7.5321539235817605, -7.520537843656326, -8.687843530793224, -7.372147180119113, -8.614855362608715, -7.251544623271471, 0.7740339704480774, -1.2194841343247242, 4.842584442345285], [0.15503600862607042, 1.469737360346977, -7.937187342929619, -8.021892640709641, -8.002989682698626, -7.812744769189418, 0.19171849778766226, 1.4821748889983482, 0.7608990816034673], [0, 0, 0, 0, 0, 0, 0, 0, 0], [-9.77687056593959, -3.3588548872141475, -9.84363058240843, -9.847894292001811, -9.816190133922191, -9.850541124205538, -2.697546097175355, -3.6157138260776396, 0.16803377489079635], [0, 0, 0, 0, 0, 0, 0, 0, 0], [0, 0, 0, 0, 0, 0, 0, 0, 0], [-9.694771238948443, -9.823087624044678, -9.80930045942994, -9.68269812479696, -9.716438596825373, -9.60465781644187, -0.7856163048704201, 0.15082933045408808, 0.19171720271816883], [-2.183677216288234, -8.644275994727654, -8.306901999437214, -7.8125970375750144, -9.434889154609758, -7.442284185837591, -1.5162153848969515, 0.9923288159793402, -0.7097057687281625], [-7.529859929608849, -8.286819682050798, -8.281854533646479, -8.835886155815103, -8.281003180010837, -9.288992844878209, -0.3293830593394991, -0.6210384695625222, -3.0843861159985337], [0, 0, 0, 0, 0, 0, 0, 0, 0], [2.9017688194035745, 3.0966039778657004, 4.326405537999339, -7.505206704235944, -7.505156238977312, -7.320505690016363, 3.293626438609042, 2.8819060229102753, 3.974801231645553], [-7.509960784918819, 2.8981814477525076, 1.1219499820445087, -8.259751533163904, -7.626396329699113, -7.748651668780985, 0.5778517892543703, 3.0715008931400227, 2.3739083614999017], [0, 0, 0, 0, 0, 0, 0, 0, 0], [2.7801191693256406, -8.109128125530827, 1.1220183778823702, -8.077012336103417, -8.05368796800111, -7.658353966406175, 3.5213940275970557, 2.694260147752429, 1.4816868391303633], [0, 0, 0, 0, 0, 0, 0, 0, 0], [-8.032422029510974, -7.615084552848994, 2.4695776991644944, -8.032691010998176, -7.5, -7.832569953444235, -2.4772490602091155, 0.1715031361165194, -1.5670513484226691], [0, 0, 0, 0, 0, 0, 0, 0, 0], [-7.758285788421524, -7.853974458729703, -2.25178410510326, -7.7728651154985915, -8.158084730930838, -7.85249748555716, 2.5860990390364886, 2.3253482698900005, -0.5576809983225749], [0, 0, 0, 0, 0, 0, 0, 0, 0], [0.32390397677717986, 3.155173540144006, -6.960246036376766, -7.156417621981913, -7.545351438716251, -7.029751808315401, 2.669211359817833, -1.6408044515769005, 2.302846318677675], [0, 0, 0, 0, 0, 0, 0, 0, 0], [-7.648219598864733, -1.570066289934392, -6.962621374060582, -6.9551110568866505, -7.272456571416578, -7.258430287262903, -1.3787423473419864, -1.8098551197519859, 3.057450228368773], [0, 0, 0, 0, 0, 0, 0, 0, 0], [0, 0, 0, 0, 0, 0, 0, 0, 0], [-7.521132746746189, -7.538175812965529, -7.038603806956965, -7.526953331902057, -8.211051920037633, -7.5659635969239565, -0.3183079870563503, -2.0208784032132803, -1.1189509964234012], [0.5625044382466968, -6.466073233181197, -6.974021714344435, -7.2747919629461055, -7.043142516356528, -7.185667075267941, 2.172013467390708, 2.579658578021676, 3.378725281236809], [-7.852795590495782, -7.6704887772319506, -7.742580486302396, -7.575523305041198, -7.58281655050667, -7.451346604965669, -1.8935793727190167, 0.7671830862909013, 3.6578698809376275], [0, 0, 0, 0, 0, 0, 0, 0, 0], [0, 0, 0, 0, 0, 0, 0, 0, 0], [-9.034018968406606, 2.6692371358719353, -8.089411902651928, -7.573576479529379, -8.435935991354055, -8.780448356503324, 2.370777517097787, -0.21849338744926916, -1.0000243667923143], [0, 0, 0, 0, 0, 0, 0, 0, 0], [1.1811452773068956, -8.801017843185704, -8.869576950602609, -8.449551842650695, -8.957886988245228, -8.846743487242076, 1.8062821206356041, 0.1716032561111476, 0.8568854045585766], [-8.338141270420756, -8.798394998523321, -8.835100535842452, -8.779420501374965, -7.853474181985134, -8.820046513331576, -1.2640185725247353, 2.8926459266584574, 1.311484207773412], [0, 0, 0, 0, 0, 0, 0, 0, 0], [0, 0, 0, 0, 0, 0, 0, 0, 0], [0, 0, 0, 0, 0, 0, 0, 0, 0], [0, 0, 0, 0, 0, 0, 0, 0, 0], [3.0916030139105986, 3.1576984456129154, 3.266319025169487, 3.0027840347325094, 3.4743808349022727, -6.75078333587262, 2.917333981851657, 3.086193018133385, 2.8516486564506036], [-6.954418479357406, 2.938654078676234, 3.500453647476745, 3.018199498839005, 2.6853373594726273, -7.692803546281424, 2.59561444251639, 3.219734305806599, 2.990559952349793], [0, 0, 0, 0, 0, 0, 0, 0, 0], [2.2946924980383594, -7.189588197809329, 3.339050127959789, 2.2301835935274417, 2.341477311606999, -7.443715828661604, 2.908327985389196, 2.749648980457379, 3.275258064589007], [0, 0, 0, 0, 0, 0, 0, 0, 0], [-7.415377716360046, -7.137773838862177, 2.2471887952029856, 2.7823187673694907, 3.0726441633259305, -7.451009761720229, 3.071874455887216, 2.1490158699976654, 2.1983035105444015], [0, 0, 0, 0, 0, 0, 0, 0, 0], [-7.790520271797647, -7.392123927912289, 2.5977078377075515, 3.2142945698861576, 3.4861495674535794, -7.779602983859612, 2.855733515289903, 3.243462545961948, 2.339183426373764], [0, 0, 0, 0, 0, 0, 0, 0, 0], [2.6922074750841993, 3.2135125842348256, -7.389818118896347, 2.3995600283058867, 2.6918676645774546, -7.3942873956472726, 2.8886156659537385, 3.8239040448400425, 3.8457326694407588], [0, 0, 0, 0, 0, 0, 0, 0, 0], [-7.777513578211224, 0.6364262406150806, -7.276500108030436, 2.3141807075588954, 4.094761933491816, -7.777387895918303, 1.4181711066092497, 3.350208978704285, 2.6969703566883476], [0, 0, 0, 0, 0, 0, 0, 0, 0], [0, 0, 0, 0, 0, 0, 0, 0, 0], [-8.129552803306403, -8.00268034327194, -8.0824184057586, 2.909324487631736, 1.0772852841642702, -8.040359861064694, 1.7487759742265934, 1.8283674912013161, 2.9418124738626013], [2.6362805453235456, -7.437726478930562, -7.7774397330958775, 2.558707810632214, 3.4421267209653124, -7.580096458150112, 3.3595077039033034, 2.6259829972851065, 3.361894895484085], [-7.521899791864563, -8.21716335595205, -8.115882923304945, 3.382524742970454, 2.085739323412373, -8.184846262516999, 2.5664884237532415, 1.9204216583304252, 2.92981537932332], [0, 0, 0, 0, 0, 0, 0, 0, 0], [0, 0, 0, 0, 0, 0, 0, 0, 0], [-7.810331823495796, -0.2981117007213838, -7.431140912144022, 3.263713537756095, 4.264658990022394, -6.9062779732847215, 2.637997480662568, -1.927446097941689, 3.3242360608478982], [0, 0, 0, 0, 0, 0, 0, 0, 0], [3.661264279848314, -7.779996263842493, -7.556333422903227, 2.9169515814994096, 2.9607953293436116, -7.782420140965111, 2.582573972012036, -0.5061898511015336, 2.6987428195174106], [-8.822145034625944, -7.99565151603896, -7.609687640970261, 2.222619924068612, 0.4829058429104724, -7.599588309948027, 3.716818699733868, 1.0139671514012876, -0.0993886568181479], [0, 0, 0, 0, 0, 0, 0, 0, 0], [0, 0, 0, 0, 0, 0, 0, 0, 0], [0, 0, 0, 0, 0, 0, 0, 0, 0], [0, 0, 0, 0, 0, 0, 0, 0, 0], [2.4066851133993694, 3.2292130181335392, 2.6485039402090824, -7.681715897450002, 2.9159183607842722, -7.413434058443642, 3.5842686785815543, 3.3572554431750827, 4.337466337570776], [0, 0, 0, 0, 0, 0, 0, 0, 0], [-8.216333565062618, 2.6443217304934703, 2.2123042576270024, -8.202693400100237, 2.57276469279484, -8.20621043687195, 2.5080332951786035, 2.5315561191473437, 2.1179364262917164], [0, 0, 0, 0, 0, 0, 0, 0, 0], [0, 0, 0, 0, 0, 0, 0, 0, 0], [-7.997907270813194, -8.084618172819525, 3.005829734501032, -7.569956090736908, 1.653215728120892, -8.010897580261581, 2.1856708960193094, 1.5766465376497354, 1.5405933626708839], [3.2352981598953425, -7.32634477945563, 2.3805846120078558, -7.7773728230236605, 3.069539268739198, -7.194777778275295, 4.065897385877065, 2.370687795042153, 2.3264416078227765], [-7.889350997920469, -7.534363450319356, -3.8265363422210337, -7.531980999574978, 1.8610031512077418, -7.566507267727726, 3.4072446724916188, -1.5934402482290735, 2.6747303139000262], [0, 0, 0, 0, 0, 0, 0, 0, 0], [0, 0, 0, 0, 0, 0, 0, 0, 0], [0, 0, 0, 0, 0, 0, 0, 0, 0], [-8.03373347962132, 2.0581701275308775, -8.106380399418224, -7.806862761643462, 1.1853998265195353, -7.838156303274565, 2.106679695930626, 1.7018870349918211, 2.3897938139455346], [0, 0, 0, 0, 0, 0, 0, 0, 0], [0, 0, 0, 0, 0, 0, 0, 0, 0], [0, 0, 0, 0, 0, 0, 0, 0, 0], [2.2976404736171574, -8.04118606447134, -7.578349879644286, -8.011005690664147, 2.3668601287426068, -8.038173502466261, 1.7239885284782233, 3.5440604475821864, 3.0825506371104825], [0, 0, 0, 0, 0, 0, 0, 0, 0], [-7.708035053092335, -7.644694095469896, -7.9688443192610725, -7.872813510523843, 2.876625695548104, -7.725149696412586, 2.2403829828118687, 2.3577444450557743, 2.3304625840428486], [0.7909805137202233, 0.24001743191039782, -7.504459045129556, -7.4023507389173036, -1.9046037702749206, -7.338565925173507, 0.38315597693874137, 2.2604869209270833, 3.5285307933944656], [-7.528743113463485, 3.623655393133129, -7.699397527600638, -7.461564988844854, -1.9579436283093954, -7.59951823155477, 2.804310759396388, 3.3942480906640045, -0.28491075685276246], [0, 0, 0, 0, 0, 0, 0, 0, 0], [1.7380074906958227, -8.041423387672328, -7.952734231341653, -7.59515978637341, 1.85049231099018, -7.65548608652582, 4.742975607424457, 3.500644415437925, -1.1509716997611723], [0, 0, 0, 0, 0, 0, 0, 0, 0], [-7.7905605149318395, -7.8839932476373455, -7.853137455735512, -8.335644738095326, 2.497575245399699, -7.894194593063228, 2.9657223531220223, -1.9573939480554035, 1.2533827645653473], [0, 0, 0, 0, 0, 0, 0, 0, 0], [-7.27891174959475, -7.354496802060521, -6.663362565960252, -7.241853698661686, -1.6673946726578113, -7.262396821931878, 3.101281412663301, 4.441931493662995, 4.668530768656655], [0, 0, 0, 0, 0, 0, 0, 0, 0], [0, 0, 0, 0, 0, 0, 0, 0, 0], [-7.712223341194331, 2.938608864760164, 2.9845352021080984, -7.368061872316451, 3.905097262531507, -7.228948533258997, 0.8928408910664986, -2.0030980143518176, 2.6537045256460816], [0, 0, 0, 0, 0, 0, 0, 0, 0], [-2.1307731700346735, -7.792614336510576, 3.7265215764601862, -7.746538709647975, 2.897364718289741, -7.603970841642692, 2.734679021053733, 2.0928732977536275, -1.8735978805608506], [-7.55042502269794, -7.3335966498314775, 1.3769773120649385, -7.44815450314524, 0.19171786015325698, -7.4361397037843044, -0.22713201090720125, 0.3404871036952192, 3.3539377495951594], [0, 0, 0, 0, 0, 0, 0, 0, 0], [0, 0, 0, 0, 0, 0, 0, 0, 0], [0, 0, 0, 0, 0, 0, 0, 0, 0], [0, 0, 0, 0, 0, 0, 0, 0, 0], [3.1076738982129966, 0.5335948967296863, -7.780885603649061, -6.944925337097379, 3.9814032790651677, -6.990393330300213, 0.21233706232314487, 2.7519479846510277, -0.05867724594852475], [-7.520442817790715, 3.095608695132766, -7.24666137743061, -7.434284255461523, -1.0809213220137595, -7.527309431796067, -1.6477098769092342, 2.369115567302199, -0.202701711017637], [0, 0, 0, 0, 0, 0, 0, 0, 0], [2.4953297402616643, -6.897816930998857, -7.594685309798484, -7.539366587976092, -1.0602716352840331, -7.438797020443331, -2.1162028214148476, 1.7327504151021191, 0.9660166333987164], [0, 0, 0, 0, 0, 0, 0, 0, 0], [-7.630277423201828, -7.607742080624684, -7.431397625598011, -7.729687722586103, 1.71841795255829, -5.848573024983809, 2.058859063752948, -1.9907680233091014, 0.17213189491855502], [0, 0, 0, 0, 0, 0, 0, 0, 0], [-8.714624946117228, -7.60379399021075, -7.757142688125176, -7.093450960000805, 2.590098131718446, -6.978560104104662, 2.2749901651875843, -2.5226159699977235, 2.795029853416674], [0, 0, 0, 0, 0, 0, 0, 0, 0], [0, 0, 0, 0, 0, 0, 0, 0, 0], [0, 0, 0, 0, 0, 0, 0, 0, 0], [0, 0, 0, 0, 0, 0, 0, 0, 0], [0, 0, 0, 0, 0, 0, 0, 0, 0], [-6.12573604559071, -7.8142720529371505, -7.426211914900858, -9.651016944997115, -2.0577416802449964, -9.517253624988975, -2.7198363940855863, 0.020211896439914945, -1.7825546586073635], [0, 0, 0, 0, 0, 0, 0, 0, 0], [0, 0, 0, 0, 0, 0, 0, 0, 0], [0, 0, 0, 0, 0, 0, 0, 0, 0], [0, 0, 0, 0, 0, 0, 0, 0, 0], [2.840402654677293, 3.354370897574614, 3.038542667049107, 3.757216730539618, -7.020609293258844, -6.854808284218786, 3.2603657347604345, 3.360396749527591, 2.830004946581509], [0, 0, 0, 0, 0, 0, 0, 0, 0], [-7.781414152792697, 3.705591007329738, 3.140425953538598, 2.2789595103380287, -7.729042824159732, -6.939265258243095, 3.495299701900664, 3.125340410572483, 2.5306431513893743], [0, 0, 0, 0, 0, 0, 0, 0, 0], [0, 0, 0, 0, 0, 0, 0, 0, 0], [-8.081762840947338, -7.535671955852802, 4.462007859241868, 2.4807612908723167, -7.529472285146589, -7.537290889305478, -1.7018618863833441, 2.7300887163285728, 3.9840313174137045], [3.985214543332324, -7.6334996799514245, 2.7972369845917946, 3.1235244935240427, -7.778444632259337, -7.513260801342369, 3.294139990586063, 2.550828254225209, 2.925754460151543], [-7.586376554554362, -7.524294546274034, 2.2151316975632596, 3.4888262334829756, -7.804416505425468, -6.989004639988572, -0.05229668315222491, 2.1399495632918533, 3.576084124171375], [0, 0, 0, 0, 0, 0, 0, 0, 0], [0, 0, 0, 0, 0, 0, 0, 0, 0], [0, 0, 0, 0, 0, 0, 0, 0, 0], [-6.829519753477723, 0.8652677424727031, -7.5848886350907705, 5.081518001010613, -7.510684783695661, -7.522867319906357, 1.7019045186348651, -2.0847044324861885, 1.3832350225688095], [0, 0, 0, 0, 0, 0, 0, 0, 0], [0, 0, 0, 0, 0, 0, 0, 0, 0], [0, 0, 0, 0, 0, 0, 0, 0, 0], [0.44810073833129116, -7.44994236284161, -6.897837717674929, 3.0833769347089266, -7.082388904828833, -7.5911595573162955, 2.370776706098483, -1.5930418185380117, -1.8238654221394532], [0, 0, 0, 0, 0, 0, 0, 0, 0], [-6.6566506815206035, -7.2511466227016665, -7.238576009880442, 2.469577697495927, -7.248820293809073, -7.257500374692595, 3.2439246744341093, 2.920372277260535, 2.513299352170665], [-2.0553159188723393, -1.9887319660610665, -7.778444083272712, -0.1018684184354357, -7.222566345449433, -7.7774545532643415, -2.000861636488045, -1.8334976649785555, 3.559359982517509], [-7.060938477572341, 3.557661023615846, -7.537863932213256, 3.0852919636787433, -7.374092697297621, -7.066703389312851, 3.6939623134583606, -1.7269784194529334, -1.0698043032465885], [0, 0, 0, 0, 0, 0, 0, 0, 0], [-1.4996766725593302, -7.559006392621215, -7.133742737782594, 3.1542756803112493, -7.4971660069338855, -7.5106533845759085, 3.302733430350058, 2.534307524232265, -1.127615993557354], [0, 0, 0, 0, 0, 0, 0, 0, 0], [-7.198233344644648, -7.564633493763527, -7.2815002949906145, -2.1424517387189237, -7.265785930249493, -7.12502283201076, 0.581122225445626, 6.143248494907018, 3.2617219584542765], [0, 0, 0, 0, 0, 0, 0, 0, 0], [-7.181418850676218, -6.754055206011234, -7.260734150564115, 1.0651969472169616, -7.26301169090932, -7.260086423709682, -1.789412431187531, -2.1456296654883964, 6.289243861641742], [0, 0, 0, 0, 0, 0, 0, 0, 0], [0, 0, 0, 0, 0, 0, 0, 0, 0], [0, 0, 0, 0, 0, 0, 0, 0, 0], [-7.879794581386619, 2.8686626406280515, 1.1934642811564855, -7.816376387874316, -8.05621543916845, -7.332729814082327, 2.583901066317786, 2.5505323817887438, 2.13197603059502], [0, 0, 0, 0, 0, 0, 0, 0, 0], [0, 0, 0, 0, 0, 0, 0, 0, 0], [0, 0, 0, 0, 0, 0, 0, 0, 0], [3.008948597832945, -8.009403587416205, 1.3030950257170721, -7.716892722623733, -7.264126800680577, -7.989321128217215, 2.7567313492346717, 2.9213640885554915, 2.922249759614607], [0, 0, 0, 0, 0, 0, 0, 0, 0], [-7.496027697148557, -8.028131539378364, 2.9504892391651647, -7.765204458664038, -7.8181432231786285, -7.7053806047037305, 3.0684302880666205, 1.1387607869599052, 2.397331503554703], [0, 0, 0, 0, 0, 0, 0, 0, 0], [0, 0, 0, 0, 0, 0, 0, 0, 0], [0, 0, 0, 0, 0, 0, 0, 0, 0], [0, 0, 0, 0, 0, 0, 0, 0, 0], [0, 0, 0, 0, 0, 0, 0, 0, 0], [0, 0, 0, 0, 0, 0, 0, 0, 0], [0, 0, 0, 0, 0, 0, 0, 0, 0], [0, 0, 0, 0, 0, 0, 0, 0, 0], [-7.318348039125295, -7.4605718564139165, -7.530091957755692, -6.802754160804916, -7.452613024551986, -7.601366630790151, 2.424632101656581, 2.7759193986835635, 4.05405990694798], [1.8223637117299516, 3.0625461375437215, -7.628308424477283, -7.547997983702176, -7.959951837450189, -7.973144834034713, 1.3958415873713594, 1.8843265355467884, -1.1807834000604558], [0, 0, 0, 0, 0, 0, 0, 0, 0], [-7.768542603301189, 1.3069361463683165, -7.75669170747196, -7.962182808933009, -8.321571569487439, -7.01081230700258, -2.7489473116309435, 2.3862191276387668, 1.1657449278901957], [0, 0, 0, 0, 0, 0, 0, 0, 0], [0, 0, 0, 0, 0, 0, 0, 0, 0], [-7.523068465084636, -8.297282124533178, -8.154846548862597, -8.095590634988062, -7.987084539923128, -8.269723077345304, -0.3023303488166118, 1.728712930099639, 6.613306191082246], [2.9390999173915855, -7.7981285181945115, -7.430469749550685, -7.457472220058241, -7.76984738447663, -7.0787646551558545, -1.772920656293481, 1.5645319516384804, 1.2380562387804321], [-7.822784088247724, -7.9415005790737645, -7.380089794864723, -8.000939273042272, -7.17381957762852, -7.522816815582589, 1.98675685980008, -2.050948210147931, -1.3002566113346121], [0, 0, 0, 0, 0, 0, 0, 0, 0], [2.8982743006788816, 3.280693667938993, 4.2396181137710665, -7.778173799767624, -7.383282376904122, -7.715746830599225, 3.168921197591355, 2.8524287152048036, 2.9693999361797916], [-7.002376603556188, -2.787676466146916, -3.1493256085077492, -7.402554595177795, -6.654827628559235, -7.639484379244815, 1.3234399349757588, 3.1478632067693644, 1.131853538546976], [0, 0, 0, 0, 0, 0, 0, 0, 0], [2.251226174355134, -7.120805956637241, -1.9901864864069416, -7.649894877326346, -7.269398151807606, -7.525288235696571, 0.3560963224493705, 1.9245854945069998, 1.2825011800437423], [0, 0, 0, 0, 0, 0, 0, 0, 0], [-7.238975275868434, -7.263649741558587, -2.1442927583254665, -6.971281857232507, -7.153143123176188, -7.511908802120713, 3.049265636134027, 3.3772390849042653, 0.09578616717677102], [0, 0, 0, 0, 0, 0, 0, 0, 0], [-7.029274046739998, -6.672355454640085, 3.0451379474773295, -6.672354767741984, -7.258311376280348, -6.962281642788092, 2.4695776990855514, 2.430800203817994, 2.9863612409568274], [0, 0, 0, 0, 0, 0, 0, 0, 0], [-1.754759887779445, -1.9438762773364857, -7.5852990038128105, -7.467202578818918, -7.119999148484807, -7.778492930663711, 2.83686803600947, 3.9500630993024286, -0.14834394598899014], [0, 0, 0, 0, 0, 0, 0, 0, 0], [-7.574339987438291, 0.8960973666899917, -7.3146301806914495, -7.496275953825226, -6.023666918478296, -7.18319095295926, 3.3335247262938177, 3.710049623283507, -2.1381105741281194], [0, 0, 0, 0, 0, 0, 0, 0, 0], [0, 0, 0, 0, 0, 0, 0, 0, 0], [-7.908960709152124, -9.172242979750756, -7.517213158344518, -8.634062872777992, -8.628362404300042, -7.5445243241697995, 0.19171848411149983, -2.154665577981036, 2.479661095130496], [3.1754368165782125, -7.304717679687466, -8.236559410425608, -7.3329647300483805, -7.31673279558272, -7.310721151948301, 3.1752945074990837, 2.5776426926717098, 2.9260568923093606], [-7.298378631100064, -7.527982552237654, -7.596995581932048, -7.34036033982246, -7.295111141256515, -6.479256609756597, 3.1289014510731556, -1.9148157932484244, -2.1899248161293885], [0, 0, 0, 0, 0, 0, 0, 0, 0], [0, 0, 0, 0, 0, 0, 0, 0, 0], [-7.371049042859602, -2.0214475390232867, -5.817768093287828, -7.45787887301716, -6.085110659077817, -7.149109697109633, 3.0576525627072515, -0.32349259065371183, 5.56895921417734], [0, 0, 0, 0, 0, 0, 0, 0, 0], [1.864114087153975, -6.349182945541356, -6.349021681419504, -7.184509337169809, -6.967141740384683, -7.435799583410708, 0.12561451307452143, 3.3052892216404315, 4.567491579283089], [-8.209417721777834, -7.214119714627296, -6.698494441946809, -8.667344379984224, -6.796336029877204, -7.100450246797781, -2.8349527590467316, -1.893792522678863, 0.0536344621420326], [0, 0, 0, 0, 0, 0, 0, 0, 0], [0, 0, 0, 0, 0, 0, 0, 0, 0], [0, 0, 0, 0, 0, 0, 0, 0, 0], [0, 0, 0, 0, 0, 0, 0, 0, 0], [0, 0, 0, 0, 0, 0, 0, 0, 0], [-7.548874756481495, -1.847093429037055, -1.775715578917547, 4.169117432891831, -7.777934621122124, -7.288917221166141, -0.4012335296633218, -1.9003461999027578, -0.5483055439702513], [0, 0, 0, 0, 0, 0, 0, 0, 0], [2.613034350441409, -7.729483654426028, -2.0266443307467883, 2.4992784111457027, -7.777380483731164, -7.674472659248423, 1.6209521654040036, 1.6482564439863496, 2.028391463344395], [-7.55930205624478, -7.181477421976977, 1.7893319851104856, -0.3448833409957819, -7.597998364018053, -7.526983143621974, -1.8231475123045704, -2.1042756266713827, -1.8756771866482222], [0, 0, 0, 0, 0, 0, 0, 0, 0], [0, 0, 0, 0, 0, 0, 0, 0, 0], [0, 0, 0, 0, 0, 0, 0, 0, 0], [0, 0, 0, 0, 0, 0, 0, 0, 0], [1.9160251662865369, 2.00258718004026, -7.777764019519929, 2.99065221692924, -7.608927589565192, -7.8056068582985905, 2.0823259582403173, 2.5064298095804345, 2.2987284177824128], [-7.271480393657705, 1.101527021385625, -7.537861251419924, -1.1193333919146007, -7.372275688744914, -7.527195175032158, 2.725234052476771, -1.8277908710452706, -1.6411751585691479], [0, 0, 0, 0, 0, 0, 0, 0, 0], [1.4086566965344751, -7.394706404463193, -7.581822966167962, -1.0772934411263528, -7.429064592829613, -7.466237721746067, -2.0585560260437656, -2.032493871289846, 2.410467647833177], [0, 0, 0, 0, 0, 0, 0, 0, 0], [-9.432616356453146, -9.28437620337127, -9.32633732228171, 0.9390527131083863, -9.736999655929301, -9.884979920516317, -2.829972178295667, -1.8724672104916658, -0.19313845444049305], [0, 0, 0, 0, 0, 0, 0, 0, 0], [-7.570962202356171, -7.429964258175803, -7.898573375594598, -2.0084060614997257, -4.998048111691591, -7.895398042481899, -3.293987613150893, 1.1789168417644418, 1.6453514537689413], [0, 0, 0, 0, 0, 0, 0, 0, 0], [0, 0, 0, 0, 0, 0, 0, 0, 0], [0, 0, 0, 0, 0, 0, 0, 0, 0], [0, 0, 0, 0, 0, 0, 0, 0, 0], [0, 0, 0, 0, 0, 0, 0, 0, 0], [-9.163369664271588, -9.357563828001133, -8.814887092420975, -3.2319300511949574, -9.39488203076778, -9.121909018144194, -2.5825508696644377, -2.0611651146619554, 1.0856558989931095], [0, 0, 0, 0, 0, 0, 0, 0, 0], [0, 0, 0, 0, 0, 0, 0, 0, 0], [0, 0, 0, 0, 0, 0, 0, 0, 0], [0, 0, 0, 0, 0, 0, 0, 0, 0], [3.009921100661486, 2.7297956491879853, 2.7556052035225913, -6.787556051586245, -7.196133264998014, -7.779709218898766, 2.1214393986200406, 3.216426728705871, 2.9452800064581792], [-7.569776491637849, 2.5345523772572927, 3.0298804937737582, -7.48256996284964, -7.417684808663172, -7.60290615568035, 2.7931437613931056, -2.0955982154288835, 1.6815029481225188], [0, 0, 0, 0, 0, 0, 0, 0, 0], [1.0610920723462431, -7.995408926813886, 1.1040718182661053, -8.022595602121935, -7.952366742225719, -7.989785533741863, 2.5962087697282374, 2.407362057451868, 3.933955793961393], [0, 0, 0, 0, 0, 0, 0, 0, 0], [-8.90452664412884, -8.9561182832647, 1.9670444628703405, -8.815979871770121, -8.935970643322218, -8.217617967192423, 2.7538557606036767, 0.17076414104448545, 1.1694040578149738], [0, 0, 0, 0, 0, 0, 0, 0, 0], [-7.254847037690837, -7.253206930497129, -1.742871475074455, -7.1821853325611915, -7.137080807947219, -7.268642368273874, 3.10345583896165, 1.7566053231922454, 0.4382181897597155], [0, 0, 0, 0, 0, 0, 0, 0, 0], [2.315129545817337, 1.1958448642085513, -7.5288328869751755, -7.859811226003902, -7.93696175688257, -7.603352326213055, 3.1623352781621277, 3.286877756211119, 2.6632724559862906], [0, 0, 0, 0, 0, 0, 0, 0, 0], [-8.067743985435126, -2.4226969368754445, -6.303821394676039, -7.910967596083269, -8.904648567839484, -8.32455749376932, 0.04200691969737824, 2.4964695032249358, 2.1152662612503113], [0, 0, 0, 0, 0, 0, 0, 0, 0], [0, 0, 0, 0, 0, 0, 0, 0, 0], [-8.853592557026019, -8.827748877675564, -8.61524397853178, -8.804016798010142, -8.015215966403986, -8.56272161915405, 3.560683021249104, 1.312434632045711, 0.19067026724403324], [2.2012797026052606, -8.11623625500896, -7.427004443273637, -7.5622400485492065, -7.74836268232788, -8.500221465694109, -1.915710247273342, 1.7968259622063063, -2.4976002802401114], [-7.532020394792607, -7.269946944151664, -7.54627236940512, -7.646627196326304, -7.841928378025178, -7.514762597961772, 3.032562900284761, 1.0107123241911748, -1.7610869960370972], [0, 0, 0, 0, 0, 0, 0, 0, 0], [0, 0, 0, 0, 0, 0, 0, 0, 0], [-7.421151611890643, 1.418530113516235, -6.9740216839195535, -7.266620366358913, -7.090938731216635, -7.109157700926632, 3.0104410703373317, -0.2903291537278141, -0.5371974713603694], [0, 0, 0, 0, 0, 0, 0, 0, 0], [2.1543651818164262, -7.765658136384659, -7.894581442429461, -7.970529533483427, -7.982966880157541, -7.6910054876181135, 1.4077683582960694, -2.2230759177939734, 2.5885294749583334], [-7.530380835064855, -8.723227547297466, -9.18560338467785, -7.527916034157861, -9.61233009529796, -9.540274129442738, -0.5553830818764351, -2.6165597172274015, -0.968524217494948], [0, 0, 0, 0, 0, 0, 0, 0, 0], [0, 0, 0, 0, 0, 0, 0, 0, 0], [0, 0, 0, 0, 0, 0, 0, 0, 0], [0, 0, 0, 0, 0, 0, 0, 0, 0], [0, 0, 0, 0, 0, 0, 0, 0, 0], [0, 0, 0, 0, 0, 0, 0, 0, 0], [0, 0, 0, 0, 0, 0, 0, 0, 0], [0, 0, 0, 0, 0, 0, 0, 0, 0], [0, 0, 0, 0, 0, 0, 0, 0, 0], [0, 0, 0, 0, 0, 0, 0, 0, 0], [0, 0, 0, 0, 0, 0, 0, 0, 0], [0, 0, 0, 0, 0, 0, 0, 0, 0], [0, 0, 0, 0, 0, 0, 0, 0, 0], [0, 0, 0, 0, 0, 0, 0, 0, 0], [0, 0, 0, 0, 0, 0, 0, 0, 0], [0, 0, 0, 0, 0, 0, 0, 0, 0], [0, 0, 0, 0, 0, 0, 0, 0, 0], [0, 0, 0, 0, 0, 0, 0, 0, 0], [0, 0, 0, 0, 0, 0, 0, 0, 0], [0, 0, 0, 0, 0, 0, 0, 0, 0], [0, 0, 0, 0, 0, 0, 0, 0, 0], [0, 0, 0, 0, 0, 0, 0, 0, 0], [0, 0, 0, 0, 0, 0, 0, 0, 0], [0, 0, 0, 0, 0, 0, 0, 0, 0], [0, 0, 0, 0, 0, 0, 0, 0, 0], [0, 0, 0, 0, 0, 0, 0, 0, 0], [0, 0, 0, 0, 0, 0, 0, 0, 0], [0, 0, 0, 0, 0, 0, 0, 0, 0], [0, 0, 0, 0, 0, 0, 0, 0, 0], [0, 0, 0, 0, 0, 0, 0, 0, 0], [0, 0, 0, 0, 0, 0, 0, 0, 0], [0, 0, 0, 0, 0, 0, 0, 0, 0], [0, 0, 0, 0, 0, 0, 0, 0, 0], [-7.152764655958888, 3.144705740491526, 2.7964377188307417, 2.121336847984388, 2.3419822566084094, 2.667120438476964, -7.582422351712383, 2.8051578571786777, 2.0648841456164346], [0, 0, 0, 0, 0, 0, 0, 0, 0], [0, 0, 0, 0, 0, 0, 0, 0, 0], [0, 0, 0, 0, 0, 0, 0, 0, 0], [2.755785505880708, -6.991307858822693, 2.882325949994372, 3.6283370771023167, 2.527365973833982, 3.40283392943174, -7.068115360223329, 2.952118564255238, 2.816484564558923], [0, 0, 0, 0, 0, 0, 0, 0, 0], [-7.779426892635496, -7.7820944128141765, 3.609384138629764, -1.8053255303959908, 0.607652795609435, -2.0037261995551487, -7.137292418465089, 1.9060049482257175, 0.3966525680588142], [0, 0, 0, 0, 0, 0, 0, 0, 0], [0, 0, 0, 0, 0, 0, 0, 0, 0], [0, 0, 0, 0, 0, 0, 0, 0, 0], [0, 0, 0, 0, 0, 0, 0, 0, 0], [0, 0, 0, 0, 0, 0, 0, 0, 0], [0, 0, 0, 0, 0, 0, 0, 0, 0], [0, 0, 0, 0, 0, 0, 0, 0, 0], [0, 0, 0, 0, 0, 0, 0, 0, 0], [-7.0496112121197605, -7.485930763942803, -7.95929343533083, 3.1429352402273505, 2.328004425228253, -1.8376498620531865, -6.833210861663515, 3.377900105437968, -1.9058762569386054], [2.537271443525238, 2.7031285006033015, -7.040494161945925, 3.0858538763311154, 3.124067368453626, 3.2842439382939164, -7.957967943727885, 3.146675381121766, 2.3719321561448323], [0, 0, 0, 0, 0, 0, 0, 0, 0], [-7.7949357488054725, 2.7653459412106023, -7.4849638664161935, -2.044906039252597, -2.3809148714315316, 2.228897435104143, -7.7730802633126, -3.308575489969038, 1.9560820990644487], [0, 0, 0, 0, 0, 0, 0, 0, 0], [0, 0, 0, 0, 0, 0, 0, 0, 0], [-8.450765522909979, -7.147515261292314, -8.206059614811473, 2.024889336287024, 2.1304556642428962, 3.236796961520631, -7.755548599233352, 1.4361856450425141, 2.072873407352907], [3.168473588053031, -7.029598799231692, -7.274568103172699, 2.7784877463646387, 1.6921103410011278, -2.5773886610610877, -6.897534686259854, 2.894812851281361, 2.7290941135140336], [-7.50927503341361, -6.760010009037696, -7.645012134361917, 2.712800838680315, -1.7739765978998205, -2.626066480729359, -7.499812025315328, 1.4986366860805733, -1.9436762511256955], [0, 0, 0, 0, 0, 0, 0, 0, 0], [0, 0, 0, 0, 0, 0, 0, 0, 0], [0, 0, 0, 0, 0, 0, 0, 0, 0], [0, 0, 0, 0, 0, 0, 0, 0, 0], [0, 0, 0, 0, 0, 0, 0, 0, 0], [0, 0, 0, 0, 0, 0, 0, 0, 0], [0, 0, 0, 0, 0, 0, 0, 0, 0], [0, 0, 0, 0, 0, 0, 0, 0, 0], [0, 0, 0, 0, 0, 0, 0, 0, 0], [-8.566153278656426, -8.072357847604714, -0.41429038953616737, -8.149954897161132, 1.0688439772400011, 3.003734288822206, -8.043177507720781, 1.5576349877510136, 1.490143602817041], [0, 0, 0, 0, 0, 0, 0, 0, 0], [0, 0, 0, 0, 0, 0, 0, 0, 0], [0, 0, 0, 0, 0, 0, 0, 0, 0], [0, 0, 0, 0, 0, 0, 0, 0, 0], [0, 0, 0, 0, 0, 0, 0, 0, 0], [0, 0, 0, 0, 0, 0, 0, 0, 0], [0, 0, 0, 0, 0, 0, 0, 0, 0], [0, 0, 0, 0, 0, 0, 0, 0, 0], [0, 0, 0, 0, 0, 0, 0, 0, 0], [0, 0, 0, 0, 0, 0, 0, 0, 0], [0, 0, 0, 0, 0, 0, 0, 0, 0], [-7.719953208132008, -1.1909033512135883, -7.624882768232136, -7.946500844400234, 2.191020799096344, 2.9892748155490168, -7.67968835222468, 2.4828679645939036, 0.6807493121048251], [0, 0, 0, 0, 0, 0, 0, 0, 0], [0, 0, 0, 0, 0, 0, 0, 0, 0], [0, 0, 0, 0, 0, 0, 0, 0, 0], [0.19171849792552875, -6.594549730438683, -7.604398272149673, -7.582433854500328, 1.4758581085190952, 2.3547201453259823, -7.699694070101404, -0.42688970327615905, 2.047912408211383], [0, 0, 0, 0, 0, 0, 0, 0, 0], [0, 0, 0, 0, 0, 0, 0, 0, 0], [2.822384706502123, 3.2950226634796156, 2.8891831333323417, -7.263852477538272, 2.89539610428245, 2.6678809965966854, -7.22506917334936, 2.634312895786609, 2.8625519364640084], [0, 0, 0, 0, 0, 0, 0, 0, 0], [-7.2666354153898585, 2.6616206816243126, 3.46555083644113, -7.2064329419785, 3.172000895448263, 2.2531928532953556, -7.3320392740615805, 2.298396845769325, 2.7618368122911736], [0, 0, 0, 0, 0, 0, 0, 0, 0], [0, 0, 0, 0, 0, 0, 0, 0, 0], [-7.776179120733583, -7.701270228793064, 2.477186087733692, -7.950446532665924, 2.4612008901793834, 3.0779666738166624, -5.0, 2.2226199292173368, 3.584517500169897], [2.6409104985886893, -6.936694328586535, 4.282411646636827, -7.493207974884678, 2.843146868737962, 3.0428421708624986, -7.778106029574047, 3.538560969863753, 3.8051052703047716], [-7.96701502507414, -7.812727358149816, 2.893382855408035, -7.735475072974654, 2.2226198392979493, 2.008922028222956, -7.954295383651587, 2.0487415210308786, 1.9698005594028332], [0, 0, 0, 0, 0, 0, 0, 0, 0], [0, 0, 0, 0, 0, 0, 0, 0, 0], [0, 0, 0, 0, 0, 0, 0, 0, 0], [-7.58213381852093, 0.013305663778519161, -7.528243827524735, -7.451352018505546, 3.389954108590865, 4.16342648442171, -7.001307457695592, 0.5633922467282138, -1.874955736092456], [0, 0, 0, 0, 0, 0, 0, 0, 0], [0, 0, 0, 0, 0, 0, 0, 0, 0], [0, 0, 0, 0, 0, 0, 0, 0, 0], [3.9949769462929194, -7.449312158670393, -6.878783913769702, -6.265231234879062, 1.7037320531098388, 4.060231856088508, -6.589124698496947, 3.2163254209556493, -1.5130495598666556], [0, 0, 0, 0, 0, 0, 0, 0, 0], [-7.5387237162076595, -7.2312007206050195, -7.289909893105945, -6.9356583044744955, 3.0349356563670904, 2.8957952113837546, -6.623591615931396, 5.164629026868634, 1.7551043948043825], [3.0769259812188174, 2.781444719876246, -7.41134431748575, -7.777390108319571, 2.8793490720636465, 1.9813969088529544, -7.173281505476252, 3.419109365506448, 3.453105295934498], [-7.14306855242452, 2.222619929060583, -8.011754483269309, -8.114699258215026, 1.1647316224915654, 1.5964183207912224, -7.558711310507723, 2.193405043002806, 1.1220090604711932], [0, 0, 0, 0, 0, 0, 0, 0, 0], [2.8138588014970853, -7.752643592354959, -7.149447421343393, -7.799692316378902, 2.0054249433337397, 3.6752144237199453, -8.128990919061804, 2.83033836778897, 1.589549140428098], [0, 0, 0, 0, 0, 0, 0, 0, 0], [-8.01710148108503, -7.7337296672560605, -7.0720448134263085, -8.114057514487332, 2.2202538995208885, 1.172417421551447, -8.07641139189247, 4.261437092688866, 1.8558930587934945], [0, 0, 0, 0, 0, 0, 0, 0, 0], [-7.908270140757042, -9.074914322627032, -7.893636217033017, -4.126240619148673, 2.8567159862830356, 1.8483867709988882, -7.517367651021408, 3.826311125346796, 0.8274202044651797], [0, 0, 0, 0, 0, 0, 0, 0, 0], [0, 0, 0, 0, 0, 0, 0, 0, 0], [0, 0, 0, 0, 0, 0, 0, 0, 0], [0, 0, 0, 0, 0, 0, 0, 0, 0], [0, 0, 0, 0, 0, 0, 0, 0, 0], [0, 0, 0, 0, 0, 0, 0, 0, 0], [0, 0, 0, 0, 0, 0, 0, 0, 0], [0, 0, 0, 0, 0, 0, 0, 0, 0], [0, 0, 0, 0, 0, 0, 0, 0, 0], [-7.955253885893596, -7.477039974362078, 0.19171848297971084, 3.1115617060883785, -7.349766082473247, -2.0370139344173257, -8.002664036253346, 0.3728162927930605, 1.3577718034986561], [0, 0, 0, 0, 0, 0, 0, 0, 0], [0, 0, 0, 0, 0, 0, 0, 0, 0], [0, 0, 0, 0, 0, 0, 0, 0, 0], [0, 0, 0, 0, 0, 0, 0, 0, 0], [0, 0, 0, 0, 0, 0, 0, 0, 0], [0, 0, 0, 0, 0, 0, 0, 0, 0], [0, 0, 0, 0, 0, 0, 0, 0, 0], [0, 0, 0, 0, 0, 0, 0, 0, 0], [0, 0, 0, 0, 0, 0, 0, 0, 0], [0, 0, 0, 0, 0, 0, 0, 0, 0], [0, 0, 0, 0, 0, 0, 0, 0, 0], [-7.993750176812761, 6.653638346961177, -7.861670274617637, 2.5729327507637993, -8.01169153560933, 0.9051754465082433, -7.854927958457672, 2.131892516110211, 2.5440615439058263], [0, 0, 0, 0, 0, 0, 0, 0, 0], [0, 0, 0, 0, 0, 0, 0, 0, 0], [0, 0, 0, 0, 0, 0, 0, 0, 0], [-0.385762138999288, -8.065376664251271, -8.063731007728707, 2.1059035825126258, -7.778065589629739, 2.2677090242861038, -7.733178302627383, 2.372253842860034, 2.4150281869945625], [0, 0, 0, 0, 0, 0, 0, 0, 0], [0, 0, 0, 0, 0, 0, 0, 0, 0], [0, 0, 0, 0, 0, 0, 0, 0, 0], [0, 0, 0, 0, 0, 0, 0, 0, 0], [0, 0, 0, 0, 0, 0, 0, 0, 0], [0, 0, 0, 0, 0, 0, 0, 0, 0], [0, 0, 0, 0, 0, 0, 0, 0, 0], [0, 0, 0, 0, 0, 0, 0, 0, 0], [0, 0, 0, 0, 0, 0, 0, 0, 0], [0, 0, 0, 0, 0, 0, 0, 0, 0], [0, 0, 0, 0, 0, 0, 0, 0, 0], [0, 0, 0, 0, 0, 0, 0, 0, 0], [0, 0, 0, 0, 0, 0, 0, 0, 0], [0, 0, 0, 0, 0, 0, 0, 0, 0], [0, 0, 0, 0, 0, 0, 0, 0, 0], [0, 0, 0, 0, 0, 0, 0, 0, 0], [0, 0, 0, 0, 0, 0, 0, 0, 0], [0, 0, 0, 0, 0, 0, 0, 0, 0], [0, 0, 0, 0, 0, 0, 0, 0, 0], [0, 0, 0, 0, 0, 0, 0, 0, 0], [0, 0, 0, 0, 0, 0, 0, 0, 0], [0, 0, 0, 0, 0, 0, 0, 0, 0], [0, 0, 0, 0, 0, 0, 0, 0, 0], [0, 0, 0, 0, 0, 0, 0, 0, 0], [0, 0, 0, 0, 0, 0, 0, 0, 0], [0, 0, 0, 0, 0, 0, 0, 0, 0], [0, 0, 0, 0, 0, 0, 0, 0, 0], [0, 0, 0, 0, 0, 0, 0, 0, 0], [0, 0, 0, 0, 0, 0, 0, 0, 0], [0, 0, 0, 0, 0, 0, 0, 0, 0], [0, 0, 0, 0, 0, 0, 0, 0, 0], [-7.618368913568111, 1.7013369221106753, 2.6969707028619627, -7.667912538502478, -7.927199555458747, -2.2895134169854146, -7.693131617962083, 3.5726665783724343, -2.0367899696018554], [0, 0, 0, 0, 0, 0, 0, 0, 0], [0, 0, 0, 0, 0, 0, 0, 0, 0], [0, 0, 0, 0, 0, 0, 0, 0, 0], [2.9004325174279497, -7.547938212216377, 3.1059454847566816, -7.566483467442239, -7.548756590359961, -2.1309821094704846, -7.628342869857918, 1.8006339099415771, -0.044023020347021324], [0, 0, 0, 0, 0, 0, 0, 0, 0], [-4.94375, -6.810931162799012, 3.090141536515576, -7.295925039753289, -7.009459386727972, -2.1522042166237774, -6.931198954253105, 2.001009902575791, 4.038806939117559], [0, 0, 0, 0, 0, 0, 0, 0, 0], [0, 0, 0, 0, 0, 0, 0, 0, 0], [0, 0, 0, 0, 0, 0, 0, 0, 0], [0, 0, 0, 0, 0, 0, 0, 0, 0], [0, 0, 0, 0, 0, 0, 0, 0, 0], [0, 0, 0, 0, 0, 0, 0, 0, 0], [0, 0, 0, 0, 0, 0, 0, 0, 0], [0, 0, 0, 0, 0, 0, 0, 0, 0], [0, 0, 0, 0, 0, 0, 0, 0, 0], [2.8052377318890516, 2.931744358060742, -8.170119067882418, -8.043542491332722, -8.094773652909359, 2.628414085205094, -8.01067841756683, 3.2010865189452984, 1.70190514475081], [0, 0, 0, 0, 0, 0, 0, 0, 0], [-7.820588788600176, 2.4779958088645966, -7.728080444843419, -7.690751993483123, -7.744861912597685, 1.8302737294922278, -7.808993974261218, -1.5945686638572043, 3.865075889602523], [0, 0, 0, 0, 0, 0, 0, 0, 0], [0, 0, 0, 0, 0, 0, 0, 0, 0], [-7.214119531605198, -7.782928183394009, -7.369584463830249, -7.508052721372556, -7.702712140134768, -2.607920807868476, -6.045101992268133, 2.6694549946514687, -1.6518075792274796], [3.400453607774396, -7.06402610105222, -7.703339471815928, -7.2516182214450104, -7.77379582644929, 1.60060036595351, -7.647547852054257, -2.1548093746346755, 2.2130151839138765], [-7.713056047112525, -6.9360780300189235, -6.897816725737583, -6.897853734746888, -7.560570972525914, 3.343992050502996, -7.704944054232923, -2.0393886825393026, 3.4554486417975885], [0, 0, 0, 0, 0, 0, 0, 0, 0], [2.857494052514727, 3.7228173901478967, 2.0972503594669987, 2.8867876579859404, -6.902826009383029, 2.847048322223642, -7.347974908426808, 2.8982189947712627, 3.420965736773584], [0, 0, 0, 0, 0, 0, 0, 0, 0], [-7.777445292257193, 2.4728997012384832, -1.9824783737572698, 2.2123138380437735, -7.7774213880298655, 0.34593611689321846, -7.707083846695644, -2.1173276095571767, 2.596150407608006], [0, 0, 0, 0, 0, 0, 0, 0, 0], [0, 0, 0, 0, 0, 0, 0, 0, 0], [-7.95276750811537, -7.905903249622457, 2.6798006448482132, 1.0805468153375724, -8.024207821869533, 2.555781973469616, -8.04511208354126, 1.3232072770260086, -0.9358183758750598], [2.4332970784941677, -6.895679159772782, -1.9528282250307876, -2.213733416544755, -7.777416928069744, -2.6065448895068206, -7.469234593396413, 3.4494549511704156, -2.0872458423820373], [-6.356326142994498, -7.2952681171968905, 2.7972652980721087, 2.38599341169542, -7.438550283498836, -1.655202961883805, -7.507280033376845, -0.34932507862480455, 1.695041165817863], [0, 0, 0, 0, 0, 0, 0, 0, 0], [0, 0, 0, 0, 0, 0, 0, 0, 0], [0, 0, 0, 0, 0, 0, 0, 0, 0], [-7.994189700131161, 2.2854022860686447, -8.423642197972864, 2.012458793334826, -8.265352990466702, 0.7383870488943637, -8.227098921026535, 0.8988491417340183, 4.812104557694219], [0, 0, 0, 0, 0, 0, 0, 0, 0], [0, 0, 0, 0, 0, 0, 0, 0, 0], [0, 0, 0, 0, 0, 0, 0, 0, 0], [1.2611553617223166, -8.040190091626823, -7.98605799885744, 1.442614335414066, -7.615940095052754, 5.327602044694004, -7.966449810895387, 0.19171612599432986, 1.4060584996423755], [0, 0, 0, 0, 0, 0, 0, 0, 0], [-7.366106848545029, -7.673470701919062, -6.9193548080882525, 2.084618611062453, -7.27891252033261, 4.3475544325207665, -7.596881399511147, 2.0499358347556593, 0.33876668844804003], [2.9878306775373558, 2.2064719457650446, -7.175366178906964, 3.4407184040150174, -7.778680851158746, 2.5801362012355717, -7.778564421854703, 1.913015134330999, 1.6693555847562995], [-7.475799085334229, 0.33099533483975674, -7.500156586388374, 2.574886721864831, -7.718189705044722, -1.547065211553064, -7.278661267077332, 3.302006687173999, 2.076497008532494], [0, 0, 0, 0, 0, 0, 0, 0, 0], [2.5161690312582956, -7.755089597100251, -7.766911302525933, 2.2502046393398882, -6.49253389694252, 2.2226199055510474, -7.9738859408122575, 2.068867756486626, 2.62878344538722], [0, 0, 0, 0, 0, 0, 0, 0, 0], [-7.779250966613551, -7.428836995059418, -7.385357227060027, 1.9017233586378564, -7.78711537727742, 1.181183289924379, -7.73834071376174, 2.7130412446701913, 3.0084447746452296], [0, 0, 0, 0, 0, 0, 0, 0, 0], [-6.765904300453057, -8.58117312550616, -7.273458620612471, 3.0928446751415564, -7.307595452316578, 2.003044944090666, -6.411182991512932, 2.7994726992810746, 1.9299783352540305], [0, 0, 0, 0, 0, 0, 0, 0, 0], [0, 0, 0, 0, 0, 0, 0, 0, 0], [0, 0, 0, 0, 0, 0, 0, 0, 0], [-8.582110770396856, 3.831587757899897, 1.8756261618206245, -8.077938820752816, -8.008215701884312, 1.662219566127867, -7.040628269572514, 3.100224426548162, 0.19171849795911478], [0, 0, 0, 0, 0, 0, 0, 0, 0], [0, 0, 0, 0, 0, 0, 0, 0, 0], [0, 0, 0, 0, 0, 0, 0, 0, 0], [0.36067123939477225, -7.568970531848658, 0.06576509647311557, -7.727676581768413, -7.745196394697817, 0.8660333042523712, -7.516626544891931, 0.1917173526097946, -1.7387814961153356], [0, 0, 0, 0, 0, 0, 0, 0, 0], [-7.909261053015982, -7.835818018910652, 0.16907221072615908, -7.615135467450601, -7.6586202617663846, 0.17231031372034145, -7.635063174029028, 0.21573627067216544, -2.421773850116505], [0, 0, 0, 0, 0, 0, 0, 0, 0], [0, 0, 0, 0, 0, 0, 0, 0, 0], [0, 0, 0, 0, 0, 0, 0, 0, 0], [0, 0, 0, 0, 0, 0, 0, 0, 0], [0, 0, 0, 0, 0, 0, 0, 0, 0], [0, 0, 0, 0, 0, 0, 0, 0, 0], [0, 0, 0, 0, 0, 0, 0, 0, 0], [0, 0, 0, 0, 0, 0, 0, 0, 0], [-9.829337393650125, -8.620592854595738, -9.53679451992125, -7.523589098767886, -9.245608794477546, -0.14827315403219776, -8.773586397740258, -0.9697542929497132, 4.701888038120812], [1.5106101668881404, 4.908971166877621, -7.603443489570845, -7.5719686780509505, -7.625360575030342, 3.55922670835436, -7.610523096180691, 2.840579151678413, 2.123034667154711], [0, 0, 0, 0, 0, 0, 0, 0, 0], [-7.906456183048327, 0.28216823891407183, -8.293039503098866, -8.177303117640367, -8.325972010994303, -3.3531317001437575, -8.399582911947796, -2.235032681682039, 1.8878415703663451], [0, 0, 0, 0, 0, 0, 0, 0, 0], [0, 0, 0, 0, 0, 0, 0, 0, 0], [-8.804486790624534, -8.65028961680725, -8.765139629554223, -8.919199934169022, -8.81177512275342, 4.470213218507963, -8.88078946780328, 1.0037174014276964, 0.19171849904536742], [3.4226838646287034, -7.256323518271843, -7.219618726824269, -7.265508659798343, -7.259267952991885, 0.5492569107133807, -7.262606925303505, 0.3349089909738381, -1.8214382146814176], [0, 0, 0, 0, 0, 0, 0, 0, 0], [0, 0, 0, 0, 0, 0, 0, 0, 0], [1.2359015253352683, 0.496812420985818, -2.303815657434079, -7.428842318318203, -7.942623880989321, 3.7176854961290813, -7.83112614704534, -1.9233533019129394, -3.541228462326555], [-8.252897818530032, 1.1660418405496185, 2.2195648175890224, -7.8394815935069495, -7.914166190469933, 0.19171849984420142, -8.08251515064164, 2.681391431532534, 1.4576177150402765], [0, 0, 0, 0, 0, 0, 0, 0, 0], [1.0886065154145739, -8.174661375324645, 1.8643198338299025, -8.725238093691013, -8.051925184470313, 1.6768811541473452, -7.988805293088261, 3.3315693717524164, 2.953613209624615], [0, 0, 0, 0, 0, 0, 0, 0, 0], [-7.900395326410337, -7.870098703360959, -0.49368493608496355, -7.835983992080257, -8.40936088807041, 0.8166660651800688, -8.244961003446727, 1.389380849633524, -2.2726012848233026], [0, 0, 0, 0, 0, 0, 0, 0, 0], [-7.777564289800128, -7.922013734673561, 0.17017560260185213, -7.149377861784414, -7.777264102131246, 1.1811555187078142, -8.048798461509126, 2.7438838711483298, -0.13902507091716654], [0, 0, 0, 0, 0, 0, 0, 0, 0], [2.0571411660937438, 3.1626171667934884, -6.806703437155299, -8.181972474345908, -7.91130689672489, 1.1428885181565906, -9.334272471489102, 0.9096082888354625, 2.104629172905261], [0, 0, 0, 0, 0, 0, 0, 0, 0], [-7.607020622435554, -1.1511040300362056, -6.996496196777217, -6.990208530446159, -7.0694708141740445, -1.7515514718045397, -6.961463001121476, -1.7990125823811665, 3.111485067336219], [0, 0, 0, 0, 0, 0, 0, 0, 0], [0, 0, 0, 0, 0, 0, 0, 0, 0], [-9.810618143831885, -9.824290190458637, -9.525737515874095, -9.75202439320497, -9.245590095635524, -0.3749208881020103, -9.792465014762989, 4.293410226150357, -1.0240255119068813], [-2.6684356102032245, -7.217732987038535, -8.003815150362678, -7.5993052662304095, -7.520344342526393, -0.07744709303569253, -7.989798751803138, 2.213543961435875, -3.2767682407890466], [-9.26507672033869, -5.0, -8.622356468287057, -7.4138740059182755, -9.341687087547097, 0.8576946756946282, -9.609038429620824, 4.771086864151732, 0.14897697220268472], [0, 0, 0, 0, 0, 0, 0, 0, 0], [0, 0, 0, 0, 0, 0, 0, 0, 0], [-8.714660701709064, 3.456499256695608, -8.05558834129472, -8.394786801951586, -8.061606466594153, 1.8131646906089982, -8.37189735878665, 2.848136329612111, 2.387059440314802], [0, 0, 0, 0, 0, 0, 0, 0, 0], [2.20355946074967, -7.980031842736682, -7.740736690188542, -7.986472570945136, -7.091721542808486, 1.5109309072640804, -7.89602115336291, 0.483685318495084, -2.0949130895006274], [-8.849895334614086, -6.899938956437831, -9.38533861856689, -8.871366155718796, -8.193097155584102, -0.3721931662954827, -8.832508640421743, 2.645164007804155, 0.17870571930924878], [0, 0, 0, 0, 0, 0, 0, 0, 0], [0, 0, 0, 0, 0, 0, 0, 0, 0], [0, 0, 0, 0, 0, 0, 0, 0, 0], [0, 0, 0, 0, 0, 0, 0, 0, 0], [0, 0, 0, 0, 0, 0, 0, 0, 0], [0, 0, 0, 0, 0, 0, 0, 0, 0], [0, 0, 0, 0, 0, 0, 0, 0, 0], [0, 0, 0, 0, 0, 0, 0, 0, 0], [0, 0, 0, 0, 0, 0, 0, 0, 0], [0, 0, 0, 0, 0, 0, 0, 0, 0], [0, 0, 0, 0, 0, 0, 0, 0, 0], [0, 0, 0, 0, 0, 0, 0, 0, 0], [-8.00310638756972, -7.365654288658025, 0.19171849904394134, 4.011411206492202, 1.8747909958707216, -8.002522562191707, -8.161716066002073, 1.4195615423245616, 1.976662785497515], [0, 0, 0, 0, 0, 0, 0, 0, 0], [0, 0, 0, 0, 0, 0, 0, 0, 0], [0, 0, 0, 0, 0, 0, 0, 0, 0], [0, 0, 0, 0, 0, 0, 0, 0, 0], [0, 0, 0, 0, 0, 0, 0, 0, 0], [0, 0, 0, 0, 0, 0, 0, 0, 0], [0, 0, 0, 0, 0, 0, 0, 0, 0], [0, 0, 0, 0, 0, 0, 0, 0, 0], [0, 0, 0, 0, 0, 0, 0, 0, 0], [0, 0, 0, 0, 0, 0, 0, 0, 0], [0, 0, 0, 0, 0, 0, 0, 0, 0], [-7.659508392337265, -1.0023517025596067, -7.874391070445096, 2.1433147944188864, 2.365652450316767, -8.03057540516333, -7.821126217873953, 2.0152380114760113, 1.9436069430486023], [0, 0, 0, 0, 0, 0, 0, 0, 0], [0, 0, 0, 0, 0, 0, 0, 0, 0], [0, 0, 0, 0, 0, 0, 0, 0, 0], [-0.2850380031686608, -8.16817083755294, -7.6779859613953585, 2.058819301767757, 3.0405752334389473, -8.104277975770565, -7.983861587440979, 2.2854386996520564, 3.2307606261145696], [0, 0, 0, 0, 0, 0, 0, 0, 0], [0, 0, 0, 0, 0, 0, 0, 0, 0], [0, 0, 0, 0, 0, 0, 0, 0, 0], [0, 0, 0, 0, 0, 0, 0, 0, 0], [0, 0, 0, 0, 0, 0, 0, 0, 0], [0, 0, 0, 0, 0, 0, 0, 0, 0], [0, 0, 0, 0, 0, 0, 0, 0, 0], [0, 0, 0, 0, 0, 0, 0, 0, 0], [0, 0, 0, 0, 0, 0, 0, 0, 0], [0, 0, 0, 0, 0, 0, 0, 0, 0], [0, 0, 0, 0, 0, 0, 0, 0, 0], [0, 0, 0, 0, 0, 0, 0, 0, 0], [0, 0, 0, 0, 0, 0, 0, 0, 0], [0, 0, 0, 0, 0, 0, 0, 0, 0], [0, 0, 0, 0, 0, 0, 0, 0, 0], [0, 0, 0, 0, 0, 0, 0, 0, 0], [0, 0, 0, 0, 0, 0, 0, 0, 0], [0, 0, 0, 0, 0, 0, 0, 0, 0], [0, 0, 0, 0, 0, 0, 0, 0, 0], [0, 0, 0, 0, 0, 0, 0, 0, 0], [0, 0, 0, 0, 0, 0, 0, 0, 0], [0, 0, 0, 0, 0, 0, 0, 0, 0], [0, 0, 0, 0, 0, 0, 0, 0, 0], [0, 0, 0, 0, 0, 0, 0, 0, 0], [0, 0, 0, 0, 0, 0, 0, 0, 0], [0, 0, 0, 0, 0, 0, 0, 0, 0], [0, 0, 0, 0, 0, 0, 0, 0, 0], [0, 0, 0, 0, 0, 0, 0, 0, 0], [0, 0, 0, 0, 0, 0, 0, 0, 0], [0, 0, 0, 0, 0, 0, 0, 0, 0], [0, 0, 0, 0, 0, 0, 0, 0, 0], [-7.419277791100816, 2.6550962057450125, 2.543516861938769, -7.654649458493962, 2.9415993775630715, -8.04700942015334, -7.685526888199663, 2.884408390115854, 3.636198111135534], [0, 0, 0, 0, 0, 0, 0, 0, 0], [0, 0, 0, 0, 0, 0, 0, 0, 0], [0, 0, 0, 0, 0, 0, 0, 0, 0], [2.3460898388713733, -7.581504501586736, 2.484954174370035, -8.026989520501639, 2.2226196888772636, -8.366357475845247, -6.749362467232913, 3.689422133874142, 1.3659115841307723], [0, 0, 0, 0, 0, 0, 0, 0, 0], [-8.341674856466842, -6.378993544113062, 4.292244924443352, -8.51459071969045, -2.2988794490432727, -7.1510891425853025, -6.4493369908761515, -2.2252967888792936, -2.1718039912093046], [0, 0, 0, 0, 0, 0, 0, 0, 0], [0, 0, 0, 0, 0, 0, 0, 0, 0], [0, 0, 0, 0, 0, 0, 0, 0, 0], [0, 0, 0, 0, 0, 0, 0, 0, 0], [0, 0, 0, 0, 0, 0, 0, 0, 0], [0, 0, 0, 0, 0, 0, 0, 0, 0], [0, 0, 0, 0, 0, 0, 0, 0, 0], [0, 0, 0, 0, 0, 0, 0, 0, 0], [-7.5685440481487865, -7.536534194024904, -7.677699795857507, -7.64375787576443, 3.149860562231531, -7.267582349526096, -7.511745714162758, -0.3647080156412985, -1.7852948036007297], [2.3926504111426192, 1.701686138083386, -8.088747724077429, -7.86383076644519, 2.192879746085784, -8.012225463118954, -8.2504107314083, 1.4214455039805673, 1.6328680845399521], [0, 0, 0, 0, 0, 0, 0, 0, 0], [-7.7194572463513165, 2.2271540748087233, -8.085408881460324, -7.801876816474533, -1.9829239084249106, -7.7772486065853474, -7.783767115796712, -0.06272054757366918, -2.534179414794722], [0, 0, 0, 0, 0, 0, 0, 0, 0], [0, 0, 0, 0, 0, 0, 0, 0, 0], [-8.150109310438157, -7.799335771505393, -8.847211574603156, -8.37179169643271, 2.8977577402662824, -9.036525520392686, -8.826489730501002, 2.6333320180054063, 1.3114303157547715], [1.1811029818410121, -7.757551784708449, -7.806874746942166, -7.083283612484926, 1.245417211065266, -6.337014929335543, -7.082582938166806, 2.083465684585785, 1.4919555681938927], [-8.633302269795113, -8.731612945623175, -7.91971895274303, -8.492166152580452, 2.0527889869889453, -7.9616756959372665, -8.81683975393175, 2.7044294663314936, 2.581650605924625], [0, 0, 0, 0, 0, 0, 0, 0, 0], [0, 0, 0, 0, 0, 0, 0, 0, 0], [0, 0, 0, 0, 0, 0, 0, 0, 0], [0, 0, 0, 0, 0, 0, 0, 0, 0], [0, 0, 0, 0, 0, 0, 0, 0, 0], [0, 0, 0, 0, 0, 0, 0, 0, 0], [0, 0, 0, 0, 0, 0, 0, 0, 0], [0, 0, 0, 0, 0, 0, 0, 0, 0], [0, 0, 0, 0, 0, 0, 0, 0, 0], [0, 0, 0, 0, 0, 0, 0, 0, 0], [0, 0, 0, 0, 0, 0, 0, 0, 0], [0, 0, 0, 0, 0, 0, 0, 0, 0], [0, 0, 0, 0, 0, 0, 0, 0, 0], [0, 0, 0, 0, 0, 0, 0, 0, 0], [0, 0, 0, 0, 0, 0, 0, 0, 0], [0, 0, 0, 0, 0, 0, 0, 0, 0], [0, 0, 0, 0, 0, 0, 0, 0, 0], [0, 0, 0, 0, 0, 0, 0, 0, 0], [0, 0, 0, 0, 0, 0, 0, 0, 0], [0, 0, 0, 0, 0, 0, 0, 0, 0], [0, 0, 0, 0, 0, 0, 0, 0, 0], [0, 0, 0, 0, 0, 0, 0, 0, 0], [0, 0, 0, 0, 0, 0, 0, 0, 0], [0, 0, 0, 0, 0, 0, 0, 0, 0], [0, 0, 0, 0, 0, 0, 0, 0, 0], [0, 0, 0, 0, 0, 0, 0, 0, 0], [0, 0, 0, 0, 0, 0, 0, 0, 0], [0, 0, 0, 0, 0, 0, 0, 0, 0], [0, 0, 0, 0, 0, 0, 0, 0, 0], [0, 0, 0, 0, 0, 0, 0, 0, 0], [0, 0, 0, 0, 0, 0, 0, 0, 0], [0, 0, 0, 0, 0, 0, 0, 0, 0], [0, 0, 0, 0, 0, 0, 0, 0, 0], [0, 0, 0, 0, 0, 0, 0, 0, 0], [0, 0, 0, 0, 0, 0, 0, 0, 0], [0, 0, 0, 0, 0, 0, 0, 0, 0], [0, 0, 0, 0, 0, 0, 0, 0, 0], [0, 0, 0, 0, 0, 0, 0, 0, 0], [0, 0, 0, 0, 0, 0, 0, 0, 0], [0, 0, 0, 0, 0, 0, 0, 0, 0], [0, 0, 0, 0, 0, 0, 0, 0, 0], [0, 0, 0, 0, 0, 0, 0, 0, 0], [0, 0, 0, 0, 0, 0, 0, 0, 0], [0, 0, 0, 0, 0, 0, 0, 0, 0], [0, 0, 0, 0, 0, 0, 0, 0, 0], [0, 0, 0, 0, 0, 0, 0, 0, 0], [0, 0, 0, 0, 0, 0, 0, 0, 0], [0, 0, 0, 0, 0, 0, 0, 0, 0], [0, 0, 0, 0, 0, 0, 0, 0, 0], [0, 0, 0, 0, 0, 0, 0, 0, 0], [0, 0, 0, 0, 0, 0, 0, 0, 0], [0, 0, 0, 0, 0, 0, 0, 0, 0], [0, 0, 0, 0, 0, 0, 0, 0, 0], [0, 0, 0, 0, 0, 0, 0, 0, 0], [0, 0, 0, 0, 0, 0, 0, 0, 0], [0, 0, 0, 0, 0, 0, 0, 0, 0], [0, 0, 0, 0, 0, 0, 0, 0, 0], [0, 0, 0, 0, 0, 0, 0, 0, 0], [0, 0, 0, 0, 0, 0, 0, 0, 0], [0, 0, 0, 0, 0, 0, 0, 0, 0], [0, 0, 0, 0, 0, 0, 0, 0, 0], [0, 0, 0, 0, 0, 0, 0, 0, 0], [0, 0, 0, 0, 0, 0, 0, 0, 0], [-7.533169899660333, -9.43315042571783, 5.90229869977744, -9.000339663251115, -9.38934166166996, -9.365666061039096, -8.939262082750467, -2.878387052313022, 1.0877444600971693], [0, 0, 0, 0, 0, 0, 0, 0, 0], [0, 0, 0, 0, 0, 0, 0, 0, 0], [0, 0, 0, 0, 0, 0, 0, 0, 0], [0, 0, 0, 0, 0, 0, 0, 0, 0], [0, 0, 0, 0, 0, 0, 0, 0, 0], [0, 0, 0, 0, 0, 0, 0, 0, 0], [0, 0, 0, 0, 0, 0, 0, 0, 0], [0, 0, 0, 0, 0, 0, 0, 0, 0], [0, 0, 0, 0, 0, 0, 0, 0, 0], [0, 0, 0, 0, 0, 0, 0, 0, 0], [0, 0, 0, 0, 0, 0, 0, 0, 0], [-8.970505552652885, -1.176759352518854, -9.544412532966355, -8.64426098242846, -8.723109701241063, -8.758315364099406, -7.488591171041375, 2.8531315772513723, 1.3045499216293441], [0, 0, 0, 0, 0, 0, 0, 0, 0], [0, 0, 0, 0, 0, 0, 0, 0, 0], [0, 0, 0, 0, 0, 0, 0, 0, 0], [0.1827039169017135, -8.79783505926451, -7.5160674554006075, -8.754313101826607, -9.003754691113578, -8.437255035127624, -8.336592190959509, 2.6876957989185013, 2.336723685067721], [0, 0, 0, 0, 0, 0, 0, 0, 0], [0, 0, 0, 0, 0, 0, 0, 0, 0], [0, 0, 0, 0, 0, 0, 0, 0, 0], [0, 0, 0, 0, 0, 0, 0, 0, 0], [-7.547481613761029, 2.620756404308807, 2.222619929245811, 2.223926756556215, -8.323183870404966, -8.006500133986568, -7.990615700855384, 2.4213126312330484, -0.5201555261321562], [0, 0, 0, 0, 0, 0, 0, 0, 0], [0, 0, 0, 0, 0, 0, 0, 0, 0], [0, 0, 0, 0, 0, 0, 0, 0, 0], [0.6850649695501542, -7.736064713353066, 1.6728362610234069, 0.9742813255798911, -7.877952296428739, -7.85490683053741, -7.810157576585864, -0.5042391084010964, 2.0334092640806123], [0, 0, 0, 0, 0, 0, 0, 0, 0], [-7.108228282144816, -7.080190250321091, 0.9519162606804354, -0.7086025433358738, -7.690617119722562, -6.805207821505243, -7.590592978821081, 2.8845766807288635, 2.469577699128016], [0, 0, 0, 0, 0, 0, 0, 0, 0], [0, 0, 0, 0, 0, 0, 0, 0, 0], [0, 0, 0, 0, 0, 0, 0, 0, 0], [0, 0, 0, 0, 0, 0, 0, 0, 0], [0, 0, 0, 0, 0, 0, 0, 0, 0], [0, 0, 0, 0, 0, 0, 0, 0, 0], [0, 0, 0, 0, 0, 0, 0, 0, 0], [0, 0, 0, 0, 0, 0, 0, 0, 0], [-9.027434054070287, -8.685661416468475, -7.621885810221294, -2.4907330160995276, -7.5118247063055446, -7.597570636258903, -7.7624837417040204, -0.9436347275249946, -0.1870077037396367], [1.3444001344258196, 2.2550701588981075, -8.023042233374598, 2.3305616030154788, -8.06375987513891, -8.34331514543522, -8.026658818391791, 2.244381653812379, 1.7019055921920891], [0, 0, 0, 0, 0, 0, 0, 0, 0], [-7.639506914868923, -3.247479532073905, -7.774451889765426, -2.309597993790991, -7.09230033879224, -7.714710036566313, -7.761630623247774, 0.20970371705393975, -2.257872966419516], [0, 0, 0, 0, 0, 0, 0, 0, 0], [0, 0, 0, 0, 0, 0, 0, 0, 0], [-8.802086395485343, -8.797692152627715, -8.82076925905443, 2.884347498787371, -8.822570113419498, -8.341919085171998, -8.545637702226825, 2.228254861438259, -0.9182852641394157], [-1.9569596089958967, -7.776400545368217, -7.667224617917421, -1.8334247866448903, -7.958658248850291, -7.8272000923641905, -6.642636472828853, 1.6492762427354843, 0.8487479570737878], [-7.469275595976411, -7.906125318266012, -6.591361061600011, 3.131353264386136, -7.6412015125548685, -7.931201970861904, -7.66987841874813, -0.26616068035232243, -1.842961311539191], [0, 0, 0, 0, 0, 0, 0, 0, 0], [0, 0, 0, 0, 0, 0, 0, 0, 0], [0, 0, 0, 0, 0, 0, 0, 0, 0], [0, 0, 0, 0, 0, 0, 0, 0, 0], [0, 0, 0, 0, 0, 0, 0, 0, 0], [0, 0, 0, 0, 0, 0, 0, 0, 0], [0, 0, 0, 0, 0, 0, 0, 0, 0], [0, 0, 0, 0, 0, 0, 0, 0, 0], [0, 0, 0, 0, 0, 0, 0, 0, 0], [-9.687756167612996, -9.76011481967923, 0.19171849907497507, -9.819519374150413, -9.295517253003874, -9.682002083435243, -7.4598375571014754, -0.21441330258237423, 0.1917184998299465], [0, 0, 0, 0, 0, 0, 0, 0, 0], [0, 0, 0, 0, 0, 0, 0, 0, 0], [0, 0, 0, 0, 0, 0, 0, 0, 0], [0, 0, 0, 0, 0, 0, 0, 0, 0], [0, 0, 0, 0, 0, 0, 0, 0, 0], [0, 0, 0, 0, 0, 0, 0, 0, 0], [0, 0, 0, 0, 0, 0, 0, 0, 0], [0, 0, 0, 0, 0, 0, 0, 0, 0], [0, 0, 0, 0, 0, 0, 0, 0, 0], [0, 0, 0, 0, 0, 0, 0, 0, 0], [0, 0, 0, 0, 0, 0, 0, 0, 0], [-9.13018934420461, 0.19171849977793298, -9.760175837799787, -9.373055742184706, -9.306036029962794, -9.714657978362265, -9.76012060776819, 2.927188524371153, -1.0996339103535298], [0, 0, 0, 0, 0, 0, 0, 0, 0], [0, 0, 0, 0, 0, 0, 0, 0, 0], [0, 0, 0, 0, 0, 0, 0, 0, 0], [-0.3543982028988619, -8.95999031436671, -7.522151631479901, -7.488915685541785, -7.135753042047101, -9.70116529652579, -8.998652118458997, -0.571382860903817, 1.035275870088718], [0, 0, 0, 0, 0, 0, 0, 0, 0], [0, 0, 0, 0, 0, 0, 0, 0, 0], [3.1532970556832387, 2.4493920308235957, 3.5932834246358576, -7.968415148994495, -7.649890390137412, -7.9471861535979595, -7.911607903367875, 2.4772343745944396, 1.0925109577668692], [0, 0, 0, 0, 0, 0, 0, 0, 0], [-7.697086806375085, 1.0884961891633902, 2.8697374647697624, -7.0792922060374925, -7.699132563864514, -7.716837634709288, -7.767852723632226, -0.00010290853035455072, 4.828020289224767], [0, 0, 0, 0, 0, 0, 0, 0, 0], [0, 0, 0, 0, 0, 0, 0, 0, 0], [-8.938302986490289, -8.490391268886954, 4.63981855270721, -8.342145296376552, -8.838495234566423, -9.04019753839603, -8.845937653370385, 3.570623081519649, 0.1917184998336493], [1.2547159391123612, -7.603803779332832, 2.0026201966395933, -7.738740473850406, -7.778664401865312, -7.735821436122899, -7.6412472497727055, 3.329937892238766, 0.13964195230556475], [-8.807349536762853, -8.735024089932079, 2.3520943730176564, -8.700311983982687, -8.741146472137789, -8.70459572707341, -8.498085892643328, -0.2735802991992706, 1.4771245263905426], [0, 0, 0, 0, 0, 0, 0, 0, 0], [0, 0, 0, 0, 0, 0, 0, 0, 0], [0, 0, 0, 0, 0, 0, 0, 0, 0], [-7.275975382035654, 0.7781972269146415, -7.3121980753432965, -8.113111057391581, -7.4602104644927385, -7.603842444875729, -7.875244821801809, 3.456485655887734, -1.2298245502290497], [0, 0, 0, 0, 0, 0, 0, 0, 0], [0, 0, 0, 0, 0, 0, 0, 0, 0], [0, 0, 0, 0, 0, 0, 0, 0, 0], [-2.113198112925025, -7.527868555694718, -8.678976670451014, -8.692419645180667, -8.683583625719395, -7.546745859538683, -9.238096429888593, -1.1481671015836155, 0.15527593781988047], [0, 0, 0, 0, 0, 0, 0, 0, 0], [-7.256024932155113, -7.280294151246634, -7.205822667285325, -7.249151517828996, -7.40600613418577, -7.315130749452641, -7.275162920481663, -2.1521612592529396, 6.534745767596413], [3.47240796564405, 1.2467892015204467, -7.822862134742145, -8.07970484715515, -8.070080217529288, -7.8970161628758095, -7.8582513856663, 3.0228520762660605, 2.6209212596037483], [-7.864108037384929, 1.6310846541192738, -7.829060525037465, -8.852723581543845, -9.004903823455908, -8.281668381416816, -8.830899001094112, 3.8098856193684307, 1.945302697245854], [0, 0, 0, 0, 0, 0, 0, 0, 0], [3.746905209280486, -8.730951842564776, -8.772457753407675, -7.8605766000198605, -8.66872844447704, -8.805506481782903, -8.783575566529093, 2.2004697822340575, 0.7424902171039127], [0, 0, 0, 0, 0, 0, 0, 0, 0], [-8.68816292452904, -7.7366602136272835, -8.692103972607518, -8.818860559024245, -8.042694627327881, -8.05932257871619, -8.691667873086729, -2.6021177931112116, 3.2098465962142733], [0, 0, 0, 0, 0, 0, 0, 0, 0], [-8.659147588679716, -8.687416656364256, -7.98464726825124, -8.674878564643492, -7.983912263955113, -7.974316964047688, -7.822190499739338, 3.003897682250593, -2.187254108369707], [0, 0, 0, 0, 0, 0, 0, 0, 0], [2.588451060357132, 3.5971552165271983, 3.496927082893471, 2.4740856933230804, 3.0683824811363105, -6.932219680399632, -7.192522882578471, 2.927560391708589, 3.223502535907442], [0, 0, 0, 0, 0, 0, 0, 0, 0], [-7.777786467889641, 3.1877339317658366, 1.495989786746631, 2.405374808032347, 3.0674196951707327, -7.778011708522947, -7.77771432345369, 3.089679891081537, 2.9925881980625766], [0, 0, 0, 0, 0, 0, 0, 0, 0], [0, 0, 0, 0, 0, 0, 0, 0, 0], [-8.172561463420212, -7.990965057195794, 2.213544903017624, 2.7086534606379438, 1.9045256942998212, -7.433386422960973, -7.247206748069228, 2.222619926444354, 2.6546195687149785], [3.226102799740201, -7.777601986264962, 2.8364351840359543, 2.764778206709415, 2.8367653003889086, -7.780966459789411, -6.995322498667775, 3.775359622464579, 3.889288858062182], [-7.411645281070658, -7.372271034036067, 2.8767191917641606, 2.366478556887686, 3.2226636162785565, -7.592838368763767, -7.477643759805902, 1.252416773463095, -2.111762274662947], [0, 0, 0, 0, 0, 0, 0, 0, 0], [0, 0, 0, 0, 0, 0, 0, 0, 0], [0, 0, 0, 0, 0, 0, 0, 0, 0], [-7.743414006483963, 4.193354877411474, -7.453291572756909, 2.898344025157733, 2.2226199149756347, -7.639919165025092, -7.523967898445172, -1.818717433421824, 2.6478252986486424], [0, 0, 0, 0, 0, 0, 0, 0, 0], [0, 0, 0, 0, 0, 0, 0, 0, 0], [0, 0, 0, 0, 0, 0, 0, 0, 0], [3.010193825534875, -7.520570208622106, -7.391561098209745, -1.8477892200194588, 5.023036318358853, -7.564839893543141, -7.458532612628472, 3.384443358009216, 3.449038818637919], [0, 0, 0, 0, 0, 0, 0, 0, 0], [-7.219453291084513, -7.406657148084516, -7.144558895582291, 0.5734598946001354, 5.929953936350155, -7.182881415690949, -7.213267195835803, 2.5048949379258905, 2.5233640143883855], [-1.8686085878231506, 0.709242158223935, -7.777756004848534, -1.9441432200700037, 3.3535780585545885, -7.547273205149827, -7.778403809056417, 3.5383898499827406, 3.063539751813863], [-7.530321461721776, 2.7280569783601276, -7.17275537611207, 2.2226199291706576, 4.741544433733937, -8.071526756447241, -7.53698039961821, 1.3811565773820953, 0.1917184652965408], [0, 0, 0, 0, 0, 0, 0, 0, 0], [3.0495322159766474, -7.941750585307858, -8.045446406748642, 3.716433159286027, 2.984746135135774, -8.030372942360353, -8.430452298651506, 2.6349732329947644, -0.9747015311845335], [0, 0, 0, 0, 0, 0, 0, 0, 0], [-7.8119119222891005, -7.792305115313939, -7.886364651005094, 1.8362235366075157, 2.5559618203145584, -7.912491015241424, -7.812178701698654, 1.6715232537130134, 2.9925334278167703], [0, 0, 0, 0, 0, 0, 0, 0, 0], [-7.712020910597356, -8.250043486155828, -7.411400941664373, 6.498833288412253, 1.4355939192095388, -7.185181851098704, -7.272800918030735, 1.5860718140885828, 2.436192392461768], [0, 0, 0, 0, 0, 0, 0, 0, 0], [0, 0, 0, 0, 0, 0, 0, 0, 0], [0, 0, 0, 0, 0, 0, 0, 0, 0], [-8.18005293704908, 3.4928469232141426, 2.2226199292434647, -7.732102736255143, 2.4538288231071643, -7.973494232820936, -7.916180040484848, 2.3092275366984047, 1.4465837635343046], [0, 0, 0, 0, 0, 0, 0, 0, 0], [0, 0, 0, 0, 0, 0, 0, 0, 0], [0, 0, 0, 0, 0, 0, 0, 0, 0], [3.0569430982326056, -7.575979649046857, -1.6969064488661871, -7.593336373968488, 0.43061622050588766, -7.543302944698591, -7.370321529941754, -2.516275596989036, -3.270077904779289], [0, 0, 0, 0, 0, 0, 0, 0, 0], [-7.928817288841584, -8.257123416015064, 1.8894915017010125, -8.080250040536566, 4.1674443061878375, -6.39091193508841, -8.266708570464125, 3.7369194746482135, 4.198351027215162], [0, 0, 0, 0, 0, 0, 0, 0, 0], [0, 0, 0, 0, 0, 0, 0, 0, 0], [0, 0, 0, 0, 0, 0, 0, 0, 0], [0, 0, 0, 0, 0, 0, 0, 0, 0], [0, 0, 0, 0, 0, 0, 0, 0, 0], [0, 0, 0, 0, 0, 0, 0, 0, 0], [0, 0, 0, 0, 0, 0, 0, 0, 0], [0, 0, 0, 0, 0, 0, 0, 0, 0], [-7.62557188878744, -8.053883523451416, -7.407684521176972, -8.188301919001383, -0.26357346604375675, -7.491260807183094, -7.54818473079268, 5.244503571921062, -2.1874074460300563], [2.7776723970728456, 0.028554698179060978, -7.59756107645723, -7.559609840042239, -2.0408916545834384, -7.531084860618559, -7.576687568227888, 2.8104009247173876, 6.447275318624872], [0, 0, 0, 0, 0, 0, 0, 0, 0], [-7.931829433940907, -1.9077932643356408, -7.8078128508511675, -7.9766962919666025, -0.9658003670681797, -7.784472221056644, -7.84225678239682, 3.3798882989981283, -1.61928224810661], [0, 0, 0, 0, 0, 0, 0, 0, 0], [0, 0, 0, 0, 0, 0, 0, 0, 0], [-7.365455250038131, -8.844254329505715, -8.817166637830713, -8.781367536259571, 2.6431446095264732, -8.813429112252194, -8.600960694996104, 3.116801735075629, 0.9969983114812906], [3.5374827716737407, -6.974034524615937, -6.815705409741787, -6.974021685351997, 2.469577699164413, -7.227724887012623, -7.237559481486486, -0.2951483351659123, 3.713122231884325], [0, 0, 0, 0, 0, 0, 0, 0, 0], [0, 0, 0, 0, 0, 0, 0, 0, 0], [-1.9870802658163016, -1.980677011325446, 0.8132809769019553, -7.405010812338118, 2.7229857159242874, -7.087842677965654, -7.416713624063261, 1.3720496475915076, -2.097732684933013], [-6.01783152194837, 1.087963486042497, 2.2877536321111194, -7.952680450789101, 6.356637101768423, -7.919041864603598, -7.96977008066319, 2.3460987624633516, 2.3981732983081048], [0, 0, 0, 0, 0, 0, 0, 0, 0], [2.6179833259137695, -8.470914424396396, 2.7684487920662475, -8.05477431003405, -0.512889264365838, -7.955615404314488, -7.981325842769589, 2.2979518640693852, 0.757886679796257], [0, 0, 0, 0, 0, 0, 0, 0, 0], [-6.805505313036715, -7.427810480419212, -2.28305495598426, -7.850825713913069, 2.37477803009703, -7.192696470470663, -7.737842017084908, -2.089901576101309, 2.3039206931891254], [0, 0, 0, 0, 0, 0, 0, 0, 0], [-8.024023291358041, -8.55055258855761, 1.716942568085942, -8.173764827035505, 2.4695776894131116, -7.770400825509306, -7.80120046482675, -2.132630117313844, -1.5973992574484566], [0, 0, 0, 0, 0, 0, 0, 0, 0], [4.190952352363325, -1.736884793928029, -7.914117653276387, -7.451423758234345, 0.1916854730765989, -7.224790326957086, -7.862306309600588, -1.715689592734478, 1.9477273791432128], [0, 0, 0, 0, 0, 0, 0, 0, 0], [-7.314384921826337, 1.6706178820551736, -7.262136625236712, -7.342600071673062, 3.0482258344321513, -6.8405952193664366, -7.245927838087358, 2.5231882347528987, 1.3447086316992587], [0, 0, 0, 0, 0, 0, 0, 0, 0], [0, 0, 0, 0, 0, 0, 0, 0, 0], [-8.260004524880802, -9.12606414706644, -9.171308731496417, -8.372435747369305, -0.9554896087498252, -9.013019892986549, -7.5498432760280885, -1.9058653319454417, 3.750882779274851], [2.46957769916326, -7.1127380397811795, -7.108613531434649, -7.359713265882127, 3.0870901897509047, -7.590201603081443, -7.602181437622984, 4.141312131015509, 1.252887197061069], [-8.69952427246044, -8.102362221420389, -8.660395034571275, -7.539972017130814, 6.15488846086464, -7.529486937699635, -7.522739898052631, -1.7028685021040466, 0.6536964662470134], [0, 0, 0, 0, 0, 0, 0, 0, 0], [0, 0, 0, 0, 0, 0, 0, 0, 0], [-7.4280686875321, 2.9321967248309604, -7.770499344714622, -7.925716387650396, 3.636543375224409, -7.4349585811860575, -7.6147731271785, 0.30873924698630284, 4.152943944844878], [0, 0, 0, 0, 0, 0, 0, 0, 0], [0.17223571075340643, -7.078604774240668, -7.532915286431668, -7.320412607738576, 2.3478111107622417, -8.543022926282516, -7.834187589137111, 5.036751848977353, 2.5305349392860617], [-9.800748183917896, -8.599475421194231, -9.76773121407463, -9.771350206037258, 5.939287881555381, -9.795820628982796, -7.4492795524971, 0.1526945851565814, -0.40731936027724935], [0, 0, 0, 0, 0, 0, 0, 0, 0], [0, 0, 0, 0, 0, 0, 0, 0, 0], [0, 0, 0, 0, 0, 0, 0, 0, 0], [0, 0, 0, 0, 0, 0, 0, 0, 0], [0, 0, 0, 0, 0, 0, 0, 0, 0], [0, 0, 0, 0, 0, 0, 0, 0, 0], [-7.163974358989953, -1.8566922573217304, 2.526323478779851, 2.784296383748921, -7.799559339238629, -7.539167474148597, -7.484546657589863, 3.1184825154066784, 1.6978433099501997], [0, 0, 0, 0, 0, 0, 0, 0, 0], [0, 0, 0, 0, 0, 0, 0, 0, 0], [0, 0, 0, 0, 0, 0, 0, 0, 0], [1.63082880964385, -7.7293462013484735, 1.9327637343656132, -1.9613304344887734, -7.954020382963705, -7.656243985987861, -7.274123601910185, -1.9054875522900143, 0.7016673973640462], [0, 0, 0, 0, 0, 0, 0, 0, 0], [-7.177726831159771, -7.401010784698947, 6.167242542039476, -0.46962243303665074, -5.737429937067342, -4.888929302771976, -7.3224770926980725, -2.1310597886205036, 1.4700777149245043], [0, 0, 0, 0, 0, 0, 0, 0, 0], [0, 0, 0, 0, 0, 0, 0, 0, 0], [0, 0, 0, 0, 0, 0, 0, 0, 0], [0, 0, 0, 0, 0, 0, 0, 0, 0], [0, 0, 0, 0, 0, 0, 0, 0, 0], [0, 0, 0, 0, 0, 0, 0, 0, 0], [0, 0, 0, 0, 0, 0, 0, 0, 0], [0, 0, 0, 0, 0, 0, 0, 0, 0], [0, 0, 0, 0, 0, 0, 0, 0, 0], [2.0684460646734424, 3.200422713637439, -7.95468277415344, 3.6396633429765455, -7.4170185887436775, -7.749440390255173, -8.370139012857418, 2.37440864480139, 